1686 100
KKA -0.15543675 -0.37713796 -0.12936689 0.21652344 -0.07214235 -0.25629225 0.17695577 0.2172302 0.0054769134 0.122145176 -0.21313556 -0.005469648 0.079573624 0.12217372 -0.13173231 -0.5058292 0.04553445 0.029379888 0.00039616143 -0.07294521 -0.22057645 0.0031121727 -0.23623115 -0.106690176 -0.029750153 0.0025556183 0.2470703 0.092658795 -0.44643465 0.18529172 0.34735572 0.17403007 0.5280011 -0.18966246 -0.20227973 0.17838207 0.29155916 -0.24047253 -0.29860565 -0.195612 0.10501105 -0.22019872 0.31533018 0.055861466 0.22235745 0.13208842 -0.315261 -0.055294912 -0.025219 0.26460865 0.07974837 -0.35969356 0.31638363 -0.2869344 0.16705258 -0.0403513 0.3275662 -0.35646036 0.076860435 0.37512916 -0.041898396 0.020066421 -0.31795684 -0.32075995 0.020052893 0.028617881 0.38054 0.5319229 -0.24804446 0.353445 0.18503508 0.12082047 0.059464183 -0.16256319 -0.04115066 -0.077319704 -0.13935143 0.17931369 0.16521318 0.025616676 -0.07357599 -0.16621345 -0.37259963 -0.2910425 -0.2562928 0.2812173 0.0066343676 0.41749004 -0.18956713 0.23832875 -0.058010027 0.010520688 -0.19956172 -0.43911695 0.2165827 0.20846963 -0.037867185 0.36996856 0.05727164 -0.012862477
KAE -0.015283312 -0.09790411 -0.19185053 -0.28204504 -0.18199301 -0.1849121 -0.035106245 0.30889153 0.056669075 -0.1407524 -0.17929955 -0.23161273 -0.44104034 -0.03900436 -0.244643 -0.11179069 0.078093655 0.4039404 -0.2585244 -0.18737574 0.32761577 0.0674496 -0.0036078265 0.039135758 0.21682034 -0.2800699 0.31462246 -0.22683458 0.073366754 0.12752286 0.74239165 -0.11214845 -0.12231675 -0.39912564 0.059365757 0.25547862 0.15499575 -0.17086115 -0.23541664 0.12219671 -0.09913307 -0.05524572 0.099784195 -0.046108693 0.27931726 0.1857525 0.09875993 -0.04189437 -0.042495217 -0.015123471 0.14585806 -0.110112414 0.23037595 -0.1872793 -0.13581005 0.04589849 0.34676242 -0.01614991 -0.37245712 0.26320454 0.21979107 0.123418815 -0.23920831 -0.1361143 0.30383244 0.037291195 0.52819914 0.21816276 0.06389605 0.30586436 0.065631725 0.21390624 -0.14667962 -0.07706053 0.11819622 -0.3002264 0.029793775 0.39176968 -0.15964139 -0.038763 0.20797078 -0.26394254 -0.06739657 0.12687166 -0.48286375 0.09409365 0.23347181 -0.08987872 -0.018680977 0.08676509 -0.13125865 -0.06304324 -0.31423864 -0.17459258 0.05060721 0.28376064 -0.228473 0.040041704 0.076324224 -0.253724
AEL -0.17149842 0.11079734 0.17407444 0.48897818 0.022589454 0.18918605 0.16905577 0.60528535 -0.13232636 0.23002407 -0.05387198 -0.4566092 -0.112164326 -0.226121 0.24412946 -0.17046764 -0.0046490333 -0.16323115 0.050583486 -0.009741864 0.23184888 -0.27354774 0.12512705 0.49514535 -0.19625722 -0.28319433 0.32327828 -0.015174859 0.04049895 0.33720142 0.048388697 0.25744444 -0.14831972 0.22184543 -0.21701787 0.3720414 0.10930379 -0.23608522 -0.74977005 -0.14076507 -0.27995414 -0.14358427 0.07300526 -0.051769894 0.04024131 0.35854137 -0.24143514 0.27845475 0.27799854 0.5406836 0.016772494 0.3083644 0.6171408 0.101630144 -0.018252367 -0.21128066 -0.29174107 0.16232525 -0.5776208 0.35322544 0.17377585 0.12238314 0.121081464 -0.49837962 -0.019801177 0.0804073 -0.18450274 0.5732157 -0.29169032 -0.32182702 -0.11957437 0.12346093 -0.47007218 0.1164931 0.18867035 0.29745448 0.14408465 -0.10279525 -0.13633385 -0.067809545 -0.2966199 0.28584617 -0.42855746 -0.20619126 -0.36609343 -0.36277717 0.19410412 -0.19667353 0.8220109 0.18717217 0.25582156 -0.062115647 0.053968497 0.043544717 -0.05718811 -0.08099916 0.12010898 -0.27146816 0.42158672 -0.39827695
AKK 0.06338935 -0.021458004 0.10551158 -0.14439726 -0.05154567 -0.35039732 -0.12207074 0.1433621 0.24118268 -0.24980107 -0.3935909 -0.09664506 -0.4215369 -0.15086278 0.24885607 0.071763426 0.17644875 -0.35485083 -0.04181871 0.17695977 0.31519714 -0.23435149 0.29293638 0.21489008 -0.048137017 0.12263798 0.06302158 0.07210895 -0.1296708 0.2227369 0.20338407 -0.18931629 -0.052847017 -0.11217949 0.19432753 0.15241879 -0.020981008 -0.15319811 -0.16059501 -0.042560082 0.15072691 -0.3530436 0.43636385 -0.089688756 -0.05885593 0.19713682 0.025396774 -0.33804724 0.2174629 0.024530554 0.33591735 0.27404594 -0.014094208 -0.3125906 -0.096751876 -0.1403575 0.15537858 0.29805523 -0.2996605 0.24122994 0.01874934 0.15377074 -0.19645637 -0.18635628 0.14895104 -0.4593192 0.37197417 -0.19391024 -0.4339247 0.006472724 0.21630669 -0.2035278 0.54683524 0.19405596 -0.16688612 -0.11806328 -0.1553182 0.15254341 0.11642536 -0.046451658 0.12021787 0.15170296 -0.43134513 -0.45730156 -0.010395711 0.22391525 0.08075035 0.01799838 0.04356808 -0.15980996 0.48126733 0.39685398 0.08775008 0.05961223 0.40521252 -0.19752783 -0.10402677 -0.21254407 0.23735511 -0.10593199
LEK -0.13217029 0.09914402 -0.32332847 0.67206645 0.023465317 0.13967149 0.32926595 0.5393076 0.48595133 0.15867937 -0.41919896 -0.6717547 0.056975897 0.11890023 0.5636708 0.053287618 0.0663743 0.14271234 0.34680274 -0.09622528 0.3536261 0.06875311 -0.18840264 0.2090834 0.008641971 -0.3858691 0.15350534 -0.025592044 -0.12305057 0.0023480628 0.46540028 0.2211375 -0.08010136 0.3182223 -0.16116418 0.1791179 0.52010006 -0.70355886 -0.6523376 -0.2097497 -0.3431843 0.030613689 -0.25378907 0.10447919 -0.1186473 0.66027 0.10655864 0.28596425 0.10529258 -0.10270633 0.10272996 0.14536154 0.41828808 -0.30105394 0.10250494 -0.08490686 0.40832144 -0.11333961 -0.52588993 0.14907037 0.25242996 0.15355666 -0.15556285 -0.45927653 0.17579238 0.020940032 0.030510094 0.12966946 -0.3333048 0.037756234 -0.38159257 -0.08480409 -0.29135078 -0.05172657 0.3428025 0.38246238 0.23756978 0.2757688 -0.5502266 0.21743856 -0.16858873 0.26733252 -0.30368456 -0.20436603 -0.093426645 0.081335 0.30452877 -0.021819185 0.48594725 0.44676694 0.20209569 -0.06066009 -0.13960633 -0.06303458 -0.090473 0.28508586 0.26751852 -0.06330623 0.598728 -0.22521658
EEA 0.084641844 -0.33157247 -0.14461575 0.37674895 -0.10585927 -0.045345254 -0.13699134 0.22922853 0.014022759 -0.42905393 -0.13658006 0.15590182 0.09270891 0.059888855 -0.12502605 -0.22370052 0.27642974 0.05059025 0.2863759 -0.17186981 -0.19482386 -0.15412512 0.23792888 0.011945067 -0.010654906 0.48808944 0.33519584 -0.43879348 -0.48337924 0.043786593 0.3248637 -0.096758835 0.41064924 -0.18360476 -0.21245342 0.103490315 0.13133551 -0.1608309 0.17148143 0.04918685 0.004195829 -0.03227045 -0.22283626 0.018607292 -0.02032005 -0.17261322 0.110880174 0.059217237 0.0045021283 0.17916413 0.10454948 -0.19655989 -0.100612655 -0.010087865 -0.39958513 0.29209492 0.2367081 -0.0098537775 -0.35536927 0.05668298 -0.18021867 0.12836882 0.07771445 -0.10395421 0.026067851 -0.092095904 -0.22246581 -0.019424982 -0.19436657 0.26229158 0.17845207 0.054464426 -0.14255223 0.1463223 0.3821835 -0.31270227 -0.2689233 0.40936306 -0.05613142 0.28044665 0.065863654 0.13975567 -0.015145652 -0.3296758 -0.19221804 -0.06488682 0.1211349 0.056266014 -0.20281397 0.017577374 0.15063287 -0.00663916 0.0758605 0.072483 0.34178054 -0.16791557 -0.19685228 0.05762724 -0.09509512 -0.32323772
EAK 0.12661585 0.16782652 -0.084936686 0.018586723 -0.32211548 -0.24020974 0.23185235 0.035195492 0.20374203 -0.22086616 0.1237313 -0.27614498 -0.31574404 -0.32179257 0.092010975 -0.2612087 0.23115419 0.11924749 -0.16154344 0.27659974 -0.1232714 -0.04252627 0.3999991 0.13690482 -0.03935011 -0.16584295 -0.0054975324 0.1052293 0.14371039 -0.11552006 0.43587178 -0.0077229696 0.090298176 -0.40935454 0.24921195 0.5149802 0.1479926 -0.106106915 -0.08337306 -0.27875647 0.17062302 -0.1651704 -0.056502935 -0.11506397 -0.14065392 0.20485656 0.04641581 -0.1699537 -0.11312226 0.015607884 -0.00029477512 -0.1036733 -0.22560062 -0.14379235 -0.010647666 -0.10633352 0.038423695 0.25551456 0.024221798 0.35606098 0.15118234 0.074739136 -0.21917857 0.059579063 -0.074734315 -0.12372671 0.073334515 -0.14139004 -0.060161162 0.29697627 -0.2204089 0.00080401835 -0.09562076 -0.02565376 0.15004154 -0.49459893 -0.25718203 0.29787982 -0.10013178 0.10802193 0.01244206 0.29685432 0.07421562 0.15851453 -0.4609424 -0.14958152 0.28600112 -0.0031705403 -0.16313685 -0.033458352 0.39319852 -0.16387732 0.0071134195 -0.056083445 0.39265323 0.06988531 -0.30738178 -0.2885953 -0.14056449 -0.64651275
ELE 0.15307228 -0.06565546 0.24973467 0.28306544 -0.08853049 -0.02404536 0.16196097 0.55236274 0.23634455 0.23843452 0.2533978 -0.47741294 -0.07306175 0.032024622 0.04174395 -0.44380143 -0.36162746 0.23993723 0.08172872 -0.5089929 -0.052111927 -0.16832176 0.34079376 -0.14038295 -0.42409167 -0.4317804 0.27147678 0.10821899 0.21389148 0.6011198 0.43090463 0.1847562 -0.166673 -0.02383077 -0.24522766 0.2907533 0.19065556 -0.042208564 -0.45028487 -0.33483425 -0.37142798 -0.19590361 0.0040953113 -0.03359765 -0.09192634 0.011740557 -0.42959276 -0.20556815 -0.098270305 0.22949737 -0.51443636 0.24888854 0.50982165 -0.33978656 0.058773182 -0.13632953 -0.5016743 -0.08002789 -0.37026784 0.37326425 -0.0547197 -0.0041650706 0.10865098 -0.28348142 -0.17582323 0.5876564 -0.08075295 0.84094656 -0.20897187 -0.08338875 0.29699102 0.241043 -0.21945643 0.24298337 0.22102726 -0.037051026 0.00777132 0.25904384 -0.3233885 0.21799208 -0.17004724 0.08596251 -0.27279136 0.32245898 -0.11601869 -0.17916575 0.4606266 0.0023248254 0.3535783 0.315754 0.2680221 -0.29013267 -0.4580792 0.38980502 0.0147479 0.3466242 0.043671485 0.02298006 0.0763518 -0.3515849
EAE 0.010217399 0.0010389503 -0.057388466 0.07233715 -0.33750588 -0.43632686 -0.352175 1.1409382 -0.2922755 0.37078255 -0.2684629 -0.009433505 -0.5211544 0.474918 0.12567087 -0.20858812 0.010246319 0.3267468 0.014825209 -0.4187566 0.16192088 -0.5846052 0.119926415 -0.63621193 -0.011065363 -0.41155356 -0.094268665 0.031437535 -0.36143023 -0.022429349 0.12167843 0.046347987 -0.26583308 0.38254276 -0.122726426 -0.064243086 -0.19663456 -0.7222072 0.22847117 -0.25185028 0.046469852 -0.053847175 -0.19444726 -0.022532359 -0.14567392 0.44804767 -0.20953228 -0.0050027305 0.26832128 -0.00720396 0.062326126 0.122846 0.2907215 -0.39085895 -0.22203216 0.10891582 -0.0027461143 0.2571043 -0.0769716 0.1561427 0.10950485 -0.2732294 -0.6278248 -0.6089122 -0.37763306 0.032428864 -0.317993 0.4214155 -0.10112803 -0.1157398 0.331962 0.26006427 0.25656363 -0.0073641427 -0.2233732 -0.41794536 0.06815801 0.15622488 0.33087665 0.19561967 -0.096485145 0.14780492 -0.2517213 -0.046287753 -0.1894655 -0.41222614 0.16484778 0.02983758 0.12290974 -0.39796013 0.28447092 0.295641 -0.09744905 -0.06712113 -0.3821401 -0.034598224 0.0951731 -0.33516684 0.016834415 -0.89837927
AEE -0.24429512 -0.010144883 -0.19678399 0.2791024 0.02000847 -0.48289725 0.35075673 0.0768782 0.26038313 -0.20692942 0.0800566 -0.404683 -0.42283142 -0.23556882 0.18375432 -0.1759194 0.2157583 -0.49958473 -0.21166731 -0.13109085 -0.020613004 -0.1473806 0.2816996 0.36695746 -0.2632399 -0.012476971 -0.046214968 0.33245948 -0.106291525 0.18088622 -0.002514128 0.1988792 -0.19355848 0.20924552 0.1274545 0.4235207 -0.044439785 -0.08300139 -0.31636402 0.27178532 0.063495286 0.15274815 -0.48120517 -0.20511788 -0.20980397 -0.26499403 0.025234522 -0.019229608 0.25400338 0.27439693 0.036421154 0.2947898 -0.41960973 -0.0114125265 0.21408471 -0.03548107 -0.08706344 -0.2092959 -0.31796336 0.564366 -0.2756102 -0.11394738 0.268097 0.0003649063 -0.23630232 0.26939315 0.3599513 0.022258334 -0.33444217 -0.03428077 -0.18063928 -0.048755452 0.29406723 -0.11206077 0.06930904 -0.2884692 -0.18079281 0.013250996 0.05651154 -0.12344129 0.052988857 -0.10791108 -0.16534556 -0.055941347 -0.06133626 -0.29836535 0.42137313 0.3772458 0.20695697 0.1033669 0.29798397 -0.014889729 0.2591744 0.3128863 0.030551637 0.14403193 -0.16452666 -0.30770034 0.425853 -0.566975
AEK -0.40501356 -0.41751033 0.38698506 -0.37781727 -0.09988943 -0.23037383 0.2036787 -0.103961565 -0.2504311 0.11671306 0.21415536 0.15452737 -0.11178025 0.3802545 -0.01877999 0.16648547 -0.2294162 0.18576989 -0.011787608 -0.29582918 -0.06278084 0.19284762 -0.114103116 -0.48893744 0.33706486 -0.0046838056 -0.3714143 -0.37060183 0.31184146 0.399284 0.05317331 0.042128228 -0.05422889 0.17489578 0.036243 0.25754994 0.14178914 -0.06929707 0.16649647 -0.3742101 -0.11197896 -0.1592283 -0.4771225 0.2532051 0.28970852 -0.033405405 -0.10783535 0.037810132 -0.16428775 0.38479808 0.23485474 -0.064303406 0.11744555 -0.6108904 0.20186442 0.24111809 -0.12672424 -0.5087101 -0.047258276 0.5790351 0.17562327 0.008930471 0.10173997 0.2615851 -0.3985717 -0.020737126 0.17747977 0.331538 0.22782329 -0.21340583 0.17630793 -0.060581394 -0.00910227 -0.20808776 0.092667036 -0.5374965 -0.21322232 0.25203338 -0.46461758 0.04595524 0.4550263 0.3583155 -0.16272977 0.1487337 -0.112680405 0.04964934 0.091295384 0.08276927 0.034180928 -0.20517655 0.19346015 0.24315146 -0.28981388 -0.11705656 0.13881947 0.2953932 -0.10826273 0.23185778 0.034456383 -0.7310207
ELD -0.13115017 -0.5507168 -0.089117095 0.83329785 0.0765338 -0.1620991 -0.1354627 0.32595083 0.08169319 0.4406569 -0.4462264 -0.57533616 0.2806261 -0.06646099 0.27751306 0.065587826 0.0132179605 0.13088803 0.2934909 -0.090541564 0.1291524 0.2914976 -0.26765135 0.4378822 -0.062650084 0.46306178 0.77259195 -0.027071139 0.1901665 0.21969835 0.6519175 0.2770278 -0.034840398 -0.073973484 -0.5028263 -0.22182591 0.40575388 -0.39908522 -1.1687225 -0.6124147 0.03551026 -0.1327096 -0.082912706 -0.5148209 -0.20126113 0.41635022 0.18527314 0.196988 0.07327812 0.64493054 0.22268398 -0.23986095 0.6953103 0.22648954 -0.37429056 -0.026361557 -0.42953846 -0.0792867 -0.29117948 0.07288966 0.4433352 0.31487036 -0.0138868885 -1.1211076 -0.13714586 0.12264164 -0.0077814846 0.9392989 -0.18520167 -0.076384425 0.3060948 0.61517435 -0.1069113 -0.19129568 0.38559127 0.27070606 0.28786337 0.5894831 -0.020442318 0.25516707 -0.0783942 -0.27386424 -0.25411284 0.06342979 0.40387622 -0.04396564 -0.01193162 -0.22998752 0.22741938 -0.38157967 0.5814156 -0.026648253 -0.2323611 -0.24448095 0.017727133 -0.11596617 0.2320124 -0.26724157 -0.19447981 -0.48761752
KKK -0.10373042 -0.3475174 0.14701727 -0.39828762 -0.0063286754 0.23405987 -0.16758269 -0.17798586 0.15242545 0.07501079 -0.30346435 -0.2875416 -0.41565335 0.1796205 0.16312438 0.08975847 0.28441614 -0.30047458 -0.193616 -0.43767765 0.27774078 0.045055956 -0.42700782 -0.086437955 0.20831475 0.21566032 -0.22078289 0.01022337 0.100023724 0.32676 0.31984076 -0.21588069 -0.11189311 -0.49200365 -0.0055548633 0.4018256 0.08848859 -0.017591942 -0.17270549 -0.07491858 -0.37311822 0.3430778 0.23896843 -0.0006348995 -0.21222822 -0.08939361 0.18079162 -0.11796286 0.1789541 0.19244276 0.17576154 0.05077777 -0.185058 0.10259947 -0.094847456 0.10711529 -0.4268686 -0.21217234 -0.11997303 0.2629257 -0.656771 -0.17782526 0.3952403 0.102383986 -0.26178518 -0.21434604 0.13596341 -0.10536689 -0.20284447 0.44708914 0.22864103 -0.016802732 0.0076877144 -0.17162706 0.014536446 -0.018103132 -0.2732632 0.19383505 -0.11053146 0.283066 0.25756803 -0.10599039 -0.104096375 -0.15170605 -0.089392275 -0.17075056 0.39357334 0.30663708 -0.123067774 -0.09958183 0.19516231 0.30205205 -0.025791485 0.2194739 0.22968331 0.17644717 -0.079842605 -0.5082818 0.50005376 -0.64801747
AEA -0.15948169 -0.110563524 0.14561117 0.24971867 -0.319128 -0.22756478 0.641288 0.32045496 0.22605743 0.2662105 -0.45822945 0.48861593 -0.14004926 0.35353592 -0.0047285496 -0.49343842 0.15061264 0.037558448 -0.056470495 -0.0065598935 -0.0006872389 -0.09564585 -0.37514016 -0.6730192 -0.14473139 -0.031035388 0.056907017 -0.35129592 -0.28440848 0.13036208 0.30360064 0.271933 0.5104249 -0.37246504 0.017922781 0.41553864 0.3479875 -0.32503167 -0.13496073 -0.09648721 0.048048887 0.12460405 0.6323621 -0.31291077 0.19845787 0.2495801 -0.21103351 -0.09138513 -0.14102137 -0.13298523 0.63124263 0.21980943 0.51106864 -0.23944253 -0.19773166 0.19619933 -0.1457148 0.05733155 0.04936899 -0.15653473 -0.22714457 -0.4453741 0.22961219 -0.0755927 -0.18455757 -0.21776102 0.46566805 0.57782274 0.1917832 0.056158952 0.10702868 0.34499928 0.027128814 -0.1674799 0.6799363 -0.061298475 0.545362 0.265512 -0.1007314 -0.07788902 0.19712818 -0.2556794 -0.4923761 0.16348003 0.13075663 -0.23367085 0.52553815 0.17443168 0.0058834706 -0.09837216 0.040351924 -0.14537604 0.2880958 -0.09406638 0.3033041 -0.038922805 -0.46024624 -0.21544193 0.30248767 -0.253701
QKK 0.31016645 -0.35489553 -0.18520199 -0.42662865 0.29376242 -0.18920416 -0.32492313 -0.1975547 0.09633849 -0.29767656 -0.26917884 0.14951229 -0.22188045 -0.30039477 -0.60551727 -0.28397995 0.03165236 0.188762 0.0555008 0.05722235 0.07723377 -0.20030072 -0.091493145 -0.013088044 -0.05271161 0.14269137 -0.0036932153 -0.5308112 -0.29749465 0.04860866 -0.08932849 -0.36301705 0.1944736 -0.30197072 0.058351737 0.6795597 0.027995113 0.26971167 -0.14655088 -0.086232185 -0.0077536167 0.283506 0.14391322 0.16658774 0.31376046 0.13104466 -0.31574383 -0.41424522 0.15766193 -0.18623519 0.2199112 -0.24567994 -0.7654108 -0.6023658 -0.6012158 0.46183002 0.5133155 -0.061346367 -0.35250401 0.19931799 0.17905664 0.030383654 -0.27094388 0.08343558 0.4056775 0.023253154 -0.058325123 0.123856775 -0.26010007 0.55367744 0.45832735 -0.2695634 0.16079712 0.25199664 0.059923187 -0.49657354 -0.7314593 0.40671483 0.22977665 -0.10908431 -0.015953239 0.28648657 -0.13462119 -0.8734579 0.14798488 0.26651552 -0.38287327 0.15188302 -0.28998932 0.0026342943 0.43008098 0.21760654 0.34311277 0.04749447 0.8490643 0.2897233 -0.44363958 -0.31208637 0.106034525 -0.01598234
KAK 0.1387739 -0.24597389 -0.27332175 -0.50945693 -0.13334511 -0.092451625 0.37866735 -0.06397973 -0.09578662 0.303541 -0.11775801 0.092324 -0.3934763 -0.24645102 -0.061261874 -0.7607515 -0.2626674 -0.08679906 0.120359294 0.12250766 -0.2713511 -0.012653137 -0.027582802 -0.09024941 0.16485682 -0.19043691 0.11469961 -0.42002693 -0.1653704 -0.09595832 -0.08691565 -0.3249216 0.21555965 -0.18881796 -0.01857449 0.6199521 0.07035263 -0.2279432 -0.21824649 -0.3848627 0.15214333 -0.16695581 -0.18620382 0.0001905897 0.31426862 -0.18074298 -0.2885573 0.17578067 0.19857661 -0.26637873 0.31080428 -0.2555671 0.27263448 -0.2439058 -0.71272624 0.56750274 -0.21161981 -0.55565363 0.046120595 -0.10287063 -0.103264764 0.28563336 0.47051376 -0.09767982 0.29153255 0.023350837 -0.10493487 0.030294321 -0.34458855 0.27711183 0.16005902 0.13148719 -0.13688488 0.14020737 -0.344623 -0.23182625 -0.36314836 0.21363676 -0.027173119 0.14104064 0.41026103 0.64071995 -0.12459723 -0.4611666 -0.092201 0.1838139 -0.36849234 -0.010532924 -0.0030179191 0.38341385 0.5621201 0.27240518 0.10174286 -0.3212454 0.067960806 0.14788362 0.021335216 -0.1555361 -0.0012551892 -0.47781587
AKA 0.19479567 0.009455691 -0.7184447 0.20544115 0.6585418 -0.52722085 0.2305322 -0.12419851 0.45984763 -0.6371558 -0.115188606 -0.40420446 -0.7822666 -0.0013211411 0.26861557 -0.034301743 0.42567185 -0.32722914 0.16938457 -0.10301153 0.38346082 0.20040768 0.20441218 -0.095477745 0.77463436 0.31031922 0.035048205 0.20079826 -0.12054561 0.05341964 -0.15862706 0.46479216 0.37901324 -0.5077683 -0.1379474 0.25065804 -0.25598022 -0.08909773 0.3220655 0.0032985273 -0.09025128 0.065804504 -0.26443794 -0.18381226 -0.1730153 0.0079607805 0.37046024 -0.39668196 0.3784308 0.10239534 0.6253457 -0.18693078 -0.4271566 -0.062787846 -0.20789018 0.03142098 -0.2565541 -0.19070394 -0.46323434 0.04225007 0.00011779231 -0.21045613 -0.19930676 0.053412307 -0.061722092 0.06867052 -0.10006738 -0.32693568 -0.4212259 0.08859909 0.037136953 0.16857205 0.32067522 0.13614015 -0.05480114 0.04876414 -0.3585712 0.12045482 -0.21139523 0.23933947 0.21435127 -0.5401001 -0.101535164 -0.08771788 -0.33895648 -0.15840071 0.10504498 0.13042344 -0.28544983 -0.24649046 0.07008981 0.39417067 -0.08456025 0.08284929 0.15602237 0.15514292 -0.36876804 -0.24771728 0.056221105 -0.18044169
QKA 0.3112454 0.15311684 -0.041569754 -0.2635785 0.16711561 -0.3793076 -0.11987603 0.14271562 0.041572236 -0.18110621 -0.4223613 0.6004167 -0.27971992 -0.050860982 -0.3655083 -0.6486284 0.73931146 -0.43823615 -0.12896644 -0.15725443 0.5145796 0.1612069 0.05694493 -0.2377603 0.0430265 0.13200067 -0.5740694 0.38660088 0.1911097 0.06982756 0.17942351 0.19814819 0.7155501 -1.0456284 -0.042569876 0.13209097 0.3134102 -0.22209777 -0.032756485 0.14117807 0.30350116 0.07665782 -0.23400572 -0.14334732 0.20003517 0.25154534 -0.19252366 -0.0093610035 0.48145184 -0.22432008 0.94062847 -0.14224519 0.25870726 -0.24443316 -0.4746441 0.31513235 0.15538236 -0.17313002 -0.25268656 -0.303521 0.2784357 -0.105978556 -0.012121363 -0.03141195 -0.37574467 0.1877581 -0.11751868 -0.2657839 0.055725288 -0.15312555 0.15660948 -0.26770633 0.20138086 0.3170258 0.21130493 -0.015411369 0.29709017 -0.096013956 0.21873146 0.3233024 0.24930547 0.38070863 0.54015636 -0.44656226 0.33371377 0.30359492 0.29061127 0.33092558 0.2204766 -0.79804355 0.33056557 0.5823248 0.38396633 0.072888546 0.39066693 0.13052817 0.02762747 0.16622959 -0.24611686 -0.50117594
DAE 0.18129626 0.25352436 0.564285 0.5184945 -0.017369052 0.37376222 0.033719856 0.27215293 0.018242253 0.3342017 0.15022175 0.27376282 -0.23144978 0.15535463 -0.29306304 -0.09185205 -0.13448937 0.19687016 -0.08409955 -0.5695885 -0.5196866 -0.51595783 0.32024196 -0.018991193 -0.16319987 -0.11738513 0.593362 -0.13310498 0.17390808 0.35274193 0.15718967 -0.05785869 0.050570976 -0.45746684 -0.67567146 0.07887448 0.4659749 0.32636994 -0.20233734 -0.26591522 -0.5983933 0.15196341 -0.28010637 0.09474913 0.2993554 0.18504922 0.04000701 0.47494704 0.13694604 0.3636378 0.0911489 0.7038767 0.09132777 0.10748565 -0.06856089 -0.0067883567 0.29204035 -0.28490913 -0.18400556 0.4735302 -0.14310297 0.41308025 0.20312794 0.046972074 -0.23374566 0.61656296 -0.31193712 0.036797475 -0.22153445 0.03169276 -0.08661096 0.114778854 -0.25241408 -0.37142563 0.35239375 0.381162 -0.2117576 0.2372828 -0.78920716 0.31051648 -0.095133506 0.4965084 -0.43094507 -0.085757114 -0.5078842 0.22095805 0.14358334 0.24917923 0.61642945 -0.0350894 0.2394786 -0.27897733 -0.21971133 0.39461485 0.1375505 -0.1225941 0.2088088 -0.62240064 0.49092487 -0.18561707
AKL -0.49337554 -0.09267799 0.49991012 0.58995736 -0.4827198 -0.22739105 0.32316503 0.6554636 0.023506436 -0.03860446 -0.6274293 -0.23508629 0.07538069 0.059888728 0.059877556 0.38856205 0.23167172 0.21815461 0.026943816 -0.110735744 -0.20576534 0.42804164 -0.019967703 0.34848163 0.20393682 -0.011811535 -0.27472907 -0.16366349 0.37568757 0.50963527 -0.058822848 0.35971037 -0.3058709 0.77559185 -0.5972623 -0.46765894 0.2524727 -0.54885316 -0.5497499 -0.61052537 0.9076391 0.004282728 -0.24592498 -0.6915641 0.06534214 0.11904035 0.045896932 -0.11764485 -0.502137 0.95222 -0.17276244 0.5118903 0.3605488 -0.21522956 -0.018683987 0.22182795 0.05134286 0.3272847 -0.11340084 0.37435266 0.23698367 0.28936586 0.1729853 -0.74498695 -0.13509154 0.029848976 0.32633817 0.67396706 -0.4277932 -0.04294875 0.38513893 0.18672915 0.98593515 -0.15946057 0.5997904 -0.5586446 -0.23869663 -0.11516537 -0.095979854 0.16583934 0.07561632 -0.61276394 -0.2848206 -0.051138528 0.1437017 -0.72439396 0.0034377014 0.330095 0.5397141 -0.5097604 -0.011560228 -0.22075379 -0.3036394 0.21252511 -0.09833639 -0.051832 -0.06706939 -0.52383417 -0.07058647 -0.5890946
TKK -0.13015825 0.2904379 0.5081742 0.29566127 -0.07731624 0.11583207 0.36105543 0.037370488 -0.10274415 -0.055215213 0.05754828 -0.087955505 -0.6050579 -0.630677 0.113115534 -0.49849495 -0.0023841474 0.003963343 0.03712146 0.39524603 -0.14409271 -0.3681446 0.0721285 0.081657335 -0.2157177 -0.17555924 -0.1727182 -0.31226453 0.3582215 0.27683985 -0.025377287 0.0652591 -0.27881238 0.46759042 0.07623252 0.41814968 0.20646922 -0.052115545 -0.38571975 -0.09932461 -0.13449338 -0.38075572 0.05726698 -0.16811085 0.7013597 -0.63099545 0.4416987 -0.22843896 0.5984927 0.3130173 0.018938746 0.33799094 0.5260673 -0.36069682 0.024175355 -0.09926781 0.31364155 -0.19943489 -0.5090838 0.42667806 0.2675322 0.49642718 0.57618064 -0.47296232 0.13601977 -0.42023477 0.16583313 0.8519927 -0.084791124 -0.046176348 -0.34542608 0.004796292 -0.23303244 0.03564639 0.699886 0.38765463 -0.034482315 0.3694738 -0.5325502 -0.15831517 -0.15415725 -0.009219577 -0.33207613 -0.40072626 -0.7721158 -1.0724308 0.5414272 -0.4333524 0.9150036 0.38756123 -0.0995711 -0.31504983 0.20950723 -0.022283414 0.13426638 0.32785967 0.51174635 -0.036542002 0.02395469 -0.5539693
KLE 0.019999802 0.6055032 0.30259222 0.10631662 0.23978843 -0.17302348 0.093726784 0.7787057 -0.03407254 0.15037693 0.15571399 -0.34208032 -0.4017453 -0.31809637 0.4598668 0.028571632 0.44494024 -0.36738926 -0.22266039 -0.08948004 -0.6933996 -0.022911346 -0.22294521 -0.1363926 -0.11516133 -0.13324389 0.023044722 0.77954227 0.2096129 0.38197765 0.470944 0.63814086 0.4017707 0.33381504 -0.7489524 0.49287638 -0.23041795 -0.25712165 -0.61203945 -0.65617746 0.3164194 -0.046541404 -0.16220956 0.5810897 0.4289122 -0.1444062 0.24561857 0.4093855 0.26671997 0.43586877 0.0777792 -0.18638323 0.07073196 0.17080295 0.4136059 -0.13176365 -0.20818399 -0.28745326 0.001847433 0.40784144 -0.11952113 -0.42168388 -0.11694297 -0.39706653 -0.009201588 0.14309415 -0.34341264 0.53119767 -0.27664647 0.11817907 -0.42183188 0.013895982 -0.9238334 -0.08245715 0.25696987 0.034195475 -0.19526401 -0.22209737 -0.17907248 -0.26051039 -0.44707176 -0.29659522 -0.41791025 -0.1304119 -0.35385206 -0.06388159 -0.64652616 0.5266615 0.1747195 0.3511033 0.016913071 0.176276 -0.304061 -0.048823785 0.40456945 0.1674992 -0.053980283 0.16706781 0.11132657 -0.35659343
EAA 0.006609767 -0.0144254975 -0.037751824 0.027004965 -0.28996685 -0.61776763 -0.21288055 0.49472693 -0.065619156 -0.5181976 0.25393978 0.091268 -0.24492171 -0.8244673 0.16576305 -0.24974675 0.043783724 0.3034451 -0.116089806 -0.08109328 0.61653775 0.6919947 -0.14434232 0.15452623 0.13011794 -0.7136131 0.14180818 0.12193205 -0.36701393 0.22629398 0.8195358 -0.25394857 -0.36193502 0.01071954 -0.52004343 0.8910359 0.032982916 -0.7599258 0.18999611 0.20065671 -0.07199106 -0.37666953 0.28705302 0.0959283 0.22861537 -0.17580971 -0.38690162 0.048024315 0.27301043 -0.3469712 -0.18840308 0.11982029 0.35047913 -0.37628967 0.21415055 -0.058571313 0.056898817 0.3128228 -0.9139616 0.07171157 0.18020788 -0.087894745 -0.40020722 0.48136574 0.27380773 -0.115616456 0.090363145 0.22299841 0.29041326 0.5374333 0.05624969 -0.049189795 -0.13191125 0.07286027 0.6372592 -0.16564813 0.088154815 0.036758367 -0.12098837 0.7226322 -0.15501541 -0.6018389 0.4496044 0.10396247 0.018676693 0.24924727 -0.56619287 -0.34292486 0.22638208 -0.36182094 0.52658176 -0.33164835 -0.44193488 -0.28818378 0.18143338 0.67177665 -0.1093199 0.07741081 0.68807554 -0.014713091
NKK -0.47554937 -0.25682783 0.16849895 -0.044274133 -0.14981046 0.15305848 0.15609309 0.2484434 0.803168 0.23004955 -0.21081258 -0.64559686 0.51900864 -0.10504572 -0.16475113 0.13935503 -0.45887113 -0.3252892 -0.07606654 0.018643225 0.22491187 -0.44582012 0.17616801 0.36674374 -0.21907584 -0.12102451 0.3558649 -0.07721373 0.11420241 0.44883114 0.5223076 -0.19152564 0.4925147 0.09860985 0.14295769 0.114172995 0.25270954 -0.76789695 -0.1291002 -0.17715192 -0.86403143 -0.14923775 0.13895404 -0.008658917 0.21097532 0.051269908 -0.03539192 -0.14836417 0.291277 -0.0770077 0.09578775 0.21790484 -0.0059343153 -0.017899606 -0.4456132 0.4963475 -0.26613665 0.60635066 0.114250116 0.006596094 -0.35848716 0.38230807 -0.0770314 0.18357918 -0.6664599 0.21894754 0.21341251 0.4421403 -0.45901594 0.025586024 0.34139267 0.35707957 0.13151048 -0.7465578 0.025878914 0.1880527 -0.3534794 0.06794958 -0.58794475 -0.26224577 -0.17474209 -0.033494655 -0.508286 -0.32220325 -0.1711982 0.011516736 0.40727296 -0.008112382 0.26555118 0.33667716 0.0023954017 -0.03762167 0.25985575 0.12860015 0.47554547 0.51729685 -0.33849776 0.2155565 0.5111933 -0.029587738
ADL 0.51098746 -0.389106 0.7414366 -0.22391738 -0.040624086 -0.4158525 0.11544212 0.6174167 -0.51838607 0.6446275 0.19855256 -0.70114756 -0.13287522 0.3171457 -0.11217114 -0.5992182 -0.42764863 -0.30274802 0.37589774 -0.5022707 0.96231115 0.44102982 0.04239908 1.1493675 0.12229403 -0.44910753 0.9395112 -0.23837456 0.52721256 0.03528361 0.33577195 -0.1619162 0.06609996 0.070669904 0.23800114 0.53725153 0.2081658 -0.20991181 -1.0957829 -0.026783602 0.11738743 -0.64698595 -0.22692978 -0.24741066 -0.027104523 -0.35133296 -0.6602681 -0.028509839 -0.08966637 0.43918785 -0.52963126 0.3914124 0.6400218 -0.28265452 -0.41359526 -0.050704133 0.16346216 0.45790133 -0.6406398 0.23236264 -0.052793972 0.7732753 -0.28699705 -0.3865972 0.30974135 -0.45549348 -0.58919793 0.21632951 0.27545193 0.38245976 0.13424 0.58862245 0.060142122 -0.16978501 0.1856554 0.3280618 -0.33302498 0.19552587 -0.66716015 0.12932399 -0.34951308 -0.8833967 0.28226754 0.4872084 0.25087032 0.11949551 0.16905382 -0.039393578 0.5339979 -0.623503 -0.2055217 0.20420061 -0.30050898 0.011677236 -0.09128959 0.5451504 -0.1161491 -0.11629471 -0.17311856 0.15712835
EKE 0.51759255 -0.18300246 0.21776506 0.03527885 -0.4231521 -0.24106735 0.1898055 0.37403375 -0.35800898 0.46697783 0.31576467 -0.18110973 -0.7027487 0.2595787 -0.5292974 -0.12184531 -0.14377615 0.19280937 0.5414869 -1.0944939 0.66660947 -0.25562713 -0.23882127 -0.57100016 -0.265383 -0.1269994 0.16568278 -0.6035174 -0.19103898 -0.23250188 0.4308179 0.101676956 -0.4487241 -0.49093676 0.22975041 0.52499014 -0.17054202 -0.007933531 -0.012103526 0.29454273 0.005617941 0.47827184 0.30627078 -0.00027769755 0.63246685 0.11907565 -0.27221656 -0.3134402 0.09496046 0.14118971 0.2145922 -0.058087904 0.110556684 -0.27450645 -0.35560805 -0.27760544 0.18399484 0.14963749 -0.052217077 0.093953475 -0.17509092 0.12380834 -0.0027193713 -0.22372411 -0.2790663 -0.13592267 -0.83151585 0.56962943 0.3017679 0.030574346 0.3631726 -0.15684886 -0.018710744 -0.4009788 -0.08742154 -0.13438697 -0.3307123 0.31203327 -0.44810686 0.03662754 -0.21266885 -0.04944628 0.33440006 0.40880537 0.18178087 0.3659232 0.21277286 0.29272372 0.049072355 -0.4098603 0.05450584 0.043591656 -0.47074994 0.15956911 -0.1692914 -0.280063 0.10549925 -0.14434141 -0.30253473 -0.59396243
KEA -0.03266376 -0.13869286 0.35885915 0.2401382 -0.03224512 -0.67065454 0.4871064 0.34914026 0.20393613 0.13545047 -0.12114798 -0.08841954 -0.2072899 0.23889202 -0.42585334 -0.9013954 -0.077828236 0.05797887 0.30482963 0.32221955 0.08059474 -0.24268904 0.34637743 -0.20736894 -0.38423 0.00075175153 -0.20339161 -0.05813329 -0.36411938 -0.06641283 0.15540528 0.046523195 0.35782713 -0.42195645 -0.65004295 0.3175902 0.297513 0.024009677 -0.051625293 -0.8497367 0.1195287 0.44680446 0.19964531 -0.11820569 -0.21928662 0.38206843 0.067889966 0.04163546 0.14449434 -0.020270782 0.249632 -0.6793183 -0.0749675 0.03072206 0.09183699 0.02922183 0.011602068 -0.0970006 -0.019865025 0.26753962 -0.6540369 -0.33613485 0.21974702 0.058732193 -0.106075525 -0.46178928 0.46595365 0.024258012 0.0036289697 0.22941774 0.2444241 0.33989656 0.19268242 -0.27224216 0.54731876 -0.19620778 0.13706687 0.33081064 0.9418465 -0.46040395 0.31952786 -0.39644757 -0.09965887 0.762456 0.15119712 -0.56071144 0.26084098 0.49893036 -0.1856045 -0.58755314 0.44978705 0.17618775 -0.054285064 -0.2106128 0.51355994 -0.23478055 -0.45678243 0.046385314 0.48522016 -0.41070282
KVA -0.52794796 0.11462316 -0.19545612 0.21403301 -0.0036807286 -0.5822894 0.15310308 0.5026776 0.47516584 0.15661716 0.25640234 -0.03232526 -0.25762972 -0.37876895 0.52058244 -0.33474588 -0.022041472 -0.44257727 0.07069004 0.67581546 -0.027617088 -0.6867606 -0.044651363 0.17434858 -0.3250178 -0.38997135 -0.120129906 0.5489063 -0.017918866 0.54930735 0.21168195 -0.21252783 -0.43286234 0.13094468 -0.10894075 0.42377475 -0.114399515 -0.1880879 -0.57523155 -0.06744804 -0.71284133 -0.09486538 -0.6939053 0.043179635 0.1559399 0.06647152 0.033252135 -0.33755082 0.09588415 0.9092518 0.23585655 0.041824505 0.07856902 0.48277682 0.40168437 -0.26203778 0.27891368 0.48889354 -0.32828373 0.74797934 0.72937053 0.6145533 -0.0031035682 -0.29691255 -0.513496 0.07956492 0.36868173 0.029904038 -0.036457106 0.116556086 -0.0060785315 0.008989499 -0.08943816 -0.132454 0.4886894 -0.045624018 0.014739092 -0.23780465 -0.24639452 -0.049723476 -0.20895523 0.42707855 0.100997396 0.1726555 -0.12959544 -0.56542987 0.36872923 -0.17878698 0.23360501 0.23224485 0.04118252 -0.12348646 0.15419841 0.21456808 0.52387327 0.35283697 -0.24498099 -0.43741354 -0.21798277 -0.88957316
LEE -0.08353467 0.07863027 0.14817022 -0.11088886 -0.042649005 -0.0055473 0.57656336 -0.4795995 -0.21828479 0.06155783 -0.012971707 -0.1530637 0.07714334 -0.21220271 0.10884152 0.3228511 -0.2001528 -0.6170028 0.026151503 -0.3307611 0.2317698 0.10475706 -0.118053004 -0.32364464 0.38374195 0.21214835 -0.36039346 -0.2866986 0.10152986 0.20374046 -0.38153353 0.51206315 0.5831537 -0.10732755 -0.41689357 0.24223447 -0.17811663 -0.3012081 -0.48260447 -0.1031138 0.66290635 0.12004313 -0.7206727 -0.19492058 0.538538 -0.9470308 0.4385614 0.2399604 -0.0054646265 0.258605 -0.004005453 -0.19561318 0.47231346 -0.87299806 -0.04911718 -0.07833137 -0.67874724 -0.7847207 -0.32700264 0.53780687 0.13710731 0.18368003 0.44445974 -0.09309046 0.07688327 -0.14863127 -0.022316908 0.79819363 0.3179296 0.3905045 -0.42970723 -0.12900232 -0.3967115 -0.15099007 0.13345835 0.09311025 -0.15992537 0.5342602 0.1954187 0.023522757 -0.4869734 0.24458003 -0.6721912 0.07700809 -0.36221144 -0.12373241 -0.4091234 0.3591498 0.36033383 0.297856 0.50940853 -0.30675504 -0.42401752 -0.30588686 0.68128353 0.1594044 -0.4946358 -0.11958609 0.014588571 -0.7923146
EKD -0.63762975 0.14349501 0.21841042 0.7848037 -0.19065586 0.026226843 0.26616338 -0.07777793 -0.18985766 -0.16964127 -0.091674514 -0.24524602 0.05818008 0.6011718 0.020650506 -0.038250662 -0.13770694 -0.7766751 0.13215981 -0.6168401 -0.3819995 0.26134235 0.23499584 -0.18722415 0.049681246 -0.1618525 -0.3563835 -0.32146245 -0.08397725 0.88555187 0.0054401555 0.2740278 -0.16632856 0.3645158 -0.17263629 0.5712728 0.048653405 0.31346065 -0.7464771 -0.15586475 0.19959311 -0.14851665 -0.34393525 -0.29547134 0.5673384 -0.36199555 -0.4980099 -0.14340562 -0.055102214 0.49720827 0.013778866 0.021288635 0.25960702 0.16375488 -0.09854175 -0.6304719 0.037554003 0.15004432 -0.19085816 0.12647142 -0.3509223 -0.42854398 0.20719609 0.03211711 -0.21248345 0.33627224 -0.06874531 -0.12399088 -0.13015246 0.018379139 0.22682254 0.26482388 0.053098347 -0.26470184 0.29527774 -0.36177182 -0.176284 0.17226313 -0.6321216 0.13910122 -0.092932925 -0.3470771 -0.13082728 -0.11033174 -0.16853923 -0.33345294 -0.47431332 0.15817942 -0.26127863 0.17978553 0.33921945 -0.16256481 -0.3196372 0.3975512 0.19916002 0.00038380243 0.090433 0.06280368 0.27111554 -0.40305024
LDA 0.0655041 -0.16512264 0.35453105 0.21391368 0.45684254 0.3339343 0.14240772 0.10612483 0.301871 -0.13528903 -0.0036541987 -0.42000127 -0.4422286 -0.25312802 -0.09140133 -0.22196144 0.5455078 -0.23428853 0.12437912 -0.45076784 -0.15805799 0.11803176 -0.63464385 -0.017436188 -0.36462748 0.5001237 -0.33329257 0.7681365 0.4733463 0.36969966 0.5728904 0.9053364 0.064247206 0.41533858 -0.34103313 0.4184032 -0.4105958 0.23805264 -0.8451027 -0.69176733 -0.13441056 -0.72009456 -0.03394723 0.4651198 0.07018639 0.15615734 0.27173254 0.16083458 0.20881604 -0.0041681575 -0.0371763 -0.28390816 0.42588222 0.29154864 -0.2567234 0.11639644 0.013675553 -0.014921553 -0.5221526 -0.015128669 -0.03011573 0.32849848 -0.14562172 -0.095975555 0.87995034 0.16653517 -0.34754327 0.3907504 -0.55413055 0.060819536 -0.5200973 -0.34688592 -0.86798143 -0.008821994 0.29937866 -0.23575065 -0.37854326 0.108251974 -0.6426988 -0.1229354 -0.01378227 0.4125111 -0.60962546 0.19882523 -0.5105883 0.1865682 0.64344615 0.42446682 0.7196649 0.970939 0.3156454 0.0033007523 -0.099813305 0.17343098 0.67546785 0.36623892 0.33936 0.29044348 0.32975277 -0.29057202
LQN -0.6929034 -0.41417804 -0.17919946 0.33469296 0.19556046 -0.24505539 0.1490149 0.50027347 0.54049957 -0.24455717 -0.7275979 -0.36810172 -0.03856745 -0.022366626 0.48217496 0.15842968 -0.22026324 -0.9489338 0.29429007 0.13201097 0.4631251 -0.7581878 -0.21125074 0.011969705 -0.27251577 -0.2713157 0.10774346 0.6393327 -0.4110972 0.33376205 -0.09581697 0.15363899 -0.15708008 -0.03324654 0.10529596 0.8844896 0.048470434 -0.21688962 -0.43827152 -0.15085745 -0.63619256 0.16915287 -0.43514577 -0.21426283 0.15508562 -0.24411578 -0.39718953 0.06464371 0.5630585 0.7652695 0.040331192 -0.103052385 0.77906376 0.25232515 -0.035177488 0.04690822 0.5383339 0.4453789 -0.65833133 0.71747327 0.19597521 0.5203226 0.37044865 -0.3315249 0.11410355 -0.2985065 0.6166895 0.022070954 0.009913598 -0.66555125 0.37626275 0.28164452 -0.15302996 -0.24232478 0.36905852 -0.15616384 0.29597965 0.16884951 -0.26058835 -0.6009954 -0.27268502 0.3364575 0.26525635 -0.42191958 -0.33740714 -0.3432926 0.2289764 -0.2972167 0.79736286 0.09485516 0.3944462 0.10267083 0.18649743 0.1748265 0.38361576 0.4509205 -0.6004417 -0.6333251 0.016846322 -0.20881341
EKA 0.32694852 -0.060920537 0.71224993 0.27541518 -0.049823936 0.25299627 0.2476231 0.06847913 -0.40948376 -0.3637177 -0.10917235 0.33726883 -0.06541586 0.25081447 -0.5300171 0.03838859 -0.2625039 0.14138053 -0.030145224 -0.47754678 0.09960686 0.022416187 -0.2108088 -0.101356894 -0.19719222 0.12655447 -0.15979657 0.107772976 -0.12271849 0.16007698 0.18611498 0.26701665 0.5246057 -0.507973 -0.25820866 -0.18649821 -0.44428498 -0.006471631 0.10785117 -0.008460623 -0.09357775 -0.24009225 0.10471286 -0.3640142 -0.00037485373 0.043821316 -0.3160954 -0.36549693 0.5126917 0.053402063 -0.31883585 -0.0927028 -0.21990804 0.18077056 -0.54880226 0.14825022 0.8606218 -0.16743411 0.2453992 0.82687485 -0.6644702 0.22067648 0.28417853 0.2876826 -0.4633806 0.39306837 0.07376884 0.6033327 0.41513136 0.22512569 -0.049516495 -0.14772002 0.075584605 -0.4306894 -0.5479377 -0.08769341 -1.0639395 0.25419426 -0.6845476 -0.14264762 0.09208314 0.22804208 -0.04446018 0.10673504 -0.23627192 0.3138436 -0.28052405 -0.3981597 0.18703997 -0.31336343 0.337008 0.30332533 0.116413794 -0.075195335 0.43008614 -0.0727899 0.20948115 -0.3343527 0.08538613 0.36631605
AAK 0.303095 -0.3983015 0.3118911 -0.35197848 -0.55998266 0.18557057 -0.06907298 -0.27631253 0.2558193 -0.25510755 -0.24951603 -0.0448694 -0.12405139 0.17408046 -0.15282603 0.5859748 0.5384898 -0.13871044 0.31899026 -0.74128306 -0.17779182 0.07005447 -0.54785126 -0.0036016216 0.15505897 0.32630497 -0.11382271 -0.5786599 0.120905 0.041755855 0.7317951 0.07242735 -0.030323863 -0.34053847 0.21087705 0.9399698 0.33167508 0.75548685 -0.021932364 0.58584017 -0.6465347 -0.33859193 -0.0059274957 -0.4258486 0.40937448 0.19624789 0.3693703 -0.22455497 -0.32778427 -0.056927126 0.6447743 0.29833046 -0.21691996 -0.07053186 -0.6185428 0.4249231 -0.17280097 0.17259504 -0.47634026 0.35588667 -0.044802386 0.36017552 -0.15325695 0.7357924 -0.088018246 -0.29133603 -0.6101455 0.15160929 0.30147052 0.25502464 0.21907887 0.17873526 -0.18892506 -0.10753456 -0.3265439 -0.23591283 0.18381247 0.09912817 -0.46681538 0.12077043 -0.01828908 -0.5774325 -0.48372674 0.44777566 -0.16798356 -0.2421906 -0.07518196 0.60530424 0.41147026 -0.4271648 0.18960571 -0.03314796 -0.015352532 0.22287825 0.22513343 0.47274902 -0.0019592252 -0.18819997 0.050752155 -0.74005884
VAK -0.001571302 -0.2381187 0.25177208 0.17142808 -0.17307755 -0.74128145 -0.14146088 0.15967117 -0.034578145 1.1217781 -0.16173947 -0.7382035 -0.9512603 0.6365612 0.13060662 0.3725286 0.4412178 -0.4050496 -0.52097166 0.10156054 0.49246264 -0.42734903 0.11406078 -0.16914463 0.24264859 -0.43660906 -0.557324 0.29732752 -0.64019984 0.4587537 0.48112184 -0.50991124 -0.35939458 0.2307518 0.10202175 0.4260864 0.48519138 -0.04582676 0.2136736 -0.21681464 -0.68357795 0.42172727 0.59945333 -0.018022133 0.16013502 0.10412567 -0.17657481 0.59527135 0.26836997 0.34752592 0.18896832 0.5660719 -0.1738777 -0.13255742 0.079986945 -0.301784 0.6317823 -0.20135994 0.04591544 0.74538136 0.14194667 0.48904485 -0.00271216 -0.04182898 0.16389662 -0.34170598 -0.28817827 0.023019154 0.33010298 -0.3058974 -0.42662004 0.32856756 -0.18944332 -0.21732391 0.15044309 0.42926314 0.0109334 0.016299311 0.6912569 0.60110074 -0.5262972 0.32223663 -0.053031415 0.39642245 0.15139095 -0.4601709 0.08560019 -0.15315378 0.1598213 0.11928473 -0.10736454 0.16431375 0.21442881 0.01445564 -0.06016014 0.41892612 -0.14975937 -0.82931495 0.121270485 -0.89082325
DEL -0.32223317 -0.080760345 -0.39466918 0.28815904 -0.016234998 0.1239017 0.61285627 1.1483426 0.7455504 0.5507739 -0.4563702 -0.5973398 0.002282267 0.32186258 0.13692176 -0.8861529 0.23634242 -0.3390764 0.60018003 0.056560695 -0.22688267 -0.23998271 -0.31960464 -0.7494255 -0.8338912 -0.25729874 0.27491713 0.40737095 -0.03315491 0.29065794 0.5741434 0.98027223 -0.1499664 0.3754949 -0.25794286 -0.44848892 0.36226186 -0.46866193 0.11962141 -0.43419456 -0.9981372 -0.30998504 0.22205943 0.76313394 -0.37628755 0.38779238 -0.26459923 0.11961359 0.3373926 0.9781399 0.12205568 0.030363359 0.32209083 -0.20711818 -0.48196173 -0.34827495 -0.081766464 -0.28288525 -0.47392467 0.36701173 0.18688004 -0.16984634 0.39199907 -0.13951395 -0.113879345 0.30295223 0.42571566 0.46304208 0.42709252 0.3987332 -0.12063289 -0.6217774 -0.13913532 -0.12655798 0.06796664 0.64984155 0.11789994 0.11353299 -0.60872805 -0.5473861 0.36960608 0.64562184 -0.06888532 -0.37962314 -0.28354427 -0.16005275 0.41971752 -0.21672669 1.2766665 0.7008573 0.97195184 -0.73240364 -0.26864 0.26096126 -0.17538175 0.37617266 0.23562695 0.084763095 0.10875228 -0.9236175
EVA 0.16811633 0.35828134 0.066472955 0.6139683 0.11579435 -0.7464244 -0.8266076 0.90359235 -0.119449146 0.66575205 -0.13957034 -0.7141298 -0.34773996 0.37832832 -0.013049262 -0.09389073 0.4085585 0.45468897 0.01364576 -0.010345668 0.34622863 -0.51618457 0.6005517 -0.56264126 -0.2772315 -0.4364449 -0.41551214 0.31472635 -0.25904217 -0.10126617 0.38469622 -0.6709947 0.1917773 0.08289986 0.22671321 0.49302122 0.70097077 -0.2599386 -0.24941468 -0.96756613 0.23580109 -0.33726814 0.33497176 0.24369071 0.15100223 0.45255888 0.088659815 0.18002222 -0.14427692 -0.39098907 0.37423167 0.27579686 -0.19022906 0.3364792 0.28870982 0.41285005 0.24483559 0.12669963 -0.22316328 0.37880254 0.46080217 0.016136989 -0.06221508 -0.18357949 0.023106845 0.030107256 -0.31763527 -0.18099554 -0.3940419 -0.26046902 -0.53253984 0.2813725 -0.15556364 0.06672865 -0.08576456 -0.019389732 0.0852052 -0.25749072 0.014921465 -0.256883 -0.45910645 0.033132978 0.35873199 0.27299047 -0.3369178 -0.10395735 0.3887888 0.1532176 0.59505045 -0.043058712 -0.2977781 -0.82168406 -0.4324236 0.32558784 -0.14318705 -0.15876722 -0.65126026 -0.8236639 -0.4702138 -0.9530879
KAA 0.12030428 0.06335183 0.10645396 0.07781119 -0.48274332 0.23556367 -0.15389587 0.7516414 -0.10560161 -0.5196989 0.42740807 0.02681488 -0.14934771 -0.105577506 -0.19729225 -0.14860184 0.070602015 0.13487831 -0.26568806 0.6122788 0.42930025 -0.07443337 0.3926597 0.17407367 -0.30476704 0.27115265 -0.47597423 -0.8140601 -0.55452925 0.14330661 0.39951342 -0.05158456 0.6748747 -0.113387376 -0.028784264 0.4204898 0.096786514 0.5641334 -0.25873607 0.49604842 0.2619636 0.24109684 0.35102898 0.109358385 -0.08505455 0.019382367 -0.52563244 -0.26419473 0.33967268 -0.6625082 0.03168981 0.11994598 -0.3394311 -0.842088 -0.13951688 0.44183436 0.5473287 0.54519886 -0.2831605 0.19492611 0.16400294 0.35039234 0.4706248 -0.3421997 0.04305945 0.045207754 -0.3399136 0.29183942 0.48248026 -0.118082225 -0.21574485 0.31892848 0.024026858 -0.21471368 0.029012814 0.3712354 -0.34405985 0.74723595 -0.35208458 0.8288667 0.18983749 -0.34382373 0.4391458 -0.8686622 0.6268443 -0.023633515 -0.18123253 0.5730165 0.3704133 -0.49835184 0.5237793 0.35783198 -0.1526009 -0.2277218 0.3483798 0.58769506 0.14693773 -0.10256052 0.5259014 -0.047167048
EKK 0.07548835 0.35181072 -0.49109155 0.41701853 0.35508466 -0.22732314 -0.46418 -0.10102818 0.026239632 -0.39280292 0.030841231 -0.6480717 0.16767913 0.16621457 0.2677077 0.20130417 0.3359682 -0.01938764 0.046548616 -0.23436795 -0.08978086 -0.16390029 -0.03183035 -0.2378561 0.32156828 0.65849847 0.20232247 0.061106354 -0.5564872 0.34839365 -0.040753674 0.41058126 0.6680784 -0.44494787 -0.61319166 0.40909174 0.18651247 -0.33750266 0.17958473 0.2031705 -0.2865901 -0.04609581 -0.45477167 -0.454465 0.33682635 -0.1632003 -0.030369148 -0.1547927 0.15053344 0.70455396 0.040051263 -0.35152596 -0.1969951 0.28071514 -0.2652953 0.69419044 -0.5326667 0.16422342 -0.35642684 0.5073114 -0.19970396 -0.112947054 0.46346807 0.18289995 -0.05785358 -0.32134068 -0.45811683 -0.2990012 -0.4863744 -0.35768476 -0.011473333 -0.052240867 -0.423286 0.12823096 0.5093639 -0.37792176 -0.65598816 -0.10952739 -0.14608732 -0.31935886 0.31502077 -0.14407742 0.5397783 0.08953182 -0.047126397 0.36806127 0.012378732 -0.09676894 -0.31742576 -0.71907544 0.45373526 0.3789967 -0.48271307 0.10437584 0.117284626 0.40516007 -0.040837068 0.058613367 -0.31911686 -0.06350839
KKV -0.065741256 -0.23747115 0.14190117 0.19368158 -0.13319819 -0.44782275 0.907454 -0.08431814 -0.48626554 0.66667914 -0.23656815 -0.31146812 -0.25433215 0.118233725 0.11741048 -0.8533117 -0.1254804 0.25589862 -0.10338182 -0.0674931 -0.27750257 -0.35795572 0.25280142 -0.45710894 -0.8984912 0.37865674 -0.052985463 0.31697845 -0.20982343 -0.30728963 0.5392095 0.08971981 0.317131 -0.09454938 -0.4073182 0.37777716 0.50717306 0.100884594 -0.62851775 -0.8988432 0.54059196 0.09251281 -0.24622007 -0.078128934 0.3628815 0.3306324 -0.07894895 -0.08453794 0.34482732 0.0654806 0.428129 -0.34783447 1.1015121 0.42602253 -0.15884975 -0.00647007 0.34094426 -0.47338837 -0.09215258 -0.4834904 0.15933935 0.28142375 0.17455597 0.06683531 -0.29738262 0.62863475 0.18079801 0.2937938 -0.26903045 -0.0792701 -0.1872153 -0.3376475 0.21104556 -0.3811875 0.21474348 0.09930798 0.32470116 0.3686435 0.42966333 0.05050903 -0.14912747 -0.31292865 -0.03601873 -0.2808201 0.17194925 0.110270545 -0.18722044 0.31589678 0.003062851 0.1696311 0.43259037 0.25053948 -0.16987915 0.30140933 0.2236658 -0.52437365 -0.34507453 -0.061735567 -0.0689381 -0.15065002
QNK 0.089358404 -0.20486145 0.2580973 0.7071548 -0.08790334 -0.66747075 0.29539815 -0.008088226 0.68288267 0.5390715 -0.20639041 -0.19000037 -0.3261221 0.6760376 0.15710887 0.07951372 0.28162464 0.38710943 0.18467812 -0.22156394 -0.012986209 -0.28523797 -0.09423504 0.6193963 -0.51525587 0.30944192 0.6312393 0.6133525 -0.3148433 -0.2245933 0.7039055 -0.3736372 0.47501656 0.11175902 -0.3231386 0.4016231 0.23510638 -0.85767424 -0.3891721 -0.6655543 -0.18954296 0.4459357 -0.39314184 0.051163424 -0.25216323 0.64075714 0.7055558 -0.030352682 0.034880053 0.6780009 0.17938986 -0.26933464 0.5446752 -0.3426535 -0.20167673 0.12708169 0.5994805 -0.22050434 -0.7098079 0.46938697 -0.20923428 0.28867579 0.122453995 -0.39425284 -0.087546214 0.28451642 -0.07609636 0.012573519 0.049413573 -0.3309677 0.28944677 0.7435096 -0.11934221 -0.14361246 0.7411869 1.0277226 0.20840183 0.43946156 -0.14852525 0.07834716 0.19482993 -0.34175193 -0.058569465 0.35979807 0.41788816 0.19476172 -0.7506016 0.12771267 -0.22319712 0.31203827 0.74785256 -0.1809243 -0.36069095 -0.70449024 0.70149 -0.5565584 0.19793347 0.07532815 0.45704538 -0.90095633
KKY 0.22118483 -0.32669008 -0.3919362 -0.44000745 0.31670016 0.1342637 -0.8012659 -0.35620376 0.040719915 -0.12650137 -0.3986927 0.12443827 -0.27920637 -0.34966788 -0.629206 -0.23836677 0.1504633 0.27680168 0.24554476 0.28249893 -0.06498213 -0.17585707 -0.26794097 0.25532126 0.38153988 -0.33380112 0.17499954 0.091491245 0.009700049 -0.12510338 -0.1268365 -0.23119351 -0.5147497 -0.35372177 0.07554507 0.55112445 -0.09135056 0.27120543 -0.51742357 -0.33659407 0.13717197 -0.025333721 -0.14364609 -0.06134197 0.5220925 -0.43500677 -0.42815158 -0.9246425 0.2127157 0.26119113 0.06994329 -0.38786668 -0.519182 -0.61748546 -0.6722804 0.43900797 0.5769356 -0.3371773 -0.6635047 0.29081237 0.5773371 0.07384718 0.031417523 -0.06843335 -0.07700825 0.014303433 0.14234835 -0.060303032 -0.37132677 0.7368639 0.18547828 0.32752547 0.24499995 0.040910795 -0.08957874 -0.23626368 -0.5657622 0.36276695 -0.0900304 -0.58652353 0.23511316 -0.038103987 -0.4112435 -1.3527626 0.36930978 0.37607017 -0.039180562 0.12572417 -0.33415046 -0.00061969337 0.33651167 0.48994008 0.3691469 -0.10520954 1.1599814 0.2726541 -0.65483433 -0.41018063 0.17778714 0.17041844
KTQ -0.3618687 -0.18207045 0.11340792 -0.06886536 0.2746895 0.11324707 0.39675218 1.1271341 0.7146401 0.41958156 -0.28112623 0.13978545 -0.2760615 0.00054416177 0.02929167 -0.3514238 0.21066691 -0.56608796 0.54866344 -0.119705245 -0.24790421 -0.80455905 -0.25868306 0.4739933 0.098963045 -0.13718991 0.7281968 -0.2587524 -0.04109537 -0.038605303 0.5151907 0.21070082 0.020596145 0.49318615 -0.03177381 0.08137365 0.11049587 -0.038502075 -0.20865217 -0.2838707 -1.095505 -0.5692228 0.14360315 0.34644112 -0.57287896 0.08709369 -0.6460577 -0.12117962 0.25674632 1.0014646 -0.12818101 -0.3672929 0.5306748 -0.40837485 -0.55490285 0.11207187 -0.38848287 0.326814 -0.4291663 0.56704116 -0.107264504 -0.00571878 0.15834665 -0.63984025 -0.36774594 0.23445377 -0.20982629 0.15032016 -0.08681403 0.34051254 0.28571144 -0.1657663 0.44410834 -0.093888514 0.17173286 0.8033519 0.09348161 0.7425039 -0.43391755 -0.21188404 0.3905577 0.16867214 0.1846295 -0.44862154 -0.51325196 -0.5911588 0.3852627 -0.27763188 0.6166496 0.68376446 0.6844736 -0.37355423 0.25976682 0.10659812 -0.073979236 0.088518925 -0.6180978 -0.13129683 0.39424762 -0.022156758
LDK -0.72733796 0.40340042 0.7841838 -0.16803288 -0.4470924 -0.9022632 -0.20179583 0.60497355 -0.14534615 0.9767297 -0.09047641 -0.31675032 -0.66734505 0.54918605 -0.5704041 -0.40373966 -0.45752162 0.25263715 0.52777195 -0.6490211 0.29257047 -0.6337972 -0.10378807 -0.025699267 0.38603735 -0.95034325 0.36797705 0.57504463 0.12747492 0.56801236 0.13700949 -0.37325907 -0.10226414 -0.07716538 -0.2131536 0.45246992 -0.05303021 -0.486207 -0.562755 0.0109646795 -0.26117858 -0.6007556 -0.2400978 -0.09633792 0.2888645 -0.24687038 -0.45987108 0.030998359 0.27414274 0.2606703 -0.789167 0.4683826 0.6242138 0.095283024 -0.49569383 -0.38391328 -0.14094761 0.6744409 -0.4339839 0.23678866 0.10731555 0.35703823 -0.7065928 0.042754386 -0.37130412 -0.053372473 -0.9095894 0.48319072 0.022152094 0.38459343 0.18213715 0.09610563 -0.37125888 0.32577172 0.4691898 0.35864273 -0.4636588 0.25701815 -0.5761679 0.21459348 0.06986404 -0.77521664 -0.08096312 0.28806537 -0.0019766034 -0.18872882 0.20262744 0.08319918 -0.03693284 -0.14312229 0.20320514 0.39757088 -0.48182726 0.34992713 -0.13420495 -0.22486384 -0.39049682 -0.45932105 0.88538754 -1.1569405
ELA -0.15547708 0.056331575 -0.18831576 1.0538232 -0.44806066 -0.65964913 -0.23201962 0.41282764 -0.37071857 0.07928696 -0.25177735 0.057472646 0.12952717 -0.009719312 0.2451455 -0.49421865 0.17203297 0.18928924 0.37696466 0.40249082 -0.9728838 -0.571937 0.4908506 -0.049555168 -0.2705424 0.12758012 0.518144 0.26573095 0.2609034 -0.80925107 0.9382473 -0.1181999 0.34888738 -0.21342759 -0.43501154 0.40752926 0.557992 -0.680298 -0.38846755 -0.51724255 0.2560369 0.5144333 0.17986117 -0.063125424 0.51270306 -0.016316075 -0.11212075 -0.14887604 0.011251657 0.04884389 0.40385062 -0.28751796 0.42105365 -1.0783252 0.5402014 0.29724658 0.27826256 -0.23227128 -0.5778082 0.06476415 -0.30654848 -0.3322724 -0.6320713 0.33614942 -0.47169608 -0.51626503 -0.3240023 0.87732553 0.3528918 0.5612927 -0.46496305 0.16247249 0.26201344 -0.22323194 0.46744815 -0.59405196 0.0905096 0.34886086 -0.26520905 -0.45532575 -0.40168795 0.48297003 0.3062984 0.6296761 -0.2553264 -0.4407705 -0.3245624 0.7377962 -0.077811785 0.4191588 0.3960787 -0.16520226 0.37082422 -0.348637 -0.33126736 -0.20663673 -0.123031974 -0.16868095 -0.17617664 -0.53577316
DAA -0.40073666 -0.2798703 -0.40349188 0.69834846 -0.4298692 -0.12762828 0.13682088 0.5560337 0.3543192 -0.1325357 0.024018861 -0.33788592 -0.085058674 -0.21800181 -0.05929369 -0.53397644 0.0043606153 -0.0009948139 0.11476406 0.038764797 -0.5987953 -0.23856744 -0.49359033 -0.1423797 -0.09318534 0.33755982 0.011619353 -0.74038106 0.23568897 -0.23501712 0.03618878 0.020428738 0.67302066 -0.24151714 -0.49694633 0.2588897 0.17378731 -0.3475318 0.097012006 -0.13537715 0.022439122 -0.24037778 0.09730886 -0.04376399 0.05836347 -0.28908077 -0.12424317 -0.025116967 0.41223004 -0.14397645 0.19669701 -0.80798906 0.20939894 -0.23904651 -0.051041264 -0.23615324 0.4933158 -0.056186885 -0.44067645 0.12686962 -0.3911104 0.30195236 -0.15655725 0.09350891 0.16982967 -0.20278929 -0.4831849 0.01618124 -0.77368736 0.6662151 0.5666758 -0.06633444 0.28350824 0.23155701 -0.33598614 0.16925377 -0.45459688 0.10824183 0.15508728 0.4957687 0.734237 -0.36579102 -0.7317594 -0.60618436 0.34422517 0.16190964 -0.16596214 -4.4663353e-05 -0.096357636 0.345463 0.5579777 -0.17477144 0.5143655 -0.5056272 0.2388511 0.38632545 0.080403805 0.05153019 0.25772035 0.3273593
AQK 0.6849334 -0.6151124 -0.18753098 -0.1312143 0.0038930278 -0.32253903 0.01952968 0.10155491 0.014380826 -0.094962254 -0.1505593 -0.04843529 -0.29884958 0.24204159 -0.18658085 0.19140707 0.3577218 -0.17556906 0.04738544 -0.19378532 -0.078604616 0.41273153 -0.4962536 0.59127873 0.62014776 0.49547297 -0.48996523 -0.009677849 0.0061761066 0.3525743 0.1472382 0.0007063452 0.16278727 -0.650514 -0.30982766 0.4117238 0.45772573 0.07422736 0.40907645 -0.0150640085 -0.17971991 0.24255596 -0.1700313 -0.40891665 0.42774567 -0.75040185 0.3585195 0.10569168 0.29782018 -0.13430876 0.72652954 0.16360939 0.08518329 0.41539028 -0.34350634 0.3340566 0.40019804 -0.40196085 -0.62249327 0.10138616 -0.24498563 -0.39655635 0.25295135 0.40592846 -0.15982597 0.31823045 0.22845276 -0.6083527 -0.19516297 0.18481722 0.12194948 -0.38721585 0.104640454 0.55149466 0.2002834 0.20135742 -0.4745725 -0.20421804 -0.21970233 0.7629363 -0.1560197 -0.28689212 0.193734 -0.17668377 -0.18291141 -0.26385015 0.25979134 -0.0013873491 0.16474533 -0.66772294 0.3171345 0.37316573 0.1418408 -0.060940117 0.14204635 0.54397345 -0.05730524 -0.21959531 0.31536368 -0.18161193
VRA 0.07719251 -0.47227207 0.43214038 -0.19960621 -0.26860002 -0.11517583 -0.47811747 0.3798266 -0.019340087 -0.10492184 0.19099645 -0.66972345 0.08303415 0.31855348 0.036308 0.3555655 -0.43409508 -0.6244225 0.071927644 -0.041679755 -0.06830339 -0.4422665 0.5191547 0.5341079 -0.44663903 0.47221908 -0.0053525562 -0.06995905 0.100754686 0.5165624 0.11033162 -0.38572556 0.2873481 -0.11158096 -0.3372391 -0.0032389846 -0.058089867 -1.2545049 0.5321932 0.0044200155 -0.48098463 0.2924451 0.19064891 0.9290845 -0.06123893 -0.76320523 0.7660734 -0.49322858 0.42434698 -0.0010276798 0.28707469 -0.50981843 -0.42455396 0.03733806 0.024797665 -0.08880441 0.030024076 -0.27295703 -0.9062612 -0.094755396 0.35133544 -0.008095754 -0.22467232 -0.27644938 -0.15952486 -0.27582487 0.34155285 -0.3478526 -0.73616266 0.20771055 0.7785481 -0.4666393 0.09128269 -0.49259025 -0.13367626 0.11855978 -0.85757715 -0.08069747 -0.09162083 0.013487583 -0.33724043 -0.88574636 -0.46495846 -0.45623735 0.28805438 0.37516308 0.36219424 0.004442914 0.3817659 0.456928 0.63242555 0.15372868 -0.400745 0.2049836 0.41920355 0.421137 0.19569844 -0.13212354 0.13193494 0.029180415
AKE 0.078638904 -0.06986462 0.08458001 0.54455596 0.06385551 -0.41107705 -0.1894444 -0.24378173 -0.26393163 0.3075312 -0.09931962 -0.7432052 -0.2979611 0.6659956 0.30677944 -0.11180549 0.5563228 0.14102195 0.07262532 -0.24424838 0.25747892 -0.25272122 0.62837434 0.11217249 -0.09209932 -0.17897822 -0.039221715 0.13100557 -0.5875032 0.13980988 0.43344873 -0.1945111 0.34993953 0.0043664677 0.30382946 0.46472776 -0.089962445 -0.02814509 -0.016890898 -0.44988436 -0.14164856 0.034657028 0.12353164 -0.17440869 0.16383478 0.11943812 0.25946695 -0.13109195 -0.19084664 0.23552187 0.040371556 0.401509 -0.4664144 -0.18762697 -0.11887309 0.030239442 0.092130795 -0.44844997 -0.034898426 0.7661075 -0.10270183 -0.044530444 0.1480192 0.3321317 0.22863318 -0.21158606 -0.4324442 -0.10955678 -0.3227389 0.039591365 -0.56125665 0.53741986 -0.15518177 0.16284601 -0.06531449 -0.09721823 -0.070200525 -0.26542565 -0.03849815 -0.04064108 0.08684896 0.3043719 0.10340019 -0.19935316 -0.4988455 0.0622908 0.1987515 0.23293933 0.29259068 -0.33596465 0.107939474 0.08652391 0.3238691 0.5711892 0.40208474 -0.18999411 -0.34514797 -0.4015737 -0.19369459 -0.21866249
QAE 0.096250266 -0.22858167 0.11483583 0.02569995 -0.3464651 0.46258643 -0.18462601 1.0389314 0.7351034 -0.029158983 0.10726603 -0.87613976 -0.13794808 0.035312608 -0.31368378 0.4176144 0.096929744 -0.002949315 0.38065132 -0.7282821 0.3663785 -0.09578884 0.06852698 -0.18824692 -0.769547 -0.21692723 -0.64448285 0.5114525 0.8694559 0.42341506 0.5729834 -0.05571867 -0.47055316 -0.19481243 0.25956798 0.1619458 -0.22127356 -0.8453987 0.070688084 -0.31456658 -0.1011143 -0.23951498 -0.09199337 -0.07310689 -0.35292903 -0.64351135 -0.5016315 0.19099355 0.059096187 0.42881387 0.30568635 0.38134125 0.74086124 -0.26350403 -0.07952862 -0.15620574 0.20808367 0.10359342 0.1037878 0.080314375 -0.22203782 0.55785954 -0.28928754 -0.35388616 0.3470975 -0.14393021 0.074039616 0.82886285 -0.33454916 0.2504121 0.2890309 0.39385927 -0.8384616 0.33155635 0.013220152 -0.47911388 0.08592585 0.8958063 0.114781275 0.53457254 0.049851388 -0.1077086 -0.38342622 0.41995227 -0.7442433 -0.2028182 -0.3116315 0.05646263 0.3862326 0.1556369 0.044217337 0.14418119 -0.5486327 0.6685268 -0.058504447 0.76089096 -0.13875195 -0.20670556 0.52498615 0.44619274
KEI -0.5210157 0.3236456 0.54560626 0.3908728 0.2854433 -0.78759325 0.54333603 0.8033665 0.5290446 0.09684855 0.12672469 -0.018648233 -0.5066887 -0.32973197 0.5810673 0.13223454 -0.11864203 -1.1973262 0.47472817 1.2320678 -0.3507977 -0.38599122 0.12157649 -0.3481068 -0.18254186 -0.24442382 -0.32310876 -0.010993987 -0.7854069 0.57663083 -0.5956962 -0.1294685 0.40361014 -0.08985621 0.24374768 0.09031104 -0.13106099 0.07442522 -0.682628 -0.046776816 -0.34854293 -0.6266377 -0.22870626 -0.02645531 -0.11670918 0.65532774 -0.20095609 -0.006146435 0.45155907 0.6912121 -0.118370414 -0.53901786 0.15960479 0.5750932 0.21547633 0.15019788 -0.14881414 0.060730208 -0.63293546 0.44217774 0.120965734 0.47488177 0.07916787 -0.097453594 -0.035687193 -0.8356004 0.5477144 0.21175875 -0.13144302 -0.5526086 -0.38736516 0.6939552 -0.5007772 0.17772476 0.19717924 -0.7309769 0.14084166 0.018975837 -0.45868027 -0.10824856 0.11747771 0.10450571 0.042164043 -0.030693423 -0.37900144 -0.060903817 0.36092067 -0.03849082 0.19291642 -0.42275003 0.63204616 -0.03090885 0.2318772 -0.05140453 0.6071612 -0.12665899 -0.73633075 -0.30562186 0.19950889 -0.31886485
AKQ -0.564446 -0.026311213 0.0031408037 0.40355024 0.15940832 -0.44389495 0.7449629 0.0349301 0.30430564 -0.5238584 -0.14861271 -0.49036178 -0.048451893 -0.4755214 0.56380916 0.0037036962 0.5861617 -0.3654022 0.40149775 0.5616212 -0.64549184 -0.160129 0.28146425 0.0510792 0.20411019 0.5155241 -0.20541883 -0.46189517 -0.45140862 0.25110576 0.36700282 -0.062035814 -0.1587565 0.2532164 -0.104181364 0.0532848 -0.50346595 -0.056977782 0.11389773 -0.40845135 0.5405234 -0.6845481 -0.08097195 -0.21775122 -0.36996892 0.09566272 -0.336889 0.04998314 0.4691425 0.6306771 -0.16753276 0.14242251 -0.057123236 0.14929943 -0.23576052 0.16412063 0.11848539 0.5212923 -0.7140003 0.4183134 0.076654196 0.5404452 -0.06803756 -0.32666352 0.02517503 0.07540518 -0.56348413 0.5316716 -0.32802913 -0.15954274 -0.049435362 -0.45708773 0.1535115 -0.18065853 0.0859705 -0.37913886 -0.4969405 0.2799811 0.003970977 -0.025680505 -0.25279728 0.2557809 0.16157192 0.17158139 -0.33996063 0.08357142 -0.18608253 0.31625614 0.34644327 -0.2229722 0.26717445 0.52371883 0.3915657 0.5108172 -0.0049848296 -0.7237685 -0.43701023 0.12348199 0.5434125 -0.6636198
DLE -0.55989814 -0.042626582 -0.18692811 -0.07753687 -0.2669295 -0.4064265 -0.23540784 0.70156735 0.16359274 0.23069087 -0.24475126 -0.29450443 -0.12817158 0.37142885 0.7622936 0.3852219 -0.36533153 -0.8003087 0.016509969 1.1028203 0.0643331 -0.7671247 -0.2569766 0.07410046 -0.065599 -0.6118889 -0.5673089 0.40680063 -0.059440468 0.492581 0.29128984 -0.039258644 -0.64345974 0.20005123 -0.072820745 0.7922662 -0.02791561 -0.30503625 -0.55952364 -0.1105686 -0.4254694 -0.38161942 -0.27145204 -0.37712312 0.17318138 0.31126043 -0.50367475 0.38201243 0.5252243 0.7505809 0.67171454 -0.036562152 0.81209064 0.18350647 0.596193 -0.4738128 0.83442646 0.14163662 -0.6607 0.4849516 0.9981174 0.77756536 -0.1631001 0.0020547942 -0.3902249 -0.3879385 0.28317258 -0.37921092 0.36577052 0.0846493 0.15153399 0.22450525 0.010123341 -0.12654643 0.30596548 0.42979914 0.0778155 -0.52858734 -0.41070202 -0.12118218 -0.27422163 0.4319512 0.21721451 0.4509037 0.10560502 -0.16546825 0.15108587 -0.7786284 0.67709094 0.004167075 0.11686111 -0.06469325 0.525213 0.14021078 0.6856059 0.13203867 -0.104339704 -0.9565665 -0.08670094 -0.7034543
AAE -0.5675415 0.5681713 -0.3996848 0.5789752 -0.07267494 0.16253886 0.03492205 0.05049401 0.8897467 0.13128012 0.29763418 -0.20302692 -0.13963398 -0.14335103 0.4064738 -0.1186974 0.23418301 -0.7764629 0.66935223 -0.8204802 0.60189486 -0.053773656 0.27403694 0.22448416 -0.063070826 -0.2010242 0.3951212 -0.032367617 -0.2963848 0.01052795 0.051680315 0.7374301 -0.11666221 0.07209656 -0.36412203 -0.032943025 0.22390027 -0.27638772 -0.089456245 0.1515651 -0.8374076 0.051203266 0.4944171 0.013722339 0.7615684 -0.32391182 -0.06384192 -0.82815415 1.0139269 0.33306763 0.26812947 0.24464272 0.49317962 -0.0015888405 -0.48534027 -0.29112872 0.5604574 0.18597382 0.38692498 -0.15909192 -0.05709509 0.03157995 0.36600012 -0.12222905 -0.37455654 0.3306769 -0.26730406 0.548506 -0.12223523 -0.25030422 -0.33201495 -0.080700785 -0.11747181 -0.8940987 -0.21038526 0.469061 -0.029493282 0.015570001 -0.5878144 0.19067644 -0.04141777 0.47908592 0.8661805 0.4952827 -0.16852547 0.26378894 0.40199533 -0.22005013 0.7050838 0.24880116 0.58972347 -0.08938384 0.52553415 0.3673969 0.1563874 0.3539755 -0.34354368 -0.318043 0.47574347 -0.3348044
KTE -0.14873984 -0.6019913 -0.101583324 0.047465116 0.016910568 -0.16960385 -0.09580874 0.030891648 0.20965214 -0.37817636 0.121305585 -0.008187388 0.0096269045 0.1873538 -0.72242486 -0.35525525 0.2783795 0.15436596 0.083840325 -0.23521712 0.16281952 0.3488361 -0.4063946 -0.54626477 -0.18193603 0.36077926 -0.24243593 -0.14381273 -0.11502183 0.22208981 -0.45133975 -0.40476987 0.54526967 0.24751131 -0.23213726 0.46039072 0.2776088 0.27620035 -0.05338874 -0.29029432 -0.47372323 -0.26814446 0.48719203 -0.12881856 0.14586438 0.23197082 0.24426584 0.017815217 0.5539701 0.068730965 0.009986859 -0.20304422 -0.7995301 -0.31231478 -0.24832372 -0.035248537 0.72840583 -0.33813375 -0.0011827998 0.628808 -0.8783132 0.48948017 -0.49975276 0.11473822 -0.18776384 0.39346832 0.1610244 0.9115959 -0.52166384 0.6219025 -0.10757034 0.0129898675 -0.10585123 0.15966432 -0.006909332 -0.23428491 -0.7401289 0.63384575 -0.31885985 0.07407078 -0.41871646 0.11621249 -0.5162871 -0.15752725 0.0664806 -0.14767608 -0.8934492 -0.101615 -0.4650445 -0.07619961 0.06361631 0.22702752 0.37868685 0.21810885 0.22122818 0.10087917 -0.27325058 -0.186381 -0.09870544 0.3747403
EKT -0.06924268 -0.17386569 -0.24322128 0.31026155 0.337518 -0.19256134 0.09303677 0.170065 -0.26828924 0.299278 -0.4227288 0.15182683 0.16763738 -0.15020797 0.18586724 0.43594527 -0.7981716 -0.95188 -0.033820707 0.37721166 0.08855083 -0.20384574 0.101381056 -0.04551136 0.013535657 -0.23237398 -0.38386825 -0.22250517 -0.43196115 0.8207825 0.05557363 0.6252177 0.3788584 -0.13036564 0.4463533 0.06884282 0.112579405 0.52038884 -0.6432617 0.08091117 0.46981353 -0.03192726 0.36160058 0.24553081 -0.1272709 0.16629079 0.3476233 0.11153732 0.42092076 0.7079833 -0.021163402 -0.3830594 0.9413307 -0.018418176 -0.21829346 -0.59384435 -0.3876681 0.009209075 -1.1417345 0.35126543 -0.5096195 -0.11312967 0.24660261 -0.4495128 -0.08559027 -0.08551428 0.03851414 -0.09026961 -0.33017126 -0.43222323 0.07826574 0.20794687 -0.61572576 0.25467134 0.4320986 -0.63998455 -0.33512506 0.5800336 -0.24144682 -0.21111348 -0.12032344 0.27840346 -0.4998349 -0.3323306 -0.37503034 0.2035536 0.19737771 0.08272293 0.4457034 0.12320637 0.70504826 -0.6137271 0.37084728 0.25385863 0.9298229 0.4271943 -0.46051082 -0.13150822 0.57690936 0.40096942
EEL -0.18168412 0.07812375 -0.28035516 0.15582576 0.08097429 -0.20288505 -0.33403057 0.59826714 0.6327873 0.47172606 -0.68451756 -1.1473471 0.1588492 0.69587296 0.3889513 0.22127937 -0.32093632 0.49892366 -0.41874033 -0.53837705 0.029451247 0.83785444 0.1690493 -0.09805027 0.25795835 0.50385225 -0.6298643 0.43114504 0.38659212 0.20293313 0.15688327 0.2953703 0.090162136 0.61148125 -0.029463261 0.16337326 -0.37174198 0.23570584 0.037213773 0.044735443 0.24492756 -0.54973257 -0.54177296 0.26648697 0.553594 0.39019522 -0.52740496 -0.22958063 0.6697519 -0.61066693 -0.25248232 0.04939018 0.6298352 -0.583367 0.43367326 0.4248532 -0.14159797 -0.2175535 -0.48220518 0.023728848 -0.2968844 0.49629325 -0.580042 -0.7762189 0.26637486 0.3786576 0.8279514 0.73990977 -0.22278588 -0.17375351 -0.5110528 -0.5179989 0.38414437 -0.6557853 -0.5128767 0.124074385 -0.20695893 0.34133637 -0.23896104 -0.40398213 -0.19586772 0.35325274 -0.111965306 0.35911137 -0.3739731 -0.11014326 -0.10277068 0.44460705 0.61254454 0.36716986 0.48121426 0.91560966 -0.65795684 -0.2960227 0.66599834 0.14795078 0.14670496 -0.006952281 0.28103194 -0.16997044
LKK -0.07364319 0.23762849 0.11461694 -0.09558931 -0.35243154 0.45402914 0.68345785 0.7508843 -0.39676398 -0.008982643 -0.56166685 -0.46921846 -0.121494316 0.07781012 -0.16078173 -0.22305614 0.6061563 -0.23585561 0.17378747 0.4000078 0.8250949 0.30654994 0.6522408 0.7709619 -0.08934199 -0.79680806 -0.2744493 -0.39469284 0.1670218 -0.2941576 -0.3122445 0.5353178 0.1530549 -0.026483586 0.22935085 0.16810232 0.089086145 -0.039777856 0.19590794 -0.23435602 -0.29543146 -0.34469652 0.56722957 -0.78484005 0.21914518 0.37991282 0.5151868 0.25975978 -0.339309 0.9548454 -0.006452609 0.6660765 0.07965721 0.1782435 0.8760414 -0.41578832 0.33106163 0.58419186 -0.29852903 0.8821069 0.33778 0.33313915 0.3402555 -0.31646112 -0.7494421 -0.2633081 -0.29533526 0.49181247 -0.39515218 -0.16985771 -0.099877186 -0.58037037 0.086718634 0.6748847 -0.31705096 -0.16478102 0.21143363 -0.2007074 0.39548457 0.10693399 0.3504778 0.4393264 0.048380714 -0.03910597 -0.054505583 -0.027323307 0.21469863 0.6009235 0.037660647 0.20429234 0.89699036 -0.1802835 0.03557914 0.21858996 0.7725423 -0.04299801 0.49229166 -0.103207454 0.21098322 -0.8716711
KQK -0.15389372 0.35350248 0.076202594 -0.02907671 0.9721361 -0.6564905 -0.22757682 0.6530561 -0.4127055 0.0979203 -0.5975097 -0.23105767 -0.30320218 -0.39981094 0.0189575 -0.24147601 0.6952413 -0.11672387 -0.679688 0.63451797 -0.41209608 0.017694563 1.2250907 -0.12060321 -0.2816195 -0.4374878 0.14188242 0.64438784 -0.14780097 -0.4323814 0.2713404 -0.39782852 0.13332504 0.6024219 -0.369055 -0.20690951 -0.0515004 -0.86111516 0.35122097 -0.641651 0.32840034 -0.44992298 -0.1941267 -0.13272971 0.7972262 -0.04132939 0.00572698 -0.06914365 0.6197195 -0.09107188 0.23679495 0.041879293 -0.39254478 -0.7576778 -0.55196303 0.09313514 0.036841057 0.18540205 0.31807864 -0.15554978 0.34108838 0.041004032 -0.45253745 -0.8445625 -0.2841886 0.10855734 -0.5521205 -0.24849123 -0.5260459 -0.33001685 0.23346753 -0.041410703 -0.07743059 -0.091985546 -0.15930231 -0.17182194 -0.25201362 -0.0327424 -0.17671797 -0.38000354 -0.038251378 0.17672221 0.02112758 -0.08955176 -0.2812048 -0.22594102 0.30638066 0.046956833 -0.04680105 -0.5544892 0.16351037 0.92402816 -0.623128 -0.5261462 -0.08780286 0.44306776 -0.1659929 -0.4474099 -0.1121117 -0.50688523
KEV -0.0052516568 0.5087177 -0.06533937 0.3149739 -0.5173765 -0.41098917 0.022652967 -0.0065902867 -0.106285706 0.3311525 0.37273586 0.16621636 -0.5690992 0.007119797 -0.48048338 -0.40608028 0.034926582 0.22109878 -0.21628396 -0.35961646 0.2687763 -0.45803 0.30608207 0.05722863 -0.3802656 0.029544238 0.28424025 -0.24477926 0.022667084 -0.28248549 0.43764952 0.012683077 -0.7377971 0.14230774 0.048520703 0.07606799 0.34566543 -0.29207575 -0.57596064 -0.47318807 0.17537554 0.015031782 -0.25146273 0.24285312 0.24576384 0.44513077 0.44378036 -0.76684356 0.09459387 0.08848017 -0.1434394 -0.52582574 0.42118973 -0.23093374 -0.6454381 -0.0742622 0.32567218 0.45847613 0.2272376 0.5615425 0.42045814 0.45748088 0.23147306 -0.39712334 -0.62227654 0.37465113 0.37214974 0.08098649 0.19183777 -0.023235008 0.10399897 -0.17919219 0.30506888 0.045801274 0.25666475 -0.4796051 -0.28534845 -0.36860356 0.10782829 0.09066608 -0.8318635 -0.008760325 0.33819503 0.39405388 -0.13320754 -0.26688278 0.2671738 0.5491367 0.8652381 -0.18367484 0.14500201 -0.18933916 -0.31112066 -0.2195404 -0.090962134 0.39816123 0.5983513 -0.5483389 0.2661584 -0.5002551
SLA -0.42903614 0.21131004 0.24739607 0.11142216 0.20569767 -0.41058514 0.015437602 0.03881135 0.11629431 0.4717134 0.10028737 -0.62577826 0.55974793 -0.7075319 0.20152707 -0.547913 -0.20027128 -0.63244486 -0.09663861 -0.16064133 0.31592262 0.013986392 -0.15480344 0.04491489 0.10350489 -0.49515355 -0.33844036 -0.33465162 0.08521945 -0.47843298 0.06365182 0.108704396 -0.23984957 0.022450777 -0.09657068 0.32178766 0.27212346 -0.56566286 -0.65441567 0.12596287 -0.06556325 -0.35281196 -0.06726406 -0.10780391 -0.095831275 -0.42161915 0.023394337 -0.2602993 0.47843912 -0.002619073 -0.026713433 0.33326596 0.19607347 0.1621238 -0.41824144 -0.08990205 0.20931321 0.02438905 -0.75659007 0.4638723 -0.3875846 0.23708135 0.41383463 -0.40209725 -0.21591051 0.8641461 0.11026344 -0.18820915 0.013111363 0.31600684 -0.16619906 -0.1906349 0.10675416 0.0027607367 0.03886692 -0.21912494 -0.17701519 0.30904096 -0.7741404 0.28078455 -0.026827767 -0.1681738 -0.65470827 0.09867395 0.3914519 -0.26513493 0.0021629683 0.5965142 0.07021316 0.4404151 0.8593555 -0.5288085 -0.08802366 0.21215218 0.049762107 0.04691348 0.39205837 0.24355952 0.4162602 0.28031242
KKE 0.19591995 -0.16531444 0.32220104 -0.11283644 -0.10131981 -0.3197412 -0.76616895 0.011402255 -0.16563433 0.004817757 -0.6558845 0.12501512 -0.5079577 0.26287413 -0.2114567 -0.35041702 0.5734961 0.5743317 -0.2207204 0.27570146 -0.07367422 0.106989175 0.69991827 -0.19912905 0.9267645 0.017307017 -0.24551235 0.33157122 -0.6038687 0.071650706 0.81200886 0.46348095 0.7478591 -0.3152352 -0.07443158 0.24461193 -0.11065795 -0.19642904 0.36840576 -0.14751205 -0.15068296 -0.007377298 -0.24242081 0.1920839 -0.08643763 0.2680043 0.34283358 0.08134836 0.20392749 0.6103299 0.10815555 -0.3591067 0.57940096 -0.96647537 -0.6568288 0.0627611 0.9036394 0.6146169 -0.15411332 -0.56249076 0.07475852 -0.36233565 0.5969653 -0.13350552 0.120174855 -0.35019538 0.055344645 0.35768872 0.10291775 -0.010243196 -0.5080247 0.3926521 0.46216974 0.5634386 -0.014958595 -0.35674945 -0.16034919 -0.46179107 -0.058174364 0.21627238 0.141229 0.58315563 0.33148792 -0.4732599 -0.19703928 0.39462495 -0.27430725 0.60628474 0.71233046 -0.029070647 0.073670015 0.09739114 -0.039521948 -0.38494712 0.29409555 -0.02082237 -0.07601283 -0.2719467 -0.3056936 0.16050564
KEL 0.3396466 -0.21838693 -0.12521347 0.44997957 -0.09986588 -0.6533718 0.13033019 0.8751546 -0.48992124 0.062917985 -0.69429183 0.7807187 0.4273768 -0.09040801 -0.114756405 0.31783694 0.16541845 0.12740524 0.31827393 -0.060639713 -0.5871296 -0.122437306 0.19976763 0.9028519 -0.41146708 -0.10982936 0.92124635 -0.20969741 -0.7146803 0.54808605 -0.0534686 -0.37800285 0.3052257 0.24190858 0.41862443 -0.25166842 0.44821534 -0.6569089 -0.40062043 0.26172578 -0.35472447 0.44046414 -0.16412413 -0.24640591 0.40158233 -0.14795473 -0.50543225 -0.26227435 0.03769055 0.56575274 0.1530382 -0.72759366 -0.29465288 -0.16220711 0.46293676 0.61615235 0.45345265 0.26947224 -0.8024793 0.2315628 -0.40560836 0.40439323 -0.2386816 -0.68944377 -0.16338795 -0.44028327 -0.21281144 0.056525744 -0.12806298 0.06327682 -0.10674815 -0.23258138 0.30620652 0.41921952 -0.03959724 0.08661149 -0.1454314 0.8239695 -0.023266118 0.20936248 0.8340191 -0.16490519 0.08717124 0.37420106 -0.3966919 0.07756559 0.803395 0.26151463 -0.6089435 0.42186618 0.9384144 -0.6563238 -0.08523796 -0.27717772 0.2644376 -0.22755884 0.25215802 -0.014048539 0.50409824 -0.12982252
EEE 0.34988245 0.11865269 -0.111569956 0.59207815 -0.41362697 -0.46750504 0.07720295 0.52250826 0.637655 -0.14842126 -0.6976546 0.14602618 -0.7404939 -0.18543535 -0.1675478 0.29848137 -0.7499663 0.0779545 0.28788608 -0.78719586 -0.2013703 -0.22552267 -0.38960826 -0.069148764 0.19024804 -0.014439213 0.31360438 -0.8223901 -0.69859165 -0.24937975 0.49484673 0.40959668 0.36057994 0.009913207 -0.6467038 0.8960623 0.3507057 -0.24184756 0.65388095 -0.46988374 -0.8472487 -0.05809612 -0.40592054 -1.1571529 -0.033504356 -0.8525881 -0.27607217 0.23398577 -0.21822742 -0.24063663 -0.07399557 -0.9363601 0.10073087 -0.3289813 0.21079475 -0.08648475 0.3191326 -0.04715041 -0.32519406 0.43261182 0.009977553 0.3480279 0.04090859 -0.64840716 -0.085852616 -0.21743543 -0.14665927 -0.5947064 -0.48326936 0.35502976 0.4100721 -0.22254674 -0.23858036 -0.15694255 -0.035924863 0.26990056 0.42932117 0.05676873 0.47689316 0.8683277 -0.020214261 -0.5743477 0.62862456 -0.8898543 -0.1549879 -0.5995764 0.26887307 -0.07663827 0.21367548 -0.17901692 0.649309 -0.08541259 0.16155821 -0.36502147 0.6355395 -0.047499813 0.12002195 -0.31976402 -0.18694182 0.43794206
KMI -0.54566044 -0.2817028 0.098894164 0.29271087 0.1693555 0.17292573 -0.075295046 1.0194569 0.31671566 0.43818125 0.014202033 -0.33251977 0.96204865 0.01026107 -0.30749908 0.31929168 -0.5824577 -0.29658374 0.07849174 0.0058023864 0.4794233 -0.22011116 -0.23837085 0.30635327 -0.05305141 0.31393299 -0.33246705 -0.28906727 -0.07063903 -0.11341829 0.72298706 0.34141043 0.40056345 -0.1268145 -0.51647764 0.3453302 0.64040184 -0.96676695 0.08251872 0.012708408 -0.7881622 -0.14145257 -0.07262813 0.04416955 -0.003801553 0.058288906 0.11440223 0.12932634 -0.108117566 -0.0537743 0.27181378 -0.18735836 0.29225877 0.11493014 -0.37609574 0.3166958 -0.459583 0.19147027 -0.43159518 0.10790101 0.26249248 0.23617919 -0.6081506 -0.3167909 -0.30961335 0.20449875 -0.04800016 0.3729901 -0.65779173 0.39546177 0.31283206 0.099575795 -0.11926126 -0.4633831 -0.03834487 0.14552744 -0.4106961 0.0822708 -0.83623856 0.05726961 -0.08681938 -0.6579424 -0.24433126 -0.12275106 0.047939505 0.10089717 0.10174537 -0.36681372 0.45263425 0.22927302 -0.1905325 -0.23280881 0.46480998 -0.101100765 0.39060822 0.48126468 -0.050559055 0.54024476 0.077553116 -0.20297067
VAD -0.2578229 -0.22741264 0.34848583 0.98039085 0.0009142002 -0.92037755 -0.14556764 0.34548074 0.23658346 0.482152 -0.17997913 -0.31385294 0.093100116 0.93853277 0.30806482 0.068037175 0.26029587 -0.1941652 0.24676615 0.009640834 0.021603137 -0.45035928 -0.05506525 0.0856715 -0.45824823 0.3972155 0.44280154 0.6232831 -0.3842666 -0.45897576 0.3240323 -0.6931629 0.069479376 0.68001026 -0.23926714 0.13470429 0.22397554 -0.75014037 -0.8214229 0.11752869 -0.6267214 0.7857274 -0.37434322 0.1472711 -0.08111151 0.5212506 0.4585031 0.3046697 -0.27190185 0.4877923 0.4966833 -0.31564248 0.4677796 -0.594838 0.2463543 0.12255994 0.84081656 -0.24149108 -0.7185051 0.47117376 0.040001824 0.4308714 -0.4534448 -0.3534816 -0.30025288 0.02014831 0.072221704 0.4896002 -0.07116902 -0.9029548 -0.27127835 0.50752187 -0.12866673 -0.06461653 0.9254819 0.9343335 0.43710527 0.54863685 -0.405249 0.16689011 -0.06309889 -0.33198214 0.1565261 0.36739653 0.3644294 -0.29051957 -0.41055793 0.051539093 0.06564421 0.6187039 0.6166135 -0.094460964 -0.58845127 -0.55551004 0.5592769 -0.5718494 0.22640263 -0.72889304 0.34901565 -0.89059556
VEA -0.35451245 -0.147763 0.9202204 0.70135105 -0.06380385 -0.3932719 0.54907364 0.9124685 0.06323696 0.027801394 -0.09018668 0.59014124 -0.16230305 0.051893428 0.0017994626 0.27712375 0.12480347 0.46221635 0.61487514 0.13825233 0.65724665 -0.11905549 0.2845984 0.63188213 0.56060594 0.61533093 -0.07147954 0.16776666 -0.51656747 0.54772574 0.64257413 0.32610393 0.7037522 -0.3497335 0.19443902 -0.1787312 0.4027344 -0.11560783 -0.7378085 -0.5452196 0.4761677 0.14550076 0.34751475 0.39333808 -0.08367122 -0.4645707 -0.26277637 -0.5158789 0.37878224 0.37791532 -0.10282516 -0.3488413 -0.08403969 -0.020890854 -0.10253443 0.96437675 0.90834147 1.0300379 -0.15129541 -0.5616714 0.27762392 0.2050899 0.45162627 -1.6492186 0.18543984 0.36430165 0.27526408 1.2196001 0.3852042 0.5468627 -0.36894542 0.12953852 0.34288302 -0.17725852 -0.106241785 0.40724906 0.6621954 -0.5999648 -0.56200165 0.037375752 0.039656453 0.31073117 0.2781805 -0.09769201 0.06241333 -0.08230419 -0.31153202 -0.22943619 0.6106701 -0.016554894 0.09977326 0.69712013 -0.2507249 -0.35329437 0.032128233 -0.4040405 -0.047256965 0.058095656 0.55375063 -0.26881918
EEK 0.34905297 -0.6682846 -0.4457567 -0.30786267 -0.106569685 -0.6463304 -0.118351795 -0.064558 -0.32176638 0.24905746 0.017460568 -0.8207896 -0.6012028 -0.2410738 -0.53232193 0.78727096 0.26268336 -0.5386451 0.44499505 -0.20447974 0.080772616 0.3643272 -0.06449363 0.14874007 0.25623846 0.18294941 -0.21497725 0.13278358 0.2599119 0.04911358 0.27028716 0.35473678 -0.025393596 -0.21897483 0.48313192 0.62848324 -0.20449522 0.65085405 0.3761637 -0.32585913 -0.02413117 0.40935132 0.47154212 0.5250729 0.4538898 -0.40588224 0.0663056 -0.56710607 0.06425506 0.3411462 0.9644763 0.39071906 -0.059342057 -0.14332622 -0.6301558 0.7118998 0.2782847 -0.14028814 -0.44768026 -0.11317138 -0.29911393 -1.0866641 -0.06156953 0.23684071 -0.5218961 0.025850816 -0.39533135 -0.61838824 -0.3692657 -0.0069739246 -0.14526902 0.001479959 0.024777161 0.31040883 -0.10137862 0.052601036 -0.3804377 0.51438034 0.21721686 0.16835745 0.42791623 -0.19203386 0.10303399 0.015423797 -0.46564338 -0.6780594 0.03863309 -0.16176987 -0.09642706 -0.60381234 0.72435814 0.36968446 0.46975395 0.20308302 0.049158793 0.18508813 -0.797562 -0.10376878 0.49193832 -0.17622054
RAE -0.046831064 -0.0509872 -0.21171477 -0.19680595 0.3800002 -0.13727638 -0.6446117 0.104399405 -0.57924056 0.25424176 -0.44091985 -0.27931446 -0.15043311 0.0027917249 0.13837874 -0.5001155 0.00012323554 -0.25641137 0.18939109 0.3335778 -0.025455765 0.3868715 -0.7830771 0.4120931 0.37230897 0.47841138 -0.14567335 -0.29486513 -0.35736284 -0.31326553 0.2116683 -0.10865847 -0.3366651 -0.3042043 -0.60363203 0.4533294 0.16292329 -0.48973072 -0.026497412 -0.6156736 -0.5151829 -0.41999668 -0.025624795 0.2730976 0.0931817 -0.09652016 0.12378142 0.25764394 0.14645584 0.2952531 0.18168183 0.17691013 0.090782106 -0.12379523 0.03984645 -0.17960538 0.03205991 -0.31654605 -0.44060403 -0.391591 0.077149816 0.34770867 -0.32095715 -0.53707206 -0.16323791 -0.15067339 0.6021518 0.9387844 0.5043008 0.25288302 0.16648509 0.41031358 -0.12460823 -0.119811594 -0.43344733 -0.57515323 -0.21164127 0.4264362 -0.32832628 -0.09644129 0.20300987 -0.067885995 0.06445081 -0.3707596 0.217241 0.57567674 0.4150916 0.22162867 0.112415 -0.33276105 0.40651414 0.33774832 -0.23256035 0.23233426 0.25877357 -0.17778452 -0.29185656 -0.2852699 0.61369914 -0.19362341
DQK 0.17409587 -0.25890192 0.2214885 -0.1396087 0.1267112 -0.08907768 -0.09464294 0.557712 -0.37740514 -0.4580913 -0.07574257 0.19059989 0.06477826 -0.12595122 -0.73556155 -0.57647467 0.23558605 0.5848735 -0.18874471 0.045648973 0.10519593 0.5365622 -0.41851693 -0.20215693 0.23994505 1.1187603 0.11488744 -0.019508403 0.06432268 -0.337418 -0.48122498 -0.23933849 1.052661 -0.50537676 0.15623346 0.581994 -0.03079133 0.12639706 -0.32421193 0.22686392 -0.54300445 -0.4299205 0.12648737 -0.3917715 0.22660904 0.88950485 -0.2635438 0.04218424 0.14706084 0.5305793 0.20231558 0.1094719 -1.1327652 -0.23231521 -0.8811662 -0.16895622 0.72902393 -0.47959006 -0.31913307 0.21860698 -0.5749013 0.04586287 -0.22299089 0.10850454 0.055646833 -0.10194151 -0.13975768 0.7369102 -0.1013991 0.18493722 0.091788895 -0.44257185 -0.1393572 0.05974375 0.68086517 -0.14223094 -0.5699658 0.009309642 0.009988307 0.21402939 -0.110875495 0.59860086 0.047429577 -0.7544519 0.18434836 -0.048578635 -0.2679748 -0.4788048 -0.5152583 -0.3879596 0.5479142 0.018390814 0.79517496 0.2844942 0.50390786 0.62661016 0.081374116 -0.8421396 0.0081542 -0.048867933
AAL 0.4394435 -0.46418643 0.10289569 0.31090167 0.63035345 0.2650003 -0.14243059 -0.00071390416 0.53790474 0.52864283 -0.8518992 -0.2944291 -0.5379205 0.9645148 0.73928577 0.10823806 0.12419699 1.2254565 0.7014157 -0.53745914 0.15742514 -0.114894345 -0.051551905 -0.3639684 -0.48017666 0.3786316 0.1637899 -0.53062576 0.49674428 -0.029643105 0.5340342 0.10499712 0.048265584 -0.9145241 -0.07437339 0.576401 0.19799282 -0.9762352 -0.067952774 -0.17498165 0.0043069487 -0.9078394 0.43223387 -0.51892257 -0.8043094 0.16205026 0.8003002 -0.57051545 0.13239077 0.7452986 0.39782837 -0.58606166 -0.12813301 0.052182756 -0.29346767 -0.5420581 -0.023997016 -0.13264556 -0.87597746 0.36276954 -0.3741098 -0.0071336958 -0.03210352 -0.7763862 0.0072348546 0.19804314 0.17293647 0.27435175 0.65803856 -0.63734895 1.1053084 -0.0563325 0.9421645 -0.016410908 0.346636 0.24673972 0.20865612 0.22835794 -0.21032661 1.22021 0.31710228 0.10769145 0.13546577 0.24887583 0.32965124 0.29301217 -0.36064163 0.01682386 -0.28662235 0.33549458 1.4690824 -0.5844308 -0.18808562 0.45966083 0.22580102 0.8337843 0.1459529 -0.13655163 0.08463117 -0.16280006
IDE 0.48168552 -0.03222066 -0.24804842 -0.0002654383 -0.19194373 -0.24653034 -0.31470475 -0.18663247 0.16263735 0.3299027 -0.13041493 -0.3507757 -0.48523188 0.82877284 -0.26918122 -0.20214659 -0.20201518 -0.44887957 0.32414496 -0.16066298 -1.109916 0.37988177 0.2297812 -0.4888036 -0.29806003 0.06646385 0.17275229 0.18707351 -0.4814641 0.45502815 0.29879132 0.30436134 0.7906743 -0.008311661 -0.6115122 0.43122342 -0.14886165 0.098927416 0.010552307 -0.41549078 0.00018248208 0.29866877 0.14499643 0.49178833 0.5653263 0.37613273 0.007468931 0.46896163 0.5046428 -0.2403652 0.17485872 -0.31093067 -0.5754003 0.5706136 -0.17029531 0.68465376 0.41893163 0.3724041 0.5533831 0.6571182 0.007935257 0.7813115 -0.5946503 -0.5164176 -0.30906805 0.23743775 0.08383672 -0.12310391 -0.15096368 -0.109365754 -0.07943313 0.31410787 -0.52481955 0.36738244 -0.31916362 -0.3945025 -0.61023706 -0.64150757 -0.60536206 0.4576934 -0.36805958 0.33819708 -1.2279965 0.5533185 0.11482866 -0.26897648 0.13836557 1.1372888 0.6594076 -0.02867791 -0.4986016 0.61660486 -0.6119533 0.01864058 0.23903134 0.555823 -0.19112584 -0.20338076 0.43605483 0.15013476
KKT 0.58751845 -0.70762324 -0.61376977 -0.29998386 -0.32009822 -0.4637058 0.1200737 0.20207395 0.021695444 -0.20655227 -0.45439312 -0.0014792358 0.20205551 -0.045773737 0.10330912 0.18226442 0.6342054 -0.21649861 -0.23994857 -0.3714083 -0.19999184 0.30506244 -0.15248626 0.059838302 0.32605535 0.5786869 0.05521464 0.374674 -0.048168756 0.8455139 -0.42963332 0.14829138 -0.009197074 -0.87379557 -0.10188484 0.85852474 0.40464878 0.589946 0.30700967 -0.1833784 0.077234134 0.06726154 0.08502436 -0.39119086 0.5784261 -0.02090578 0.56389743 -0.32473692 0.5124899 -0.04207821 0.81436825 -0.14723639 0.395928 -0.4394472 -0.5514464 0.297521 0.15593147 -0.077994294 -0.6158461 -0.12569757 -0.08547606 -0.28092057 0.19733705 0.09611866 -0.2704249 0.5242044 0.8940313 -0.4882689 0.007153767 0.36008126 0.031195367 -0.17392722 -0.32038808 -0.071328 0.13633025 0.47973657 -0.5529984 -0.2282042 -0.44721738 1.2537308 -0.35350195 -0.15395193 -0.05651525 0.26998913 0.068042174 -0.90303093 -0.05044651 0.19999127 -0.18654075 -0.16330527 0.09284091 0.21091667 -0.101568 0.23483019 0.3322202 0.24210675 -0.34698948 -0.16543637 0.18073095 -0.052405328
LTS -0.5986443 -0.2564843 0.19858758 0.43033615 0.16755112 0.16679294 -0.21452752 0.8475157 0.3833187 0.31968915 0.10943946 -0.65173644 0.9403779 0.049960095 -0.29651383 0.24443947 -0.64814335 -0.42060784 0.066969454 0.0028839142 0.3260346 -0.31220108 -0.2255132 0.28623134 -0.14275232 0.42683822 -0.29805064 -0.45401317 0.28988683 -0.034558702 0.6025047 0.07377072 0.3431554 -0.20690873 -0.44628286 0.15623058 0.5667919 -0.8648642 0.116107345 -0.17702563 -0.8374756 -0.19376038 0.13275841 0.0042606723 0.07215655 -0.012921709 0.2517022 -0.023053339 -0.007029379 0.056022044 0.24070203 -0.37699506 0.4293253 0.31520954 -0.43168676 0.20090352 -0.35971358 0.24757262 -0.5925509 0.10133935 0.14391175 0.29168192 -0.61096656 -0.22048712 -0.3743156 0.131791 -0.16850746 0.45027244 -0.75595975 0.39759335 0.41308737 0.21898034 -0.12450132 -0.5537809 -0.11058408 -0.029982867 -0.4805688 0.081681505 -0.7675204 0.1950203 -0.012595666 -0.49090812 -0.24433611 -0.013957184 0.09945769 0.28761336 0.21191424 -0.26277772 0.45080364 0.46650478 0.00636967 -0.087941945 0.4052778 0.00313558 0.290009 0.29557413 -0.09669205 0.6347473 0.12072813 0.006326748
LAS -0.5889033 -0.2560781 0.24098247 0.45307282 0.10490806 0.12345255 -0.21563967 0.8779704 0.35696393 0.34882954 0.15282175 -0.69803035 0.94700414 0.07396638 -0.30138302 0.31469318 -0.63406116 -0.40796465 -0.04257495 0.02996702 0.3121171 -0.36247915 -0.27690628 0.29355872 -0.14927728 0.42832175 -0.3224052 -0.4518043 0.28034222 -0.09778764 0.5291373 0.12291372 0.3649516 -0.22681725 -0.41484064 0.11222228 0.60442674 -0.96157813 0.1376347 -0.16819672 -0.8095325 -0.18453749 0.14734507 0.029116739 0.11615956 -0.027385164 0.24953413 -0.044107586 0.00635385 -0.019866725 0.23211966 -0.33277485 0.40562466 0.3630189 -0.42224005 0.18409933 -0.30639997 0.2766362 -0.6131187 0.048426624 0.18774919 0.2869521 -0.6200417 -0.255932 -0.37182024 0.10991469 -0.16443467 0.40239787 -0.75124323 0.39452934 0.4535562 0.19522092 -0.1423434 -0.54903084 -0.13725127 -0.06101284 -0.45300984 0.031921215 -0.8085324 0.26958364 -0.035005752 -0.5196774 -0.16355258 0.012810524 0.07929511 0.31155992 0.17201686 -0.2519995 0.4545053 0.48516694 0.031919725 -0.07983829 0.3869546 -0.021146063 0.29960462 0.28578332 -0.10141024 0.5735627 0.12999417 0.011117176
LGA -0.5791381 -0.26701394 0.24667817 0.49508268 -0.04579736 0.15864302 -0.29844978 0.84968835 0.26414007 0.29767573 0.15327822 -0.75544405 0.9349631 0.0830924 -0.37524697 0.3830103 -0.61044645 -0.4365687 -0.04883961 0.0014582048 0.2341669 -0.41712356 -0.3059981 0.28721395 -0.14961973 0.49373662 -0.3251672 -0.5454637 0.3535674 -0.14696395 0.42904195 0.042642653 0.4034597 -0.29612216 -0.41622674 0.08746294 0.54116976 -0.9839129 0.28013584 -0.18993974 -0.7732811 -0.14066459 0.16656631 -0.07703002 0.15453385 -0.09101631 0.33073482 -0.12494598 0.06656815 -0.05339732 0.29676253 -0.3472747 0.25597474 0.32016146 -0.47988984 0.14418933 -0.17799813 0.15973221 -0.6444083 0.018307576 0.2287962 0.2940755 -0.7287089 -0.073909394 -0.37676945 -0.0026750234 -0.166159 0.37392083 -0.70402783 0.40938526 0.5364979 0.25331864 -0.12936278 -0.63001335 -0.14616351 -0.035820052 -0.61146843 -0.042520653 -0.7461035 0.22210132 -0.04617186 -0.5091786 -0.20325406 -0.02598769 0.035938796 0.38379848 0.19343561 -0.24353787 0.5062661 0.532851 0.079595834 -0.027423587 0.3966669 -0.055308633 0.26472607 0.2239758 -0.14046279 0.5462964 0.08419693 0.02053774
GFV -0.56706154 -0.24806269 0.29261285 0.48613974 -0.1088346 0.10941501 -0.31548285 0.8226775 0.24594674 0.23723538 0.14758544 -0.8019916 0.9675683 0.09518942 -0.43516055 0.408115 -0.61555445 -0.42419276 -0.07604785 0.015460818 0.20799892 -0.41875005 -0.31628478 0.22496106 -0.18879206 0.5270804 -0.32539183 -0.5212247 0.36037052 -0.15488571 0.35431316 0.04806549 0.4322006 -0.3497922 -0.37275517 0.060221285 0.5021344 -0.9775218 0.33886734 -0.1896276 -0.76924115 -0.11998451 0.18272921 -0.118187234 0.21240708 -0.1318986 0.3433021 -0.11288298 0.06493178 -0.028551798 0.31866342 -0.37254792 0.18033518 0.31447336 -0.44647345 0.1524771 -0.1384002 0.1252773 -0.6632316 0.005853287 0.25868586 0.29838267 -0.7362837 -0.018625593 -0.39034805 -0.036502883 -0.1367127 0.39531025 -0.71670175 0.35771927 0.5592741 0.25389814 -0.15272047 -0.6199604 -0.13256717 0.014075094 -0.6328113 -0.07922375 -0.71102524 0.2089168 -0.11608469 -0.5335734 -0.23074748 -0.05568258 0.09445948 0.3713037 0.25092843 -0.24766825 0.58254176 0.5792447 0.08603394 -0.025855895 0.34900323 -0.10272934 0.25356314 0.21263854 -0.13711669 0.4802507 0.08591995 -0.034590364
MNK -0.53060675 0.17323157 0.1281164 0.47141463 0.49206838 -0.5119363 0.12707755 0.03541884 0.013562782 0.48833326 -0.07828568 -0.65068775 0.6258291 -0.45681038 0.16327356 -0.50762284 -0.12878534 -0.5700344 -0.13209337 -0.31199077 0.20957199 -0.001035748 -0.31753 0.2033027 0.19080022 -0.22431 -0.44409856 -0.06505169 0.067751475 -0.1827742 0.1831595 0.43230313 -0.26783794 -0.040390268 -0.26219055 0.28440186 0.42072105 -0.4934075 -0.667763 -0.033290863 -0.18597731 -0.3685211 -0.03023674 -0.32847977 -0.27209845 -0.13130443 0.031593878 0.07078347 0.2816947 0.25590152 -0.19683366 0.08761477 0.2448735 0.24821249 -0.40053648 -0.15842801 0.05956207 0.11326245 -0.7907835 0.36940205 -0.27282304 0.06495731 0.18969502 -0.4500086 -0.058837287 0.8422138 -0.10232219 -0.11745351 -0.020620381 0.028149312 -0.13260008 -0.019769432 -0.03308245 -0.11500531 -0.0068780435 -0.24463756 -0.14999935 0.64199257 -0.8843294 0.20084386 -0.02392255 -0.09337345 -0.81330335 -0.1317376 0.29219905 -0.1553587 0.18768746 0.4810127 0.32670462 0.42867595 0.84706616 -0.4363796 -0.10515132 0.28329426 -0.19551636 0.096216254 0.3920657 0.35990185 0.30840772 0.1545735
GAG -0.31740412 -0.14607304 0.0061454317 0.0641745 0.51317996 0.11510131 -0.5501748 0.014250586 -0.5516129 0.5443031 -0.41494 -0.3348791 0.12082571 -0.08909586 0.39206767 -0.5368297 -0.41536415 -0.30700666 0.24943824 0.27254742 0.3463041 0.3567354 -0.79618853 0.30238265 0.17286637 0.26599008 -0.21874194 -0.23044574 -0.27029428 -0.113008894 0.5543499 0.22341241 -0.29461643 -0.08356722 -0.6926568 0.61885357 0.24729355 -0.46924207 -0.29238808 -0.6280796 -0.9433118 -0.6294748 0.24305822 0.15771239 0.20227338 -0.032599878 0.17052087 0.16046375 -0.015496233 0.31121767 0.075005986 0.28896832 0.31473494 0.033653922 0.11865921 0.030769572 -0.22813338 -0.2518947 -0.37915805 -0.31041604 -0.14912784 0.340019 -0.34226704 -0.26527485 -0.18460585 0.080348864 0.4461937 0.83266306 0.4089806 0.32911977 0.06749302 0.4138873 -0.08780436 -0.02387937 -0.3219125 -0.6409039 -0.044711716 0.24320975 -0.6272345 0.08091179 0.08188731 -0.19159296 0.046837736 -0.28231445 0.29074755 0.44515204 0.3019704 0.22731516 -0.00045557026 -0.16819684 0.38299373 0.3319213 -0.20172925 0.3022546 0.2172921 -0.06785838 -0.36395955 -0.16017567 1.0452539 -0.13897878
MIL -0.37066504 -0.26461405 0.0337813 0.13399942 0.64878625 0.036278687 -0.4668648 0.17931482 -0.31104216 0.49762416 -0.51612693 -0.36009023 0.21983214 -0.1746144 0.47132176 -0.63160837 -0.49869603 -0.39354423 0.1905828 0.07155977 0.3876898 0.37835938 -0.6968891 0.19867197 0.13968427 0.2926146 -0.30591235 -0.15662125 -0.12714134 0.035063785 0.65781057 0.22584863 -0.28747705 0.016675295 -0.80266625 0.5205097 0.3488492 -0.468693 -0.40754944 -0.53781706 -0.9987283 -0.7308865 0.17161961 0.16126803 0.19432867 0.14572375 0.17491063 0.24755351 -0.12193612 0.34947827 0.032853317 0.099256486 0.54548067 0.20074385 0.1870107 -0.08273808 -0.3897952 -0.1837851 -0.35005143 -0.07383456 -0.14930856 0.364105 -0.25954422 -0.20979637 -0.10424299 0.1649699 0.31057146 0.8179118 0.23831564 0.33700866 -0.00054876506 0.35488477 -0.1507334 -0.09191131 -0.10560033 -0.5217819 0.005599838 0.35021344 -0.6394562 0.19757645 0.16619548 -0.013574152 -0.02068714 -0.17643842 0.3246737 0.44990328 0.2993045 0.12702684 -0.036198303 -0.07657309 0.32761896 0.20206143 -0.05255639 0.31293094 0.037452653 -0.003885113 -0.24103993 0.025641093 0.933801 -0.18489355
TSL -0.347132 -0.23903903 0.05742257 0.098560475 0.59601724 0.08245813 -0.48114187 0.12887833 -0.36040935 0.49958822 -0.49719766 -0.34166974 0.21879233 -0.1547992 0.46776876 -0.59350073 -0.4894325 -0.41501635 0.16092911 0.13403206 0.34714022 0.33712357 -0.7648132 0.21086842 0.15538937 0.25809014 -0.25903702 -0.18411143 -0.15066329 0.018352585 0.62425566 0.22960798 -0.26295042 0.015744902 -0.7574165 0.53711516 0.31663144 -0.47787488 -0.36492217 -0.6098926 -0.9930625 -0.6850014 0.22195047 0.14790887 0.1662639 0.107362255 0.20445088 0.20292123 -0.085547164 0.30145374 0.02229892 0.18759252 0.5106918 0.1869811 0.13257281 -0.011607289 -0.3344525 -0.20592144 -0.36869314 -0.1401091 -0.18836665 0.37115103 -0.28020585 -0.22303332 -0.1565114 0.095731035 0.28838587 0.8129091 0.28557318 0.36217904 0.044767708 0.38683295 -0.12524566 -0.07091771 -0.1271502 -0.58139026 0.013451462 0.30572638 -0.653975 0.17823978 0.18776047 -0.057419293 -0.024793334 -0.21287552 0.33696598 0.48676297 0.24925362 0.19094631 -0.041600894 -0.07401048 0.35543388 0.2690012 -0.15240867 0.31766796 0.07469736 -0.03750657 -0.24395469 -0.024995208 0.97354215 -0.19774622
KKM -0.5340003 0.1902315 0.13323365 0.44478735 0.41278303 -0.5809049 0.09902862 0.024231343 -0.011177742 0.47945556 -0.09352538 -0.6421264 0.70731467 -0.4790737 0.12558272 -0.48579544 -0.14354326 -0.5688474 -0.11566093 -0.2661249 0.2765814 0.031344984 -0.31783006 0.15313283 0.18227586 -0.25537017 -0.49376717 -0.065442875 0.10582429 -0.25441992 0.123990744 0.38112995 -0.26749903 -0.004528414 -0.2198453 0.30809486 0.43417668 -0.52665013 -0.64830947 -0.05803601 -0.22048026 -0.33271137 -0.054301534 -0.3031836 -0.2438452 -0.19139992 0.041063096 0.08105285 0.34853384 0.2237931 -0.2064759 0.10677477 0.1835078 0.2351486 -0.4124207 -0.14225335 0.095119946 0.13974093 -0.83396554 0.3736168 -0.29783252 0.059393153 0.22290488 -0.44291493 -0.094586864 0.87125206 -0.102181956 -0.13409236 0.02731979 0.030739658 -0.13653362 0.018458119 -0.04163025 -0.14203763 -0.002687299 -0.21189319 -0.13994822 0.67531383 -0.88602376 0.21256576 -0.043540362 -0.11806433 -0.7950181 -0.11735531 0.32256344 -0.15378942 0.21020678 0.54680586 0.30832702 0.45503384 0.8371805 -0.44969052 -0.11807159 0.3025424 -0.19115737 0.06328492 0.4032394 0.33797774 0.32145083 0.14423145
ILT -0.58702517 0.2078088 0.12712692 0.46852672 0.40645683 -0.51411855 0.079401955 0.06486586 0.036674015 0.4731979 -0.09160011 -0.62058574 0.6825796 -0.4881547 0.14826684 -0.51046 -0.15463242 -0.641773 -0.11942076 -0.26591745 0.2810752 0.025571184 -0.31727314 0.13915806 0.27054122 -0.25159422 -0.5487659 -0.1120334 0.050199687 -0.30208144 0.10810391 0.40731576 -0.3077644 -0.011731268 -0.233093 0.28033483 0.42011762 -0.57555115 -0.67170024 -0.022740504 -0.1558001 -0.3150244 -0.06611725 -0.3593238 -0.22484809 -0.18752462 0.06901933 -0.004348843 0.36725023 0.14467932 -0.17797251 0.12557559 0.0894221 0.24175164 -0.45824748 -0.15065852 0.14624636 0.13351592 -0.80740684 0.35228756 -0.3475013 0.09032953 0.1618903 -0.4883684 -0.097719386 0.8235425 -0.082265675 -0.19056462 0.054224838 0.03095682 -0.11365819 0.010253079 -0.08066704 -0.09053388 -0.065252915 -0.22788793 -0.16436933 0.6430142 -0.9224495 0.23458518 -0.037892777 -0.13104081 -0.79661214 -0.07177955 0.34924316 -0.13378099 0.13200004 0.5504385 0.26356474 0.41608122 0.882101 -0.45533907 -0.103253186 0.27338034 -0.100570515 -0.04140665 0.4437544 0.37464392 0.3313984 0.27684215
SVA -0.6586792 0.28164372 0.14412804 0.35959288 0.270438 -0.44178218 0.05099662 0.14526938 0.02494513 0.52050585 -0.06671279 -0.66928786 0.66634464 -0.43221995 0.17130023 -0.53361803 -0.05898754 -0.55673444 -0.096845195 -0.2918383 0.2488294 0.10721602 -0.19800588 0.18249291 0.24703695 -0.24361697 -0.55767626 -0.070794955 0.037807826 -0.38775575 0.06324767 0.41608188 -0.37911013 -0.051527854 -0.17691158 0.28795448 0.31728375 -0.6342547 -0.5935989 0.04117785 -0.015566459 -0.29095048 -0.13788486 -0.25811985 -0.18647456 -0.3574145 0.014775671 -0.07153059 0.430814 0.058501326 -0.15960306 0.048810456 0.15013541 0.34044084 -0.4582275 -0.13375954 0.23492081 -0.024715679 -0.8949982 0.36312446 -0.29741368 0.018240478 0.20184524 -0.351449 -0.1783163 0.93681455 0.042814393 -0.23438796 0.07062522 0.0808296 -0.19597931 -0.0010985556 0.010273027 -0.11675411 -0.10884621 -0.23197757 -0.14090379 0.49415496 -0.8152769 0.32475483 -0.07277929 -0.23362274 -0.6757685 0.07359053 0.2280693 -0.053091727 -0.009914372 0.6759542 0.19508965 0.4168221 0.8818663 -0.40853995 -0.13174133 0.2286248 -0.096516795 -0.14790979 0.30431566 0.33215913 0.36090764 0.36108765
AGF -0.73460025 0.28178087 0.111906044 0.2884986 0.1565113 -0.4681423 -0.035472795 0.18755712 0.0070863958 0.3992077 -0.118693404 -0.56253654 0.5970255 -0.4995437 0.21409138 -0.5445799 -0.082554765 -0.69572455 -0.056555852 -0.26047167 0.2560581 0.17704374 -0.22605659 0.06324901 0.39689875 -0.20747946 -0.63776934 -0.14399308 0.01662679 -0.4301717 0.092433035 0.26295882 -0.3466149 -0.14756243 -0.2087912 0.31773877 0.22964585 -0.54964066 -0.5082697 0.018245352 -0.0015052585 -0.32075223 -0.16191007 -0.36140126 -0.20370948 -0.4049996 0.008738876 -0.1927615 0.5189752 -0.017553762 -0.13844441 0.13407294 -0.079121925 0.27468824 -0.55944866 -0.10076846 0.26888925 -0.029164828 -1.005115 0.32167903 -0.34716734 -0.012993865 0.21927695 -0.41145012 -0.16627784 0.8897877 0.11259412 -0.3919987 0.19085371 0.08300373 -0.051042575 -0.04791751 -0.112995796 -0.11743731 -0.14113142 -0.21024513 -0.09424054 0.5077572 -0.7660986 0.28105515 -0.08588579 -0.1894442 -0.71622896 0.07319228 0.3384825 -0.07689434 0.046631373 0.7316745 0.12354885 0.35430872 0.9395146 -0.41866872 -0.05008295 0.18477692 0.031505477 -0.2039815 0.4082066 0.34989756 0.2795152 0.3648805
KLA -0.15925306 0.5420355 -0.19942647 0.092740305 -0.23984526 -0.35971427 0.11442066 -0.2633576 -0.12328363 0.3290687 0.2105618 -0.33513838 -0.3641682 -0.8384771 0.29865202 -0.10278127 0.60284865 -0.31562763 0.11638417 0.7635385 0.4046794 -0.6514624 0.16052918 -0.071457796 0.73318917 0.085812785 -0.33715916 0.23523651 0.6420236 0.122002915 -0.11934615 0.7553905 0.36557615 -0.061677914 -0.25482348 0.46981454 0.46810484 -0.20091532 -0.3698631 -0.53992605 -0.16747601 -0.48677602 -0.2291097 -0.2860679 -0.8194342 -0.5485353 0.12405253 -0.6247472 0.86601734 0.51861364 0.0973289 -0.2578447 -0.6953269 0.4475946 -0.027114237 -0.1857739 0.52566075 0.90581584 -0.54301965 0.12861666 -0.14233464 0.14983226 -0.20211539 -0.28061706 -0.32276762 -1.5892118 0.71623415 0.07132939 0.262904 -0.0030392117 -0.26032194 -0.25809476 0.16651723 -0.48451585 1.1715412 -0.41896963 0.2955114 -0.2811676 -0.27238792 0.102950804 0.27393872 0.920591 -0.65358794 0.3381013 -0.70463806 -0.24695311 0.52013505 -0.16726963 -1.0134395 0.16321748 0.32830456 -0.7309023 -0.54947054 -0.44157737 1.0705087 0.7241396 -0.14505549 -0.43208924 -0.46222404 -0.35874784
VAS -0.19581306 -0.67125434 -0.27380803 0.1069505 0.017852603 0.1611874 -0.2807702 -0.11864852 -0.57396793 0.70967644 -0.22780652 -0.46182504 0.17714795 0.09384813 0.27561536 -0.30149305 0.08187258 -0.09955408 0.647514 0.002743313 0.21379052 0.04241146 -0.5965518 0.3222199 0.4386884 0.031494435 -0.55810195 -0.78278303 0.002702939 -0.27634478 -0.06421138 0.6115547 -0.66732216 -0.14075994 -0.35202974 0.5177261 0.32777283 0.05143379 -0.14441347 -0.11612161 -0.27693778 -0.5811283 -0.21057285 -0.10584077 0.41798386 -0.25436944 0.2526365 0.0019108279 0.10403289 -0.21063468 0.093587056 0.06649208 -0.186742 -0.29360816 0.11622052 0.042569943 0.22477752 -0.55543387 -1.1655638 0.16548681 -0.25949308 -0.1842319 0.12511592 -0.40168208 0.61498696 0.44034952 0.232466 0.17137924 0.28381926 0.3358152 -0.23179188 -0.06440423 0.07835482 0.50332755 -0.37748298 -0.14740622 -0.13494763 0.6373818 -0.68807524 -0.24732779 -0.25434107 -0.53584707 -0.050449364 -0.2820824 0.36611223 -0.18499252 0.14138155 0.16904701 0.18823723 0.15324986 0.7538859 -0.066230975 -0.1380641 -0.2596392 0.6924397 0.2413683 -0.52066064 -0.34247756 0.4910682 0.82767224
