1089 100
ELD -0.019061418 -0.06837722 -0.18936913 0.031668108 0.13794503 -0.055719327 -0.09092824 0.20931488 -0.025798908 -0.28288087 0.41918528 0.075623095 -0.20772603 0.25389123 -0.13515557 -0.239867 0.16189337 -0.14808404 -0.034396023 0.044842366 0.0052211876 -0.16093689 0.063145295 0.034551814 -0.21222265 0.10418261 0.3752731 0.016147157 -0.025710434 0.14671457 0.14731447 -0.017410852 0.21156842 0.002196267 0.07923543 -0.14633697 -0.03131996 -0.195912 0.08091364 -0.12969056 -0.055053145 -0.29993868 -0.42827773 0.09914027 0.01906126 -0.15890932 0.1177268 -0.42625412 0.16726847 -0.14993943 -0.017481135 -0.44006723 -0.1587133 -0.07789368 -0.14473322 0.42783704 0.36589918 -0.23250906 -0.23854055 0.3457392 0.23866957 -0.10507692 -0.03754941 0.25364637 -0.1341539 0.4600763 -0.31343773 -0.21072826 -0.42348218 0.24697566 -0.09964642 0.5662589 0.18918854 -0.12641057 -0.289085 0.20097789 -0.063706614 -0.09344788 -0.40268928 0.21897052 0.35895658 0.11037415 -0.27940482 0.34376243 0.19701496 0.1488657 0.09709098 0.237763 0.20277876 -0.13802868 0.6241356 0.23450556 -0.055433635 0.15416184 0.25787383 0.3726594 0.074455045 -0.15305749 -0.04303739 -0.114672154
LEK -0.09288982 0.2549767 -0.21799998 0.16229887 0.1908566 0.09855456 0.29032928 0.3351008 0.05330711 -0.2667606 0.3138457 -0.16570969 -0.15282084 0.21337551 -0.22269255 -0.56285703 0.030437129 -0.16602418 0.18357778 -0.28794146 0.009605316 0.05095438 -0.18182826 0.13011667 0.20309159 0.036505766 0.20367654 -0.14621039 -0.20629504 -0.082170926 0.20865868 -0.014342366 0.17016092 0.063163616 0.19725977 -0.21117912 -0.19165541 -0.12757292 -0.10670042 -0.35831624 0.223188 -0.084451295 -0.013756254 0.041457914 0.2332307 -0.15300135 -0.02584361 0.009436615 -0.14868337 -0.010885241 0.20908475 -0.43881088 0.10158617 0.047225457 -0.09460342 0.017675625 0.19906099 -0.019357607 -0.32219544 0.42705807 0.49954602 -0.35083634 -0.1312321 -0.12047709 -0.1984716 0.29951674 -0.01114644 -0.2931636 -0.36771238 -0.012942667 -0.01612114 0.27452728 0.118434355 0.115885414 -0.25353482 0.002118582 0.14424068 0.09205577 -0.19156192 0.011203213 0.28155306 0.06886756 -0.1203106 0.31443465 0.124686114 0.036739763 0.030868301 0.1312011 0.20716174 0.0354266 0.5345499 0.03768867 -0.08499719 0.0669689 0.31350026 0.13368654 0.23597498 -0.011371315 0.06631561 -0.0919064
AEL -0.060997546 0.30629945 -0.030497102 0.018068954 0.18912238 -0.0405191 -0.22797419 0.35467023 -0.25602815 -0.019853203 0.33935478 -0.022935329 0.06925629 0.07816052 -0.013432782 -0.34329724 0.0048041255 -0.109690085 0.15598713 -0.530891 0.02754488 0.14461453 -0.3490975 0.10248333 -0.14423826 0.17914793 0.18183298 0.010357727 0.015978396 -0.12390458 0.016724069 0.06833066 -0.050567884 0.15155615 -0.32554835 -0.018324416 0.09604323 -0.20860294 -0.07692377 0.09535505 -0.07206225 -0.45408943 0.005977588 0.048536565 0.01655003 -0.21785805 0.12131389 -0.4515141 0.016235739 0.008306684 0.124402165 -0.28857046 0.123918034 -0.19379431 -0.2555291 0.03030024 0.18121931 -0.20935732 -0.09268923 0.51128644 0.35818595 -0.40074626 -0.06969543 0.12748414 -0.22391714 0.48456916 -0.53226376 -0.37791342 -0.19734074 0.12058707 -0.21666123 0.395697 0.33886164 0.16365579 0.18208309 0.21655181 0.12170684 -0.19059889 -0.22973323 0.063888766 0.26828408 -0.033054516 0.066934705 0.17221849 -0.16716136 -0.14145863 -0.04367772 0.4954465 -0.07731117 0.055579837 0.26647002 0.06575683 -0.11592714 0.2478508 0.45801112 0.23781307 0.25067785 -0.33897954 0.057311956 -0.0029051688
KKA -0.08955758 0.16947189 0.06479667 -0.20627199 0.272115 -0.14592335 0.49581054 0.57598865 -0.47915226 0.21212967 0.17374936 -0.13390079 -0.25568458 0.083841026 -0.09620666 -0.22121793 -0.36873278 -0.17208786 -0.21731599 -0.4532406 -0.20975697 0.23277412 -0.1585225 0.42217225 0.04625832 -0.05424329 0.11828033 0.13400115 0.114530325 -0.12113655 -0.27584794 -0.042131394 -0.18374696 -0.15765783 0.02780078 0.1973691 0.008751621 0.015806703 -0.21182203 -0.4621361 -0.06675742 -0.02218859 0.058915284 -0.13443406 0.37134355 -0.16212757 0.026545001 -0.31962088 0.163037 -0.024160823 -0.02832084 -0.37542066 -0.07564279 0.020657776 -0.00086047075 -0.11724449 0.2603328 -0.17265423 -0.11743955 0.5381934 0.38488638 -0.16486895 0.23084864 -0.19849919 -0.26173234 -0.013313119 -0.12956999 -0.22778833 -0.27946335 -0.0447587 0.24527012 0.4292791 -0.07180032 0.10526329 -0.0694329 -0.12022229 0.26074326 0.31250763 0.097527266 0.17076989 0.44116113 0.057785384 -0.06800126 0.46547464 -0.047395144 -0.46332133 -0.08425905 0.22585931 0.091359615 0.009042322 0.5652988 0.2829175 0.03294691 0.36362576 0.5066546 0.34712505 0.19214727 -0.1773442 0.2328167 -0.0047454694
ELE -0.0015055524 0.056819525 -0.22501136 -0.33599856 0.1681717 -0.2230613 0.24481465 0.410626 -0.21203147 -0.16186711 0.15689677 -0.27851707 -0.17849718 0.15876406 -0.15116574 -0.3140616 -0.09896351 -0.17709279 -0.07073648 -0.353234 0.0034909758 0.23951575 -0.22631462 0.60676 0.007247776 0.105987616 0.039326556 0.100071006 0.21681936 -0.025295151 -0.14282264 0.057576213 0.0054149106 -0.09969457 0.41228142 0.18953447 -0.032346025 -0.14290568 -0.12239774 -0.12996316 0.009285967 -0.31799105 -0.07670999 -0.002917335 0.20203982 -0.1725849 -0.047085524 -0.10384558 0.1900962 0.053596806 -0.28364277 -0.21982433 0.066087715 0.0012924672 0.022974042 -0.0048971064 0.55666655 -0.09001027 -0.15525463 0.5104732 0.24008879 -0.26972568 -0.20765406 0.076195285 -0.28735882 0.14471303 -0.24477923 -0.11794968 -0.12803881 0.01669615 0.18450418 0.24403621 -0.1433924 0.42547926 -0.15158063 0.017012144 0.08582426 0.23195378 -0.14353278 0.48334333 0.49097943 0.25905037 0.056920778 0.4432489 0.053619172 -0.18600349 0.069928676 0.39837828 0.078422286 -0.2809732 0.61513335 0.069926836 -0.28308022 0.26374134 0.60928833 0.082697704 0.1351333 -0.46088254 0.3325075 -0.0732185
LDA 0.19855388 0.031045482 0.13955179 -0.5051096 0.26210594 0.25469786 0.48184288 0.5257251 -0.32080013 -0.032176863 0.14711772 -0.3104981 -0.22858603 -0.00050677964 -0.067695655 0.054567862 -0.124075204 -0.09971882 -0.02367988 -0.31570265 -0.2676768 -0.17982441 -0.30153254 -0.031799488 0.13845469 -0.04504597 0.17576443 -0.25191453 0.0135614965 0.2968255 0.14014277 0.3650004 0.056348488 -0.101267025 -0.3175593 -0.08618732 0.07796477 -0.21805404 -0.47387177 -0.45636916 -0.1302331 -0.24349625 0.052079853 -0.14553477 0.26720193 -0.394611 0.04942043 -0.23621419 -0.11293242 0.04165334 0.18685888 -0.55143976 -0.13706471 0.044908226 0.023494907 0.01697845 0.17672665 0.045432698 -0.17046882 0.6339829 0.38525632 0.019125463 0.08117846 0.2001408 -0.043235093 0.3189782 -0.34275827 -0.35424623 -0.16435286 0.53455895 0.19850416 0.46101734 0.3519663 0.08685094 0.013550477 -0.27597675 0.024752337 0.071537204 -0.060347214 -0.28301212 0.30604804 -0.18769531 -0.5206283 -0.2159654 -0.053715333 -0.2733753 0.22944218 0.14912468 0.036283135 -0.010911561 0.22205356 0.23649381 0.12499258 0.5470097 0.13276993 0.4914158 0.23206778 0.08835398 -0.024406211 0.0054490753
KLE 0.011252803 -0.010903287 -0.041588407 -0.33204207 0.4092524 0.24219 0.29755476 0.20493479 0.35962346 0.118720695 0.15548453 0.05014408 0.121571586 0.2699819 -0.030137377 0.15543035 0.24376059 -0.22114709 0.3747018 -0.3666126 -0.20454462 -0.18435864 -0.42699853 0.1671649 0.29410088 -0.19372793 0.57839465 -0.13110816 -0.34931213 -0.18760426 0.23696622 -0.049201764 0.2645427 -0.019531026 -0.23218079 -0.053472072 0.048227783 -0.21902476 0.048329826 -0.28292933 -0.27382722 -0.19639349 -0.36995244 0.0842783 0.07560403 -0.46352336 0.07602994 0.10219855 -0.2767916 -0.22782533 0.035719045 -0.47055462 -0.26532653 0.14566116 -0.28837302 -0.02633245 0.39557832 -0.05350925 -0.46466187 0.34987485 0.076422684 0.0661153 -0.2287603 0.42991728 -0.05610926 0.2603892 -0.2633971 -0.18514925 -0.0040899706 0.08068784 0.035465784 0.49282938 0.3833746 0.30885586 0.19900885 -0.21092698 0.101002336 -0.1174913 -0.21953882 -0.2697953 0.5010729 -0.13977085 -0.29124779 0.069943205 0.058906298 0.08520209 -0.078736804 0.26117516 -0.10652396 -0.14057 0.35130435 0.21725921 0.12624368 0.14058451 0.13552688 0.49661446 0.31616485 0.040325586 0.030757692 -0.42026752
DEL -0.27783966 0.46771482 0.06886853 -0.1410965 -0.17870331 0.14864081 0.10365391 0.4076884 -0.041435648 0.00028279144 -0.095776126 -0.28102648 -0.10436575 0.18568185 0.15345746 -0.89902174 -0.412444 -0.21048434 0.26020956 -0.54263353 -0.31299683 0.35934964 -0.5683053 0.046254523 0.1962581 0.024238925 0.0041121366 -0.049146995 0.1836985 0.19848949 0.18248916 -0.17555815 0.30724284 0.19707412 0.28266937 -0.1359709 0.10913383 0.08428327 -0.13166535 -0.45935676 0.18832502 0.078078106 -0.070385166 0.14576785 0.20342138 0.038447373 0.1499979 0.12659012 0.08170698 0.04667673 0.2312408 -0.51550275 0.3303509 0.068592586 0.072859846 -0.08106055 -0.04222707 -0.24274659 -0.4942629 0.3021706 0.5281141 -0.28865477 -0.42643297 -0.19210549 -0.120315365 0.095373996 0.101361 -0.2859876 -0.500513 0.13025221 0.19340557 -0.028830772 -0.09724358 0.22116637 0.065520294 -0.050022434 -0.002119241 0.19924456 -0.19206722 -0.04309779 0.06523322 0.30893034 -0.035953503 0.41710567 -0.09125459 -0.070208386 0.054057747 0.24107629 0.21993236 0.016988555 0.29817116 0.21884695 0.07579644 0.24587834 0.25831363 -0.17565481 0.400507 -0.24407803 0.12928775 0.26403174
KAE -0.2701133 0.29489514 -0.23619936 0.26884273 0.26115748 0.002366152 0.29185492 0.30205217 0.25000352 -0.43021172 0.6059997 -0.29270953 0.3215137 0.6146621 -0.16188468 -0.30737326 0.020394066 -0.049773384 0.14279598 0.043074757 -0.05055184 0.37870902 -0.02826023 0.18789582 0.07481961 -0.030195717 0.27090132 -0.17692569 0.19163105 0.14950491 0.12063876 -0.2741324 -0.06383472 0.068494834 0.31451538 -0.19806604 -0.2865573 -0.04713439 -0.3061155 -0.34522903 0.0086325575 -0.23702644 -0.25415874 -0.1242935 0.2401595 -0.052068666 -0.2627548 -0.12920004 -0.04311562 0.31229147 0.25352365 -0.46260142 0.22557816 -0.22921573 0.097211964 -0.03975618 0.110434614 0.17877829 -0.15603903 0.22358191 0.48376146 -0.2840342 0.09932065 -0.22697328 -0.39722374 0.39994165 -0.06382355 -0.003364264 -0.25453526 0.28004402 -0.07744716 0.10865481 0.23405531 0.20077685 -0.34748504 -0.15419109 0.46958548 0.16532382 -0.42253295 0.026477097 0.5844656 0.050516028 -0.16335402 0.29690418 0.1416413 0.54767686 0.03463205 0.09704982 0.4313866 0.22302826 0.41293743 0.21365748 -0.18418504 -0.16346793 0.60229605 0.053637754 0.29562944 -0.21431871 0.15527149 0.07191722
LEE -0.17013107 0.3413882 -0.13388202 -0.27525997 0.38826978 -0.13538797 0.19724467 0.298159 0.18528043 -0.23362866 0.014426198 -0.41345564 -0.059521608 0.4157536 0.20698424 0.049605057 0.6127618 0.33590633 0.3233085 -0.15462074 -0.25644878 -0.16777861 -0.27084786 0.36405414 0.28179598 0.25896874 0.67932975 -0.21627717 -0.07018886 0.09386933 0.2548003 -0.05508746 0.12648205 0.2252796 -0.025258733 0.27724046 0.27371615 0.049171716 -0.0057038055 -0.2576777 -0.46323073 -0.6914273 0.0074007087 -0.15142049 -0.26225027 -0.24685723 0.22089218 0.16506593 -0.14167368 -0.3624237 -0.041784987 -0.41883463 -0.37482652 0.11910222 -0.2575247 0.0129150245 0.3870663 -0.512595 -0.26243055 0.5739925 0.25760713 0.15619189 0.09178637 0.2094766 -0.052639086 0.2724989 -0.25494993 -0.15944983 -0.067819685 0.17815852 -0.3681991 0.6718023 0.7721986 0.16847438 0.08530453 -0.09103254 0.19053072 0.03361794 -0.3538902 -0.40974313 0.45945695 -0.103336506 -0.35887554 0.098167576 0.03826969 -0.0044077756 0.23443599 0.2670991 0.1061926 0.06279982 -0.079878 0.5951297 -0.17644127 0.11934155 0.31432 0.3301308 0.40068242 -0.014324785 -0.092086256 -0.21096803
KTQ -0.23376857 0.3750855 -0.21316822 -0.10117575 -0.118705235 -0.08773476 0.34932154 0.36298132 -0.39196032 0.12831639 0.37451297 -0.3301723 -0.070839345 -0.239668 -0.19571643 -0.5377632 -0.20387076 -0.32249045 0.087314084 -0.7625709 0.09671115 0.10767291 -0.44198492 0.25590405 -0.107718095 0.17105809 -0.056442108 -0.19755895 0.06864356 0.05447114 -0.18467128 -0.36486214 0.13809478 0.36493084 -0.009222733 0.1323608 0.22672135 -0.15600647 -0.1250176 -0.25702518 0.36408558 -0.1406808 -0.05213404 0.08880557 -0.06398298 -0.1842328 0.2688252 -0.041246235 0.36564374 0.27138522 -0.035428874 -0.32366717 0.24578649 0.05560256 0.016665777 -0.13951221 -0.03434664 -0.020534584 -0.3707781 0.3221919 0.21435319 -0.31471124 -0.19191696 0.16428356 -0.18487097 0.43211925 -0.1816645 -0.15301184 -0.16814624 -0.03078817 -0.11509817 0.20319241 0.19345622 0.30764493 -0.24534282 0.071631126 0.00831028 0.34410802 -0.07775652 0.4008173 0.51487964 0.23337026 -0.27201018 0.3270745 0.0051069073 -0.04320645 -0.055542104 0.6526982 0.13100605 -0.05906192 0.23654559 -0.031074174 -0.20282754 0.36757502 0.40881938 0.008320801 0.35439488 -0.6970946 0.29546908 0.021253645
DAE 0.070433274 0.07139294 0.05145057 0.14000845 -0.124921404 0.088720076 0.13748218 0.48854998 -0.046766847 -0.0433247 0.005049849 -0.22540659 0.33033055 0.015395377 0.014335736 -0.6893168 -0.011648936 -0.13900797 0.07893879 -0.29392612 -0.4742649 0.24614626 -0.26723647 0.22980815 0.48987368 0.24428302 0.0707504 -0.1809925 0.11957253 -0.33289382 0.0050051543 0.31214222 0.40922597 -0.03359659 -0.081436455 -0.059602134 0.2232543 0.039233916 -0.12764165 -0.07530784 0.53897613 0.11400604 -0.13789935 -0.05973976 0.29955867 -0.084923275 0.3583094 -0.13411656 0.23056388 -0.2535845 0.03869409 -0.350974 0.22677135 0.025124727 0.17534848 0.1510218 0.16480449 -0.09758936 -0.5531217 0.22128747 0.18001404 -0.07799329 -0.16125779 0.21401607 -0.3803696 -0.5049236 -0.23046032 -0.47168332 -0.10824082 0.018343266 -0.39108723 0.2856565 -0.13564391 0.33026576 0.317289 0.17759475 0.068706356 0.04580836 0.12857226 -0.06945223 0.3467892 -0.37651736 0.08015589 0.15966709 -0.5981325 0.05346227 -0.108284794 0.34370685 -0.4101081 0.14039382 0.1475551 0.25238454 0.41274413 0.26317382 0.7391789 -0.09391089 0.48836544 -0.6803658 0.093100116 -0.041638367
KEG -0.03680564 0.44075096 -0.11805946 0.15418503 0.18645144 -0.06706096 0.104269885 0.26554203 0.43254632 -0.06508754 0.07217981 -0.16502306 0.049703915 -0.10183091 -0.1344245 -0.07646214 0.5946425 0.15837404 0.16365668 0.033075042 -0.31549844 -0.17152573 -0.35622716 0.39973795 0.397241 0.48566714 0.3194607 -0.016980274 -0.19989537 0.11435132 0.3561686 0.090432875 0.03774997 0.1966873 -0.17176199 -0.06123767 0.37668633 0.13634354 -0.0829578 0.00978695 -0.15935257 -0.5831071 0.18408787 0.056124788 0.11483525 -0.1939362 0.079975404 -0.19355796 -0.39021865 -0.5140403 -0.096933044 -0.34665722 -0.21489358 -0.20439413 -0.4796604 0.031399157 0.039973058 -0.20544137 -0.33510518 0.50006294 0.47469297 -0.29956225 -0.07792951 -0.063725024 -0.29834646 -0.016942346 -0.09018872 0.029942116 -0.1551226 -0.15467246 -0.26713464 0.37440342 0.7633516 0.24101166 0.27484328 -0.1696468 0.059635174 0.02067342 -0.280625 -0.43329117 0.39143208 -0.660033 -0.46588963 -0.045167975 -0.4557706 -0.010271312 0.21064506 0.09946414 0.14021134 0.11007294 0.056680884 0.068961605 0.050732337 0.049092162 0.47607943 0.19709449 0.3852756 -0.25636667 0.027484085 -0.22781989
AKL -0.3406468 -0.5637312 -0.021569993 -0.34081218 0.24879296 0.11270531 0.17402741 0.48600164 -0.21010551 -0.63465095 -0.33118674 -0.16956748 -0.38633433 0.42370594 0.11244228 0.0943876 -0.3552877 0.18941025 0.113822885 -0.20775142 0.003636202 -0.28520852 0.52894163 0.2931936 0.056812692 -0.18393514 0.2708968 0.36624825 -0.22425522 -0.14725073 0.005029431 0.19522919 0.21404523 0.18828607 -0.11845378 -0.33028656 0.28850806 -0.31443968 0.116304144 -0.12703143 0.03365414 -0.13558128 0.19710445 -0.19761962 0.12910588 -0.29059824 0.14855061 -0.12044628 0.27471757 0.41753426 -0.37790027 0.013741949 0.21682565 -0.47041658 -0.4034205 0.19783574 0.3435983 -0.122875914 -0.36002597 -0.19000621 -0.1003927 0.5126642 -0.08223738 -0.17420217 0.22420853 0.4287148 -0.2726048 0.30200928 -0.09106429 0.040857177 0.18105873 -0.08134903 0.14823225 0.45931956 0.11818573 -0.33357993 0.3846029 -0.117378384 0.084604725 0.0010847936 -0.049843244 -4.247238e-05 0.04450332 -0.20457421 0.024013389 0.44371304 0.1252196 0.30524984 0.2537073 -0.09593667 -0.12034969 0.27917522 -0.18217282 0.34018686 0.26770553 -0.035791796 -0.114073634 -0.33132273 0.17049222 -0.4884084
EGL -0.20183876 -0.11152051 0.3348669 0.05459602 0.20877269 -0.39713562 -0.26383132 0.40138298 -0.4677108 -0.34589228 0.17165701 0.064497136 0.06609253 0.26392516 -0.33403558 -0.37857857 -0.26516238 0.20819612 0.07522105 -0.30886355 0.007173145 0.07997796 -0.071743496 0.091283254 0.0507707 0.45736182 -0.108716086 0.021355018 0.2284669 -0.35085672 -0.26753393 0.27903175 0.30169705 -0.0020508678 -0.12426681 0.07149717 0.20165987 -0.15318547 -0.19732589 0.19373758 -0.080931395 -0.64354604 -0.16382791 -0.060529996 -0.31853846 -0.42980054 0.47985527 -0.17471966 0.4395758 -0.31105548 -0.107534416 0.07745738 0.43615884 -0.07496071 -0.24486151 -0.2250889 0.19940257 -0.18153879 -0.41478184 0.07707197 0.053550143 -0.026374102 0.008876955 -0.0700009 0.0305112 0.35699615 -0.58401906 -0.53220093 -0.008431058 0.18715028 -0.06922985 0.19145058 0.13330862 0.41888374 0.15731843 0.27820298 -0.19892308 0.06790677 0.12632833 0.44884852 0.107980266 0.104330555 -0.15345778 -0.3301284 0.07645405 -0.2827372 -0.3297093 0.32026508 -0.019993084 -0.17965336 0.412425 -0.1203858 0.07968691 0.49610695 0.78644127 0.2378289 0.30163705 -0.72495407 -0.07189135 -0.19208689
EKT -0.0648839 0.14562944 0.08009733 -0.5816038 0.47851583 0.010560144 -0.036513127 0.14195518 -0.19901311 -0.10711003 0.2641825 -0.21348055 -0.08926978 0.2643122 -0.08854188 -0.08305546 -0.065278776 -0.23970267 -0.047142744 -0.088780314 -0.07372847 -0.32161692 -0.06416816 0.062877074 -0.6851109 -0.079140805 0.34320194 -0.29793262 -0.15245324 0.38048545 0.035524335 0.32196385 0.16392492 -0.14257345 -0.46280205 0.15628086 0.26990822 -0.23289362 -0.31652388 -0.37228885 -0.18719631 -0.28156453 0.48313057 -0.04099471 -0.13285917 -0.3958774 0.37941232 -0.108180575 0.033593398 -0.4552658 -0.04235182 -0.34250358 -0.011819255 0.11112699 -0.26584172 0.48335314 0.3212554 -0.32074752 -0.3934071 0.8679332 0.4993928 -0.08870155 0.029454857 0.12335574 0.16829845 0.39086893 -0.31533116 -0.48216853 -0.24555247 0.49195945 -0.18047127 0.34756097 0.41504195 0.29713133 0.11558589 -0.19389063 -0.021206943 -0.19337921 -0.28728208 -0.2885959 -0.054938767 -0.034868106 -0.41731232 -0.4354377 0.076657474 -0.120158434 -0.040609676 -0.1773811 -0.3269439 -0.06938156 0.41387305 0.37504986 -0.00012839447 0.2844683 0.46683162 0.8899915 0.122113705 -0.10640355 0.08566833 0.24093127
EEL -0.020926543 0.32591465 -0.0012566138 -0.09898736 0.70456386 0.01427354 0.25423613 0.6778396 -0.052669507 -0.6906133 0.39733538 -0.08792412 -0.10669337 0.4707205 0.10663035 -0.24327646 0.18886283 0.17747895 0.2552186 -0.66682696 -0.029825402 0.26098952 -0.02723284 0.19957726 -0.08222089 0.30511454 0.068872325 0.25058323 0.04206498 -0.28524032 -0.21544221 -0.26048547 0.19421232 0.071955994 0.17374982 -0.13071565 -0.00025629028 -0.25756338 0.045172263 0.057356812 0.06380106 -0.14609365 -0.42465466 0.16021839 -0.10506619 -0.44561768 -0.051702127 0.21326269 -0.14577132 0.2623115 0.045416627 -0.16993216 0.3511445 0.24289958 -0.29500893 0.14909704 0.021192558 -0.21692745 0.030317307 0.24142733 0.1289796 -0.36741507 0.058346182 -0.049421053 -0.36648312 0.19629233 -0.18267745 -0.11024048 0.12538321 0.1920322 0.6116894 0.20404103 -0.10887252 0.23798726 0.10161566 0.5179414 0.1130289 -0.38698852 -0.24302098 0.4274566 0.30139104 0.7386727 -0.29458037 0.20723288 0.0552966 0.29224938 -0.12087335 0.38761538 -0.04803979 0.054845996 0.50595945 -0.47488716 0.044614755 -0.015921587 0.34984392 0.21302424 0.112541094 -0.50325996 0.19173661 0.04896196
IDE -0.18668368 -0.46515495 -0.0101983845 -0.21345209 0.15724202 0.11157048 0.5288289 0.6767558 0.04045937 -0.36184475 -0.37432215 -0.16870569 0.050715487 -0.1513925 -0.15405065 0.31471288 -0.1465146 -0.10434541 0.4306691 -0.3821689 -0.29632935 -0.15747872 0.3158922 0.4035922 0.2020608 -0.016182924 0.040476784 0.3182132 -0.6265472 -0.3371662 0.03330716 -0.2936649 0.4709498 0.10255375 0.1283243 0.0076366784 0.13665415 -0.34132823 0.39901626 0.026673412 0.2498378 -0.0017358307 -0.05275004 -0.041469444 0.18465975 -0.16663966 -0.03855778 0.13272636 -0.27008304 0.6226907 -0.18924654 -0.0042761792 0.15436915 -0.3997074 -0.053886395 0.0020204054 0.126053 -0.079898745 -0.17792153 0.044162106 -0.27633852 0.004957841 0.22587232 0.18887334 -0.052138764 0.13817076 -0.032498457 0.47311834 0.11483911 0.08418396 0.24215001 0.022307772 -0.20902446 0.2625422 0.32706827 -0.46130064 0.37888935 -0.3980065 0.33078372 -0.09868855 -0.0703498 -0.23872536 -0.1974807 -0.08462016 0.33056372 0.29198396 0.38799432 0.32102197 0.1908395 0.14133605 -0.089110285 0.0022255122 0.34634954 0.33264738 -0.024411049 0.30397433 -0.10844627 -0.3294658 -0.012009499 0.07029523
ADL -0.15666527 -0.38297683 -0.1684488 -0.02777974 0.52846485 -0.40271842 0.1346241 0.09423398 -0.15377888 0.3453809 0.34491694 -0.047576565 -0.044004675 -0.18949541 -0.07810829 -0.47805902 -0.04452899 -0.5008057 -0.10788693 0.14350194 -0.26256624 0.4492247 -0.03158977 0.38666394 0.20731315 0.12632477 -0.11751486 -0.2625911 0.0912321 -0.117848985 -0.56546694 0.22813761 -0.03413077 0.0010252509 0.6643724 -0.020675145 -0.031391624 -0.14934567 -0.21701282 -0.4980825 -0.48914737 -0.4637932 -0.069753654 -0.15530449 0.64835906 -0.34718812 0.051887225 -0.052939214 -0.08420124 0.04074616 -0.10365287 -0.2560761 -0.08406841 -0.16001414 -0.08075765 0.06975673 0.35471836 -0.14375165 -0.7330585 -0.012605033 0.3416952 -0.8267786 -0.063489 -0.16245905 -0.43157202 0.20362654 0.51060915 0.09748167 -0.49986437 0.147842 -0.26037747 -0.33251226 -0.19892773 0.48383215 -0.12382639 -0.17551109 0.4115364 0.5485136 -0.025270535 0.036967102 0.33150262 0.13024215 -0.64289975 0.101867944 -0.06379021 -0.017073104 -0.14182132 -0.27090985 0.33488405 -0.3177335 0.7061351 0.08541118 0.09258438 0.35137126 0.1867306 -0.094678864 0.12367738 -0.5136812 0.4105616 -0.11291332
LDK -0.0070961625 0.29200885 0.05040286 -0.09031293 0.45745543 -0.40118712 0.16850123 0.3814378 -0.11780303 0.63529724 0.4873453 -0.07732706 -0.04034593 -0.105605036 -0.3628843 -0.4761222 -0.08374243 0.04765673 -0.2539406 -0.13383415 -0.2817544 0.15899153 -0.6830966 0.19318996 -0.1958602 0.40224922 -0.087780945 -0.3658011 -0.20604052 -0.19481511 -0.041620623 0.32424542 0.23043318 -0.15713894 0.28268126 0.30792484 0.16196895 0.07770265 -0.38898 -0.1579269 -0.30140015 -0.5424068 -0.114990935 -0.12554666 0.1710165 -0.6858265 0.3272103 0.060558498 -0.010727842 0.19144066 0.05763469 -0.2798107 0.119871415 0.059164915 -0.3698176 0.38138106 0.27576265 0.08467277 -0.74255687 -0.04989995 0.3343714 2.558496e-06 0.006621943 -0.21706386 -0.40911862 0.03756855 0.22514749 0.115697026 -0.11799403 0.11100862 -0.1437744 -0.0144407945 0.08990744 0.014180522 0.375932 0.24669187 -0.04518946 -0.09392978 -0.20583208 -0.19027999 0.2076579 -0.17400387 -0.35860914 0.16136652 -0.05685404 -0.3294189 0.34587282 -0.11460033 0.01870715 -0.13290288 0.33594143 0.26380324 0.11375055 0.263932 0.28006798 -0.11499735 -0.1136626 -0.1950201 0.27991992 -0.14829382
EDY 0.20020209 -0.11604202 -0.10907869 -0.22221904 0.5768263 0.33193612 0.4038386 0.063654184 0.25279048 -0.24502832 0.006775561 -0.27417165 -0.41992354 0.2881016 -0.36384565 -0.2241991 -0.092352666 -0.17704682 0.12601352 -0.06270139 -0.52855504 0.49506322 -0.106615014 0.03638768 0.18465744 -0.020045664 0.13640247 0.1839479 0.1035015 -0.0438174 0.15288977 -0.18674646 0.6466993 0.036848385 0.3973044 0.17843905 0.0024843295 -0.19230793 0.25022483 -0.15742528 0.3926369 0.17531508 -0.69137007 0.5758401 0.1987852 -0.23625635 -0.34238577 0.033179563 -0.07856189 -0.009992026 0.0531332 -0.095039405 0.3097649 0.27541724 -0.16614565 0.26110816 0.2005449 -0.46238163 -0.1703953 0.26944423 0.17326732 -0.34009096 -0.04538035 0.026888607 -0.036681496 -0.053857833 0.03166737 -0.24232197 -0.43461984 0.23148078 0.20680141 0.26734635 0.004603227 0.17185335 0.057817556 0.19013421 -0.1431526 -0.07170849 -0.24050784 0.1153734 0.621817 0.10101473 -0.3110438 0.2975487 0.014930785 0.35276225 0.22141199 0.53728575 0.22571866 0.03275929 0.7396068 -0.23953025 0.31673777 -0.1739234 0.4994563 0.032421973 0.2677111 -0.063960575 0.31338498 0.026837984
SKL -0.16828261 -0.13365144 -0.3863737 -0.14228557 0.676776 -0.15191591 -0.02486014 0.44224253 -0.09332352 -0.6396097 0.19701184 0.2619633 -0.06574038 0.11762831 -0.20410426 -0.19483697 -0.18325743 0.33220664 -0.049697515 -0.70084035 -0.12882455 0.315784 -0.47020796 0.047664497 -0.22325777 -0.022058168 0.22522748 -0.05162984 0.075204626 0.10343327 -0.15725891 -0.5272326 0.35391352 0.16193925 -0.14178729 -0.4113305 0.04695265 -0.08388122 0.20847423 -0.22895905 -0.0786035 -0.104399174 -0.0036444857 0.37029076 -0.15938458 0.027062397 0.22155878 -0.10745599 -0.11589471 0.3287751 0.12212727 -0.1860011 0.13782494 0.060191408 -0.20768473 -0.024509335 0.12376431 -0.06525621 -0.06795908 0.3386671 0.3254368 -0.008039156 0.19282188 0.31087214 -0.23834783 0.06708368 -0.21288925 0.03351574 0.0028565985 -0.12043898 0.05977579 0.072124444 -0.028892389 0.47837785 0.050478123 0.11480418 -0.2963932 -0.333875 -0.2128571 0.83878535 0.4425546 0.420889 -0.08951683 0.11311581 0.27063194 0.5214171 0.20447616 0.47225115 0.5047503 -0.3917643 0.5162718 0.18128103 0.0067239474 0.009747936 0.40407366 -0.19131792 0.059431233 -0.38604298 0.32917234 0.27518025
LQN -0.15316966 0.40447345 0.06678067 0.5967196 -0.24356815 -0.1187279 0.11368159 0.36681107 -0.31330872 0.053181786 0.15025643 -0.12840886 -0.15737142 -0.03727844 -0.23878796 -0.6141351 -0.071826376 -0.086929165 0.11670788 -0.4130224 -0.22936288 0.021773044 -0.13225411 0.13423291 -0.049500495 0.15805109 0.4694007 0.03198274 -0.021498257 0.6587823 0.21200277 -0.21643741 0.25731933 0.055678926 -0.10412321 0.017745024 -0.1340469 -0.3948237 -0.09859335 -0.35670325 0.43127787 -0.20345958 -0.1476234 0.19038373 -0.19290142 -0.3043349 -0.030014701 -0.08597717 -0.008884986 0.22229904 0.06446806 -0.77569395 0.4820186 0.01715969 -0.03488444 -0.33486152 -0.061394736 -0.23152186 -0.37182912 0.32669622 0.17988114 -0.49244967 -0.13832247 0.19818774 -0.35941708 0.42805785 -0.21923843 0.11814096 -0.3133817 0.34027895 0.055828523 0.08400086 0.17786154 0.19823697 -0.15931803 0.31958985 -0.012762753 0.007154673 0.018788025 0.50113314 0.36623645 0.38636127 0.026794842 0.39737153 -0.021352364 -0.153671 -0.1048805 0.29969087 0.05688522 -0.4303208 0.294431 -0.17404123 -0.17077738 0.1900961 0.5961334 -0.26954108 0.60595995 -0.35089874 -0.023498219 -0.006967501
AKK -0.21041438 -0.31490856 0.2729364 -0.024611164 0.1527077 -0.027985672 -0.22104637 0.0011443727 -0.060511664 -0.5816041 -0.49237403 -0.112372786 0.20104527 0.20953321 -0.055385426 0.00541473 -0.06859219 -0.1596423 -0.21579236 -0.21440151 -0.10327827 -0.003594583 0.3598991 0.311782 -0.08218778 -0.058778886 0.30970165 -0.034608975 -0.26730707 -0.25933486 0.080402456 0.005538991 -0.10149659 0.012936572 -0.20420612 -0.05746176 -0.012022255 -0.55220246 0.07337843 -0.073676534 0.2270512 0.12488237 0.09727602 -0.40519717 0.18573332 -0.2940859 0.0932002 0.06287104 0.22324547 0.4962521 0.18991534 0.20497221 -0.07862371 -0.76454544 -0.027266588 -0.43179178 0.26633745 -0.115480125 -0.03618328 -0.15847164 -0.0349149 0.37814 0.16461305 -0.31084123 -0.032322418 0.3431434 -0.023684282 0.03274602 -0.06566369 0.10679163 -0.057712696 -0.35287791 0.0565273 0.58025664 0.21423648 -0.5461947 0.46571168 -0.1931821 -0.07517784 -0.060107127 0.113322854 0.024203941 -0.24133801 -0.47276974 -0.23105934 0.7726364 0.2562177 0.8535294 0.32490698 0.16132937 -0.38862866 0.13417704 -0.036906548 0.18804619 0.11917466 0.4246311 -0.5323932 -0.3986493 0.13814723 0.28149438
ELS 0.26534656 -0.21110986 -0.26167005 0.14890301 0.24963552 0.26437125 0.16985543 0.19350891 0.9121624 -0.1698763 0.2146316 -0.31025273 0.029675027 0.12305955 -0.36688063 -0.17179807 0.35400137 -0.13143338 0.27064207 -0.21026433 -0.43689245 0.0049643493 -0.3616868 0.5641252 0.48384213 0.035644274 0.34117046 -0.24613164 -0.24171644 0.017878436 0.37053287 0.115609884 -0.08432633 -0.5383044 -0.23345457 0.091918565 0.30473453 -0.40539983 0.08369215 -0.5176938 -0.05118052 -0.13340938 -0.22675481 0.26141274 0.14442281 -0.1819327 0.054726165 0.29364082 0.16613463 -0.17291485 0.16886248 -0.78620553 -0.14727084 0.36446682 -0.13151059 0.27271134 0.6126742 -0.3312151 -0.23530059 0.74292386 0.38735136 0.18497649 -0.82771134 0.273702 0.19253199 -0.15832482 -0.011576565 -0.18989258 -0.26397416 -0.041857574 -0.31538257 0.54221505 0.3255891 0.42177722 0.37255576 0.10657161 0.19986835 0.37069672 -0.21044256 -0.16628537 0.26354507 -0.5047775 -0.36102712 0.28766775 0.05084139 0.10417828 0.23170717 0.29279104 0.21958512 0.13699381 0.23219767 0.15499838 0.41513792 0.13744935 0.1483725 0.29897165 0.29498252 -0.025287615 -0.25712842 -0.27094647
EAE 0.05876597 0.043559466 -0.3423822 -0.28761485 0.3110375 -0.21019292 0.10661374 0.3159805 -0.2827286 0.52054214 0.7276088 -0.11892226 -0.12809217 -0.050334428 -0.2687342 -0.2334771 -0.3114763 -0.32152674 -0.17425369 -0.40834528 -0.0026893294 0.17726293 -0.2640869 0.075873554 -0.07231878 0.2248955 -0.04794696 -0.15027064 0.11646275 -0.32717234 0.15163481 0.3232881 -0.02584512 0.25581893 0.33026427 0.12841277 0.42131922 -0.10471223 -0.29498804 0.015202625 -0.25125307 -0.6183495 -0.13626319 -0.013632454 0.14906408 -0.42991588 0.15072496 -0.031134836 0.22426216 0.10542007 0.057743825 -0.16944897 -0.10927312 0.050886143 -0.123327084 0.2221288 0.72673506 -0.08736988 -0.31881413 0.41847527 0.33892357 -0.07180934 0.0014978462 0.061755907 -0.27317894 0.14308605 -0.094268605 -0.280998 -0.2668161 0.109245494 0.13822642 0.14507821 0.075331315 0.09572845 0.23815638 0.00926877 0.043137047 -0.046201218 0.13624346 -0.08925834 0.23759924 -0.07214321 -0.21110544 0.48529464 -0.27266726 -0.28581968 0.19732018 0.6007446 -0.4795616 0.141788 0.28085056 0.28058225 -0.1935066 0.42148536 0.45834854 0.097461306 0.23355073 -0.2864898 0.16212259 0.2082835
AAL -0.12318318 0.2692152 -0.42068195 0.16117407 0.08324901 0.23964728 0.48157683 0.48475868 -0.008709444 -0.19630319 0.56875294 -0.071427524 -0.14166804 0.18006144 -0.21361405 0.02984595 0.2972563 -0.2897372 0.131653 -0.42877156 -0.22582678 0.38115907 -0.08640447 -0.3926021 -0.108912595 -0.14533167 0.33958745 -0.31385246 -0.020925581 0.13114564 0.14877403 0.31492433 0.13522294 -0.179955 0.5779886 -0.51826537 0.09718307 -0.06615874 -0.21420005 -0.1254536 0.19759195 -0.044989295 0.06580305 0.15001802 -0.17669564 0.0754641 -0.22288564 0.08632289 0.028471472 -0.23627967 0.28103232 -0.5037182 0.17030595 0.0740261 0.30823058 0.0064332397 0.27316663 0.14872023 -0.12526014 0.260485 0.2830724 0.26983407 0.030091709 -0.07432486 -0.50300205 0.47223303 -0.0596083 -0.262792 -0.4396343 0.3011998 0.083223335 0.8107806 0.38134533 0.015200077 -0.43746173 -0.27874053 0.32639262 0.011466856 -0.3602534 0.5717608 0.48404905 0.40450013 -0.580484 0.6784983 0.22868375 0.22725867 0.2097698 0.35342386 0.26610896 0.05195511 0.72297174 0.39921162 -0.34332004 0.4446113 0.1859811 -0.17358804 0.022052877 0.15373293 -0.08427124 -0.07014344
DLK 0.0867717 0.30275023 0.04415176 0.16978595 -0.02426701 0.27069375 0.36602244 0.67340255 -0.22765926 -0.41263884 -0.26896054 0.21201216 0.2166418 0.14206539 -0.18267205 -0.2145256 0.100891836 0.41748172 0.6379137 -0.09729604 -0.48257083 -0.031046145 0.06658138 0.09695588 0.28858685 -0.12645921 0.29197803 0.37119904 -0.40624648 -0.12325748 0.29995656 0.056718808 0.3207615 0.01001412 0.13818356 -0.019701358 0.47660443 -0.4934537 0.3545261 0.48276734 0.13148345 -0.073346905 -0.0058921147 -0.04638563 -0.18708792 -0.09514396 0.15457943 -0.57326335 0.05702132 0.25922194 -0.06446245 0.23871443 0.5632103 0.008546568 0.02382265 0.42638636 -0.11213778 -0.010669478 -0.29881868 -0.3070163 0.41551888 0.40946552 0.060185824 0.062908046 -0.15236145 0.07860394 0.18556117 0.03855152 -0.3970031 0.2753582 -0.30287808 -0.05451565 0.374156 0.13720845 -0.1828308 -0.12649621 0.72382116 -0.12176003 0.05689407 -0.16733196 0.18755887 -0.41647604 -0.08883411 0.2145451 0.16452403 0.064035 -0.015548576 0.2085293 0.6850363 -0.41268432 0.008993393 0.009100882 0.07856133 -0.10289164 0.46497232 -0.17734426 -0.06611711 -0.05582701 -0.16751565 -0.25810614
SED -0.3026326 -0.09394558 0.062422603 0.059717506 0.61441046 -0.7353196 -0.07951629 0.44679332 0.13279754 -0.36834133 0.552458 -0.11097203 0.4036805 0.08874291 -0.09859235 -0.26285815 -0.056292318 -0.17573178 -0.3550419 0.24988575 0.24813075 0.1185695 0.25657225 0.2647161 -0.47017094 -0.07115714 0.07652163 0.21792361 -0.043717626 -0.17919755 -0.45374897 0.3866162 -0.46447593 0.16620643 0.2071593 -0.06587543 -0.26279673 -0.11804247 -0.26748374 -0.74431235 0.021953221 -0.31985098 -0.13534485 0.029696805 0.21984935 -0.46539026 0.20789687 0.01672591 0.13655756 0.40789804 0.13140987 -0.19644506 0.2244602 -0.6055571 -0.4522829 -0.1522244 0.5664517 0.25471404 0.15858014 0.048290167 0.6036349 -0.42346817 0.025738642 -0.39106384 -0.34344643 0.43039313 -0.44876412 -0.07221739 -0.26684168 0.067052744 -0.21259062 -0.59765834 0.51583457 0.8258372 -0.3645541 0.03991108 0.58271307 0.31341806 0.005343071 0.46156532 0.085034154 0.37136275 -0.4982916 0.11667532 -0.20372978 0.23560537 -0.34011328 0.050781604 0.49262232 0.044697545 0.1703973 -0.23646292 -0.123151265 0.78158915 -0.003347309 0.4130719 -0.016389001 -0.685374 -0.06643328 0.07825455
DSE -0.06851117 0.5316983 -0.17631243 0.4439838 0.031095363 -0.1932807 0.5577975 0.6143304 0.08749669 -0.057839118 0.22083016 0.11553124 -0.64854294 0.19867253 0.2318504 -0.37277138 0.09391433 0.011342802 -0.26547563 -0.40984523 0.16195472 -0.044867255 0.33432713 0.27038398 -0.36707646 0.07102952 0.21530816 0.26428595 0.015660075 0.041461725 -0.012987089 -0.4416979 -0.08378709 -0.32515427 -0.12780699 0.30870405 0.33263788 0.049856506 -0.09179623 0.27446017 -0.40273938 -0.17454375 0.18930568 -0.087945566 0.33809558 0.16953209 -0.1518649 -0.0014426308 0.31673568 0.122461915 -0.4336244 0.007924609 -0.35149786 0.053879026 0.036629796 -0.044104993 -0.044268098 -0.21898872 0.11153208 0.42716748 0.49965784 -0.3160114 0.59230494 -0.7840818 -0.5149795 -0.3127522 0.13364018 0.112828 -0.21148933 -0.024280827 -0.33136913 0.83537054 0.15866114 0.02092193 0.014552738 -0.012392417 0.4101178 0.29556826 -0.19012038 0.009216786 -0.004126028 -0.36671388 -0.21530838 0.45007935 -0.17162617 -0.4159421 0.13363175 -0.2151939 -0.12265846 -0.05221969 0.6408844 0.52190936 -0.25230706 0.4581678 0.40369403 0.66957253 0.38524672 -0.4193701 0.279675 -0.15603702
KEI 0.029478123 0.16113815 -0.0371854 0.6876236 0.0014383876 0.06384072 -0.03488671 0.32099453 0.13176738 -0.31638393 -0.05299439 0.095909275 -0.060123894 0.12025321 0.19490208 -0.5142642 0.096164875 -0.26112947 -0.18633872 -0.43288282 0.17248066 -0.10679469 0.03903642 0.10632846 0.007778104 0.4447094 0.054849043 0.3205832 -0.40656176 0.05510148 0.8781701 -0.19718832 -0.17530704 0.15415856 -0.12905769 0.29899368 -0.06910046 -0.2013504 -0.32851288 -0.6353322 -0.06306663 -0.09284749 0.499804 -0.03794237 0.22382405 -0.055839207 -0.21566226 -0.14577994 0.0882495 -0.30789766 -0.053053573 -0.713961 -0.16843563 -0.177764 0.38973087 0.003430955 -0.22527787 0.40396196 -0.09574438 0.45054245 0.5224985 -0.37115112 0.45842302 -0.26202944 -0.6808304 0.6088741 0.25920483 0.12134232 -0.092376366 0.9114684 -0.0062781437 -0.026867142 0.59175056 0.4025942 -0.45126173 -0.4763255 0.08441834 -0.122306734 -0.5845586 -0.20386802 -0.4203578 -0.12210083 -0.26123947 0.31882745 -0.43633258 0.251941 0.17313403 0.65815675 0.1788343 -0.19862929 0.69412124 0.32368422 -0.41966203 -0.20630503 0.10507599 0.08389506 0.2949932 0.25450143 -0.04540296 0.7331671
KEL 0.020653835 0.2623514 -0.030475298 0.2598289 0.112608604 -0.17477888 0.30503362 0.45761937 -0.4304353 0.070835434 0.5499027 -0.07837031 -0.21245608 -0.2698443 -0.14485286 -0.43531594 -0.1109621 -0.17342702 -0.09731851 -0.6274779 0.09246838 0.335243 -0.17478299 -0.00021736325 0.19465598 0.17648578 -0.18478794 -0.18100013 0.07858062 0.25503972 -0.09195702 -0.30620283 0.20455801 0.30000687 0.35295862 0.23836374 0.5886241 0.10817237 -0.23995762 0.051609576 -0.036443163 -0.43255895 0.3327049 -0.58265233 0.3056819 0.27738798 0.09278552 0.3114228 0.4415731 0.09848626 -0.4355715 0.2567517 -0.2901831 0.27979082 -0.21005791 -0.14970025 -0.02484145 -0.33404285 0.058921352 0.23393612 0.17059238 -0.52803785 0.17352982 0.17086296 -0.47617042 -0.5924364 -0.30364928 -0.104006425 -0.23618712 -0.22820973 -0.15608437 0.35519975 0.08855977 0.11684073 0.2867573 -0.49599683 -0.038961723 0.24836601 -0.06745213 0.61178017 0.3885993 0.16960889 0.17429087 0.5844952 -0.432286 0.19039263 0.37454492 0.6297219 0.08196962 0.0061502964 0.6646255 0.038501773 -0.26766568 0.83380216 0.9457713 0.3440309 0.52804774 -0.048945714 0.33853385 -0.018648855
VED -0.25889674 -0.34893453 0.14559793 0.10166234 -0.03500855 0.35783568 -0.39108387 0.34651932 -0.5714923 -0.050371356 0.011266252 -0.43771508 0.005626533 -0.1077605 0.3158425 -0.28058988 0.27307436 0.1154376 0.08083698 -0.31532642 -0.46198976 -0.02022503 -0.45514226 0.023004578 -0.48532957 0.5019259 -0.18493222 0.018103382 0.49233153 -0.1948611 -0.038290877 -0.04478922 0.31602845 0.38652563 0.093191214 -0.21097988 0.15723959 0.024219038 -0.257111 0.33586502 0.040225103 -0.83256686 0.007861446 0.35356957 -0.1492597 0.043522473 0.23238164 -0.32629132 0.5051238 0.00902025 -0.21007577 0.23553729 -0.07290605 0.18821561 -0.07071188 -0.35574794 0.12200237 -0.23519671 -0.7410393 0.00023280494 0.11634858 0.014039476 0.20163684 -0.10373763 -0.009252354 0.27375925 -0.52900195 0.07723882 -0.39890522 0.18601942 -0.41583243 0.32001033 0.4135599 0.15932852 0.07482436 -0.2111031 -0.11322122 0.42987654 -0.45009863 0.25769278 0.056275558 -0.20717368 -0.15657505 -0.07348788 -0.060266137 -0.31865957 -0.052364685 0.5332812 -0.20204796 -0.4454937 0.037712812 0.14026032 0.37499282 0.47397026 0.5724062 0.22186403 0.5794518 -0.17098404 0.10605142 0.37400892
AAE -0.16444416 0.3271482 0.3399745 0.48223463 -0.37679595 -0.2573028 0.14141694 0.10058462 -0.011429717 -0.39278865 0.08459936 -0.60605884 0.35127974 0.16887712 0.3666596 -0.9339685 0.0007671062 0.019107731 0.10912447 -0.29707867 -0.34154397 0.12053743 -0.4427128 0.15646203 -0.008995215 0.29116312 0.36401033 0.027901309 0.07528213 0.12625824 0.3135804 -0.4223193 0.64492285 0.17512244 0.10567337 0.16375542 -0.04821294 -0.027401615 -0.298377 -0.34032893 0.46345854 0.041557267 0.46010137 0.34461886 0.3137203 0.028765095 0.11277598 -0.16033244 0.14937949 -0.13173608 0.32640442 -0.46240637 0.27394217 -0.28306723 0.23411164 0.32447553 -0.026319254 -0.10044171 -0.38706455 -0.10593717 0.50053984 -0.44182983 -0.3815062 0.10600107 -0.54134715 -0.17891945 -0.18641669 0.027656026 -0.1576933 0.16347152 -0.1864598 0.15000986 0.42179 0.18299942 0.13632837 0.059353355 0.027440973 0.122699566 -0.28879872 0.20956473 0.19597232 -0.09096785 0.11763472 0.052458584 0.38719895 0.09632794 -0.1738397 0.44223952 0.5274106 0.08050705 0.0851903 -0.26939505 -0.22415312 0.35378525 0.63331276 -0.43680963 0.426652 -0.021075793 0.5300321 0.6869264
LSK -0.19372347 -0.14694923 -0.008148281 -0.11351517 -0.11922995 0.26002264 0.23989564 0.13211325 -0.36421815 0.13572302 -0.1064514 -0.41883942 0.09721419 0.33677134 0.2520904 0.17496864 0.12332155 0.019290823 -0.27308095 -0.19426067 -0.5175918 -0.046204004 -0.7271925 0.12578985 -0.05891498 0.9298057 -0.29533195 0.06321249 0.0456371 -0.16129118 -0.31080297 0.17340562 -0.07563081 0.39012977 -0.43961012 0.41102785 0.16262922 0.35408416 -0.68198663 0.2133582 0.20198907 -0.34814706 0.51146704 -0.2753388 0.091309406 -0.12503682 0.2825807 -0.25247088 0.18495567 -0.38011584 -0.4951845 0.3802796 -0.0066106264 0.21068591 -0.43614292 -0.36239663 0.1592703 -0.046328392 -0.73598814 0.3611783 0.16408156 -0.20257442 0.6602037 -0.24591589 -0.3558982 0.12303321 -0.21245006 -0.08545587 -0.38932216 -0.3319733 -0.343646 0.22704946 0.4564713 0.14913784 0.51568776 -0.18687354 0.33385643 0.135894 -0.107781455 0.6231193 0.3721045 -0.066951275 -0.23070127 0.06787527 0.097174466 -0.28778678 0.37245953 0.70139754 -0.39793777 0.14854726 0.21019639 0.48879394 -0.055896588 0.69016224 0.53354067 0.4055078 0.18806504 -0.1393674 0.22876796 0.34180987
QNK 0.00374634 0.03371627 0.2661308 0.057325542 -5.4488693e-05 -0.42944944 0.26552114 0.13384129 -0.22781189 0.33114243 0.79060245 0.40531507 -0.33769462 0.49360195 -0.20458756 -0.30776373 0.1795787 -0.08097366 -0.28612646 -0.3234213 0.008199697 -0.119456545 -0.029260922 -0.029409008 -0.009881264 0.057850357 0.19514558 -0.12786962 0.10781741 0.0026115929 0.19675499 -0.08842525 0.12888469 -0.0765955 0.11479565 -0.0033263946 -0.046244036 0.084014945 0.09398866 -0.576035 0.037572123 -0.34630764 -0.52036905 0.29299247 0.15272574 -0.07084758 -0.26614282 -0.5683564 0.31216455 -0.009122147 0.13230471 -0.3227673 -0.03270681 0.3167851 -0.009887458 -0.1342706 0.36338854 0.10138636 -0.04570219 0.4423659 0.23730509 0.51970506 0.17497414 -0.45903286 -0.4277452 -0.1275954 0.15367295 0.24170028 -0.55997974 0.37345126 -0.22088394 0.669884 0.48899135 -0.0022112422 -0.20909083 -0.3449056 0.12179352 0.099589325 -0.2052228 0.07945059 0.12751046 0.119834766 -0.3331469 0.1897109 0.17161122 -0.55715966 0.017442048 0.100720316 0.17903917 0.24754727 0.5110444 -0.066135354 0.2438812 0.20798704 0.55219156 0.579883 0.24077632 -0.106746726 0.090788685 -0.15080068
DPE 0.23799694 0.18716383 -0.0056978767 -0.25928816 0.3511224 -0.3317093 0.3123772 0.49235493 -0.3218607 0.64562 0.32255042 -0.0900759 -0.13190131 0.2794778 -0.20469531 -0.18604857 -0.22784954 -0.025206083 -0.6237867 -0.08197516 -0.047148522 0.051225998 -0.6531172 0.1748982 -0.10365956 0.16224436 -0.08253692 -0.48560688 -0.0027108083 -0.27699384 0.024524642 -0.023968013 0.09052319 -0.1850411 -0.19731529 0.18468277 0.45560396 0.062040497 -0.4403554 -0.3088934 -0.4434268 -0.46999177 -0.17457758 -0.12014014 -0.015213514 -0.48987317 0.30561554 0.13919303 -0.08373699 0.14563228 0.019561632 -0.5494913 -0.09266331 0.019503579 0.015030257 0.508939 0.41172475 -0.0063380897 -0.4028392 0.04903647 0.46223834 0.16370885 -0.12342411 -0.10874782 -0.21509509 -0.13610081 0.104132146 -0.23985933 -0.20270951 0.1046712 -0.012311764 0.41588894 0.2595831 0.10709614 0.6315488 -0.33325335 0.36379954 -0.33622944 -0.41522396 -0.16414477 0.19299677 -0.3599165 -0.39229172 0.35595655 0.022874909 -0.53118545 0.5702293 0.2747023 -0.18816397 0.040091522 0.51080596 -0.14589597 -0.19111195 0.46301717 0.35577598 0.20645167 0.24590632 0.039756615 0.046572138 -0.023258569
AEA 0.021095712 0.13499996 -0.05939918 -0.40534583 0.28514656 0.1216314 0.40465882 0.31292138 -0.52242506 0.08363667 0.20925331 0.09170644 -0.42133635 0.31912413 0.1013069 -0.19083191 0.7158413 0.016388636 0.46192685 -0.46182987 -0.22559975 0.08335227 -0.09901779 -0.04556756 0.28870204 0.049547195 0.6244937 -0.14508748 -0.047577467 0.006446946 0.32511258 0.08731145 0.021848459 -0.47614452 -0.344555 -0.22921334 -0.16785169 -0.48406288 -0.3380636 0.021985985 0.19000332 -0.26270127 -0.42472577 0.22921538 0.16534579 0.102973685 0.07455485 -0.033612456 -0.1277546 0.15869847 0.80720747 -0.28050148 -0.108733684 0.18732272 -0.1732374 0.43261003 0.50061464 -0.33895063 0.16905935 0.41534945 0.50909483 -0.27228364 -0.4145851 -0.03388155 -0.17903882 0.44804084 0.13095084 -0.40337566 0.076885305 0.44211727 0.23364766 0.44033518 0.5964879 -0.1682059 -0.18097599 -0.44225037 -0.18041937 0.11596724 -0.24385677 0.18765567 0.2630608 -0.080369756 -0.44517857 0.20083268 0.15213878 0.19418329 0.09698312 -0.12358355 0.17029542 0.17269738 0.35157642 0.18814948 0.2937877 0.38773844 0.4166131 0.5451674 0.19660479 -0.06536802 0.37713856 0.12025471
DKE -0.06325407 0.18650901 0.3697305 0.5052839 -0.17615171 -0.6387061 -0.14278904 0.2661519 -0.2308232 0.064996175 -0.34296846 -0.3834981 0.25282788 0.3230524 -0.2021168 -0.5122988 -0.34178934 0.18935105 0.25059465 -0.6505823 -0.24979156 0.075295046 -0.2867071 0.108991586 -0.19172113 0.07018786 0.25595513 -0.43661663 -0.19229123 0.12469576 -0.102230035 -0.39147508 0.6006288 0.4918582 -0.41584605 0.13292451 -0.20708118 -0.48892444 -0.045084797 -0.23278855 0.35940573 -0.33857033 -0.2443565 0.57517344 0.016585188 -0.2172838 0.09759906 0.113781765 -0.0433406 0.2853951 0.29253894 -0.5957071 0.31513616 -0.14802492 0.25285542 -0.11698031 -0.017957266 -0.032827582 -0.23582129 -0.034419697 0.188181 -0.37656742 -0.20814858 -0.045130245 -0.44356015 0.5189274 -0.28836784 -0.027531195 -0.2159284 0.3212263 -0.27060443 -0.14880489 0.30486354 -0.14462452 -0.26124215 0.4357991 0.18835165 0.23201507 -0.022531275 0.3216356 0.34303135 0.15433392 0.007928412 0.47800237 -0.32782298 -0.01683061 -0.28734216 0.38481095 0.21322636 -0.19609621 0.26625013 0.12700556 -0.27442077 0.05837903 0.54554045 -0.025435263 0.71376574 -0.3486916 0.197018 -0.2626413
LQS -0.3644062 -0.21086727 0.38093725 -0.34844542 -0.03975895 -0.21039581 -0.34655473 0.62240213 -0.36821678 -0.39691582 -0.51226854 0.04990566 0.16984603 0.056404635 0.19229536 -0.027878093 -0.4634763 0.043467894 -0.075533055 0.116237044 0.08231551 -0.17966735 0.23852345 0.07102228 0.0040423814 0.21844941 0.0927408 0.43138707 -0.20557731 -0.030675415 -0.1830333 0.14995077 0.54622406 -0.19975418 0.47252283 -0.2825968 0.20314193 -0.38020566 0.097540624 0.33375186 -0.24914207 -0.5185081 -0.110809825 0.24629036 -0.088629425 -0.16339187 0.34470093 -0.10903472 0.21902125 0.12733375 0.07980687 -0.43456817 0.22567177 -0.3457864 -0.4110506 0.5174734 -0.2430582 -0.00027011675 -0.006107344 -0.16184215 0.28023282 0.31163043 -0.17519319 -0.14070679 -0.010434571 0.96022683 -0.21525866 -0.20864469 0.22339198 0.314016 0.24312687 -0.098030575 0.54285496 0.8329826 -0.4598377 -0.025378471 -0.024795255 -0.24290776 0.011776577 -0.026139593 -0.2574523 -0.018562779 -0.48866302 -0.28293753 -0.19028099 -0.07772993 -0.04332739 0.14497158 0.20773762 -0.22055894 0.35353038 -0.50799596 0.39548522 0.15041712 0.75312454 -0.064473614 -0.22955807 -0.33128485 -0.22947009 -0.41019306
NVE 0.21290223 0.4580035 -0.35256124 0.16032402 0.047987595 0.069329776 -0.024275362 0.087209664 0.6189202 0.3949506 -0.1158258 -0.42558426 0.013480629 -0.1288521 -0.28096634 -0.567886 0.4874433 -0.035204913 0.49486586 -0.17762776 -0.1526559 0.030280946 -0.4576362 0.39180097 0.534612 0.3520158 0.33772475 -0.29553437 -0.26219812 -0.22025123 0.24558552 -0.009202866 0.28683907 -0.3545715 -0.24386983 -0.33479798 0.3489554 0.110268764 0.5019679 -0.550377 0.15891725 -0.39367652 0.25404337 0.12537956 0.73217607 -0.36846557 0.5881382 0.40107158 -0.22823715 -0.50415254 0.20379245 -0.26563275 0.13242626 0.12716304 -0.24259618 0.3486239 0.27266815 -0.21466967 -0.36433768 0.4038539 0.3275948 -0.069736734 -0.14195064 0.0068899714 0.018197943 -0.2091387 -0.20999575 -0.08895913 0.022448026 -0.31427857 -0.33168045 0.57993823 0.52902895 0.5394633 0.29631135 0.047604673 -0.057337288 -0.19091046 -0.5069632 -0.63023496 0.37807897 -0.20822202 -0.71250516 0.07510919 -0.5669289 -0.48541364 0.26019537 0.24256065 0.62756 -0.09215199 0.027074562 0.09404253 0.54667056 0.032218713 0.24274759 -0.007280739 0.16254684 -0.32707942 0.4187357 -0.38473946
LKK -0.14930367 -0.4048326 0.207655 0.2717086 0.010350682 -0.18410967 -0.31280637 0.47331092 0.37300828 -0.12392506 -0.064240076 -0.034121916 0.5189708 0.42866355 -0.4461286 -0.29354197 0.18988843 -0.20662819 0.34434888 -0.69274163 -0.03270606 0.35360408 0.28414863 -0.08631175 -0.2791178 -0.03130719 0.1637613 0.10262393 -0.1987467 0.09802007 -0.15307139 -0.12331627 -0.14690557 0.29867968 -0.23431957 -0.007312144 0.48049295 -0.37260565 -0.09820283 -0.105994225 -0.46057943 0.14623433 0.25739276 0.28414476 0.050245922 0.12979633 0.3513395 -0.40986192 0.0018027497 -0.045301046 -0.22862947 0.076007105 -0.37491858 -0.42446977 -0.38568524 0.34369794 0.09103029 0.031083226 -0.121805504 0.2340255 -0.26053482 -0.046707563 0.15734108 -0.42636722 0.04598087 -0.09148316 -0.57912797 -0.16920581 0.48263368 -0.08155184 -0.28072596 0.31843784 0.13734236 -0.09397874 0.28510556 -0.19350588 0.31458524 -0.52793074 0.18435577 -0.32901007 0.022195036 -0.2537794 -0.18239471 0.041096903 -0.041537464 0.25777805 0.11749667 0.55305827 -0.15841612 0.2701115 0.01783319 -0.1583661 -0.14620814 0.01588841 -0.04279137 0.16531509 -0.07076209 -0.65695125 0.19252902 0.29592776
AEI -0.016710123 -0.423436 0.04895139 0.08879843 0.18617062 0.106256686 -0.1808294 0.41674903 -0.33879548 -0.14838864 -0.3031522 -0.19216835 -0.31359 0.73453915 0.03788544 -0.41363618 0.51426005 0.7338773 0.2601625 -0.24857464 0.003051729 0.5772889 0.57507074 0.5889728 -0.3700141 0.34241948 -0.07777117 0.5556072 -0.29508483 0.30602568 0.00020639822 -0.41957864 -0.09611085 0.064903736 -0.29777977 -0.18225619 0.6135677 -0.29153362 -0.201211 0.06537064 -0.04484424 -0.6281385 0.077333145 -0.10553665 0.03021852 0.14750344 0.23138705 -0.13271716 0.019383546 -0.08705177 -0.41374692 0.029264288 -0.14673282 -0.21837838 -0.55401146 -0.26978457 -0.18147929 -0.435751 -0.40501183 0.19228518 -0.04487067 0.45899022 0.07129676 -0.057101205 -0.28266597 0.37007007 0.045113705 0.19264075 -0.39166576 -0.245296 -0.23279984 0.07907732 -0.008575518 0.3279867 -0.009024787 -0.1897105 0.16672918 -0.60904443 -0.19313231 0.1658135 0.08830302 -0.08959343 -0.19251968 -0.2876009 -0.06424569 0.72648346 -0.19495128 0.15272273 0.15005425 0.35708493 0.012360606 0.42391726 -0.80179334 0.4434581 -0.18472303 0.18032154 -0.2201233 -0.24452788 0.23644032 0.15708156
EIA -0.46813184 -0.41179034 0.503771 -0.3149484 0.30405515 0.025261452 0.31327987 0.5292673 -0.11447097 -0.41141722 -0.5303866 -0.29042548 -0.024868533 0.08874555 -0.15898137 0.64798844 -0.28632393 -0.03283841 0.42128173 -0.021963505 0.1148549 -0.068624556 0.7507967 0.48796228 0.24695528 0.028363945 0.33062923 0.34968454 -0.6231784 -0.20759425 -0.11633095 0.053847197 0.6538887 0.033196088 0.024449568 -0.06740599 0.12495463 -0.502617 0.17446303 0.049356718 -0.020088721 -0.5760941 0.006354175 0.023692349 0.05848058 -0.4328041 0.36155677 0.14367071 0.121202 0.47972432 -0.012731959 0.23308831 0.3027212 -0.053254277 -0.13187143 0.77927417 0.16843025 0.19327095 0.22948536 0.09785431 -0.14784192 0.393061 0.37914944 0.20787938 -0.035329275 0.27851284 0.078292504 0.2261755 0.27484015 0.23286067 0.5660407 -0.2584681 0.25202525 0.45491642 -0.07763914 -0.34129244 0.36145473 -0.17261405 0.31861782 0.13553093 0.50597423 0.51101243 -0.29771492 -0.40325007 0.2951 0.17844833 0.29365796 0.60739094 0.34248072 0.13288225 0.07299708 -0.1368434 0.15290299 0.38294214 0.25050518 0.19649419 -0.24122822 -0.50206494 -0.0682337 -0.21009594
EAD -0.18936032 -0.08405332 0.1584119 0.041120786 0.22742423 -0.10683933 -0.23549603 0.72917426 0.4346682 -0.0883129 -0.06295844 -0.16961206 0.011069609 0.32194155 -0.20416453 -0.08183832 0.14551426 -0.33184165 0.57985926 -0.658532 0.013740645 0.18123986 0.37439582 0.25151923 -0.32350323 0.15855622 0.37370014 0.21063128 -0.29614154 -0.1957652 -0.117062174 0.021411661 0.3850172 0.047835127 -0.48865432 0.11986746 0.37953845 -0.85359484 0.16485348 -0.11166706 -0.054582726 0.16484852 0.03579207 0.062699705 -0.24369079 -0.13825059 0.5215051 -0.2842872 -0.075468406 -0.21870202 -0.16288856 -0.035301294 -0.49160168 -0.23947705 -0.50540066 0.03089416 0.029943362 -0.23771374 -0.22806281 -0.08433894 -0.10176439 -0.044730976 0.2883354 -0.22407953 -0.2991509 0.12852705 -0.25799763 0.34835607 0.45273015 -0.2699334 -0.17642769 0.6327301 0.07717598 0.23133911 0.35234922 -0.4383096 0.57488585 -0.36460632 0.19203143 0.20409124 -0.21833621 -0.64701873 -0.023601253 -0.2996577 -0.43326095 0.25782388 0.51695734 0.43394172 -0.012312616 0.020398216 -0.053070016 -0.08815879 -0.19358921 -0.104384914 -0.10559656 -0.0757403 -0.4547537 -0.95284015 -0.13952662 0.2121653
TKK -0.19895606 0.111760624 0.74121696 -0.037598316 -0.027617121 -0.112415366 0.4949581 0.26445633 -0.63075924 -0.09989678 0.23520571 -0.40543473 -0.25254148 0.22861215 -0.41360897 0.0061462214 0.22728042 -0.20727433 0.116566025 -0.09627586 0.35163528 0.04201489 -0.17417303 0.15281829 -0.22862236 0.05884327 0.22558399 -0.5838447 -0.14736375 0.5865326 0.5246783 0.6159251 -0.25394106 0.17886251 -0.50935864 0.02272649 -0.3800699 -0.16805048 -0.39322984 -0.42017606 -0.16327922 -0.2900715 0.40039438 -0.36150873 0.12217743 -0.7765692 0.01264754 -0.25378892 -0.028778542 0.098422036 0.120594546 -0.4465097 -0.3190331 0.0135587035 -0.064575635 0.34022748 0.39497295 -0.3227327 -0.030953381 0.40992686 0.98442554 -0.085391276 0.00073002983 0.21203293 0.26037672 0.49272954 -0.31441092 -0.5699294 0.24181528 0.8590819 -0.109886736 0.37471685 0.30759466 0.41116798 -0.2976794 -0.2903195 0.2130147 0.3820819 -0.049769297 -0.1267237 0.12120198 -0.11548424 -0.1184729 0.030903138 -0.22337818 -0.05853475 0.29409468 -0.09449914 0.086235516 -0.14083657 0.64166564 0.15051028 -0.028424624 0.32943264 0.21961771 0.6132947 -0.05240267 -0.27325854 -0.24779175 0.03865618
DAK 0.06891433 0.22398703 -0.25753015 0.21109942 0.2638707 0.036009006 0.056075472 0.047568973 0.088326596 -0.05976068 -0.7230866 -0.26836163 -0.075934924 0.083911866 0.13792376 -0.15405577 0.25586545 0.13073942 0.2678316 -0.5872754 -0.15768713 0.06022362 0.65500903 0.43403777 -0.02238945 0.19563244 0.071800515 0.17179899 -0.22313604 0.15411687 0.13168463 -0.332699 -0.22868529 0.4746232 -0.13807686 -0.30070353 0.4495787 -0.2933693 -0.13527891 0.07600121 0.08499025 -0.42233258 0.4709878 0.1479566 0.25547197 -0.089710295 0.0013519687 0.24007384 0.052699964 0.156716 -0.23259191 0.04383128 -0.2806916 -0.47039604 -0.47358164 -0.036335066 -0.039666306 -0.031483967 -0.43516812 -0.1796092 -0.14730996 0.26788145 0.4609498 -0.22685757 -0.30866897 0.17024082 0.13644342 0.2338068 -0.16219962 -0.0064986506 -0.00016075978 0.29502022 0.26605773 0.18410686 0.32103726 -0.21232653 0.4594904 -0.6878408 0.3675454 0.1158421 0.002517353 -0.5959184 -0.20592909 -0.48090667 0.18823275 0.6622364 0.40957966 0.51707935 0.41823858 -0.07427975 -0.18723735 0.1867395 -0.34515774 0.20985888 -0.061024755 -0.057512574 0.0446541 -0.79118395 0.09876574 0.015984278
TQK -0.2522069 -0.19860026 0.041412324 0.11428105 0.36317468 0.3853231 0.343963 -0.06392195 0.40249056 -0.2678986 0.43532625 0.012319016 0.105498485 0.4934274 0.07977352 0.01730904 -0.038204636 -0.304789 -0.30488172 0.04536218 -0.51501936 -0.016153615 -0.5442193 -0.26211965 -0.052096214 0.43734103 -0.014177686 -0.10343046 -0.10623791 -0.16436017 0.44468024 0.12169455 0.5960022 0.37196705 0.41865453 -0.75548005 -0.12484426 0.06691487 0.17745693 -0.13821943 0.49530807 -0.34868652 -0.18650134 -0.008699388 0.20134541 -0.22194113 -0.30247048 0.23328355 0.06107497 -0.21824227 0.22932927 -0.5484864 -0.01794063 -0.020328438 0.10375473 0.38664415 -0.21289083 0.021441748 0.082341745 0.17329402 0.20530404 -0.19722487 0.06611731 -0.5435657 -0.73519367 0.23747718 0.037400845 0.2679713 -0.7965143 0.22575171 -0.26271287 0.5367881 0.07476238 -0.016544923 0.1440749 0.15425327 -0.07760999 0.12675622 -0.3861496 0.35619092 0.6611935 0.08148768 -0.5532791 0.1837852 0.07438668 0.5112702 0.0066927345 0.18653385 0.09891951 0.1404409 0.35242587 0.30107617 -0.17149507 0.13709873 0.2454229 -0.044473644 0.30502307 -0.3927904 0.32481545 -0.24211541
QDE 0.30095303 0.13464634 -0.112158254 0.05100966 0.39797428 -0.30102608 0.22601597 0.35540646 -0.26951247 0.9094621 0.49947202 -0.3109519 -0.011878684 0.24223842 -0.2344218 -0.5824674 0.19139476 0.16663703 -0.30339086 -0.044530492 -0.51654714 -0.08918087 -0.2580075 -0.062004074 -0.10816274 0.31612986 -0.35460636 -0.21818285 -0.05519892 -0.6735202 0.049677704 0.18058598 0.24336192 -0.23792963 0.40217817 0.19056025 0.31900418 0.028635845 -0.29970777 -0.2719637 -0.15053177 -0.2551714 -0.07148988 -0.2554599 0.23318483 -0.62200266 0.04411249 0.1675972 -0.032125726 0.08516718 -0.12693387 -0.38035807 -0.112101555 -0.089462355 -0.52549237 0.31532282 0.7782861 0.076660596 -0.42880714 0.13075949 0.62695235 0.033908408 0.10338762 -0.054989565 -0.3136023 0.19258976 0.32276285 -0.0358822 -0.2457465 0.2542296 0.15106373 0.246237 0.2524675 -0.24341914 0.4911298 0.2150504 -0.17704074 -0.12779151 -0.3815947 -0.08850942 0.16820392 0.099685974 -0.47721225 -0.10059731 -0.4610875 -0.50824577 0.23381104 0.45117983 -0.3902422 0.12668645 0.10983276 -0.16656582 0.071636975 0.12532476 0.431246 0.15837662 0.04576591 0.03440511 0.20223093 0.002192115
ELG 0.077351935 0.05313959 0.37503988 -0.20954722 0.08133561 -0.38390806 0.12588003 0.86202765 -0.31793472 0.06968289 0.6083676 -0.11761373 0.040673357 0.0010034653 -0.07801887 0.10044221 -0.27491 0.17815383 0.06151432 -0.2865237 -0.24031414 -0.28052554 -0.5008849 -0.3972467 -0.51347977 0.1220822 -0.18550617 -0.11801306 0.20137413 0.033163555 0.4768411 0.42074934 0.13151903 -0.067841575 -0.6682507 0.18700743 0.08613366 0.3019592 0.09189645 -0.50173444 -0.03443832 -0.39183268 0.11000991 0.3075803 0.18301472 -0.19022918 0.2894491 -0.22048067 -0.21894424 0.23763503 0.4853878 -0.32579437 -0.262549 0.13606837 -0.3096292 0.25638846 0.3327982 -0.12246336 -0.1437315 0.7185837 0.22844103 0.18536934 -0.14470617 0.12368997 0.43030623 0.011098176 -0.1363212 -0.34371594 -0.54059863 0.6293538 -0.37695575 0.18653223 0.4521972 -0.32116625 -0.037014376 -0.032856975 -0.0131821055 -0.4326963 -0.25391465 -0.16390915 0.36599675 -0.28427956 -0.567551 -0.12136204 -0.31239912 0.024978695 0.31232664 0.17805585 -0.08007208 -0.4033071 0.34726623 0.11569554 0.27966535 0.25242603 0.5290574 0.42263657 0.36775038 -0.19010325 0.16700354 0.10493355
NEL -0.036542658 0.1372657 0.1186377 0.6660002 -0.21209012 -0.18966447 0.41410995 0.04067357 0.16478418 0.0008638147 -0.06820434 -0.02130377 0.39611262 0.43402553 0.046580765 -0.43864295 -0.140744 -0.16408241 0.07590482 0.2381681 -0.34071347 -0.06412056 -0.5142872 -0.04845496 -0.5035827 0.060893178 0.39433935 -0.06271098 -0.303867 0.14227976 0.21901852 -0.059439 0.35908905 0.32321593 0.47379833 -0.35915613 -0.22620258 -0.40463167 -0.19945945 0.018177176 0.15053803 -0.098323174 -0.2737452 -0.05638947 0.40553874 0.15848184 -0.3003176 -0.04071379 -0.22994305 0.095609635 0.9857313 -0.21171013 0.13121344 0.06879537 -0.008600307 0.23091206 -0.102758944 -0.2789041 -0.2253035 0.37601337 0.39740252 -0.18382819 0.026225982 -0.10127483 -0.28996035 0.6378799 0.16712686 0.1300803 -0.2292348 0.10388432 -0.2634501 0.1970328 0.16657786 0.17871974 0.05696129 0.5172666 0.18600865 -0.02363777 -0.4108969 0.4734299 0.42488074 -0.112113595 -0.61468154 0.53325576 -0.0011283554 0.0429623 0.1167312 0.06403438 0.49517342 0.19058615 0.40989906 0.6100419 -0.02015579 0.014085545 0.5716908 -0.0473595 0.36189616 -0.09057815 0.28819704 -0.5253589
TQD 0.017951077 -0.16200255 0.10340008 -0.10895656 0.0856012 -0.21205327 -0.009604375 -0.06723507 -0.023155846 -0.17887573 0.2345914 0.24490489 0.018521333 0.49625176 -0.10215951 -0.277629 0.14949855 -0.18293962 0.18407308 -0.052673686 0.32595024 -0.3296142 0.07786454 -0.16322492 -0.16141029 0.2207193 -0.040998053 0.39304408 0.14721058 0.39200965 0.24399853 0.48779005 0.49624506 -0.29473177 -0.028300008 0.07274575 0.2747595 -0.32735336 -0.14609158 -0.35470238 0.35353738 -0.39512733 -0.37256795 0.22437076 0.16005592 0.19182132 -0.18170498 -0.40196562 -0.07645913 0.03105705 0.5753475 -0.66573787 -0.08328987 0.41010776 -0.24097985 -0.053584594 0.46209455 -0.02697945 -0.09780291 0.32396296 0.15891753 0.06912043 0.059534088 0.07134113 -0.15442191 0.3901596 -0.33128798 -0.44743317 -0.7473748 0.20165923 -0.12924139 0.65435034 0.83346725 -0.15637605 -0.03242458 -0.16684291 -0.32711986 -0.11128313 -0.17642528 0.3484638 0.5038688 0.26645464 -0.30623394 0.5427693 0.44017857 0.20320998 0.43990126 -0.18838462 0.12284449 0.07195009 0.4752687 0.31744337 0.27997342 0.28347123 -0.02526185 0.39870366 0.22188573 -0.15022685 0.1327075 -0.38282904
PLQ -0.086199 -0.01592145 -0.07497116 0.42852557 0.22405499 0.34399515 0.34134692 0.3630132 0.0041149817 -0.22266576 -0.17485163 -0.23611863 -0.1780952 0.3256047 0.20474729 -0.3087109 0.66096556 0.09226028 0.43051603 -0.4225008 -0.17911023 0.039924547 0.7981299 0.49974537 -0.25199214 0.2981949 0.031170873 0.26940334 -0.3823367 0.002603963 0.19776331 -0.3728648 -0.16505398 0.33926645 -0.18639298 -0.10198786 0.8148473 -0.16614716 -0.09248572 0.31378588 -0.03095305 -0.17812379 0.45188054 -0.35829392 0.1978773 0.108610995 -0.021391796 -0.2489426 0.2860933 -0.2425828 -0.30004036 0.01654256 -0.1367284 -0.10393584 -0.38690203 0.090356044 -0.0628204 -0.67563015 -0.38275483 0.392862 -0.073597595 -0.0984522 0.6122577 -0.3696511 0.07980303 0.2200387 0.17638971 0.55407006 -0.21073937 -0.093487196 -0.101017125 -0.061475214 0.23484202 0.1553934 0.5858566 -0.26734278 0.45603126 -0.5261856 0.1699499 0.056486387 0.24677011 -0.29264954 -0.38201132 -0.6320089 -0.2594003 0.36904675 0.07944558 0.5327959 0.31866655 0.10539343 -0.08768167 0.2002691 -0.51160115 -0.1366006 0.09995851 -0.19888747 0.089187674 -0.56622 -0.11714661 0.1837276
LNE -0.4269106 0.44731456 -0.020024221 -0.2402066 0.13056532 -0.22668853 0.12617627 0.26856405 -0.28069055 0.010405613 0.17345673 -0.47637922 -0.5751395 0.07063197 -0.5892382 -0.34988132 0.13070379 -0.010960733 -0.12020634 -0.2899976 -0.35093257 0.15292306 -0.37753406 0.30943102 -0.15200658 0.1822842 -0.15821819 0.07290443 -0.040035356 0.058508776 0.052349787 0.03199854 0.27569398 -0.055041365 0.35796952 0.16148908 0.31224367 0.0724967 -0.24070339 -0.32538104 0.20145668 -0.6449336 -0.49794927 0.2828564 0.30584034 -0.105494455 -0.00029303908 -0.0419038 0.44490367 0.36193973 -0.38406053 0.08330981 0.06475251 0.18179159 0.57544816 0.12083991 -0.13100053 0.053675923 -0.4846663 0.36256668 -0.017684378 -0.10491562 -0.30120066 0.124886185 -0.6981604 -0.06096883 0.046631157 0.04842403 -0.145762 -0.33813414 0.03715673 0.04051077 0.4148534 -0.20748332 0.13302374 0.16645482 -0.2651551 0.6818936 0.07215459 0.12181263 0.4704237 0.4327622 0.014681601 0.08353628 -0.23677897 -0.23271434 0.3556156 0.5083691 -0.092549145 -0.11899193 0.4500069 -0.1577138 -0.29103905 0.3757313 0.4859587 0.3527406 0.22835058 -0.2519531 0.6475084 -0.15879814
ALN 0.07642137 -0.051621445 0.38471127 -0.27214536 0.26857156 -0.22155273 0.30021027 0.36050597 -0.52623475 0.044190295 0.6298545 -0.05756079 0.045752432 0.058684237 0.21589409 -0.15039502 0.094829924 0.15216506 0.27679926 0.09898177 -0.02759595 -0.15351523 -0.29280037 -0.04840745 -0.38976926 0.28786892 -0.22792743 0.106664374 0.01662169 0.5024925 0.085631385 0.12687367 0.25957137 -0.035305858 -0.61412287 -0.0559771 0.2556443 -0.0915914 -0.17930254 -0.492838 -0.23227458 -0.49161103 0.040514562 0.22515525 0.11686993 -0.51133573 -0.02316101 -0.09127808 -0.012742724 0.08683405 0.33804852 -0.36353922 -0.45654935 0.16643408 -0.23126493 0.43295512 0.1120467 0.044439625 -0.404308 0.10076768 0.35436332 0.081065275 -0.31664526 -0.09905977 0.23248409 -0.012337088 -0.37516108 -0.2786998 -0.31614453 0.74387974 -0.25379896 -0.013708527 0.38693166 -0.20801839 0.14219406 -0.014450913 0.08020017 -0.5106002 -0.13189028 -0.10585871 0.3924639 0.0029295657 -0.6722127 -0.032573253 -0.18185955 -0.549277 0.040221117 0.37125897 -0.32363212 0.18104526 0.7116566 0.42684546 0.50971633 0.11191953 0.32305422 0.41006085 0.33263132 -0.25296047 -0.091708705 0.013717211
DGD -0.16938409 0.2411341 -0.018788815 -0.5910917 0.0087339245 -0.5468963 0.35451436 0.09326444 -0.44836745 -0.035962902 0.29289198 -0.74510676 -0.47129998 0.043488145 -0.57953507 -0.5606696 0.06808363 0.12704043 -0.15444748 -0.6886102 -0.36887354 -0.16905402 -0.42662683 0.07294847 -0.3556703 0.17813587 -0.29136634 -0.2320013 -0.19905747 0.22562881 -0.42843068 0.08436541 0.06546466 0.08806486 0.8147064 0.45298934 0.2860384 -0.13758013 -0.110883124 -0.15798245 0.36606377 -0.856751 -0.32097837 0.19323568 0.21329637 0.13620421 0.12913027 -0.0591821 0.6102994 -0.063113436 -0.30168238 -0.31529438 0.23495759 0.20481905 0.12541704 0.14798246 -0.30776182 -0.064951226 -0.17842302 0.21097244 0.18881528 -0.44427842 -0.19358335 -0.15814818 -0.34451658 -0.11747791 0.32208502 0.2743481 -0.28143284 -0.21598496 -0.2717803 0.16952018 0.17561592 0.21233787 -0.028582392 0.084383585 -0.09420294 0.4257905 -0.44242302 0.11770644 0.18697435 0.38830784 0.033467174 0.10106114 0.026241113 0.15263028 0.29994375 0.63876206 -0.3173568 0.0798626 0.36053133 -0.0002686187 -0.30829296 0.058886223 0.60180783 0.10866146 -0.15133026 -0.16481563 0.31491745 -0.124800995
ALQ -0.096025795 0.22376366 -0.18858476 -0.14150625 0.2711104 -0.105549306 0.52519685 0.17630969 -0.30883262 0.59868294 0.30389515 -0.32397157 0.08830842 0.29980817 -0.27661133 -0.5331629 -0.34626666 -0.29387665 -0.4979069 -0.08341293 -0.31177455 0.5190551 -0.8208392 -0.1530014 -0.16983394 0.75467575 -0.2461702 -0.49502778 -0.19283608 0.003525233 -0.079821974 0.29030854 0.20424858 0.48982847 -0.18024705 0.31062865 0.091670536 -0.19831435 -0.04053449 0.0762707 -0.23627563 -0.28540844 0.04472935 -0.08782097 0.03980296 -0.5261187 0.032195155 -0.08089027 0.20376351 0.4037643 0.04273907 -0.4064015 0.24464855 -0.3856056 -0.2772794 -0.065008074 0.5655661 0.008046399 -0.59736866 -0.24112558 0.3198145 -0.20593202 0.33130208 0.04389768 -0.41240117 -0.122376256 0.19319549 -0.32851696 -0.26164448 -0.013682736 0.17298083 -0.34812543 0.57554084 0.0076437835 0.47797117 0.29869422 -0.34982023 0.14709088 -0.4517697 -0.2512702 0.34925935 -0.38266346 -0.49629495 0.0744717 -0.22775707 0.09584677 0.10305103 0.012158773 -0.1133423 0.20546181 0.23757924 0.32704118 0.31001163 0.3111468 0.18391216 0.26818648 0.31675085 -0.3368766 0.29081106 0.18123883
PDG -0.009615529 0.2305277 0.6974267 -0.24238211 0.30208763 0.009262263 0.017420527 0.6841984 -0.34690592 0.41434118 0.32160947 0.036447268 0.4081708 -0.08377744 -0.106113225 -0.05152878 -0.00045595434 0.34901342 -0.07527448 -0.40858817 0.061018158 -0.414394 -0.3574621 -0.4114001 -0.58887583 0.28424242 -0.0010817344 -0.29554036 0.46240866 0.23411867 0.28797558 0.3080811 0.014059516 0.13869001 -0.50723654 -0.051724818 0.49575415 0.057989713 -0.17954116 -0.43333417 0.110440366 -0.30518654 0.009038606 0.28346837 0.6336154 -0.5664307 -0.35204375 -0.15887432 0.33015805 0.08023219 0.33995876 -0.60754347 -0.18892138 0.30374238 -0.1779444 0.08928446 0.23516588 -0.17364046 -0.24460144 0.40039593 0.111518204 -0.16636004 -0.17174533 0.28618604 0.1196558 0.17121617 -0.1167442 -0.16487576 -0.5130194 0.72346586 -0.2585671 0.124301754 0.6035691 -0.027770333 0.10734367 -0.20576131 0.26146692 -0.3792452 -0.19866817 -0.42050081 0.46195498 0.054724697 -0.41120964 -0.24194577 0.07494863 -0.59972835 0.31650844 0.035278082 -0.0015034993 0.31212386 0.5395878 0.0078063495 0.29858702 0.25479016 0.5554461 0.34094635 0.10036138 -0.3911589 -0.34130213 0.014617771
LGP -0.40717012 0.38354307 0.17027259 -0.35375926 0.13093434 -0.31731313 0.41110688 0.17225733 -0.2762996 0.26228532 0.40936196 -0.4616786 -0.27046847 0.01871427 -0.34387907 -0.24687624 0.10896305 0.37278554 0.144556 -0.4721994 -0.17713962 -0.22281955 -0.42610562 0.0047132126 -0.076955825 0.25556743 -0.05832018 -0.2860981 0.06064347 0.16378358 -0.17691533 -0.24717356 0.08091965 -0.19865502 0.574949 0.27411842 0.46616352 -0.2009764 -0.10983224 -0.22291279 0.33931598 -0.23886138 -0.56825536 0.1695169 -0.06877216 0.29551274 0.2561154 -0.33571595 0.2945234 -0.15919657 -0.48045155 0.21443659 0.14621983 -0.079959996 0.18165663 -0.14912781 0.011939381 -0.09459945 -0.5218933 -0.0673723 0.035726354 -0.41932905 -0.19725926 -0.46971405 -0.6901758 -0.22705513 -0.08787919 0.17146167 -0.12515487 -0.05488646 -0.14564899 0.011858374 0.21927373 0.107354425 0.09666509 -0.011161553 -0.24521971 0.54929876 -0.40155834 -0.16569024 0.6728613 0.47847822 -0.07982775 0.53483623 -0.33848011 -0.0860984 0.6069239 0.49883005 -0.055923797 -0.0862028 0.45904493 -0.052806173 -0.5067717 0.27614897 0.6430041 0.15719345 0.12081528 -0.42880544 0.65282255 0.033041604
GPD -0.1503975 -0.07310955 -0.14221014 0.7297657 -0.22263436 0.03695226 0.33061078 -0.13584392 0.21527238 -0.18263799 0.18292134 -0.036544293 0.41943324 0.45824292 -0.20546319 -0.0042088716 0.05204856 0.09646022 -0.06514409 -0.12788919 -0.37735948 0.16582613 -0.38054964 -0.1781212 -0.027284138 0.33964512 0.29311576 -0.113685474 -0.5191585 -0.3300183 0.026440382 -0.1919227 0.21186092 0.32653368 0.15813524 -0.2541032 -0.287394 -0.20999786 0.0075438335 -0.24032097 -0.065336935 -0.42056647 0.18284506 -0.17137462 0.5867441 0.038019065 -0.12740944 -0.16613229 -0.18351787 -0.06226084 0.71782184 -0.40938872 0.19918068 -0.08499922 -0.23384899 0.087676294 -0.35807052 -0.14263147 -0.39236996 0.18350187 0.08868016 -0.36457226 -0.4811454 -0.09605182 -0.5071029 0.63394 -0.45867926 0.15124466 -0.31040916 0.24078166 0.042569093 0.22068205 0.54317707 -0.086935185 0.31274307 0.29651132 0.30122578 -0.04038185 -0.52300507 0.6263284 0.6459991 0.15509991 -0.1913342 0.5566761 0.017203769 0.15596627 0.038782265 -0.28382874 0.5243043 -0.20920797 0.4123269 0.38572407 0.24200524 0.13447863 0.58029217 0.1557274 0.37114778 -0.021212872 -0.024887003 -0.21889591
RAP -0.08603289 -0.49100214 0.4254894 -0.21787947 0.1945313 -0.2753704 -0.09615647 0.5923262 0.06539892 -0.5249489 -0.10913472 -0.19063714 -0.39100462 0.085127644 -0.10809869 0.0191801 -0.27163264 0.34454194 0.16071291 -0.14408992 0.3393274 0.039319456 0.53423476 0.42464387 0.1360863 -0.0825318 0.17255493 0.46771362 -0.39871535 0.025789976 0.13126652 0.16191244 0.23545995 -0.32573998 -0.0075180246 -0.048718177 0.41744736 -0.40179273 0.031607788 0.14258827 -0.28959045 -0.28313673 0.004078812 -0.064299114 0.11456776 -0.3617768 0.24045417 0.031739138 -0.33248565 0.29711318 -0.5536264 0.16333626 0.04104186 -0.5851271 -0.06959085 0.7398994 0.43986642 0.20395161 -0.08501924 -0.11010372 -0.25714087 0.684345 -0.12653627 -0.3117318 0.07082769 0.97299075 -0.36523515 0.3191767 0.19883217 0.21585616 0.6499464 -0.0966829 0.11656736 0.7482454 0.19017619 -0.2334534 0.56461966 0.1460787 0.09681317 0.34238765 -0.04675473 0.4277738 -0.2597982 -0.35275748 0.07771156 0.3286695 -0.188652 0.19264597 0.35951427 -0.16414672 -0.10458892 0.22141965 0.1474025 0.44825834 0.3808852 0.4622958 -0.3159394 -0.764891 0.047595084 0.051657148
QAE -0.028916385 0.22763833 -0.5308531 0.029934317 0.24848057 -0.3373107 0.2442399 0.39362568 0.04502417 0.07225229 0.11127607 -0.20996396 0.1354535 0.32235342 -0.5036772 0.0785494 0.057039697 -0.25648257 0.4185543 -0.66326576 0.20265527 0.05974922 -0.20761783 -0.21873043 0.099553406 -0.5518049 -0.10151544 -0.12767231 0.5010215 -0.12840791 0.42219037 -0.050387654 0.13718672 -0.19138189 0.72875375 -0.42493466 -0.25068375 -0.28858826 -0.20272002 -0.26553056 -0.048647173 -0.4787684 -0.39012352 0.33712295 0.074264854 -0.1913861 -0.27427372 0.023499288 0.27019793 0.7024626 0.13341483 -0.12723657 0.21744667 -0.13676766 -0.4976856 0.4440512 0.03280763 -0.28175837 0.06950175 0.39084128 0.022917708 -0.00031772946 -0.28966224 0.36940843 -0.33985975 0.40849447 -0.13108683 0.6012353 -0.43316498 0.17273821 0.2799256 0.27864066 0.0018528146 -0.065089375 0.03751001 0.06254206 -0.05141836 -0.11199031 -0.8333286 0.6266008 0.3757017 0.43370655 -0.27175495 0.15241762 0.5796363 -0.011247595 0.062142134 -0.096417524 -0.14389263 0.15746628 0.38839576 0.12790214 0.13133794 -0.44083288 -0.056907892 0.11771348 0.08523589 0.06733982 0.58417255 -0.29842103
APL 0.29509997 -0.48745486 0.1102616 -0.2546348 0.17139253 0.36080164 0.34654486 0.6230293 0.5444281 -0.17145967 -0.39482456 -0.47260913 0.23281923 0.17047495 -0.37318385 -0.36543694 0.19190727 -0.08310792 0.7421799 -0.032805447 -0.35169545 0.17489581 0.36247933 0.57507753 0.004282418 -0.16880327 0.38653558 0.5277909 -0.45717373 -0.034905028 -0.16757755 0.31147504 0.41493353 -0.287857 0.06608714 0.014874215 0.3303564 -0.5994249 0.21806562 -0.13125575 0.37790626 0.5226171 -0.65957326 -0.23649268 0.23691294 -0.23484099 -0.29740265 0.22976147 0.013316123 0.42078975 -0.029287834 -0.03858235 0.12558211 0.08854179 -0.34859708 0.10673249 0.36736974 -0.06317044 -0.4667681 -0.044994645 -0.017767202 0.16931766 0.323893 0.28001684 0.038868207 -0.4564867 0.070728175 0.120176956 0.030726831 0.28598458 -0.23870987 0.16303885 -0.18619522 0.35459265 0.07768715 -0.35191712 0.37733585 -0.41156366 0.35172623 -0.033970848 -0.05817342 -0.14005604 -0.21515545 0.5513545 0.00800027 0.10899539 0.3258693 0.55300826 0.16424546 0.452218 0.12038562 0.43849123 0.30070046 0.16120654 -0.24652843 0.07371672 0.053523354 -0.28278667 -0.022879768 0.04524652
KEA 0.03008808 -0.14834666 0.33575976 -0.17175126 0.11762501 -0.27130705 0.36995417 0.29842025 0.015700717 -0.11730447 0.37613466 0.25547892 -0.22021684 0.4001579 -0.016278952 -0.220665 0.24160624 -0.3216738 -0.13683246 -0.124769986 0.26752573 -0.22150718 0.03354098 -0.3675181 0.22098088 0.3422286 -0.052855365 -0.20613283 -0.017126497 0.514985 0.2433669 0.17346424 0.17928837 -0.15326707 0.029309416 -0.04338913 0.13678011 -0.3351205 0.036779586 0.1704277 0.15216614 0.084686846 -0.37403435 0.26279587 0.22859351 0.49219757 0.017395005 -0.4907648 0.03154779 -0.14066927 0.3546715 -0.7784091 -0.4445648 0.22485773 0.15694842 0.26912844 0.6000637 -0.20151307 -0.102774605 0.37200138 -0.1584218 0.4309179 -0.09212181 0.28842002 -0.08851564 0.54152423 -0.019274645 -0.16026758 -0.92804533 0.52489316 0.13249086 0.43828443 0.526325 -0.28374207 0.065284595 0.11868025 -0.11684961 -0.19580744 -0.08720968 -0.058738768 0.5612367 0.4468924 -0.5022379 0.21847357 0.17326064 0.04547105 0.04166235 -0.019784482 0.2858073 -0.1285744 0.886061 0.37448665 0.66973484 0.2215136 0.41259137 0.15047176 0.14897342 -0.15913843 0.1840553 -0.3628766
SDS -0.17897224 -0.42763376 -0.17699844 -0.36291197 0.25356388 0.578202 0.32864496 0.8689808 0.23682941 -0.3264092 -0.36998093 -0.42544213 0.24077469 -0.21179517 -0.297162 -0.036515296 0.25653955 -0.17661461 0.4953808 -0.107369274 0.0010516739 -0.0065214345 -0.025693784 0.44063276 0.3269549 -0.22187772 0.4831503 0.20850746 -0.42351493 -0.23521537 0.0038146838 -0.1434205 0.41114375 -0.2943963 -0.087143496 0.19220372 0.15407419 -0.78601336 0.6316158 -0.16440056 0.08021554 0.55425674 -0.50948626 -0.60922164 0.70630395 0.050094374 -0.2006588 0.10356161 -0.05009862 0.21839672 0.03549025 0.16593914 0.20038377 0.08756978 -0.27185556 0.32180026 0.07466741 0.06546952 -0.3911215 0.27767134 -0.13753904 0.31295303 0.027110016 -0.19174558 -0.08688543 -0.16184305 0.56528854 0.14077596 0.0061238157 0.38609502 -0.10629456 -0.18779296 -0.21451932 0.055545386 0.35670292 -0.45178494 0.5017966 -0.09161855 0.23283927 -0.12750201 0.11435085 -0.3291486 -0.10043234 0.038991623 0.25181323 0.1375287 0.18113244 0.61057127 -0.10271484 0.14230603 0.36731157 0.053709306 0.1431211 0.31435016 -0.050402023 0.18803169 -0.15042286 -0.48486874 -0.033264995 -0.05914655
ESD -0.113875985 -0.29421884 0.38927895 -0.22008786 0.153666 -0.12167537 -0.31303322 0.6103945 -0.23234935 -0.55646914 -0.42538446 -0.14459543 -0.023210505 0.6654415 -0.382519 -0.093951836 -0.3935125 0.5933734 0.04885238 -0.2224131 0.052251525 0.18657637 0.5914637 0.37213567 -0.2676966 0.12777038 0.4810627 0.40709758 -0.53904986 -0.026799804 0.26263765 0.35542446 0.16319098 -0.1460435 0.23541291 0.026721574 0.113725014 -0.5782868 0.20702305 0.008265499 -0.31870955 -0.32012385 0.37871704 -0.20008637 0.32583988 -0.2744984 0.37968642 0.08079321 0.18189174 0.6941073 -0.16971886 0.004685783 0.037923552 -0.14541052 -0.59956485 0.44870257 0.4593465 -0.08887166 -0.30736127 -0.12440235 -0.42911062 0.3800708 0.06865215 -0.19080953 0.5390697 0.7304745 -0.15122513 0.088131875 0.1695885 -0.09085986 0.5707162 0.09166246 0.0553532 0.48757714 0.07800303 -0.14103696 0.126098 -0.24044238 -0.19337085 0.4576547 0.14961788 0.39140102 -0.26098058 -0.4946309 -0.36631224 0.3685948 0.21508023 -0.2627039 0.3623613 -0.04668587 -0.09916559 -0.1504977 -0.2519512 0.8242702 0.25724384 0.19999015 -0.29519427 -0.6090272 0.16586448 0.13505812
EGK -0.010739401 0.0025706724 -0.19885002 0.07145504 0.27523047 -0.106232576 0.2964222 0.3246891 0.048313282 -0.16853152 0.4032648 0.019590264 -0.10076569 -0.11683228 0.0306301 -0.39476103 0.5525851 -0.44874582 0.060568135 -0.33302376 0.21879824 -0.33884984 0.19405188 -0.10046606 -0.15036179 -0.2446203 -0.01789914 -0.1658482 -0.0077798166 0.43574536 0.39016706 0.46688965 0.43257347 0.07824287 -0.12992029 -0.08920778 -0.082615845 -0.2992807 -0.0066646705 -0.38949132 0.15527676 -0.18905257 -0.6264378 0.33525425 -0.07155711 0.14264333 -0.006021145 -0.35635763 0.17852579 -0.29159057 0.6875569 -0.3641058 0.1370005 0.3449152 0.16742472 0.027323943 0.42486468 -0.46831626 0.14630178 0.2630346 0.21335031 0.23999113 -0.07275329 -0.056184515 -0.1386318 0.40199023 -0.006504109 -0.09968954 -0.72363836 0.3585934 0.5226677 0.4398691 0.7358054 -0.15453215 0.51558053 -0.0045079812 -0.30700248 -0.1350525 -0.445544 0.36933988 0.7945452 0.14524586 -0.40939826 0.3527058 0.3081749 0.19246122 0.19042723 0.004603727 0.40641576 0.009856731 0.65863574 0.37469268 0.3153126 0.30242425 0.11515218 0.47120732 0.19655874 -0.22160763 -0.19766018 -0.11006234
GKT 0.2999549 0.22046927 0.23483472 -0.11145002 0.4519809 -0.21956107 0.30462524 0.4144867 -0.23877998 0.5299634 0.7437161 -0.17586765 -0.14419143 0.09052354 -0.15735973 -0.004410564 -0.026118208 -0.022084245 -0.5059145 -0.1329762 -0.1888253 0.21436921 -0.49168837 -0.1349976 -0.12466759 0.32255808 0.42186406 -0.3862783 0.20888925 0.001590731 0.41425043 0.41764897 0.15360537 -0.16305149 0.284155 0.6066087 0.5504811 -0.10174732 -0.47417375 -0.39570293 0.009308608 -0.58823854 0.016506014 0.09901343 0.2368508 -0.7231941 0.43152887 -0.011891925 -0.030774115 0.108664446 -0.02634882 -0.45446143 0.01074029 -0.030340659 -0.48550257 0.50105256 0.6049971 0.08772649 -0.36216444 0.07210347 0.27439472 0.0958055 0.014959623 0.080774106 -0.34083343 -0.21378629 0.26454464 -0.22983523 -0.2138025 -0.06599481 0.10967196 0.0048442683 0.014426828 -0.18278246 0.5992003 0.009546014 0.4166902 -0.040615857 -0.33768028 0.09808256 0.25630578 -0.317663 -0.34518078 0.31298456 -0.006249575 -0.70768243 0.23235396 0.3302448 -0.17248018 -0.1301461 0.08446895 0.26375115 0.09633158 0.3159636 0.33324558 0.14927259 0.34241807 -0.052891616 0.13649788 0.12303838
PEG -0.17607965 0.003773591 -0.14288336 0.0040663118 -0.1329183 -0.28397173 0.3380404 0.21382011 -0.5773022 -0.3980699 0.100493036 -0.35833094 0.38126954 0.3289146 -0.05849462 -0.6541087 -0.2981697 -0.21973811 -0.018444693 -0.7097099 -0.18547103 0.18688601 -0.6002435 0.21314615 0.04519649 0.3244072 0.30067682 -0.10351532 0.07690657 0.36574012 0.08935429 -0.42800722 0.2743534 0.15046212 -0.1737251 0.17598535 -0.16715375 -0.3783632 -0.0001079419 -0.2631046 0.17151713 -0.23164813 -0.3262438 0.29405025 0.028260386 0.13603546 0.06731947 0.21838553 0.43440115 0.35001352 0.28258052 -0.5204385 0.10377964 -0.08470101 0.108957455 -0.51662403 0.26320878 0.100094415 -0.17400664 0.4135761 -0.018776568 -0.52388406 -0.044131722 0.033625208 -0.19652113 0.2734294 -0.30220407 0.21342506 -0.07071941 0.25734323 0.07279296 0.061689887 0.3875609 -0.057070304 0.27629948 0.5790245 0.19914287 0.4018495 -0.28987825 0.33800018 0.2263238 0.07897397 -0.29256028 0.21907337 -0.27353352 0.008527466 -0.46705812 0.4105672 0.08023003 -0.097669385 0.40586892 -0.18058625 -0.83012944 0.44935483 0.49382478 -0.06759885 0.5495169 -0.6182265 0.13250227 -0.19939794
ATK -0.1508169 0.025172452 -0.34041318 0.32959095 0.2685047 0.12623931 0.33565903 0.1727166 0.18392523 -0.39012438 0.30462736 -0.11163563 0.13057064 0.069664545 -0.039542485 0.08831257 0.12921333 -0.33587936 -0.16758102 0.07031051 -0.50670046 0.26447362 -0.47464636 -0.12585928 -0.14120242 0.09987571 0.5149294 -0.08260933 -0.16018066 0.41852018 -0.18565848 -0.29345477 0.029204112 0.34603915 0.13301516 -0.877348 0.08583738 -0.0011346149 -0.008290397 -0.21555059 0.31622404 -0.15267777 -0.0064375903 -0.032889448 0.46412912 -0.06590657 -0.25853345 0.039530497 -0.09574394 -0.13894786 0.40424383 -0.16151734 0.49213737 0.024943102 -0.14689918 0.04317925 0.23487781 -0.029342007 -0.028724343 0.6065984 0.43071517 0.018671261 -0.06562022 -0.0941991 -0.7530608 0.5180972 -0.073548816 -0.15025945 -0.43635315 0.4915102 0.1982392 0.72287637 0.20329332 0.14035603 0.09154879 -0.024738166 0.36518037 0.19510078 -0.5697511 0.5884281 0.26677287 0.36067453 -0.17212994 0.5515145 0.5134182 0.44445235 0.13793841 0.16756976 -0.089667454 0.027846897 0.7882514 0.42163232 -0.17050493 -0.059445374 0.22526397 -0.025726056 -0.012777098 -0.7289778 0.29505008 0.06093873
EEE 0.24138176 0.3752512 -0.028843476 -0.2131567 0.18104759 -0.34267685 0.15525639 0.36519438 -0.35568082 0.20219798 0.43802282 -0.06875941 -0.25562724 0.16622011 -0.4679553 -0.5357934 -0.040305644 -0.22217274 -0.16399777 -0.13109322 -0.23168872 0.039659243 -0.58539397 0.1825854 -0.29330847 0.37012517 -0.09899906 -0.23843642 -0.1552244 -0.3067493 0.009421052 0.18129963 0.18126982 -0.11138188 0.2162228 0.16552511 0.3892214 -0.044600267 0.02062722 0.045851365 0.2072906 -0.5814712 -0.22828373 0.2320409 0.015870988 -0.063456535 0.122038126 0.046041902 0.42914388 0.16588488 -0.32779667 -0.06252585 0.07665897 0.19897136 -0.1256382 -0.09785898 0.13144411 0.34836784 -0.35772315 0.108991 -0.02521286 -0.44426063 -0.3508745 -0.10280186 -0.588464 0.16361484 -0.058459293 -0.07922687 -0.1546787 -0.09917482 0.21476774 -0.0005154855 0.08186363 -0.09111416 0.37300754 0.09990997 0.052363962 0.29485568 -0.312708 -0.09688107 0.49768698 -0.05895402 -0.049578357 0.37012193 -0.15756445 0.034247253 0.31416282 0.5172496 0.006109069 0.18671142 0.33499026 0.20455332 0.11206106 0.25166073 0.5919059 -0.037443165 -0.10916472 -0.17615247 0.28812543 -0.08289808
LDP -0.13559552 0.049114753 -0.3172263 0.27181813 0.10792031 0.23245986 -0.018121682 0.24444014 -0.26663908 -0.2581088 0.26266104 0.09042125 -0.46750912 0.5923058 0.38874575 -0.080704376 0.4244828 -0.52087486 -0.053700313 -0.38216427 0.15604076 -0.16943431 0.11589292 -0.14098984 0.21106532 -0.2746296 0.18612029 -0.25728315 0.28423068 0.4501801 -0.13974038 0.5533341 0.12960263 -0.13896762 0.20832561 -0.24222578 0.10008648 -0.26138502 0.18809919 -0.6781862 0.2712358 -0.24513762 -0.03439338 0.12117634 -0.24604686 0.11747184 0.112859115 -0.30425492 0.18941987 -0.12648863 0.6876302 -0.40200818 -0.12639433 0.29188716 -0.1156293 0.18050876 0.45093513 -0.25423512 0.123234525 0.37117916 0.4286304 -0.04383776 -0.19378327 0.29268217 -0.532631 0.7331759 0.2180546 -0.0756905 -0.67328566 0.2003751 0.43456468 0.31363666 0.49373657 -0.21377164 0.12987766 -0.38727114 -0.3149307 -0.31848124 -0.30519533 0.2646671 0.33577183 0.118376255 -0.59627926 0.70476145 0.23225592 0.34588012 0.22123122 -0.101471685 0.34756735 0.17803074 0.55585253 0.5103439 0.254479 0.4741079 0.3211117 0.2487315 0.11991337 -0.24325292 0.43774632 -0.6313058
GLE -0.24298649 -0.12069032 0.04576844 -0.4298545 0.6060018 -0.23541953 0.58106166 0.037498716 0.05858993 -0.29565948 0.17889385 -0.005860473 -0.5037346 0.6049845 -0.3064909 -0.067301944 -0.11272177 0.32514113 -0.15252757 -0.22129895 -0.23047213 0.23902364 -0.25535572 0.18223098 -0.22025324 0.35107657 0.14401317 0.26001915 0.14667779 0.2532871 0.10557745 -0.14678058 0.2784488 0.04637097 0.17181277 -0.34092298 -0.090136915 -0.058205448 -0.098807044 0.20944741 0.23228541 0.14243224 -0.82210845 0.19707619 0.2295206 0.049989447 -0.26348254 -0.11359949 -0.22538607 0.28525445 0.15874448 -0.09327128 0.7992492 0.42621318 -0.16825436 0.49324092 -0.024349399 -0.14209339 0.18825333 0.13576062 0.263828 -0.34705696 -0.17984584 0.003215448 -0.4707852 0.08699271 0.12893443 -0.123504706 -0.18968473 0.521486 0.24738973 0.022953754 0.050913375 -0.074255906 -0.17758295 -0.47028354 0.048581302 0.07526184 -0.46862772 0.24925591 0.5321942 -0.11884722 -0.8213738 0.5333811 0.06455734 0.6190643 0.18657166 0.5534212 0.4937758 -0.4907617 0.43186274 -0.093627535 0.22917682 0.3270276 0.6495756 -0.017370712 0.21221144 0.16896123 0.07986672 -0.41906184
GDE -0.3325831 0.0071913856 -0.37183496 0.47506315 -0.046434518 -0.14429763 -0.08881254 0.4199064 0.26033884 0.043313842 0.4656365 -0.3125388 0.12729023 0.63756627 -0.2784865 0.007993495 0.29798242 -0.33448592 -0.12323384 0.21121453 -0.16469954 0.029072868 -0.5161185 0.076090254 0.20919439 0.3067941 0.290178 -0.37442213 -0.71833736 -0.11871396 0.29538578 -0.40979138 0.36527646 0.4389381 0.26601446 -0.4076376 -0.2760349 -0.55857784 -0.18708292 -0.16553958 0.34226125 -0.2905762 -0.10196019 0.17360875 0.36540443 -0.06319632 -0.20584086 -0.21192527 -0.123178825 -0.031405836 0.8817569 0.008984224 0.11493937 -0.18423791 -0.17937142 -0.00915562 -0.28281578 0.019867219 -0.07294007 0.27098352 0.40275925 -0.23616485 0.17461085 -0.26015204 -0.33387434 0.71088034 -0.35797477 -0.04984816 -0.6040721 0.3658379 0.1254779 0.420434 0.24376763 -0.48754215 0.064622946 0.27945924 -0.04650298 -0.050080173 -0.27527964 0.3297125 0.37447196 -0.1520243 -0.4572747 0.37379408 0.37528643 0.002065922 0.033062514 0.0018562225 0.32622343 0.28126004 0.1651913 0.3321868 -0.106730424 -0.011216704 0.590984 -0.016165044 0.29857582 -0.024119696 0.09136417 -0.28334242
GLR -0.116564445 -0.5472219 -0.062192474 0.088959746 0.14638239 0.45216236 0.49435973 0.82382774 0.27110755 -0.30401745 -0.3281663 -0.33008018 -0.036571123 0.6903251 -0.37250882 -0.22977376 0.26214394 -0.2912427 0.54390264 -0.035991635 -0.16238703 0.43751323 0.22433753 0.5280053 0.5251103 -0.00396726 0.038569972 0.24101202 -0.52584964 -0.2461631 -0.270633 0.13391829 0.5151239 -0.34372494 -0.21205266 0.5670056 0.13109966 -0.49039683 0.8642047 -0.311348 0.3299875 0.18967989 -0.4447363 -0.445141 0.19488344 0.2401367 -0.23566587 0.015152819 -0.14016484 0.42992246 0.0811231 -0.14581794 0.014119284 -0.016091598 -0.47703004 0.1803407 0.2870459 -0.020636749 -0.38408658 0.34942698 -0.17638536 0.6404475 -0.07156589 0.44952905 -0.06953089 -0.08909842 0.6040201 0.05887137 0.041732382 0.0057337917 -0.06370988 0.1893869 -0.30024716 -0.1387003 0.18732728 -0.08192184 0.4965932 -0.46689376 0.39188313 -0.14665055 -0.09150072 -0.04614002 -0.40776777 0.38357377 0.043755803 0.44631672 0.1010379 0.38199154 -0.04909208 -0.01123548 0.17991954 0.07131367 0.0893232 0.25517514 -0.049028676 0.091409035 -0.18116774 -0.19680756 0.42623508 0.074782066
DAA -0.22096683 0.44381848 -0.37470835 -0.5374804 -0.02080416 -0.606391 0.32928538 0.7064601 -0.3937201 0.18004873 0.49947596 -0.0729202 -0.15604612 -0.055520322 -0.29916114 -0.66330796 0.05882773 -0.1108931 -0.27535942 -0.63474923 -0.14834195 -0.06251765 -0.37899914 0.38673678 0.010639205 -0.075563736 0.15176292 -0.13770139 -0.035042156 0.26466912 -0.07162535 -0.1899045 0.17899926 -0.03709191 0.20415182 0.32868162 0.42176905 -0.1841908 -0.57882905 -0.12814511 0.3710938 -0.42133602 -0.0039549153 0.085902244 0.23089547 -0.03352044 -0.06298663 0.07788903 0.59587926 -0.026094494 -0.14482929 0.13884929 0.011003271 -0.01322342 0.23947291 -0.33230683 -0.25380477 -0.26155102 -0.26609185 0.306992 0.010881302 -0.036906853 0.008204338 0.21791188 -0.22968578 -0.020536005 -0.21010225 0.1566203 0.25210485 -0.5574559 -0.004203599 0.13090411 0.051456533 0.097174 -0.08338973 -0.37852004 -0.017497636 0.37835145 -0.37087154 0.15103783 0.15874799 0.489632 -0.02305774 0.88799524 -0.45740712 -0.010513093 0.07422736 0.89958704 -0.16934322 -0.045117296 0.5760209 -0.051993046 0.0055890307 0.47305456 0.54446405 0.0779497 0.60539067 -0.21935852 0.71229523 0.17487496
QKE 0.15361808 -0.03384489 0.12098631 -0.56460714 0.5658837 0.09401686 0.4233427 0.53093165 -0.21479267 0.32945725 0.51593685 -0.24658053 -0.10775401 0.29303724 0.33212388 -0.17642388 -0.13406272 -0.056840785 0.0738769 -0.11858555 0.020334592 -0.07170515 -0.30208844 -0.29874957 0.0039604874 0.011107027 -0.00356826 -0.7753616 -0.06853023 0.41656452 0.22861266 0.34433183 0.020314809 -0.23483948 -0.5233096 0.19512278 0.14547016 -0.018175935 -0.2211313 -0.4454953 -0.26828298 -0.3798669 0.40580082 -0.018181467 0.30625448 -0.9108881 -0.12073381 -0.23024817 -0.5000173 0.34535062 0.07515615 -0.5205871 -0.25362077 0.43203852 -0.07191614 0.060538232 0.30099112 -0.14355528 0.20079528 0.461996 0.2751239 -0.1082989 -0.25827903 0.15739053 -0.0030397389 0.34533548 0.020910928 -0.5398743 -0.035181593 0.14179063 -0.12839705 0.26901498 0.3031923 -0.011411879 0.15511858 -0.1698737 -0.08366683 -0.37985262 -0.4968073 -0.08170138 0.18639828 -0.24656786 -0.8293852 0.044020765 -0.20715058 -0.12297767 0.50297725 0.039102316 -0.102073394 0.26035032 0.57165134 0.551615 -0.22696438 0.40354308 0.7874157 0.36998585 -0.011749938 -0.30046 -0.09315702 0.6251978
LKD 0.14680499 0.03700858 0.23327076 -0.16236165 0.5051256 -0.11215705 0.18515499 0.28977236 -0.3918151 -0.9530442 0.20667401 -0.3357159 -0.23206879 0.34821138 -0.45859355 -0.06472301 0.63697183 0.08979929 0.10625171 -0.34277013 -0.12951899 0.18070138 0.06021683 0.022904098 -0.44812062 0.64007485 -0.12739386 0.3178965 0.31385487 -0.068608716 0.23845953 -0.1717181 0.2088382 0.0613163 0.0063368226 -0.46682286 0.3648955 0.039216947 0.27757582 0.19030504 0.16356057 -0.1598001 -0.8579073 -0.11386667 0.1486315 -0.27107427 -0.1214274 0.14159225 0.089271925 -0.055537798 0.12941612 -0.38567546 0.26730976 0.20309357 -0.44728288 0.3230891 0.10206614 0.26862934 -0.09317556 -0.04927926 -0.101235144 -0.35831028 0.04658257 -0.011902473 -0.48086986 0.1879518 -0.08200144 -0.49103075 -0.63920623 -0.4313682 0.45623192 0.4350233 -0.23904335 0.017020741 -0.27766496 0.30254674 -0.17456287 0.07937454 -0.4937435 -6.330375e-05 0.46669275 0.043462817 -0.5145291 0.56166387 -0.23314239 0.07450485 0.07582866 0.29432678 0.36389154 -0.41033292 0.22436024 -0.12008859 -0.08403213 -0.47167358 0.96070224 0.16365914 0.3383459 -0.43874976 0.18934208 -0.16561243
LRA 0.14779495 0.1407145 -0.07314777 0.07708463 0.08841194 0.07747525 -0.014281853 0.5848871 0.08422061 -0.55137914 -0.5182661 -0.26080626 -0.26515687 0.3123541 -0.036947828 -0.23544617 0.53286874 -0.10087472 0.50672024 0.0426274 0.40652147 0.35266572 0.63322735 0.049637325 -0.12824789 0.41942072 0.039271615 0.34772223 -0.6270832 0.27360845 0.50019073 -0.42364368 0.041128963 0.56287456 -0.31418964 0.07485856 0.66278356 -0.1465224 0.04401738 0.27696332 -0.31444165 -0.34666258 0.11788119 -0.22053884 0.42580128 -0.29268005 0.1373803 0.0011836877 0.32741392 0.088975914 -0.32205814 -0.116591185 0.19317432 0.07512651 -0.30256546 0.40632728 -0.5492943 -0.45933226 -0.5557536 -0.032601457 -0.2698775 0.64385927 0.5337151 -0.21003523 -0.40129554 0.059522174 0.08959572 0.45729426 -0.15485308 0.021266421 -0.122790076 0.092102915 0.23091315 0.052486897 0.23030101 -0.19838925 0.7838813 -0.095973626 0.2814869 0.051792048 0.26935512 -0.92873394 0.02113987 0.14493898 -0.11256013 0.6385719 0.11085918 0.276737 -0.014619609 0.32174972 0.20496184 0.05986158 -0.57082546 -0.017358955 -0.17585799 -0.108008556 -0.038780928 -0.6186115 0.23470962 0.18423714
EKD -0.40965763 -0.22457509 -0.23727462 0.059742283 0.019352369 -0.37942153 0.38474807 0.5939475 -0.35366315 -0.27813724 -0.2774151 0.0037967237 0.25007635 -0.07480029 -0.18341419 0.8984367 0.34317383 -0.14019339 0.03464396 -0.6542101 0.23946393 0.035246577 0.218069 -0.12489074 -0.17893781 0.03450421 0.030041885 -0.020109534 -0.6935162 -0.09935561 0.10907041 0.122893594 0.5676445 0.023481853 -0.15402688 -0.11905041 0.30812225 -0.28595886 -0.41511038 0.034094986 0.20741081 0.12329304 0.18503271 0.03111267 0.016566498 -0.15673117 -0.24892339 -0.007362066 0.36029834 -0.27386612 -0.011632176 0.060046915 -0.59261596 -0.5428975 -0.24956416 -0.19405189 0.44174486 -0.004608819 -0.44691148 -0.2378389 -1.0317267 0.527489 0.014749096 0.13018474 0.08522563 0.26729986 0.17845039 0.38694867 0.002376016 -0.05000122 -0.14997451 -0.13400534 -0.38064778 0.6087942 0.30661395 0.056537732 0.4915657 -0.19884898 -0.037962265 -0.064942725 -0.056838688 -0.3094385 -0.27236113 0.0556727 0.06819776 0.2644683 0.3099516 0.38267764 0.18340428 0.0020952234 -0.10667635 0.122290544 -0.19122927 0.3370592 -0.067056894 0.602807 -0.19239725 -0.031766213 0.046678215 0.62259036
NNV 0.079852 -0.18404639 -0.048545863 -0.41300008 0.4671074 0.23363818 0.5776621 0.05698038 -0.18969887 -0.20973444 -0.19617994 -0.1261408 -0.47459134 0.65528387 -0.60503286 -0.009474241 -0.08579497 0.3618445 -0.16654813 -0.42852736 -0.36241058 -0.21472701 0.020233346 0.09572699 0.11668105 0.6939224 0.14433497 0.31223843 0.4410862 0.1522078 0.3441518 0.003912781 0.43924513 0.28334042 0.040421866 0.15709157 0.006962965 -0.015603492 -0.35749918 -0.05708764 0.1627132 -0.00034213593 -1.0224965 0.15785146 0.10730701 -0.12587136 0.040776722 0.12381521 0.073474124 -0.14307846 -0.0420894 -0.18416487 0.49496296 0.24919231 -0.16282673 0.42358392 0.08623139 0.049472082 0.15783456 -0.043670297 0.5281678 -0.3119842 0.07393408 -0.17531745 -0.6439275 0.094170325 -0.10206707 0.0066661597 -0.097365014 0.26097253 0.18396239 0.2592778 0.12835974 0.23889358 -0.14333911 0.19988209 0.2783169 0.14587314 -0.23818891 0.29038838 0.57199854 0.2506722 -0.6159345 0.44253898 0.38031614 0.4113411 0.2503466 0.4480179 0.5094113 -0.47158617 0.57310253 -0.15501148 0.5682869 -0.1072772 0.57358426 -0.14429344 -0.34685305 -0.094299704 0.3331614 -0.16816516
IAK -0.04661477 -0.379132 -0.23940767 -0.15629473 -0.5157743 0.117988385 0.13708209 0.3941128 0.16762774 -0.46654773 -0.5996546 -0.27056453 0.39584246 0.051092613 0.1969442 -0.18967542 0.093589924 -0.13115542 0.19584502 -0.38950437 -0.51232135 -0.050218683 0.2721249 0.28282756 0.045101363 -0.32682735 0.10331854 0.17123881 -0.38645026 0.030774172 -0.12388919 -0.31665495 0.23579232 -0.24769665 0.3014909 -0.057780072 0.45947218 -0.08800579 0.23582825 -0.5036676 0.63318425 0.2785223 -0.011953886 -0.187129 0.09584502 -0.1604337 -0.57695127 0.47627342 0.19998284 0.23938693 -0.094121285 -0.21620902 0.058084294 -0.2317268 -0.04543169 0.22075187 0.5164782 -0.5194325 -0.7729342 0.20257007 0.041751634 0.17293555 -0.19861224 -0.12484228 0.10259043 -0.65002954 0.10991323 -0.06653812 0.12106931 -0.04387903 0.08254488 0.09863826 0.034511834 0.08741769 0.6714169 -0.38177806 0.49632743 -0.6420732 0.18352859 0.061905257 -0.33880636 -0.542731 0.11681494 0.28308907 -0.06625131 0.15517235 0.699092 0.5784107 0.52360636 -0.16606864 0.28272834 -0.14377426 0.37442192 0.122751534 -0.22062635 0.15094976 -0.12991476 -0.22868523 -0.10633321 0.20282044
DES -0.049316444 0.0035004902 -0.3823144 0.20448175 -0.21513827 0.23752862 0.23720844 0.19276406 0.3012491 -0.1325855 -0.61012006 -0.21904872 -0.13718712 0.2805132 0.10316432 -0.13886595 0.71851766 0.119895615 0.42017388 -0.7414672 -0.08980674 0.002002598 0.5446457 0.24761912 -0.37865362 0.5101433 -0.16162482 0.28159988 -0.34377483 0.39514336 0.22266658 -0.4030043 -0.09226761 0.38395628 0.033820294 0.07779213 0.5225277 0.16925463 -0.19914618 -0.04646415 0.2560834 0.24558857 0.21505776 -0.3255248 -0.19305742 0.19681232 0.5852111 -0.02933435 0.37855482 0.2479142 -0.3287221 0.0069551286 -0.27832717 -0.28112394 -0.26816738 -0.119246565 0.17749797 -0.33478847 -0.5080303 -0.110785395 -0.053763386 0.11781834 0.30190748 -0.37622374 -0.5921302 0.16098611 0.10437434 0.496331 0.24478921 0.17503735 0.044984918 0.17542166 0.3993273 0.28203154 0.36360273 -0.2634303 0.33037376 -0.50653017 0.43068796 0.022687266 0.1840182 -1.0028088 -0.10558762 -0.27497366 -0.25103635 0.54519886 0.2682511 0.5810883 0.6419638 0.25661737 0.09628458 0.061700564 -0.31506467 0.041430905 -0.0008060837 0.23363082 -0.122324415 -0.49811623 -0.18824385 0.3204411
KVA -0.2569436 0.4569029 0.6252376 0.35180706 -0.12025475 -0.15377034 0.07376055 0.13217549 0.22496642 0.04837377 -0.18420188 0.13312083 0.23586564 -0.024791708 -0.07769137 -0.30671176 -0.26247 0.03862466 -0.29888737 -0.013994533 0.0744537 -0.3091368 -0.42475206 -0.013040936 -0.044854645 0.3609865 -0.30632487 0.278945 -0.3488893 0.3720093 0.19900566 0.12707378 0.60964984 0.36759827 -0.24702975 -0.1552233 -0.09356649 -0.14957124 0.02591849 -0.20446385 0.28602564 -0.5348426 -0.1446158 -0.0677965 0.17453821 -0.31224182 -0.029672895 -0.7016883 0.16037035 -0.09526375 0.459776 -0.3143905 -0.25504905 -0.18144411 0.16239408 0.28742996 0.3770869 0.044453304 -0.51546115 0.22105046 -0.09145168 -0.44459572 -0.12833662 -0.07561417 -0.28231135 0.4192701 -0.288384 0.42334947 -0.34034497 0.5818016 -0.071970925 0.026803404 0.46082854 0.007863846 -0.1125252 -0.16268982 -0.29577774 0.079635724 -0.58429813 0.07167475 -0.10272682 -0.17598961 -0.33042997 0.31100917 0.1911878 -0.059385415 -0.25914806 0.38729447 0.3623866 -0.40554726 0.47845703 0.5685916 -0.50937927 -0.03592206 0.51042706 -0.19971892 0.43587875 0.121010706 -0.03242895 0.0010017818
IKE -0.4340261 -0.25916755 -0.26293984 0.29655945 0.69732666 0.30358645 0.25597364 0.41625604 0.2151039 -0.039751798 -0.07176728 -0.34022954 0.058610965 0.31110257 -0.43672135 -0.32023183 -0.0035995753 -0.13652883 -0.09985417 -0.6091123 0.10338418 0.7964776 -0.26694745 0.23416755 -0.38314342 -0.036300432 0.38505036 0.055073164 -0.06935265 0.107544035 0.15633151 -0.17709196 0.21020584 0.2147482 0.051843308 -0.30436248 0.258138 -0.5449512 -0.05269705 -0.1018034 0.21157044 0.030474422 -0.56644094 0.4987405 0.18065879 -0.1770178 -0.40610528 0.16913092 -0.066249415 -0.152199 0.021787142 -0.20693628 0.42544368 0.3812564 -0.14904593 0.0049581416 0.101980284 -0.60994726 0.13906445 0.81668395 0.5124198 -0.24253353 -0.2613207 0.2828699 0.09344582 0.008103065 0.10427907 -0.04218077 -0.049934622 0.10813075 0.1404509 0.17810197 0.15622066 -0.0043189493 0.28283736 -0.110174395 -0.016360441 -0.66664314 -0.56946844 0.5445651 0.4052747 0.5218658 -0.015222279 0.6205872 0.6890533 0.3798284 0.20945409 -0.34454882 0.107194096 -0.24672735 0.23878758 0.037891865 0.14193647 0.23275548 0.77619195 -0.5106892 -0.107407264 -0.24350926 0.6346401 0.035755336
DKI -0.2990131 -0.48034096 -0.20428242 -0.037220974 -0.23144712 0.21007365 -0.05731629 0.21946013 -0.057523593 -0.14631575 -0.33544517 -0.19250107 -0.045480773 -0.11097474 -0.35104474 -0.36470038 -0.18521956 -0.1340636 0.5524896 -0.36130622 -0.44907212 0.13223669 0.017182283 0.28604314 -0.08232405 -0.23513438 0.030516418 0.15320495 -0.27354273 -0.11227703 0.5342921 -0.18425682 0.25696477 -0.46599543 0.6068336 0.030401876 0.36852193 -0.1433677 0.5790564 -0.19048789 0.7302914 0.6248847 0.044188406 -0.0949125 0.084336616 -0.39170194 -0.58203673 0.1386217 0.02279347 0.11060458 -0.11562411 0.057293877 -0.4239329 -0.14627093 -0.37117398 0.34666598 0.67173916 -0.35817423 -0.6113058 0.30795312 0.016606834 0.45243177 -0.3912883 -0.0642986 -0.15102777 -0.4277679 0.008045791 0.4543317 -0.09030045 0.1808491 -0.028020337 0.04399783 0.014630732 -0.11945669 0.23975964 -0.40470758 0.3532062 -0.23175058 0.6664222 -0.2312655 -0.44557917 -0.42864388 0.046123352 0.18301198 0.0780466 0.20196857 0.50059515 0.7000587 0.2590679 0.094818644 -0.1551974 0.10512948 0.5440038 0.17647232 -0.26669466 0.19662425 0.069143005 -0.6919747 0.09250684 0.2732307
SDK -0.535821 -0.1525124 0.24487105 -0.33847362 0.2247732 -0.21425642 0.47992125 0.37147447 0.15420659 -0.35699654 -0.47098026 -0.17456616 0.22386417 -0.26320866 0.20343442 0.2843654 -0.56996566 0.22142869 0.23627561 -0.49859273 -0.040112536 -0.38819307 0.56381625 0.025917543 -0.1197028 0.17885253 -0.20763552 0.075559445 -0.4778844 -0.059998002 0.07075627 0.07768533 0.66454303 0.27213517 0.25868964 -0.011843241 -0.03676784 -0.66913635 0.366817 0.2730331 -0.41088796 -0.39982215 -0.15123111 0.015468839 -0.05924975 -0.3265893 0.59338987 0.039410803 0.099818066 0.47387516 -0.0076784175 0.16772033 0.2480318 -0.7757357 -0.32731643 0.34360752 0.53600603 -0.1071278 0.30508137 -0.10462022 -0.34298077 0.3133794 0.17337888 -0.07575039 -0.20717907 0.4331352 0.05354003 0.25310585 0.21824017 0.084846795 0.5844142 -0.03528926 0.028839068 0.9466082 0.5175553 -0.52623975 0.13802475 -0.36503714 0.5170001 0.27385187 -0.23400345 0.37168133 -0.24395958 -0.16365886 0.09939787 0.13755475 0.2910823 0.19678593 0.10100139 0.07470057 -0.070194885 -0.14785978 0.06759829 0.47910088 0.0030646727 0.4264948 -0.05185382 -0.34052077 0.10881708 0.37681037
