2155 100
PAP 0.48981544 0.014122038 -0.073685944 -0.20618892 -0.09121514 -0.31287414 0.07466093 0.09616608 -0.26843986 -0.03632624 -0.29383308 -0.011922487 0.19332507 -0.13283202 -0.10561098 -0.11133447 0.12311139 -0.28923172 0.34829313 -0.8602106 0.20868164 0.197588 0.40638697 -0.49435362 -0.114709415 -0.09372178 -0.4363539 0.7614463 0.21361856 -0.33334908 0.1969514 -0.004872507 0.6401065 -0.5326613 0.16024537 0.22842683 0.10675022 -0.53905857 -0.14212126 -0.28866434 -0.4329704 0.21312745 0.05947039 0.7041911 0.22083384 -0.71088374 -0.56634843 0.11795143 0.09501739 -0.028916026 0.2946992 0.29884368 -0.22507726 -0.124941766 0.3123163 -0.059135024 0.09683229 -0.30845964 -0.5600847 0.51588386 0.04848111 0.055141106 0.085164264 -0.24208358 0.016042324 -0.08096299 0.24544115 -0.038281247 -0.68616414 -0.13226105 -0.29013112 0.08567416 0.28482765 0.636927 -0.5941953 -0.37689075 -0.025385533 -0.09279065 -0.020045472 0.33817956 -0.025531325 0.04751876 -0.3786114 0.22570322 -0.45089087 -0.29617023 -0.17449343 0.55890566 -0.021891702 0.3729633 0.56907856 0.25210854 -0.5855855 0.13024338 0.034293007 -0.25069427 0.01435735 -0.4834651 0.57945913 -0.11849857
APA 0.5295751 0.3733364 0.03955407 -0.15457053 -0.02283652 -0.35460693 0.17942742 -0.026005697 -0.13697127 -0.17706302 -0.37315488 -0.19115362 0.12037794 -0.12492363 0.21854945 -0.110027656 0.3489745 -0.33703026 0.28722098 -0.9490314 0.37560394 0.17689805 0.35107282 -0.46727264 -0.03151417 -0.36687034 -0.5788756 0.6278874 0.19228712 -0.20418814 0.035062037 -0.088410504 0.3497174 -0.51398164 0.020542497 0.17550284 -0.009308797 -0.5722646 -0.13615324 -0.39825273 -0.112697005 0.46994448 0.113765925 0.44009447 -0.0145730255 -0.61627954 -0.6578473 0.19436298 0.16222893 0.019107617 0.24172206 0.097085506 -0.0023574564 -0.082894415 0.4241072 0.2207799 0.25044265 -0.18919301 -0.50308335 0.400417 -0.14671782 -0.17546728 -0.01582921 0.024908144 0.10016389 0.034969505 0.24119386 -0.0762605 -0.67669255 -0.14281921 -0.26315036 -0.08091018 0.49438608 0.7115635 -0.66318935 -0.4419045 0.19315162 0.09052593 0.056395013 0.043949794 0.054052528 0.08497353 -0.35986766 0.2754916 -0.2527166 -0.31730187 -0.091841884 0.34935832 0.056618735 0.4798356 0.6639425 0.32925603 -0.774541 0.29624495 0.06025252 -0.375976 -0.0047431476 -0.6096023 0.69967204 -0.08423022
WYY 0.5247293 0.009858773 -0.403763 -0.092077725 0.06949489 -0.04623542 0.006434645 -0.05205047 -0.59515846 -0.30399296 0.28603777 -0.19801047 0.19235617 -0.5556869 0.3710145 0.2990067 -0.14111732 -0.30463094 0.20456521 -0.79851925 -0.06584771 0.08477282 -0.05767513 0.20696007 0.0936891 0.18122612 -0.5395959 -0.057741314 -0.572216 -0.13129903 0.26304558 -0.023357036 0.36413816 -0.2225327 -0.17438507 0.47020143 0.1623077 -0.4010046 -0.5126725 -0.2436364 0.41640148 0.16705401 0.25568652 0.13125685 0.47568604 -0.53544664 -0.55778706 -0.14184575 0.2617598 -0.09400122 0.41788214 0.06354551 0.14814131 0.079919875 -0.43449044 0.062306277 -0.05857863 -0.34661257 -0.64668757 0.45155188 -0.17952287 -0.048313826 0.12935156 -0.40755028 -0.4620662 -0.45250866 -0.28687844 0.021029534 -0.15081193 0.49505398 -0.09043812 0.4815304 0.41195017 0.8657265 -0.09061152 -0.037949122 0.26196814 -0.35138038 -0.23943307 -0.25672367 -0.213295 0.112801276 -0.2324172 0.19793493 -0.48070022 0.082295656 -0.67281765 0.24643852 -0.3193663 -0.11328459 0.23001628 0.7013095 -0.60862833 0.53363204 0.32496256 -0.110302456 -0.046720788 -0.16456698 0.24662265 0.165451
TGW 0.5176363 0.08950575 -0.12671448 -0.17393342 0.045418344 0.06583908 0.17705187 0.061821762 -0.2185745 -0.4467863 0.142504 -0.08174184 0.21449727 -0.66327447 0.25838766 0.12030563 0.02758344 -0.2606478 0.09190949 -0.7266836 0.024724634 0.20452566 0.04068899 0.124170035 0.08282501 -0.10025359 -0.57877165 0.25992835 -0.5030855 -0.15869221 0.05412916 0.20475547 0.48085782 -0.106187515 -0.07792371 0.31785318 0.30001563 -0.34337533 -0.57380944 -0.4156292 0.09650021 0.4193004 0.3064266 0.5243281 0.45906067 -0.56761354 -0.5751063 -0.27089518 0.25673944 -0.13833065 0.47003052 0.06985724 0.10646842 0.024549246 -0.3456573 0.15048061 -0.10958273 -0.15926638 -0.6064021 0.510459 -0.17335348 0.19810213 0.1625143 -0.40079123 -0.28652334 -0.38289195 -0.21302402 0.44965786 -0.2529731 0.26091537 -0.047834497 0.6105004 0.48510274 0.83557427 -0.16766441 -0.22127295 0.33931452 -0.45961386 -0.17998913 -0.016502336 -0.4550531 0.22042449 -0.43788275 0.20797488 -0.63085157 0.0009208519 -0.36269397 0.42957 -0.1876108 0.0019542421 0.108400874 0.64778376 -0.69947755 0.35659564 0.13972305 0.0018145131 0.080325425 -0.18434587 0.34484643 0.23826839
YYL 0.4816612 0.1482837 -0.28510845 -0.27955696 0.10599178 -0.22407277 -0.106372856 0.05812934 -0.27738285 -0.41246468 0.1874574 -0.06299665 0.36925858 -0.74900097 0.2917477 0.16093121 -0.25649446 -0.3914096 -0.09433832 -0.80676866 -0.19239412 0.3542802 -0.03061912 0.052702785 0.13889343 0.058600325 -0.59028023 0.17234166 -0.5352065 -0.15055937 -0.012175148 0.14250219 0.44968805 -0.11243817 -0.2761377 0.2949077 0.06642221 -0.22748286 -0.8253178 -0.35739818 -0.0146383885 0.24710418 0.3537867 0.355379 0.44726548 -0.42881268 -0.25233015 -0.19395621 0.28123963 -0.16584605 0.45463812 0.11230402 0.050231405 -0.0655376 -0.4092968 0.24595775 -0.19006868 -0.35357517 -0.5220252 0.35011154 -0.01133435 0.040877692 0.04496925 -0.39249957 -0.35779822 -0.3866808 -0.26268646 0.2970882 -0.267755 0.22350927 0.01648229 0.65640014 0.44163996 0.8031322 0.11478752 -0.28368822 0.13211145 -0.12511216 -0.39046717 -0.064126685 -0.2670949 0.14793795 -0.6770782 0.20072609 -0.7349395 0.26318404 -0.6163508 0.39094537 -0.041539207 -0.030011432 0.055312417 0.5473416 -0.70636636 0.6313142 0.4103662 -0.027386341 0.07785307 -0.284832 0.19889477 0.13092606
MAT 0.3729159 0.063685045 -0.15447843 -0.24109286 0.07483452 -0.1386243 0.050879836 0.11439515 -0.12004266 -0.36477506 0.27240196 -0.006268826 0.32812017 -0.74987453 0.12665063 0.25739834 -0.15609616 -0.41893366 -0.021660646 -0.6008891 0.034501787 0.24546242 0.1174647 0.033777364 -0.03629987 -0.13985553 -0.5400157 0.25474 -0.38512802 -0.10786649 -0.22902262 0.2770028 0.49247724 -0.32627088 -0.03512698 0.49249342 0.19877023 -0.37013727 -0.686586 -0.48638684 0.07076494 0.29966792 0.20502158 0.36404687 0.45269236 -0.62193865 -0.40220848 -0.37226328 0.057816237 -0.10007093 0.44891438 0.041830376 0.1160444 -0.010834439 -0.40183893 0.32547706 -0.23414749 -0.15675876 -0.58246845 0.32805195 -0.13266152 0.08815786 0.069682084 -0.3196937 -0.4258535 -0.4159715 -0.025487788 0.19164422 -0.23012292 0.30915287 0.004613648 0.6551538 0.4426104 0.6931638 -0.0230299 -0.07953497 0.20358655 -0.06020825 -0.32266042 -0.14033136 -0.3962125 0.15757944 -0.66827315 0.22957556 -0.8797408 0.06665969 -0.55438834 0.40785775 -0.17671144 -0.14637046 0.14882126 0.66101855 -0.80183685 0.34119347 0.29340315 -0.006955587 0.24156624 -0.2739942 0.2832921 0.12938288
ATG 0.63442135 0.14403042 -0.3594346 -0.3380707 0.16076049 -0.20087281 -0.05403991 0.03883168 -0.26687884 -0.50241846 0.09130905 -0.19575268 0.38130966 -0.7842867 0.1379519 0.26175922 0.03378459 -0.36704046 0.019002365 -0.6793531 -0.010602434 0.18553278 -0.00602771 0.16465859 -0.056413732 -0.09919557 -0.48030722 0.044317257 -0.6249438 -0.077714816 0.119999275 0.21353687 0.2774127 -0.15650548 -0.018493418 0.41160092 0.21146503 -0.37594363 -0.72355074 -0.3361326 0.17013906 0.50240135 0.31423002 0.35840786 0.383688 -0.46996126 -0.36352032 -0.21191159 0.30202618 0.043708947 0.3412698 0.15541172 0.24906999 -0.012596177 -0.43080434 0.13551389 -0.116572976 -0.3371946 -0.5162727 0.22229515 -0.027073862 0.17436142 -0.0040410706 -0.36588737 -0.3466685 -0.44183034 -0.24846715 0.17806849 -0.27230674 0.3911202 -0.21509875 0.68285453 0.62151 0.6622688 -0.038685538 -0.1269901 0.15762989 -0.23410554 -0.21363442 -0.091869354 -0.45968077 0.037511557 -0.7138033 0.3208345 -0.8110979 -0.0013244106 -0.42505324 0.3119361 -0.38468748 -0.012203443 0.27723795 0.84381896 -0.7263298 0.3813476 0.27654836 0.050327145 0.00637952 -0.21073228 0.39771077 -0.017892305
NGS 0.30538303 -0.073352806 -0.43814796 -0.26441473 0.1148996 -0.2683871 -0.10067613 0.21614023 -0.24644825 -0.4189019 0.45014912 -0.042750232 0.32268077 -0.7971873 0.20063467 0.39882722 -0.19481629 -0.45209515 0.0362933 -0.8391356 -0.012838284 0.24649149 0.046563674 -0.042568587 -0.08597186 0.15334445 -0.58767337 -0.0031011137 -0.25513756 -0.24876608 0.03572319 0.21150912 0.28413475 -0.2796167 0.037304487 0.48994926 0.084836125 -0.5389766 -0.7698351 -0.3926595 0.124761485 0.19545005 0.3778425 0.27784914 0.5275187 -0.4951352 -0.27307528 -0.25697333 0.0914338 -0.12430535 0.26590946 0.067276396 -0.15009965 0.011700122 -0.3381077 0.21607701 -0.044094995 -0.27781126 -0.43744695 0.27263543 0.007103246 0.33928838 0.043080922 -0.3818779 -0.36113146 -0.36617777 -0.12780015 0.15125322 -0.28117004 0.225046 -0.14125149 0.7623217 0.40607294 0.8863727 0.06081578 -0.19398892 0.15649301 0.029219756 -0.62500083 -0.108583555 -0.33587423 0.17343362 -0.5092281 0.16092297 -0.55389035 0.18861121 -0.48067564 0.49192497 -0.3270564 -0.1862205 0.104159206 0.46572644 -0.5997932 0.5143141 0.2303013 -0.0024342972 0.35643825 -0.24047042 0.3978721 0.031313904
YLN 0.40349117 0.19574024 -0.28616786 -0.30557635 0.011489465 -0.1391391 0.15047388 0.007091039 -0.32338306 -0.4039826 0.22615777 -0.3344282 0.08084435 -0.70212436 0.1795332 0.35179666 0.010517919 -0.5294522 -0.08835536 -0.77969563 -0.07854261 0.2231506 0.062612265 0.21652634 0.25034437 0.001984614 -0.56460315 -0.13393424 -0.6337403 0.19594698 0.11410931 0.29583064 -0.04787879 -0.39130872 0.013517463 0.19107099 0.18052645 -0.31530315 -0.65589315 -0.24453682 0.39165142 0.68255746 0.38558125 0.26346588 0.3491614 -0.7118552 -0.17760074 -0.12125511 0.04327998 0.072492935 0.52492595 0.060998518 0.13202316 0.13940622 -0.3567921 0.248078 -0.30830044 -0.25287712 -0.54878014 0.4138586 -0.33308035 0.0048268447 0.03785515 -0.27898997 -0.5914042 -0.30315158 -0.121831186 0.27615097 -0.37036586 0.3240691 -0.1499758 0.72623736 0.41759756 0.80386525 0.27560383 -0.15909743 0.4296757 -0.32007647 -0.19786951 -0.14421253 -0.24940802 0.12469725 -0.45822853 0.22915275 -0.6367504 0.16416207 -0.39227793 0.2521972 -0.27606466 -0.06997869 0.5431545 0.68108296 -0.7516746 0.37600532 0.18011115 -0.11906565 0.1153414 -0.18050112 0.3236495 0.1298822
GAM 0.4907752 -0.06479273 -0.4447717 0.022231195 -0.048091866 -0.06266534 0.14102864 0.11337639 -0.1699255 -0.50862545 0.5149335 -0.19355844 0.26591218 -0.5263146 0.33878806 0.27081567 -0.26878637 -0.55302423 0.124913864 -0.8692486 -0.23768169 0.1702783 0.048043232 0.08409663 0.19189103 -0.15300561 -0.6332453 0.18630819 -0.46438602 0.111613974 0.1119709 0.28473473 0.33727163 -0.11267285 0.038398992 0.4187426 0.21304588 -0.21297795 -0.63117564 -0.37480786 0.23866144 0.53143585 0.35251892 0.31157264 0.33384174 -0.7488754 -0.42632383 -0.2329244 0.06726422 0.016614366 0.5221363 0.0074264854 0.27883193 0.12905252 -0.2399583 0.055830322 -0.2080775 -0.33573702 -0.62556237 0.32546294 -0.3028397 0.089587174 0.2206587 -0.67611235 -0.3700395 -0.41131347 0.14563724 0.16575786 -0.22523023 0.27549058 -0.18390015 0.7562943 0.14302455 0.7571157 0.10668421 -0.19388174 0.29976714 -0.4207596 -0.46422333 -0.09674418 0.036317952 0.3975702 -0.46009633 0.15901408 -0.65941876 0.30194554 -0.5985561 0.39920637 -0.04505105 -0.074740015 0.3866217 0.45500672 -0.6211881 0.6000325 0.13633612 0.017837832 0.12330493 -0.18508312 0.14473756 0.105699934
SWY 0.21441847 0.19585226 -0.36390176 -0.12839891 -0.023093125 -0.019269664 0.024038872 -0.15388002 -0.13463846 -0.4137905 0.30615664 -0.2646632 0.17144896 -0.3886479 0.33227405 0.1257797 -0.15191689 -0.4497544 -0.040994477 -0.7899943 -0.0019060504 0.12072461 0.019262383 0.2357379 0.20615786 0.1667283 -0.49183762 -0.068809636 -0.3762993 0.037777763 -0.02556056 0.25812435 0.334506 -0.17209454 -0.0065333145 0.43473372 0.2823928 -0.2242187 -0.80113006 -0.27983314 0.5265171 0.6594123 0.46793196 0.41313827 0.39442742 -0.54642874 -0.4133251 -0.09124293 0.12763637 0.20709173 0.37642106 -0.054478765 0.07143995 0.18717586 -0.5681876 0.18456034 -0.28128225 -0.32740346 -0.55201185 0.32405695 -0.21940719 0.12954667 -0.07000873 -0.16565455 -0.5350938 -0.27657986 -0.09012995 0.15320098 -0.17253695 0.2846636 -0.14742734 0.6796406 0.44016942 0.92657536 0.1852586 -0.15960394 0.26986673 -0.3679475 -0.23408426 -0.1624693 -0.36123374 0.2350499 -0.652167 0.30585778 -0.6542092 0.10055054 -0.39126635 0.38959414 -0.31176093 -0.0865449 0.5828092 0.7355778 -0.8252701 0.42126563 0.20949551 0.032584883 -0.0013744745 -0.42835554 0.35320258 -0.09821565
GSW 0.5620513 -0.07465439 -0.017272253 -0.2060191 0.3759461 -0.24963827 0.10898306 -0.076355904 -0.38437957 -0.49598727 0.14956057 -0.13349809 0.18586242 -0.64063394 0.5389383 0.13597159 -0.18016355 -0.38193715 0.07757489 -0.69159985 -0.11291756 0.2376884 0.092014946 0.12360036 -0.14591983 -0.21035476 -0.45968506 0.047688283 -0.4150899 -0.06364344 0.065906905 0.3636715 0.46961316 -0.3459879 -0.22263905 0.31506515 0.23436794 -0.20347619 -0.7245051 -0.5861651 0.22534615 0.41994128 0.2335512 0.3712599 0.39713767 -0.37871683 -0.25018045 -0.27986985 0.14151347 -0.13438158 0.6546091 0.12417411 0.13112348 -0.07577276 -0.46114612 0.35781083 -0.21844152 -0.40591633 -0.5447334 0.24209815 -0.11615823 0.20178737 0.05727406 -0.49231836 -0.28253806 -0.48080027 -0.2647512 0.4164917 -0.25425205 0.19143543 0.18656978 0.7729559 0.35789892 0.670552 -0.15622248 -0.2193703 0.3143146 0.20656122 -0.08787324 0.027532797 -0.4482406 0.13973145 -0.88380164 0.24841098 -0.65785956 -0.08288101 -0.4715657 0.5154796 -0.24813023 -0.2855894 0.18628117 0.8031692 -0.75214744 0.39584762 0.30958495 0.042570733 -0.028681967 -0.15574422 0.21788733 0.042243175
LNA 0.678218 0.33741066 -0.85834193 -0.49152318 -0.24848537 0.029870832 0.25643942 0.2165294 0.0076147118 -0.28577748 0.7682784 -0.09382185 -0.20338959 -1.2508008 0.3410426 0.22591631 -0.3957802 -0.93774354 -0.43588024 -0.19676116 0.4839685 -0.454627 0.12686758 -0.23297432 0.06922999 0.38364777 0.09195473 0.09041994 0.17118593 -0.10230114 0.12235606 0.29096228 0.029934788 0.054322056 0.25953984 0.3439701 0.3088032 -0.6786945 -1.0392565 -0.23109105 0.25371736 0.51704925 0.19255736 0.35042286 0.3037497 -0.46053615 -0.31358013 -0.0668744 -0.22745946 0.41565835 0.53261805 -0.17370525 0.121728204 -0.06878028 -0.18081103 -0.00017488368 -0.01741977 -0.013303063 -0.5802675 0.23188749 0.19444199 0.34576246 -0.37356225 -0.2540321 -0.18232775 -0.23808695 -0.2345299 0.550624 -0.5010054 -0.2038293 -0.07251303 0.72244567 0.33945492 0.52241635 0.19612896 0.26597682 -0.5635461 0.04117175 -0.5714078 -0.105176985 -0.28230298 -0.12030456 -0.74840224 0.08507867 -0.1818267 0.33827618 -1.2811344 0.401367 0.19001737 0.52712005 0.32134268 0.9397548 -0.38295764 0.32315066 0.5836229 0.24571356 0.35776833 -0.20552959 0.31607813 0.009098385
KAE 0.17306666 -0.32576075 0.21116069 0.042899136 -0.017393475 -0.1610583 0.15714444 -0.29058695 0.06717894 0.5142995 0.09767836 -0.20154601 -0.11088322 -0.020413168 -0.23389521 0.17904565 -0.084115855 -0.6548712 -0.15826215 -0.14628159 0.6093351 0.2244968 0.0903762 0.16504306 0.16610055 0.30377457 -0.07235513 -0.04958345 -0.15538813 -0.09166857 0.18985187 0.5826133 0.32297614 -0.29027694 0.2443991 0.19270311 -0.086359695 0.39010525 0.18029664 -0.1146968 -0.55518985 -0.028741103 0.30530512 -0.08719579 0.11572995 -0.14243244 -0.20307465 -0.2460689 0.10465716 0.14222476 0.14156055 -0.15433364 -0.079720035 -0.2738175 0.15546654 -0.017207472 -0.04868863 -0.2663875 -0.13415948 0.1870614 0.18914217 0.0048028096 -0.11281978 -0.5101745 -0.20197256 -0.104630455 0.265041 -0.43267456 -0.47032553 0.12323147 0.29446584 -0.26524353 0.44155475 -0.18266638 0.076071985 0.42280057 -0.37565163 -0.097010925 0.016518759 -0.4250345 0.058984615 0.062261146 0.03761062 0.58262676 -0.14584371 0.0805622 -0.16335343 0.07376694 0.13274471 0.18721156 0.14950706 -0.16261257 -0.16971257 0.26873553 -0.19134936 0.20786548 -0.015790068 0.15399574 0.45782277 0.39008364
NAN 0.23352909 -0.0018341194 -0.49744865 -0.24939823 0.43561673 -0.12052837 0.121394366 0.047832742 -0.70246893 -0.39355877 -0.00046690842 -0.058354545 0.2671636 -0.24767655 0.46372738 0.2619618 -0.007798415 -0.23474239 0.053338427 -0.66920185 0.061396245 0.10424389 -0.25468594 0.3637792 -0.045331787 -0.15461805 -0.5724791 -0.11654745 -0.41617894 -0.072252594 0.09432565 -0.12996455 0.3373256 -0.34296396 -0.33125567 0.39273345 0.00013164274 -0.42887744 -0.41299635 -0.31687918 0.24452055 -0.027182996 0.07200984 0.23876856 0.641455 -0.47471818 -0.48058775 -0.07888456 0.2444816 -0.12867887 0.46843222 0.088771574 0.40327552 -0.15062587 -0.28678855 -0.1253991 -0.33867484 -0.35074902 -0.63922286 0.3475166 0.15954107 -0.10129093 0.05435672 -0.72937727 -0.43714052 -0.19348894 -0.2825097 0.07997065 -0.102109104 0.44358256 0.14117448 0.38527057 0.41191718 0.55494785 -0.15298353 -0.1727597 -0.008419314 -0.0013542993 0.15620272 -0.14538568 -0.42144573 0.16571589 -0.1741858 0.4428887 -0.70494175 -0.17537752 -0.4099147 0.31264642 -0.17575091 -0.050100986 0.21540569 0.76807934 -0.7588784 0.56056464 0.19232038 -0.027160782 -0.025265634 0.09649168 -0.059031993 0.33452058
ANG -0.040386137 -0.11759638 -0.5189031 0.03520211 0.07622129 -0.10894545 -0.019841984 -0.06461911 -0.50993294 -0.3194231 0.20680943 -0.4761665 0.33158627 -0.1377571 0.24293706 0.18007337 -0.12873471 -0.5749593 -0.008460744 -0.7563497 -0.33404902 -0.009446131 -0.3327796 0.5030513 -0.05850343 0.07257335 -0.546141 0.19489805 -0.41822028 -0.049397703 0.028715951 -0.016515823 0.2146343 -0.13701501 -0.1737358 0.49573535 0.24280475 -0.18148229 -0.59880304 -0.3193036 0.31641743 0.32452193 0.3196745 0.11336344 0.28117406 -0.55514604 -0.4635034 -0.19633587 0.16138713 0.12122474 0.6300766 -0.07197914 0.16626233 0.01879612 -0.30327612 0.062071983 -0.042505026 -0.25751007 -0.5947815 0.50131625 -0.06225259 -0.04643192 0.00675575 -0.41338992 -0.4893822 -0.107878186 -0.062323622 0.17630748 -0.14257386 0.26314303 -0.23076996 0.64561063 0.38254556 0.79388875 0.18993635 0.03376773 0.32766783 0.07226272 -0.07369989 0.010136197 0.05857438 0.192522 -0.18548399 0.22137503 -0.4481831 0.13978091 -0.4672773 -0.08546022 -0.03826801 -0.2153869 0.34088653 0.3815948 -0.9098122 0.86701 0.07222236 -0.076246634 0.04465209 -0.19189306 0.18831441 0.36073226
AMA 0.0001713906 -0.073801175 -0.36148462 -0.35813123 0.20551063 -0.25328627 -0.105715334 0.15599152 -0.28641418 -0.58218294 0.32513642 -0.32199708 0.25033894 -0.6051593 0.37640604 0.31622192 -0.05375808 -0.43871132 0.21554564 -0.70153785 -0.13106766 0.21081734 0.12407417 -0.07153166 -0.032588474 -0.10942516 -0.58972764 0.012382049 -0.61623764 -0.076999635 0.017356249 0.34820575 0.3218496 -0.3194472 -0.07939334 0.54875755 -0.10117458 -0.4029112 -0.99036676 -0.30407605 -0.0042502866 0.57132524 0.4131531 0.27038607 0.49729902 -0.40209594 -0.019220019 -0.274694 0.08182071 0.23283587 0.42546186 0.077671394 0.12458938 -0.18305229 -0.3607674 0.17418699 -0.25730082 0.011149783 -0.41135323 0.15557352 -0.29495138 0.07009225 -0.15034819 -0.459149 -0.35317522 -0.41701144 -0.020147393 0.027471216 -0.3041281 0.18263184 0.03914122 0.97265226 0.54819083 0.8420509 0.25672698 -0.26165995 0.15944561 -0.2081985 -0.09115849 0.030204786 -0.22265068 -0.037916962 -0.5078265 0.17867436 -0.7029202 0.11061967 -0.4382736 0.1776297 -0.37907347 -0.08604942 0.4040573 0.8062406 -0.69861865 0.4513658 0.33390048 -0.08273805 0.15062344 -0.4820947 0.43095043 0.12240019
APK 0.30508208 0.124919206 0.16179909 -0.18450835 0.16925572 -0.2755247 0.36197677 0.042243715 -0.11431614 0.12844539 -0.49298933 0.084071316 0.16558054 -0.17306565 -0.052299127 -0.076920666 0.1279986 -0.5377122 0.53134084 -0.81831723 0.16235277 0.06065296 0.42649835 -0.52380204 -0.23968677 0.13559154 -0.36482936 0.90559524 0.052728534 -0.22739625 0.30038846 0.053689774 0.8049241 -0.5786214 0.11283878 0.57726663 0.03941578 -0.4526047 -0.17106186 -0.12361478 -0.6050089 0.2779112 0.19941215 0.6988146 0.17334546 -0.6834011 -0.40988365 -0.013115995 0.06598594 -0.05352846 0.33246318 0.22180353 -0.08659496 -0.24831863 0.13244323 -0.067313634 -0.1409367 -0.18155156 -0.39800385 0.47475994 -0.06963075 0.028694462 0.096415386 -0.4839343 -0.013501242 0.069414645 0.24310392 0.07781397 -0.5177369 -0.018631557 -0.08931187 0.0059875553 0.27752697 0.6412949 -0.5255027 -0.29463217 0.15669556 -0.13848823 -0.013704042 0.29683656 -0.18835719 -0.14411026 -0.586339 0.112139955 -0.4443423 -0.24544767 -0.09004237 0.33508894 -0.16734876 0.39365983 0.61720836 0.26957786 -0.8219977 0.12817502 0.15311374 -0.11657502 -0.11151084 -0.4987867 0.5422409 0.11197152
PKP 0.48926488 0.47377026 0.030999849 -0.11538854 -0.0034029256 -0.323157 0.093783446 -0.002321856 -0.2542175 -0.2372331 -0.3781177 -0.10918343 0.19675678 -0.14429685 0.21689561 -0.18881948 0.44296312 -0.3864704 0.28832617 -0.968267 0.27929777 0.09020067 0.49256712 -0.422679 -0.031717815 -0.45719442 -0.52311957 0.6438591 0.068797514 -0.115595505 0.062155765 -0.24291034 0.38498846 -0.48983952 0.04825631 0.29690143 -0.061771896 -0.71355885 -0.06685476 -0.36220512 0.056031924 0.5635584 0.16119054 0.42014417 -0.020928286 -0.66233337 -0.62506664 0.11189374 0.10428628 0.085369065 0.29141083 0.15680061 0.08082193 -0.17240766 0.39365068 0.35643932 0.2946822 -0.22861099 -0.47530514 0.40091592 -0.2577084 -0.08960588 -0.065768324 0.05193381 0.18878709 0.020516686 0.14387323 -0.059625093 -0.6529665 -0.12978639 -0.2817354 -0.07563052 0.48694634 0.70404416 -0.558136 -0.5243294 0.2029146 0.09618224 0.007984548 -0.05051683 -0.04830828 0.05280907 -0.22327267 0.21348888 -0.17283456 -0.27166468 -0.041291643 0.38415962 0.009091443 0.4369023 0.7834241 0.34927392 -0.8754296 0.4418936 0.08147122 -0.23999423 0.008005649 -0.73881155 0.77874625 -0.111737855
NGA 0.42977625 -0.05335807 -0.33404487 -0.59161854 0.2562172 -0.020034058 -0.07526688 -0.016851751 -0.21754499 -0.4432858 0.20873801 -0.04168243 0.15686041 -0.89059985 0.6602497 0.28970507 0.020463323 -0.46094176 0.063395865 -0.54312414 0.075199895 0.016484335 0.29249644 0.13559288 -0.1799271 0.03935673 -0.66040605 -0.000107639935 -0.4694157 -0.20839712 0.18054757 0.28548092 0.12922202 -0.56769407 -0.15753508 0.27058154 0.041266777 -0.3686519 -0.7568554 -0.720705 0.33724925 0.37831983 0.27743602 0.38603428 0.49783507 -0.20597973 -0.25443932 -0.04499623 0.17982993 -0.039021824 0.46572125 0.30610886 -0.14867964 -0.13311146 -0.3387002 0.28565115 -0.17675644 -0.35554704 -0.62352145 0.26959884 0.08373749 0.34577343 -0.19259188 -0.2858143 -0.5112179 -0.46878105 -0.2505644 0.35764712 -0.33035994 0.4974085 0.15172607 0.85318905 0.35292602 0.6752893 -0.40146878 -0.07997329 0.08943161 -0.010920751 -0.04609277 -0.019676903 -0.42955133 0.03631381 -0.59109473 0.43783894 -0.5373528 0.076254934 -0.46884182 0.34365442 -0.23407428 -0.11219441 0.37518495 0.74645275 -0.89453125 0.10195082 0.22125037 -0.016736962 -0.045228675 -0.48547754 0.12404357 -0.0034081652
KKA -0.028536672 -0.009069222 0.31854263 0.08768628 -0.054350194 -0.41813195 0.28943357 0.25438064 -0.26578698 0.43785506 0.050927248 -0.36891344 -0.14917304 0.13290687 -0.11427685 -0.027785147 0.18966585 0.25507587 -0.057145644 -0.90650284 0.28726572 0.13587111 0.051522322 0.05147764 0.25033155 0.07399382 -0.03729432 -0.5473875 -0.3320434 -0.08639594 0.64393336 0.040337067 0.15432186 0.11708194 0.031377275 -0.09129567 0.27561983 0.060803887 -0.0954417 0.0034824593 -0.21834536 -0.42852452 0.3525624 -0.10655675 0.16467136 -0.52830625 -0.21756169 0.036154114 0.06004836 0.5516326 -0.24403375 0.22658071 0.0153436465 0.13910173 0.3661314 0.016456123 0.3189439 0.13952126 -0.65281796 0.279233 0.14696854 0.06658544 -0.26614934 -0.34875643 0.14560713 -0.17339708 -0.16409168 -0.2224254 -0.18060802 0.3362831 -0.2649363 -0.2650275 0.32991174 -0.45922178 -0.111990646 -0.33929464 -0.52474946 0.053575277 0.060734462 -0.38453636 -0.034473564 -0.13651673 -0.42511082 0.5407995 -0.3277116 -0.06449089 0.12037111 0.22219002 0.5472211 0.45827392 -0.20675883 -0.44628254 0.043799035 -0.014280804 -0.04660645 -0.028945468 -0.11603464 0.080673195 0.35798374 0.37359855
AEL 0.6133894 -0.07253229 -0.13799463 0.42050886 -0.18145566 -0.099094525 0.41718215 0.06556387 -0.024943525 0.11839918 -0.26331487 -0.5182654 -0.4527791 -0.22532888 -0.25929967 -0.05400303 0.14935662 -0.15616485 0.27924004 -0.6436491 0.35221976 0.38754278 0.29781798 -0.280856 0.20587532 0.16261092 -0.429575 -0.032815184 -0.024265843 -0.5522822 -0.15957464 -0.08464993 -0.25351974 -0.4953252 -0.111856475 0.23770168 -0.10512246 0.27797613 0.108212344 -0.40235862 0.45071957 -0.11454244 0.32521006 -0.3162002 -0.5637073 0.3250595 -0.5745566 0.6322946 -0.72338945 0.7281267 0.18605018 -0.028122984 0.21978317 -0.3483092 0.56056684 0.22858621 0.31547457 0.07894352 -0.21740507 0.28408876 -0.022971839 0.0152311 -0.33907592 0.48023432 0.23953979 -0.031245777 0.3990471 -0.016059415 -0.68040967 -0.20426455 -0.14644556 -0.15837389 0.2535777 -0.117295206 -0.39525095 -0.23534156 -0.11933392 -0.005881965 0.31173235 0.51366585 -0.38734475 0.20096847 -0.31376997 0.44979888 -0.25746292 0.20369714 0.45578602 0.576561 0.23786683 0.26236865 0.6373187 -0.26525137 -0.25070357 0.1735288 0.3038896 0.41611728 0.23826893 -0.06848988 0.3410505 -0.012134848
AKK -0.019260088 -0.08798557 0.4488286 0.39497086 0.22081588 -0.22478412 0.6649149 0.33218688 -0.30443424 0.13553013 0.24998443 -0.5271839 -0.28853434 0.25033608 -0.21490467 0.053706557 0.30587223 0.44748816 -0.27617767 0.077171035 0.14310694 0.045056235 0.068405606 0.28074247 0.2962405 0.39044386 -0.15086642 -0.50466174 0.17723817 0.365095 0.19835432 -0.03473982 -0.29089895 -0.2776616 -0.184723 0.35249105 -0.23289958 -0.10602123 -0.031579904 -0.16170985 0.10154604 -0.7122329 0.22970662 -0.23223406 -0.20235209 -0.42706424 0.22927697 0.24105613 0.04831452 0.18752865 0.10054213 -0.3042723 -0.21003261 0.18397753 -0.008488448 -0.00142448 0.04178493 0.193098 -0.0005782937 -0.042138003 -0.16287355 -0.5136408 -0.43907127 0.04523755 0.25161362 -0.4492675 0.2164858 0.12544352 -0.405422 -0.053130664 0.0014797354 0.05540632 0.25676197 -0.5673188 -0.07741272 -0.0374975 -0.518612 -0.40702066 -0.16032737 0.06699619 -0.113464676 0.35447273 -0.14238611 -0.086237535 0.13834561 -0.113638006 -0.037566137 0.46024796 0.10330565 0.053369023 0.55021197 0.0675044 -0.28807524 0.40929598 0.43410927 0.06485941 -0.040243242 0.288654 0.1524872 0.09241041
EEA -0.054044485 -0.00021643125 -0.09389502 0.024658263 0.07944058 -0.17582001 -0.11951875 0.270556 -0.03389792 -0.016274154 0.07389502 -0.43477568 -0.5878043 0.23584348 0.004644245 -0.044955574 -0.28202298 0.22470362 0.047408275 -0.14033847 0.28365108 0.19456929 -0.08981131 -0.15124586 0.22019368 -0.21841142 -0.5216428 -0.5320519 -0.42452383 -0.057155866 0.21535076 -0.22493082 0.03863583 -0.02963586 -0.22493635 0.18250188 0.3648966 0.10994398 0.0998864 -0.0055402312 -0.027140662 0.021432353 -0.12075759 -0.1945325 -0.017296188 -0.315479 -0.26431647 -0.45721278 0.09235186 0.24429941 0.058973987 -0.24955791 0.19934115 -0.024196291 0.0012632635 0.10276653 0.27892902 -0.28660735 -0.11486591 0.33587754 0.15682763 -0.10294445 -0.433308 -0.012078727 0.15390447 0.076335184 -0.38878733 -0.110994734 -0.09364468 0.07680124 -0.25876364 0.39873642 -0.318606 -0.5941224 0.06531793 0.050241236 -0.08949939 -0.069878586 -0.407898 -0.049415514 0.18026935 -0.4165983 -0.36890507 -0.09358543 0.037397057 0.05615338 0.043442663 0.3695812 0.31347367 0.26761127 -0.051957875 -0.041396357 -0.0640068 0.0598267 0.1510867 0.124125026 0.057626426 0.5444591 -0.19638832 -0.036319003
LEK 0.25046578 0.09107029 -0.11111784 0.16194524 -0.34934643 0.22872657 0.0015168381 0.20363502 -0.53546685 0.42309353 0.14171813 -0.3886284 0.1941304 0.027461855 -0.6237283 -0.2773961 -0.07867592 -0.15480702 0.036628775 -0.0023000562 0.2608148 0.24381098 0.3063605 -0.707973 0.8555348 0.28421393 -0.19252168 0.5465367 -0.20465787 0.06889057 -0.56185716 -0.0050005335 0.16184992 -0.51264143 0.027649904 -0.23362508 -0.041912653 0.15025339 -0.19248284 -0.1604403 0.16874558 -0.27331156 0.5198725 0.17785023 -0.6098649 -0.7158646 -0.7717446 0.416493 0.12448852 0.3310123 0.45501614 -0.40671125 0.49164245 -0.3464569 0.26551634 0.18539865 0.26511985 -0.06848079 -0.44306043 0.26464185 0.49458164 0.21905863 -0.36177665 -0.21512146 0.24131243 -0.08168065 0.2446685 0.27929655 -0.5605554 -0.49598095 0.07126413 -0.27972275 -0.14348541 -0.43656734 -0.070296064 0.06487062 -0.22886902 0.20915967 0.18043691 0.22935557 -0.14247587 0.28634045 -0.28725955 0.6844787 -0.3936773 -0.13190848 0.48444974 0.80301523 -0.072168306 0.5612948 0.40645307 -0.04760334 -0.46595937 0.41594845 -0.4947464 0.21790273 0.40754622 -0.15856007 -0.058366835 -0.062263295
GWL 0.44187218 -0.19210786 -0.13693261 -0.35575342 0.36415482 -0.10996104 0.20639215 -0.22407664 -0.24496928 -0.44058153 -0.082475156 0.1447733 0.22187492 -0.54202676 0.5523307 0.12632455 0.08815077 -0.23535553 0.13934067 -0.7220855 0.0422848 0.3822639 0.11825956 0.022678649 0.047854036 -0.19385065 -0.4430132 0.20851637 -0.5696909 -0.12359082 0.044744268 0.11994923 0.5383404 -0.32189977 0.10269835 0.17684332 0.13596322 -0.26636577 -0.38807914 -0.4900557 0.1160046 0.47818124 0.19616055 0.5542863 0.41214046 -0.8094137 -0.5379253 -0.043031007 0.025961932 0.054968975 0.2657414 0.045145072 0.15781336 -0.13106962 -0.29746932 0.06299675 -0.20145188 -0.40908724 -0.56643784 0.31499752 -0.2485012 0.23230973 0.05974859 -0.4276127 -0.25653416 -0.18886271 0.15018155 0.5536449 -0.17767307 0.3711409 0.17847803 0.83434474 0.22710876 0.8400876 -0.2559584 -0.37719867 0.37277463 -0.29669353 0.012898075 0.19319543 -0.12330405 0.06320956 -0.6314758 0.5938846 -0.83631814 0.23381741 -0.64372647 0.34809056 -0.2789134 -0.22864756 0.23477572 0.8313567 -0.8712724 0.25489807 0.001808066 0.1866706 0.1109027 0.032935835 0.37231082 0.13693315
AEE 0.36615777 -0.4691738 0.17294602 -0.051889483 0.47440815 -0.12699823 -0.010311657 -0.10750248 -0.43560833 0.03975037 0.45266202 -0.52644277 0.13062859 -0.7244661 -0.59926695 -0.2094859 0.271731 -0.10653748 -0.24994048 0.28048936 0.056938335 0.30039942 0.029407874 -0.16115776 0.11869332 -0.08115992 -0.2704666 -0.181801 -0.38555163 -0.05467545 -0.22516568 0.042030487 -0.022700818 -0.5401943 0.17798993 0.004865999 -0.6161944 -0.33402276 0.16617775 -0.38484827 0.44850937 -0.22830619 -0.020027606 0.026542138 -0.024981754 -0.29512602 -0.6397246 -0.0664877 0.182382 -0.30257288 0.53674275 -0.47928938 -0.22954248 0.35202387 0.25612894 0.049780335 -0.08944299 0.31143588 -0.66872555 -0.14351667 -0.02840869 0.08022297 -0.40608773 0.41013166 0.060725976 -0.048162468 0.15226673 0.1195412 -0.18741257 0.090751186 0.23053682 -0.35569742 -0.20431802 0.07293361 -0.07970858 0.08844368 -0.35529843 0.10092059 -0.13817313 0.22116132 -0.22702217 -0.24502479 -0.061255895 0.34431988 -0.07249584 0.33256277 0.557305 0.116523676 -0.41636607 -0.16305539 0.12346631 0.325165 0.09550349 0.2495198 0.033934195 0.029822033 -0.036968485 -0.18357581 -0.03728131 -0.3884678
EAK 0.065556474 -0.06441834 0.5445125 0.35665426 -0.011296593 0.33687294 0.0066056806 -0.38324174 -0.02747784 -0.2731802 0.20520528 -0.4599229 -0.392233 0.49867633 -0.18016776 -0.11036242 -0.29257804 0.10228219 -0.4347944 -0.050505828 0.04237969 0.4414758 0.06640312 0.23641531 0.46375325 -0.053962253 -0.27636072 -0.36707294 -0.24126188 -0.11903233 -0.2731553 -0.16537364 0.13657938 -0.39724174 0.01266767 -0.056493416 -0.1408651 0.3066068 0.3392831 -0.007955592 -0.12352539 -0.47168994 -0.2082129 -0.39362782 -0.39398643 -0.048572507 -0.2445302 0.022073654 -0.15923719 -0.07600136 0.05640414 -0.1338638 -0.29382262 0.29396215 0.21652794 0.21295173 -0.11176577 0.016010208 -0.20191301 0.33433735 -0.015626058 0.35993713 -0.4383045 -0.3947734 0.12886551 -0.39448306 -0.06767311 -0.35457632 -0.23124793 0.07314386 -0.14306743 0.18944125 0.40586334 -0.85407037 0.20293604 0.52668464 -0.3106249 -0.47806618 -0.09569859 0.16092055 -0.13823447 -0.068458974 0.11070821 0.093665525 0.011155878 0.078282356 0.13156036 0.2460139 0.0367045 0.6262492 -0.17729278 0.13456878 -0.3517547 0.19558467 0.46594277 0.6192632 0.26605323 -0.11030723 -0.6260439 -0.08865045
WLQ 0.3326364 0.20243058 -0.47222093 -0.21510306 -0.09154774 0.13138777 0.14138044 -0.039786525 -0.09780326 -0.39162013 0.20814797 -0.12422504 0.47698924 -0.63131374 0.2625158 0.1852745 0.121592514 -0.42224675 -0.04268854 -0.8463812 -0.067180075 0.3157429 0.2569902 0.11003866 0.04373989 0.05866573 -0.48993072 0.025244022 -0.43372983 -0.08325963 -0.13871756 0.1982223 0.28401512 -0.08268619 0.25250626 0.631935 0.10065932 -0.4219523 -0.43560904 -0.4172894 0.28933132 0.7697307 0.4053323 0.33477956 0.6001468 -0.7775196 -0.122965306 -0.27300087 0.21934013 0.08921937 0.49273866 -0.22122136 -0.18776898 0.15978456 -0.16902827 0.10815197 -0.17744249 -0.061756 -0.5722172 0.356077 -0.47929874 0.08833051 -0.09832217 -0.19261192 -0.1649025 -0.07635884 0.05337734 -0.0077043404 -0.32154688 0.14616685 -0.14302067 0.9154629 0.5824408 0.8543867 0.1323276 -0.09696757 0.41951504 -0.19252497 -0.5456724 0.04892205 -0.30539384 -0.19613624 -0.5784826 0.21409503 -0.4448888 0.06370396 -0.3718676 0.073098354 -0.47761443 -0.07276485 0.5340917 0.73224014 -0.85154307 0.39782962 0.3409869 -0.002335388 0.21229322 -0.5797674 0.61568534 0.3133611
KPA 0.47557387 -0.20610546 0.09872636 -0.4111196 -0.06987364 -0.3698153 0.13953035 0.25283843 -0.056293707 0.17285092 -0.52211297 -0.00894461 0.0903343 0.07421888 -0.021732043 0.113395676 0.3038484 -0.08496217 0.5043053 -0.8561998 0.3975773 0.31038213 0.2536136 -0.68361896 -0.19368203 0.08627637 -0.38811883 0.5676936 0.11240067 -0.3961571 -0.05456233 0.20449592 0.5107265 -0.3670411 0.146775 0.12257766 -0.1268651 -0.6327368 -0.34726837 -0.3246126 -0.5715273 -0.0004453798 0.031919833 0.61654824 0.33911076 -0.4518154 -0.5859756 0.059387818 0.3643628 -0.055567984 0.28664896 0.4568088 -0.1062554 -0.11330631 0.35531595 -0.14278425 0.06588707 -0.0929993 -0.6901565 0.42138728 -0.117641255 0.10147562 -0.14387205 -0.21917443 -0.19068304 -0.07446573 0.21208867 -0.18302548 -0.6424175 0.113993265 -0.37995204 0.45530537 0.4006902 1.0712358 -0.6271089 -0.3224498 0.17136008 -0.3326902 -0.21326593 0.39250606 -0.2161363 -0.158305 -0.33828902 0.23765332 -0.30773288 -0.3557397 -0.14447255 0.46861807 -0.08555464 0.064235255 0.28608438 0.16635685 -0.5001982 -0.104923435 0.27314335 -0.33547503 -0.05828995 -0.29172084 0.4782532 -0.15312023
ELE 0.7578025 0.1528209 -0.3017701 0.39454472 -0.36913583 -0.37448844 0.19380054 -0.0040009804 0.024287496 -0.057334542 -0.17590009 -0.69738626 -0.34967542 -0.25938886 -0.37003145 -0.20695007 0.13243763 -0.5194774 0.010356976 -0.53549486 0.4832096 -0.052706584 0.2833607 -0.27535516 0.08020628 0.4122671 -0.72156745 0.14556345 -0.5255402 -0.46795917 0.015501367 0.13557929 0.18543504 -0.8213996 -0.16870055 -0.13967589 0.2662362 0.2818344 0.35318634 -0.4793639 0.038964406 -0.100998744 -0.12721673 0.02609593 0.27465963 0.020063441 -0.0746136 0.56222194 -0.23985219 0.05665315 0.30717805 0.34102303 -0.22958255 -0.00409346 0.47662026 0.062193956 -0.322807 0.03261594 -0.34897494 0.72284824 0.28592974 0.49394482 -0.004157955 0.035201382 0.45396838 -0.39521646 0.44722882 -0.36869678 -0.669427 -0.01899161 0.41684037 0.029307866 0.014354007 -0.43665832 -0.25655448 -0.6111202 -0.483131 0.048648838 0.3422067 -0.20108084 0.08388954 -0.14580166 -0.47729665 0.51067084 -0.4115699 -0.2111628 0.63919276 0.05107956 0.33052978 0.23914155 0.06376624 -0.25977358 0.2495398 -0.33834675 0.6910458 0.39127606 0.48299924 -0.33383885 0.5103565 -0.21920358
AEK -0.14430816 -0.3020298 -0.059235122 0.26797003 0.29630718 -0.03741206 -0.4953892 0.3040549 0.6232587 -0.8950856 -0.21834637 -0.5173912 0.42056364 -0.16529392 0.34184596 0.11209984 -0.54603523 -0.7207713 -0.12705974 -0.6588048 -0.07139881 0.008880219 0.081306756 -0.0053246063 0.0813686 0.5353158 -0.09304835 -0.14643712 -0.07155294 -0.20078425 0.16693084 -0.15307498 -0.0537066 -0.49823347 -0.21770066 0.059028156 0.2766887 0.06185668 0.29228878 -0.27708858 0.12797777 -0.096951194 0.01031074 0.0070353686 0.21058547 0.030751273 0.22036852 0.22729765 0.87099993 0.3647978 0.31340176 0.2092314 0.25211203 -0.18453684 -0.32815307 -0.0024448964 -0.07821664 0.26740924 -0.21624099 0.08441575 -0.047833636 0.36000055 0.08036117 -0.40914983 -0.2365818 0.24211058 0.47608116 0.15600684 -0.0074333996 -0.27311906 0.19755389 -0.40897414 0.37827572 -0.2442901 0.059511438 0.073512316 -0.24280187 0.23088033 -0.2388596 -0.16290697 -0.25674012 0.05123716 -0.1063845 0.07944256 -0.2537422 0.29031974 0.024310479 -0.20464674 0.03856938 0.27587453 -0.23893502 -0.118034355 0.18150964 0.03133393 0.290824 -0.14516558 -0.16557644 -0.3389367 0.54677874 -0.2258417
VNG 0.41341183 -0.17958823 -0.54664075 -0.0926245 0.24897619 -0.12545595 0.06986634 -0.20397435 -0.8216739 -0.41043305 0.28023311 -0.010313319 0.15917715 -0.24593306 0.38016278 0.14310259 -0.05426499 -0.48198262 0.12987141 -0.7623691 -0.09385507 0.009300016 -0.0050832573 0.44509035 0.09951856 -0.17990695 -0.62210137 -0.09890653 -0.5476707 -0.102985114 -0.003141625 0.11612833 0.28039575 -0.31477603 -0.4909491 0.3983905 0.19295998 -0.08200009 -0.28773788 -0.31058258 0.41765493 0.23491164 -0.25351083 0.18542059 0.277235 -0.5014028 -0.4974351 -0.01322747 0.09570612 -0.2095246 0.38653407 -0.19845359 0.16099957 -0.08954918 -0.37773275 -0.21096428 -0.19227113 -0.32813343 -0.60607445 0.7134654 -0.31399947 -0.10602117 -0.0362283 -0.6249404 -0.1854372 -0.24736042 -0.23756191 0.1571956 -0.33587065 0.7972146 0.05343841 0.596418 0.19114901 0.41153887 -0.09537933 -0.13775806 0.2801248 -0.5048322 -0.3102096 -0.29889867 -0.04864958 0.3457108 0.09125859 0.591188 -0.52376515 0.1509946 -0.70773965 0.5029701 -0.014330532 -0.1712578 0.122622505 0.66409415 -0.85867697 0.8292767 0.28925753 -0.23520464 0.008441396 0.179938 -0.36092398 0.32219836
EAE 0.32927606 0.07129978 0.07571171 0.57126594 -0.11886654 -0.61998683 -0.31697485 -0.13616806 -0.51106095 -0.17840825 0.021595387 -0.1664018 -0.334717 -0.079049364 0.12179401 0.24934511 0.084292784 -0.119019344 0.44446313 -0.3483985 -0.029470267 0.42838776 -0.25537488 -0.6013543 0.09416427 0.2974827 -0.94557023 -0.7903987 -0.20078051 -0.285371 0.15314043 -0.6798788 -0.16277228 -0.3334175 -0.01288909 0.04872383 0.18424484 0.34353608 0.3498951 0.31922808 -0.34557953 0.22530518 -0.0022754902 0.038849544 -0.1342737 0.07300492 0.17020576 0.43026793 -0.4281444 0.52824616 -0.42700997 -0.103799015 0.10149671 0.046863686 -0.22111812 0.4712718 0.005180136 0.18934353 -0.45824057 -0.42256847 0.056085736 0.43056872 -0.63509 -0.44283813 -0.03290881 0.17648289 0.37447178 0.030455343 -0.67879045 -0.27429438 0.28572744 -0.1618754 -0.3133737 -0.8194335 0.055234678 0.14470658 -0.15060443 -0.21681082 0.02740761 0.13660865 -0.11292045 -0.089275874 -0.17408574 -0.11683925 0.17830595 -0.09180134 0.53272974 0.12509003 0.5022507 0.0134533085 0.27451843 0.12746911 -0.005016556 0.25518417 0.36477393 1.0174993 0.12242205 -0.36669812 0.46623585 0.5175573
KPE 0.59908473 -0.036911953 -0.14904873 -0.23854823 0.023198066 -0.6159897 0.33048588 0.067381956 -0.20350355 -0.11381009 0.066946 0.002421228 0.39655438 -0.26610062 -0.046173714 0.09625548 0.103872135 -0.23083128 0.16251956 -1.0000789 0.2248123 0.42401767 0.3486704 -0.20261149 -0.0487242 -0.06596504 -0.37624693 0.19938989 0.1981484 -0.5044531 0.18209964 0.32698673 0.7289212 -0.2870687 0.12465679 0.19528452 0.003639556 -0.5315518 -0.36754942 -0.11351188 -0.475214 0.15442793 -0.19708484 0.4238818 0.23944905 -0.5922624 -0.6137365 0.029661193 -0.16938911 -0.029881397 0.43612245 0.13635254 -0.6881985 0.1119426 0.15872872 0.08192638 0.3290937 -0.26619744 -0.76905394 0.5022895 0.114062294 0.031964898 -0.0126633365 0.05181145 -0.34470755 0.031611152 0.14611147 -0.2939269 -0.81330425 -0.3065666 -0.2845642 0.30075747 0.058119968 0.5935554 -0.8449707 -0.26009843 0.08326805 -0.35815656 -0.11359168 0.36509624 0.41506615 -0.057030518 -0.20884608 0.027884623 -0.42518824 -0.20137186 -0.123150945 0.7831566 -0.009320118 0.42336005 0.41086012 0.42094988 -0.35329634 0.011525954 -0.07339929 -0.46425945 0.15440571 -0.5414162 0.5362535 0.19629246
AKV 0.27753514 -0.2566468 -0.70580965 -0.3832667 -0.5515928 -0.45858836 -0.14057711 -0.3664369 0.37307215 -0.26275298 0.009165483 -0.19403444 0.43543592 -0.72937465 0.528943 0.48439297 -0.12185268 -1.1395296 -0.4032656 -0.19497491 0.1351898 0.5234877 -0.28772447 -0.18746044 -0.41293454 0.08125128 -0.094588 -0.104874715 -0.44215807 0.20443204 0.3288473 0.35690108 0.21191356 -0.05900117 0.0032283987 0.12457 0.73305696 0.078026086 -0.6594063 -0.29025173 -0.0716728 -0.38398287 0.60671216 0.26012245 -0.040979393 -0.020150524 -0.016657285 0.16786335 0.19462706 0.15331261 -0.07652683 0.30508715 0.54392385 0.61643255 -0.46735686 -0.036947597 -0.015609804 -0.031127403 -0.21766146 -0.2046405 -0.57978445 0.09992772 0.60101575 -0.24806926 -0.8331559 0.43997267 0.48189375 0.37777254 -0.014635979 -0.4332362 0.4854306 0.74681574 -0.5081256 0.28963828 0.011890722 0.5918708 0.53611034 0.31392986 -0.71737903 -0.22458093 0.2987571 0.12655237 -0.7436232 0.22057025 -0.8226057 0.73472196 -0.37391478 0.07350721 0.16874667 0.20343539 0.23280515 0.37104028 -0.2229997 0.1067583 0.43634957 0.12790135 0.37369362 0.07351638 -0.08659432 -0.029140338
KVN -0.25889912 -0.20644662 -0.5868322 -0.088461064 0.09405467 -0.40419587 -0.0044630864 0.10902116 -0.583836 -0.156212 0.5724503 -0.05392649 0.8820885 -0.73612416 0.13282402 0.7975436 0.20803048 -0.6820728 -0.3219436 -0.73391986 -0.26847798 -0.12581459 -0.056718767 -0.1893482 -0.3628139 -0.023322025 -0.90356904 -0.19813116 -0.17681012 0.26764986 -0.1941023 -0.09825887 0.19470671 -0.42600325 -0.4329977 0.6922228 0.19649509 -0.5461029 -0.33093223 -0.20322248 -0.03920962 -0.07976207 0.4153175 -0.13631128 0.24548177 -0.5248939 -0.26924825 0.24963146 0.12911882 -0.09229043 0.09943813 -0.33177426 0.015346811 -0.22788852 -0.55962944 0.5497584 -0.16032647 -0.11483133 -0.83682925 -0.42358378 -0.014154836 0.30093542 0.05613237 -0.59185493 -0.312668 -0.18192865 -0.79080904 0.39028317 0.11068891 0.034229543 -0.30277157 0.9206048 0.2968817 0.9311709 -0.028312508 -0.09580466 -0.29348582 0.3508697 0.071755745 0.0076516513 -0.30931398 -0.24667585 0.0149953095 0.20471953 -0.13061967 0.42681915 -0.3897711 0.019419588 -0.44958317 -0.0748035 0.41922903 0.112178884 -0.34106895 0.38705894 0.42058787 -0.26064846 -0.35304147 -0.23474626 0.08377324 0.045338072
LQN 0.80287224 -0.2635807 -0.36223295 0.0041225287 0.15195568 0.21161564 0.31508043 0.16124454 -0.0125607345 0.08550586 0.51751167 0.6144148 0.39791098 -0.42144474 -0.027455175 0.42307532 -0.047013752 -0.45625976 -0.08887519 -0.13001099 -0.13226473 0.30429554 0.24671982 -0.21177325 -0.37943095 -0.86190116 0.0033417298 -0.36109748 0.20607045 -0.5689753 -0.024801683 0.6142295 -0.03554602 -0.57782966 0.016195064 0.42304504 -0.33033022 -0.8829429 -0.64647454 -0.16574976 0.39225495 -0.25156537 0.69124186 0.63087565 -0.8891494 0.08727144 -0.3965783 -0.0876801 0.09988666 0.38465598 0.47290602 0.11306301 -0.0068708644 -0.060338706 0.6471792 0.42711845 0.41978455 -0.7185649 0.10979585 0.26940835 -0.57633543 -0.3081877 0.23141791 0.15842971 -0.029387392 0.6332721 0.018816384 -0.11825535 -1.168566 0.27086934 0.09974682 0.278604 0.14794232 0.39743763 -0.18380386 0.1346609 -0.41311106 0.28630644 -0.43394825 0.58238 -0.14399023 0.040319577 -0.3561511 0.4748329 -0.31036675 0.39346534 0.53509885 0.8795642 -0.5881107 -0.22847565 0.5853751 0.40028656 -0.20312135 0.28458917 0.60234225 -0.05216489 0.39518148 -0.903263 0.48392284 0.02128184
ELD 0.46732998 0.07482555 -0.03533109 0.04706499 -0.4200995 0.26382688 0.49501455 0.30761334 -0.39478794 0.08768961 -0.27788052 -0.6990422 -0.46245727 -0.6338479 -0.023516802 -0.032994498 0.0333429 0.23487668 0.48766106 -0.47878495 0.31718713 0.48837456 0.6430966 -0.47989535 0.49825478 0.45995528 -0.25291526 0.3307595 -0.04556617 -0.3809164 -0.59432095 -0.25925732 0.44085175 -0.36761308 0.24205573 -0.30897573 0.42523235 0.29966486 -0.05065887 -0.40205982 -0.72221696 0.4889049 0.0022413128 0.16700813 0.16932121 -0.4287349 -0.86522114 0.056609254 -0.8915122 0.30379593 -0.080278866 0.24552791 0.089883216 -0.10880882 -0.24092574 0.14472672 -0.0966491 -0.11704506 -0.92839736 0.34463271 0.6338354 -0.019769305 0.11895638 0.1949325 0.21546036 0.24408203 0.40700534 -0.4255518 -0.8892668 -0.16694525 -0.17940442 -0.11064582 -0.21559481 -0.41784772 -0.59127396 -0.0035339976 -0.1278411 0.53216803 -0.06346927 0.43433517 -0.2555181 -0.11702554 -0.36122593 0.38679972 -0.35876167 -0.043533046 0.052915987 0.32506162 0.36965927 0.36257717 0.754432 -0.0041210186 0.23035483 0.13340268 0.68517965 0.4280311 0.31410813 -0.57144654 0.4895429 0.11275686
KKK -0.046975978 -0.37702614 -0.13604143 0.18285741 0.19755867 -0.22792281 0.4130703 -0.14523298 -0.24074584 -0.39235708 0.10852169 -0.00866287 -0.37834686 -0.018255703 -0.12606698 0.17889854 0.21693738 -0.17810392 -0.28733167 -0.16992946 -0.4777286 0.16700435 0.2903602 0.36806795 -0.08880172 -0.18896195 -0.54921436 -0.73230267 -0.1280164 -0.23402895 -0.5331035 -0.60129625 -0.22928344 0.03270392 0.16838156 0.11885311 0.36053798 -0.12801477 0.0014492784 0.084144935 0.050815996 -0.2241227 -0.55994445 -0.11571753 0.1403583 0.016853578 0.48693419 0.24701154 0.5336546 -0.5735354 0.35254264 -0.086597726 0.25631183 0.08223117 -0.42810956 -0.029043866 0.3701172 0.06889583 -0.43685448 -0.57427824 -0.36389187 -0.062490847 -0.19412263 0.046170827 -0.04291352 0.4204257 0.0350307 0.2677308 0.43040794 0.20210493 -0.0058331504 0.07787105 -0.16400154 -0.119331196 -0.0583559 0.90465724 -0.6462974 -0.25693256 -0.5230367 -0.0880945 0.23499209 -0.35111272 -0.109133735 -0.16129263 -0.55643636 0.6408999 -0.008625882 -0.14105134 -0.4541959 0.50197464 0.53361833 0.45051783 -0.17009827 0.2010812 0.53515816 0.19419177 -0.20819327 0.16990227 -0.3472021 -0.19583184
GWA 0.56475335 0.560995 -0.5845867 -0.4960096 0.59143525 -0.10453018 -0.18333752 0.13944076 -0.6315236 -0.45190167 0.33392695 0.028610757 -0.0150098875 -0.8886801 0.41019195 0.32927954 0.03449044 -0.6595506 -0.059973028 -0.79637325 0.31504434 0.0017683172 -0.051910646 -0.0064318306 -0.18368824 0.27029705 -0.23390862 -0.12522282 -0.20584415 0.032932382 0.07791837 0.22201855 -0.1701247 -0.23323885 0.13481876 0.42605922 -0.061946783 -0.7184347 -0.90962905 -0.60669714 0.21630779 0.36113602 0.17636088 0.15223792 0.16593814 -0.07276089 -0.38231924 0.064722545 0.12617595 -0.112628415 0.43239576 0.022632077 0.13565359 -0.22960453 -0.63170636 0.5920195 -0.27212095 -0.32178962 -0.8430697 0.3051826 0.2771093 0.28152442 -0.19988288 -0.55319536 -0.31682613 -0.6949782 -0.15834925 0.07068073 -0.27226877 0.22934912 -0.038550492 0.95027775 0.28723845 0.8831816 0.06474235 -0.04087609 -0.21605885 -9.092348e-05 -0.15465786 -0.3565562 -0.4985943 0.042818785 -0.43630427 0.4095969 -0.36544573 0.23455581 -0.53641355 0.24987203 -0.40676 -0.105757214 0.5210654 0.8269868 -0.486308 0.16883262 0.44927213 0.1360358 0.034325782 -0.66320765 0.39246655 -0.023275208
WAK 0.64845026 -0.23200934 -0.5253041 0.07969862 0.23621891 0.0014162976 0.52737874 -0.032169007 -0.4300525 -0.70824754 0.17422827 0.014551905 -0.15142083 -0.7029165 0.46471593 0.16568398 -0.13918589 -0.49730185 0.12336681 -0.6255195 0.016245164 0.17885041 -0.09153966 0.22249253 0.21593657 0.030991536 -0.45889387 -0.0040808646 -0.5399724 -0.097842425 0.022587169 0.052973427 0.12870727 -0.42780042 -0.24667569 0.1438761 0.21282467 -0.18136004 -0.7126839 -0.6234758 0.2509621 0.3004979 -0.09588731 0.6462645 0.60103595 -0.39972267 -0.30586773 -0.26629344 -0.08243073 -0.20640765 0.4860478 0.22688626 -0.11540639 0.015595033 -0.14148463 0.13263287 -0.18472274 -0.25594145 -0.5080454 0.22702314 -0.20247374 0.0490933 0.10930025 -0.4650029 -0.31123918 -0.5300995 -0.02524557 0.21012196 -0.7186574 0.5187488 0.41091502 0.9412068 0.16886424 0.7750438 0.009795815 0.08131974 0.32141152 -0.5252485 -0.33992317 -0.26310858 -0.35657248 0.3892044 -0.4348948 0.71573305 -0.93958837 0.4891996 -0.632732 0.55778944 -0.29752365 -0.04159196 0.12772879 0.74997693 -0.822268 0.36815625 0.19635464 -0.2546186 0.108513415 -0.009318259 -0.17869976 0.12774731
LQY 0.5235156 0.35333258 -0.3523864 -1.1189634 0.34031838 -0.32718733 0.4339096 0.17942348 0.34907237 -0.5951677 0.4311413 -0.2936373 0.105477504 -1.2978257 0.2566587 0.66051775 -0.4714359 -0.7549961 -0.028899206 -0.782524 0.09761922 -0.24457873 0.0024353606 -0.3188269 -0.19903192 -0.39374697 0.19326691 0.09748263 -0.38048473 -0.021646917 -0.2253069 0.53436565 0.037916802 -0.0074307863 -0.33064064 0.30531493 0.030803652 -0.82721674 -0.35450885 -0.316449 0.32642046 0.29710776 -0.16117057 0.58125687 0.47306123 -0.018642895 -0.21832585 0.63482845 0.051728375 -0.17350702 0.49842528 -0.5749101 0.43611917 -0.1604292 -0.2400535 -0.030428052 -0.40509972 -0.41938844 -0.8350963 -0.03950667 0.1008552 0.32103136 0.29006302 -0.09193524 -0.7574092 -0.011024214 0.10901652 -0.27293548 -0.29952875 0.013456015 0.32664165 1.0472252 0.32204413 0.16475545 -0.013897113 0.28726864 -0.4251775 0.285042 0.17710252 -0.2809651 -0.18634708 -0.4647467 -0.29438755 0.2540905 -0.4228774 0.32409224 -0.7673049 0.26940787 -0.68901926 0.33439314 0.13898411 0.877792 -0.25454485 0.04241605 0.7211429 0.5069218 -0.16416036 -0.44690898 0.006335142 -0.08597986
GSM 0.17527202 0.60778594 -0.3987851 -0.6230527 0.34464464 0.23117372 -0.3774516 0.36377174 -0.81737953 -0.43558496 -0.25228998 -0.5220578 0.30135962 -0.41878292 0.20540936 -0.027350582 0.12652566 -0.5077428 -0.081272684 -0.46608466 -0.16399164 0.46376 -0.05498221 -0.18551476 -0.3474026 -0.18947831 -0.46214142 0.35026577 -0.26689696 -0.281389 0.29335043 0.66910857 0.30940285 -0.44334915 -0.47039232 0.64059883 0.2088373 -0.4670834 -0.72588587 -0.2064798 0.07284785 0.36738822 0.07506042 -0.006213551 0.38604537 -0.7792467 -0.5668151 -0.036085512 0.6746194 -0.013122732 0.33088696 -0.037159793 0.15974897 -0.25353065 -0.34377238 -0.090229034 0.12674063 -0.39243308 -0.48416114 0.09881618 -0.1390366 0.29865718 0.120462514 -0.19242515 -0.39601094 -0.32300293 -0.60783184 -0.03373915 -0.44009662 0.3487357 -0.2160836 0.7903339 0.39031306 0.8315964 -0.16249898 -0.20807163 0.33093873 0.16524638 -0.22402704 -0.043680966 -0.8453818 -0.00028591862 -0.59799594 0.0025364533 -0.66329664 -0.109060265 -0.20633325 0.37262824 -0.4614847 0.07809593 0.5297151 0.5305543 -0.60641474 0.07225591 0.36633658 0.13912633 -0.017642135 -0.42361778 0.65024596 0.2180046
SMA 0.7272985 0.0051808776 -0.34589282 0.11424912 -0.12977526 0.08815869 -0.048635613 0.100905485 -0.48841864 -0.35782054 0.090253554 -0.0955127 0.42602518 -0.476388 0.35318393 0.039960876 -0.12942472 -0.47255585 0.2673462 -0.7815583 0.4461787 0.023331853 0.2312858 0.05392137 -0.044583198 0.097269356 -0.65776765 -0.09162807 -0.16449243 0.07266929 0.29791412 0.1313949 0.39457935 -0.03631887 -0.45989507 0.24024802 0.13127711 -0.36108053 -0.3307681 -0.60837555 0.41539037 0.06473967 -0.07221262 0.088260375 0.7654868 -0.53252625 -0.84443367 -0.028824078 0.22500801 -0.37369 0.14340726 0.12973672 -0.3021318 0.15060101 -0.47178933 0.32699862 -0.036355536 -0.71955884 -0.28690398 0.9264219 -0.44680035 0.4116757 -0.14623733 -0.5729069 -0.45004424 -0.5768307 -0.36493707 0.05315199 0.011481296 0.00062073715 -0.026085177 0.42435017 0.61862475 0.917435 -0.4800392 -0.05597427 0.4229886 -0.67878336 -0.16977464 -0.02095411 -0.15229133 0.1447094 -0.33471125 0.32406875 -0.61832285 0.018571982 -0.3554317 0.35132068 -0.6438952 0.03494987 0.2725533 0.813996 -0.77060074 0.51589 0.18142699 -0.43803155 0.032054517 0.1716302 0.12213478 0.25551435
AEA 0.026353043 0.29039136 0.2926124 -0.04301627 -0.4534984 -0.07909239 0.30530813 0.2746752 0.46316049 0.15635617 0.1787565 -0.3247728 0.30379173 -0.06034219 0.067595206 0.14064854 0.19673526 -0.38719377 -0.49223247 -0.3628309 0.40373442 0.12432227 -0.28001052 -0.1315734 0.612645 0.13569744 -0.04659644 -0.23577714 -0.5506063 -0.392867 0.18393616 -0.3308707 0.3027323 -0.43496993 0.29612154 0.40036502 0.77338773 0.4240883 -0.14299513 0.19768389 0.14278558 -0.350983 -0.5475042 -0.011009338 0.45466384 -0.21074277 -0.00028338237 -0.19849783 0.31891036 0.06411937 -0.8559001 -0.576745 -0.1253038 -0.116350286 0.2877615 0.23028527 0.48983118 0.04271237 -0.84472 -0.107896894 -0.26015136 0.32435566 -0.1700386 -0.4646049 0.54059887 -0.39680785 0.21281014 0.36882716 -0.8202128 0.36274266 -0.18890321 -0.105991326 -0.17569742 -0.8153492 0.15374538 0.10743934 -0.37669754 0.2769339 0.07385209 -0.04129459 -0.3522926 0.10201237 -0.034520406 -0.034849714 0.100369185 -0.11062597 0.034223314 0.88721097 -0.081270665 0.13336523 0.28330088 -0.14268544 0.07710864 0.0039194683 -0.2128195 0.13431375 -0.0031114328 0.23349503 0.22554222 -0.062381055
QYN 0.26524687 -0.4319176 -0.44371855 -0.32893813 0.25787547 0.088669784 -0.113157496 -0.023494322 -0.2843384 -0.5451519 0.22126709 -0.17827179 0.06268638 -0.71353626 0.477425 0.15270583 0.25395188 -0.4051192 0.026098678 -0.89107305 -0.050224625 0.08358329 -0.012686939 0.18758236 -0.3178124 0.056835968 -0.45406663 0.054259166 -0.44035187 -0.4211883 0.34139007 -0.06951014 0.29169214 -0.3747766 -0.05320148 -0.122447446 0.29416293 -0.034018245 -0.70695585 -0.691492 0.21265845 0.35911793 0.13067324 0.5673944 0.5244263 -0.46247634 -0.3730575 0.05285137 -0.29809827 -0.35620233 0.42660835 -0.0521305 0.17104557 0.089876376 -0.47211334 0.17514016 -0.28616023 -0.22826356 -0.414505 0.68046707 -0.15418397 0.2827321 0.1972805 -0.28631148 -0.2693976 -0.21112634 -0.074775524 0.25275052 -0.16125025 0.38727993 0.1344592 0.8417242 0.50095105 0.7397047 -0.30060768 0.10623064 0.395721 -0.27506718 -0.116115265 0.096806325 -0.20125446 0.18362588 -0.56786466 0.57537436 -0.68679327 0.5407253 -0.38291797 0.63662505 -0.5938646 -0.22931552 0.6045819 0.76983863 -0.6928739 0.42055297 0.34595826 -0.016877769 0.24248338 -0.3786701 -0.09904235 0.05979518
EQP 0.30578864 0.64666224 -0.25325334 -0.29727483 0.099966906 -0.1938034 0.4687822 -0.0561501 -0.18750145 -0.5508234 -0.46198827 -0.22589485 0.23918205 -0.50553554 0.24578239 -0.43367168 0.16908695 -0.3626999 0.0099990405 -0.7766655 0.42035034 0.12859033 0.25348172 -0.14599338 -0.081244536 -0.3709432 -0.61864173 0.5183858 -0.109819874 -0.53907174 0.17535932 0.13417234 0.4460613 -0.44394872 0.108964995 0.26564348 0.02498842 -0.37296692 -0.061549228 -0.3561596 0.0944752 0.28892264 0.0050522867 0.008372242 -0.0066815447 -0.81574684 -0.67536753 0.01698633 -0.2872301 -0.07851539 0.48777357 -0.29278007 -0.18468669 -0.040740937 0.23322028 0.54649603 0.015200127 -0.2901741 -0.6489104 0.19920588 -0.07093276 0.043641455 0.0565511 0.1769208 0.02009046 0.1617525 -0.31499073 -0.2582379 -0.6860812 -0.20284562 -0.3205197 -0.048323203 0.45142177 0.31136155 -0.4209441 -0.52957416 0.25011766 0.21496074 -0.12959963 0.2677504 0.03386982 0.09424177 -0.22428331 0.20784765 -0.3876447 0.017836785 0.42853463 0.7056486 -0.142544 0.32783777 0.66961336 0.6112836 -0.4921371 0.4652037 -0.0032928016 -0.28192416 -0.15511602 -0.5042702 0.862807 0.12940232
YNG 0.2986501 0.09099957 -0.31509888 0.112950645 -0.0978524 0.11408769 0.12361041 -0.3240703 0.1888483 -0.6528029 0.34167236 -0.110585146 -0.07631408 -0.6285234 0.3896377 0.3402506 -0.31332505 -0.46405512 0.18011172 -0.8265402 -0.0986662 0.6500136 0.24055256 0.27560836 -0.044572357 -0.1465737 -0.7052391 0.17946379 -0.36198887 -0.09994557 -0.07311047 0.609237 0.17919725 -0.32222438 -0.09649767 0.30724058 0.29103372 -0.2255452 -0.8550202 -0.32631448 0.23219761 0.53748 0.46511444 0.4521134 0.61658525 -0.34956366 -0.23184471 -0.19867955 -0.16522862 0.08672859 0.67067564 0.2466114 0.23213732 -0.20371912 -0.26779595 0.34856647 -0.27883556 0.082049 -0.51643807 0.16324048 -0.21516638 0.062378775 -0.07206241 -0.42636356 -0.31983933 -0.08998198 0.23344977 0.64249784 -0.23095037 0.55678576 -0.47494045 0.9451899 0.4430156 0.5687543 0.27229986 -0.266366 0.2846937 0.10355215 -0.23046891 -0.14846528 0.15753151 -0.0018802907 -0.80792034 0.11481428 -0.93066764 0.3642062 -0.5591105 0.1897517 -0.234034 -0.25848836 0.40802437 0.7769621 -0.5229267 0.53264666 0.6648355 0.018377507 0.25909033 -0.29519874 0.2506503 0.15316822
QKK -0.5121908 -0.3772301 0.7328277 0.3561166 -0.13814591 -0.11249034 -0.2245374 -0.28114367 -0.025833115 0.41294137 -0.12786254 0.17616843 -0.54180986 0.6664948 0.079764806 0.16279493 0.075367756 0.13779484 -0.21115161 0.5975594 -0.27338913 0.27198678 -0.09830411 0.28059083 0.3147883 0.6218008 -0.35575905 -0.8579725 -0.14960697 0.1024309 -0.0023357316 0.019915747 -0.37447903 -0.42166278 0.19130489 0.49186417 0.27205473 -0.7282871 0.10634765 -0.26472557 -0.5658515 -0.43393087 0.017693384 -0.21320646 0.23220693 -0.19422683 0.09046974 -0.5178631 0.5437369 0.27545264 0.22992826 -0.14996698 0.049124163 0.9741222 -0.72278756 0.24365084 -0.30037525 -0.681156 -0.24050963 0.108176544 -0.35149333 -0.22290683 0.059779406 -0.063090794 0.51675344 -0.056500837 0.4903327 -0.55036694 -0.30893168 0.60396767 -0.3027133 0.50048095 0.48598248 -0.83260876 0.22267483 0.022218345 -0.09797481 -0.3072928 -0.3739378 -0.28095338 0.068898275 0.15160975 0.037217833 0.029417748 -0.17371407 0.31025925 -0.015747333 0.09707371 0.20420578 0.14331415 0.43614805 0.43710002 -0.45198843 -0.10062818 0.010876372 0.0011327881 -0.17157458 -0.2308448 -0.21975154 0.18177144
KAK 0.07194175 -0.5472597 0.47717428 0.113189474 0.21006034 -0.015705785 0.06283971 0.0057451436 -0.31778014 -0.093469426 -0.087079726 -0.27686998 -0.19839628 0.35974434 0.09653574 -0.50509614 0.44372004 -0.2944713 0.041086204 -0.0884673 -0.13617155 0.5814258 0.3164249 0.16101202 0.6106707 0.5109115 -0.15402877 -0.5459919 -0.50327444 0.14140609 0.675171 -0.117444925 -0.34504727 -0.010086405 0.2115506 0.83721554 0.6013419 -0.25163308 0.68730444 0.050083213 -0.005432172 -0.20959552 -0.57837564 -0.42989507 -0.61130893 -0.4413951 0.019658774 -0.11582655 0.34402174 0.27426344 -0.08006991 -0.4584723 -0.046053898 0.2290335 -0.27540272 0.52441937 -0.09918367 -0.6192348 -0.4445817 -0.007734236 0.21497102 0.1389186 -0.10994809 -0.31556395 0.44683543 -0.47823444 0.4104673 -0.27929056 0.1206717 -0.24085538 -0.09717164 0.435197 0.335116 -0.4594028 -0.25598848 0.7008365 -0.3147288 -0.5097302 -0.29300407 0.19076298 -0.5643188 -0.19997382 -0.11612745 -0.30365753 -0.36285537 0.20052609 0.13527074 -0.075834945 0.43600705 0.33235887 0.016961971 -0.30708706 0.2584488 -0.30267498 -0.14439823 -0.12401097 -0.011870568 -0.08966685 0.017131409 0.14235085
PEQ 0.026261074 0.088495456 0.099403426 0.07450106 0.029271472 -0.6311405 0.35530978 0.019384846 -0.2755893 -0.07729005 -0.024041796 0.15043028 0.40252295 -0.57126236 -0.41885206 -0.3125646 -0.10840228 -0.3102855 0.28771138 -0.8322796 -0.018410334 -0.0020278853 0.6394267 -0.17979117 -0.24119443 -0.0697325 0.046994895 0.76442623 -0.727837 -0.7461318 0.35504225 0.20043874 0.68543917 -0.15898491 -0.2064674 1.0574447 0.09617929 -0.30066413 0.04677267 0.14033246 -0.3565622 0.045672696 -0.05028722 0.23129578 -0.007816403 -0.6194594 -0.113227345 0.04461476 -0.26463553 -0.06500094 0.7221435 -0.532647 0.092350066 -0.17068523 0.011835529 0.19268721 -0.20555349 -0.21615295 -0.4499599 0.049731653 -0.045624875 0.2492005 0.18385476 -0.4999401 -0.17042531 0.38380653 0.19504613 0.13946447 -0.57429826 -0.3918728 0.19984008 -0.10918019 0.04107311 0.22757007 -0.014341367 -0.44192064 -0.09031444 0.055430103 0.11692875 0.6263544 0.097904414 0.061928395 -1.0849758 0.3073351 -0.37647972 0.32018757 0.01203277 0.6333423 -0.10424562 -0.04798847 0.30920014 0.6874447 -0.70664304 -0.03180617 -0.12683779 -0.18743555 -0.45646903 -0.4686851 0.5827118 0.39556316
ASQ -0.84610003 -0.5075078 -0.69882685 0.11110452 0.25819963 -0.10924959 0.098376416 0.31431562 -0.65294474 0.0729732 -0.27905267 -0.64015245 -0.07873503 -0.15323244 0.40266475 -0.28553057 0.38530374 -0.9485288 0.53117806 -0.4623913 -0.015204894 -0.45681727 -0.6122601 0.20475796 -0.7319945 0.08318757 -0.3351854 -0.26975003 -0.25910857 -0.50859386 -0.27461237 -0.04362638 -0.22178094 0.25566128 0.26297948 0.40020472 0.026240522 -0.013112227 -0.23060401 0.40749273 -0.06756789 0.30618086 0.20586702 -0.26453912 1.0369302 -0.029251473 -0.21590072 -0.63266456 0.5902797 0.12510869 0.46667075 0.45666453 -0.05144059 -0.07864943 -0.11316172 -0.29983175 0.19268206 -0.11468661 -0.7223593 -0.2926562 0.09484383 0.21170075 0.6288548 0.045496043 -0.6219607 0.4261593 0.20759194 0.04287522 0.27806425 -0.2270313 -0.17841509 0.70324254 0.3635294 0.3709454 -0.0945831 -0.13025282 0.13200882 -0.649796 0.54661506 -0.6293808 -0.19886991 -0.38687596 0.12447521 0.3111115 -0.5700495 0.12798345 -0.53441197 0.58830565 -0.5508863 -0.16325906 0.4302559 0.16489804 -1.0449122 0.6353376 0.3339937 0.29611722 0.33620897 0.5745395 -0.07907931 0.4891886
AKA 0.3341026 0.14096858 0.28438517 0.3538947 0.19949295 -0.27456447 0.124176666 0.033037137 -0.178548 0.35875845 -0.01132217 -0.54858136 -0.36473203 0.1506304 0.1701724 -0.6241603 -0.72044325 -0.04097413 -0.33916017 0.7381206 -0.18183106 1.2597215 0.086680934 0.6141559 -0.2135473 0.081783414 -0.3865117 -0.46176013 -0.11232115 0.23131602 -0.046013094 -0.47472998 0.31671852 -0.12295511 -0.70544094 -0.17382874 -0.4617133 -0.21939364 -0.045122027 0.07086527 -0.59332347 -0.4215041 -0.12561513 0.11668026 0.008597947 -0.61180943 -0.112427495 -0.08483348 -0.2386227 -0.1722214 0.12975687 -0.1988609 -0.47425002 0.0943146 -0.36033794 0.29709548 0.6201735 -0.10805315 -0.47845668 -0.40892285 -0.55835295 -0.15850013 -0.39979768 -0.28752255 -0.00716223 -0.12701844 0.008260328 -0.010997143 0.18045996 -0.01115718 -0.12017929 0.31756693 -0.26061913 -0.41323593 -0.26035166 0.7198091 -0.27942356 0.10141954 -0.029189076 0.39153224 -0.5395803 -0.17948501 -0.124812655 -0.1655281 -0.20285822 0.23845413 0.6714122 0.20009357 -0.30114576 0.23876621 -0.0022641947 0.19680497 -0.12120744 0.31263366 0.13749857 0.3628074 0.061586168 0.294768 -0.4886966 -0.2910472
QKA -0.018662307 -0.33964634 -0.47964036 0.53892875 -0.19059925 -0.31115302 0.26978585 0.101893224 -0.52960664 0.03139828 -0.45579085 -0.75046283 -0.0014224638 -0.15137574 0.29387861 0.51988274 -0.0125998575 -0.16995755 -0.08679679 -0.0070796823 0.23585188 0.40947673 0.020135744 -0.4025311 0.47056654 0.7913068 0.03404415 -0.45726258 0.0562195 -0.24912247 -0.035962667 -0.5308842 -0.078990005 -0.5206644 -0.07130207 -0.40537435 -0.43189245 0.0537761 0.27034688 0.63564086 -0.52765524 0.008343491 -0.35762244 -0.40681708 -0.5382559 -0.19505659 0.19853838 -0.7003647 0.43502814 -0.69232744 -0.4557542 -0.8286641 -0.47088897 0.52270037 -0.25938636 -0.076465555 0.50968456 -0.68088144 -0.31677663 0.0050275614 -0.5022282 -0.105568156 0.05177262 -0.60125935 0.1655929 -0.37072966 -0.26079473 0.8721488 0.09240852 0.06336125 0.21106683 -0.17145795 0.83751 -0.5940247 0.026427358 0.017012427 0.37966114 0.5355252 0.019645277 -0.24638046 0.24793926 0.34274998 -0.44116798 -0.3682283 0.0756817 0.09982097 0.046670776 -0.056974046 -0.09967096 0.26387322 0.8075279 0.4488257 0.35672042 -0.00071387476 0.06814707 0.25323611 -0.21839637 -0.6086332 -0.107081085 -0.0014736272
LGA -0.8163916 -0.0048781675 -0.75336957 0.3049896 -0.15844516 -0.22445726 0.011868562 0.22028647 -0.69332695 0.1589574 -0.41606408 -0.15503116 0.04658304 0.13597706 0.50506943 0.15926784 0.41461918 -0.4196172 -0.1900344 -0.36236283 -0.07844229 0.091437645 0.17898566 0.27638888 0.107439175 -0.31559342 -0.87644476 -0.051953226 -0.10339383 -0.07667861 -0.047265813 -0.29761314 0.2797998 0.5704618 0.2169959 0.3414106 0.30310696 -0.38996467 -0.38844442 -0.2506196 0.3442156 -0.28135732 -0.009214465 -0.103543416 0.2261517 0.3822489 -0.011597888 -0.49194223 0.5586669 0.028934207 0.798489 -0.0055909646 0.0030228163 -0.32175604 -0.8409533 0.0111661395 0.08334002 -0.058956552 -0.4704077 0.29509607 0.04991889 0.067360595 0.16959342 -0.52940917 -0.13587166 0.1866401 -0.38717437 -0.15616417 -0.023002058 0.39596322 -0.3782132 0.35666928 0.038591098 0.09041852 -0.17433701 -0.06721882 0.114012934 -0.3854201 0.34252304 0.5247961 0.10056416 0.35189286 0.020190733 0.19954775 -0.4763246 0.072597556 -0.2038499 -0.09982343 -0.13273168 -0.55828154 0.38675904 -0.015325888 -1.406652 0.4263163 0.32966706 -0.13056515 0.5282644 -0.06499613 -0.25744307 0.40054947
DAE 0.4119612 -0.11339243 -0.66987145 0.10993742 0.023739146 0.035052776 0.008913605 0.6229784 0.25478595 0.05938221 -0.09203067 -0.6269165 -0.56366915 0.53057176 -0.33429044 -0.053394224 0.14930984 -0.44874224 -0.051635895 -0.26530623 0.5503239 -0.0075086467 0.12539919 -0.78844804 0.23267882 0.30249003 -0.39988586 0.15035422 -0.5923874 0.5098405 0.21020737 0.14878398 -0.11863979 -0.2284556 -0.07775637 0.3395582 0.19627261 0.12999614 0.33765265 -0.12771843 0.15396234 0.16302073 0.095244214 -0.36021477 0.13644953 -0.029175913 0.11652304 -0.00058470655 0.160576 0.10113308 0.5328861 -0.038918067 -0.14858785 -0.15077524 0.21097635 0.052242313 0.5557255 0.3101954 -0.3458073 0.34295583 0.2704853 0.46819967 -0.45726228 0.44965696 0.43205315 -0.710079 0.14968346 0.21425359 -0.5205364 0.09602667 0.058558438 -0.03723168 -0.09009468 -0.4935164 -0.4965182 -0.427646 0.63437873 0.15051301 -0.5809033 0.15438518 0.123803355 -0.28327626 -0.15190774 0.7862927 -0.3383034 -0.0051247925 0.867154 0.7348274 0.09165727 -0.0685353 -0.050817046 -0.60902303 -0.023116395 -0.07819505 0.50747603 0.5399132 0.038699467 -0.61644685 -0.23945026 -0.2483961
DGD 0.58419335 -0.058254734 -0.2619851 -0.47328067 0.15774018 0.3027336 -0.12225946 0.028576778 -0.40247822 0.18850598 0.37453204 0.44893515 0.29184824 -0.23026396 0.3972279 -0.40879607 -0.14146931 0.08086637 0.19388151 -0.18763123 0.6380369 -0.38661742 0.4049501 -0.06631923 -0.4368884 0.059515152 -0.65469295 0.14328492 -0.7163258 -0.08295063 0.53116435 0.0738395 0.018077364 -1.0318884 -0.29842794 0.021565817 0.3222524 -0.9101356 -0.7793883 0.30641353 -0.044682167 -0.59657913 -0.01871887 -0.052372828 1.054414 0.02962779 0.08266671 -0.16497517 0.31055605 0.19810578 0.94757825 -0.024090027 -0.5727717 -1.1852168 -0.73351085 0.41754022 -0.4828861 -0.6646349 -0.5867443 0.47266725 -0.12250155 0.33300292 0.011872847 -0.18436459 0.15187152 -0.28457406 -0.40807116 0.08638823 -0.16631006 -0.17665075 -0.83840907 0.42089754 0.19640973 0.7200849 0.66188616 -0.6015978 -0.059475254 -0.29298976 -1.054694 0.36605018 -0.3931212 0.017441241 -0.21279925 0.62979764 -1.0338488 -0.35492274 -1.0086242 1.0962423 0.03675209 0.7214916 -0.35375512 0.7083398 0.30148548 -0.16254197 0.041950516 0.8269054 0.6311568 -0.29488245 0.671876 0.3625786
QAE 0.6645418 0.57702 -0.32051507 0.59380084 -0.19053948 -0.80583864 0.5137959 0.24267179 -0.3617163 -0.283081 0.3861898 -0.80392796 -0.8643904 -0.49364957 -0.5299888 0.04903192 0.3851594 -0.43379354 -0.079746015 -0.3747662 0.24811444 0.110575646 0.4476738 -0.87358594 -0.40390664 -0.3251428 -0.30054578 0.8686984 -0.1394726 -0.86157596 0.3561573 0.17879423 0.23360427 -0.18894087 -0.48333287 -0.0041586617 -0.18128832 0.34638813 0.011773479 -0.6391396 0.27339187 0.21039683 0.33955523 0.39764094 -0.5609433 -0.49555558 -0.22278222 -0.37695166 -0.021666527 0.2683845 -0.30429292 0.19535652 -0.22160745 0.095007606 -0.16010016 -0.26822048 -0.22825544 -0.15975158 -0.11032014 0.09147647 0.55114794 0.4927114 -0.2898738 -0.18384656 0.22788396 0.16454734 0.05290755 -0.2828906 0.3633559 0.44145176 0.5887063 -0.15453476 -0.13334094 0.019770378 -0.18755434 -0.2007025 0.2474096 -0.06612264 0.054778434 -0.1225051 -0.25184706 -0.3562477 0.49365056 0.942629 -0.43144634 -0.34080604 0.0475167 -0.0784093 0.13065769 0.1093193 0.7409058 0.50175077 0.026420478 -0.070483536 0.5800048 0.8848433 -0.0030406648 0.08886392 0.6970069 0.28741354
AKL 0.38552138 -0.1494807 0.784562 0.51164275 -0.18447377 0.002018955 0.2746808 0.26264086 -0.049752228 -0.714361 -0.16540739 -0.34549546 -0.06796273 -0.6024548 0.29658788 -0.20968257 -0.22918375 0.14718005 0.7693805 -0.27181998 0.7924486 -0.054038834 0.3108092 -0.21512778 0.28327316 0.048133656 -0.28149644 -0.14465818 -0.4520998 0.055613935 -0.40805107 -0.32045525 -0.15223786 0.119076 0.6363974 -0.50120616 -0.468398 0.12575954 0.51930624 -0.1725187 -0.21650608 0.040600687 -0.6352218 0.2731868 -0.06775049 0.38249555 -0.6762539 0.14912982 -0.3202549 0.8120397 -0.16573948 -0.394345 -0.023969818 0.6666332 -0.37777096 -0.2787145 0.03991135 0.9392452 -0.8136732 -0.06979118 -0.038524356 -0.22878985 -0.5963939 -0.09573188 0.030991612 0.08115747 0.18896216 0.19460082 -1.0374204 0.3617617 0.47482044 0.21062186 -0.28634351 -0.34040633 0.2696269 -0.60497886 -0.017688438 0.59244746 -0.6440996 0.67417383 -0.765752 -0.09089013 -0.7476434 0.5286913 -0.21221401 0.11278535 0.38584554 0.46324912 0.2706584 0.6078161 0.26559198 -0.49499142 -0.027100796 0.27382195 0.7852024 0.61165005 0.470461 0.002235122 0.6507083 0.019043883
TKK 0.6839117 -0.6441118 0.30549484 -0.26318082 -0.26228923 -0.22361247 0.20815143 0.042351805 0.50919205 -0.10282292 0.025252867 -0.3466526 0.22277333 -0.28105038 0.053165495 0.17523666 -0.16314751 -0.4471946 -0.019247597 -0.28067458 0.3234472 0.0014473798 0.110735625 0.13076343 -0.2540667 0.18341736 -0.30235875 -0.86023635 -0.81958646 -0.5539154 -0.3399971 -0.06623378 -0.09220039 0.06574456 -0.05236225 0.43315673 0.01661898 -0.022566345 0.62339354 -0.5727972 0.51262635 -0.01939553 0.7909484 -0.14859398 -0.15092732 0.08788034 -0.70197546 0.6576448 -0.1897068 0.57132363 0.5469745 -0.8726809 0.052623976 0.83220613 0.54607034 -0.0613273 0.31032085 -0.26973662 0.35236695 0.30930412 -0.12681638 0.16613397 0.13751985 -0.002669219 0.27913278 -0.29926822 0.8918026 -0.030751448 -0.35338783 -0.021430176 0.122272044 -0.99653983 0.22327124 0.55138445 -0.045159176 -0.20478655 0.4778938 -0.097598694 0.1918754 0.2623472 -0.5090648 -0.06682511 -0.5886508 0.35069922 0.647544 0.3658339 0.555775 0.9161848 -0.07005293 0.40783095 0.6051544 0.04733879 -0.11785892 -0.07276246 0.11935336 1.1479876 0.45698324 -0.3081022 0.08133065 0.21184678
KLE -0.079300046 -0.023908472 0.28729707 0.8113861 0.2034186 0.07777169 0.23336887 -0.50006825 0.10143218 0.31476206 -0.75617117 -0.61621326 -0.35618097 0.29667974 -0.37213707 -0.5382712 0.08324505 0.16720873 0.14246559 -0.7811329 0.044124085 0.8409108 -0.1207898 -0.3315925 0.14161144 0.8989654 -0.14156953 0.08125506 -0.36975023 -0.5351459 -0.022357179 0.1387932 0.16830473 -0.119202785 -0.34580636 -0.35578448 0.08067234 -0.05877706 0.06824912 -0.83603895 -0.26090968 -0.27333087 0.4336047 -0.39811563 -0.45390308 -0.503499 -0.5161059 0.51315933 0.015965516 0.8287143 0.13872825 -0.60059536 -0.3100554 0.14320466 0.24015833 -0.05262246 0.7040687 0.3375154 -0.50033855 0.288034 0.26364237 0.38301423 -0.6946954 0.16113394 -0.23974979 -0.89191407 0.14866287 -0.13506594 -0.27865222 0.23327161 0.05653303 -0.49199992 -0.1949068 -0.07609276 -0.5843192 0.014640032 -0.21824837 0.03772203 0.43983358 0.12381743 -0.7451252 -0.18582553 -0.39813632 0.2795967 -0.5475221 0.52549845 0.1374279 0.2052463 0.21150587 0.09300557 0.0019144664 -0.38152513 -0.042774115 -0.3014334 0.35434714 -0.038863786 0.2038619 -0.8753825 0.010161019 -0.059452377
QPA 0.43903196 0.074817725 -0.3216952 -0.1998737 0.065883376 -0.5820559 0.22483449 0.048566937 -0.31931588 -0.32001758 -0.015066372 0.048985288 0.23731601 -0.37782785 -0.116594836 0.055019204 0.14083754 -0.25057283 -0.0073084156 -1.0319676 0.24876748 0.37865415 0.20049262 -0.16761774 0.017989509 -0.28166878 -0.30662373 0.3839206 0.050149325 -0.5728555 0.2112024 0.20116115 0.61059415 -0.29347807 0.09242106 0.2087423 0.0038551586 -0.46985582 -0.42392612 -0.1948454 -0.38122728 0.15588209 0.08925813 0.37553278 0.36397764 -0.9795258 -0.7697954 0.14744598 -0.24937168 0.019497573 0.3402608 -0.05364434 -0.8032402 -0.007757261 0.009862239 0.4215044 0.29299694 -0.45595253 -0.5982965 0.49757525 0.23399097 -0.08036415 0.04780939 -0.039448746 -0.20274054 -0.018839309 -0.07188906 -0.25793394 -0.4721016 -0.54242074 -0.087656386 0.19208845 0.15090285 0.35351232 -0.7069393 -0.11709309 0.1201001 -0.35508522 -0.3318591 0.51659155 0.51611215 0.11235114 -0.12368301 0.23948233 -0.49814612 -0.24095868 -0.155569 0.93275565 0.070972346 0.4294135 0.40122297 0.610795 -0.16317597 0.30469316 -0.20000048 -0.43878445 0.26506364 -0.36240077 0.44625667 0.41225
EAA -0.4304851 0.37284264 0.73200333 0.117635034 -0.4599534 -0.47980034 -0.307176 -0.20880516 -0.4240014 0.55221844 -0.028791111 0.23347487 -0.7884441 -0.22359948 -0.22853974 -0.7649951 -0.103088684 -0.7794508 0.072262876 0.08211012 -0.004156576 0.34922743 -0.24320865 0.13331039 0.6556063 -0.703901 -0.7641562 -0.15017508 0.35553372 -0.40743166 -0.08003062 0.68318135 0.3766951 -0.14787976 -0.3053546 0.5400124 -0.34638473 0.3076901 0.17404287 0.30787247 -0.06933879 0.14562859 0.042769555 -0.6624086 0.19637056 0.03819825 -0.61273366 0.6947542 0.29806885 0.5989279 0.36426225 -0.42426834 -0.3313078 -0.46002144 -0.23489544 0.36461002 -0.2578784 -0.39102384 0.10468758 0.7016226 0.3291703 -0.26225844 -0.84162855 -0.39097035 -0.48901317 -0.55493766 0.5737838 0.36960128 -0.024298176 0.46689683 0.75296813 -0.17814901 0.14435305 -0.85274285 -0.17374685 -0.44652957 -0.23776053 -0.41536507 -0.041891165 -0.23126602 -0.16661525 0.399598 0.017827919 -0.22661193 -0.0938883 0.0506768 -0.15756059 0.4973485 0.5624189 0.75927687 0.39492217 0.27358368 -0.11869476 0.30316553 0.42662016 0.031531915 0.17013139 0.023669759 -0.33093926 -0.04401863
NKK -0.70683366 0.27735606 0.010846908 -0.12543978 0.58313096 -0.4893695 0.2874629 0.54532015 -0.037361365 -0.16276342 0.030410064 0.13325264 -0.06331236 0.34183526 0.2973092 0.4890701 0.36895683 -0.37743345 -0.89520377 -0.19691867 -0.19892006 0.41301283 0.50631225 -0.16800553 0.45670158 -0.11085422 -0.2540947 -0.2390273 -0.12190319 0.19930889 -0.4981473 -0.07507738 0.65853953 0.013088908 0.13492998 0.22824243 0.74294657 -0.54833233 -0.84799784 0.023320803 0.23148307 -0.29018995 0.5698143 1.2144204 -0.6632655 -0.00036437027 0.32882935 -0.49278092 -0.2675398 0.14010169 0.42977375 -0.4774745 0.102749705 -0.18661727 0.22787607 0.6841278 -0.48218715 -0.5833672 0.54504347 0.2555324 -0.10314256 0.40421 0.2514953 0.0071847965 -0.07565372 0.047585193 -0.7811576 -0.044231087 -0.6220698 0.40904728 -0.08287561 0.100944355 0.29622042 -0.27337357 -0.35679215 0.21855971 -0.5422827 -0.8961648 -0.0062670414 -0.06360264 -0.26508427 -0.44803208 0.29378417 0.3013544 0.4289945 -0.26839122 0.015888106 0.35455227 -1.0833218 -0.0075430684 0.1735157 0.16134009 -0.18411782 0.115005314 0.99230874 0.4233195 0.24565011 0.7370834 0.41625345 0.2357113
ADL 0.50325245 -0.39624175 0.34271777 0.20043051 0.1746296 -0.3079925 0.652136 0.10062029 0.1255248 1.2164412 0.08683163 -0.38907656 -1.0309405 -0.54273045 0.32309484 -0.459842 -0.50925523 -0.6426912 0.5832606 -0.93185514 0.4639883 -0.16955876 0.18187678 -0.020261703 0.35179302 0.45922413 -0.15622845 0.3940224 0.03230946 -0.06640479 0.2941357 0.2490034 0.73360413 0.36790824 -0.2658768 0.6178902 -0.35326624 0.27373508 -0.02662225 -0.20322926 -0.40276778 0.42623246 -0.6405857 0.11516161 0.1717743 0.3430009 -0.2956739 0.55468714 0.3024368 -0.3208868 0.6935726 -0.6765816 0.22793514 -0.77769494 0.10532121 0.096207246 -1.0387629 0.09547241 0.2727639 0.65205294 0.63227546 0.44419572 -0.15598996 0.07921389 0.37971777 0.12118708 0.4716152 0.12055824 -0.24344797 -0.032209158 -0.06716969 -0.3018194 0.6777738 0.20442161 -0.5490563 -0.22535938 -0.66739917 0.6983082 -0.056162406 0.19680281 0.6414779 0.42883953 -0.0343873 0.83755445 -0.57919943 -0.045099244 0.1756468 0.07266427 0.4216232 -0.11529595 0.6867359 -0.12637703 0.03452822 0.6905572 0.62126917 0.99069536 0.69213545 -0.27909172 1.1952791 -0.22397862
EKE -0.4392116 -0.30540353 -0.20791127 0.60668045 0.012476631 -0.12766834 0.14690322 -0.0769865 -0.32313767 0.6481271 -0.16364236 -0.3225671 -0.52231085 0.06262907 0.11971545 -0.30009162 -0.13767818 0.106888495 0.12732692 -0.2037858 0.2171902 0.40602213 -0.5887464 -0.26464078 0.37069637 0.4419507 -1.3889492 0.25338772 -0.7067701 0.17902538 -0.40509924 0.38637608 -0.3575505 0.26185253 0.00029014744 0.6997006 0.5840612 0.29329744 0.44542316 -0.031588603 -0.3380209 0.5016566 -0.31148192 -0.050110932 0.041514583 0.51415217 -0.29805055 0.6133599 0.14999211 -0.73654765 0.37226108 0.21151 -0.45740348 -0.28148383 -0.42768833 0.45348212 0.49461076 0.25206476 -0.1077757 -0.6590454 -0.26233715 0.3832436 -0.23859726 -0.44612327 -0.3698352 0.16139276 0.47802508 0.46165994 -0.5828614 0.560835 0.2114273 0.018921193 0.6107183 -0.76045907 -0.051352452 0.3273623 0.051610187 -0.03956614 -0.17411058 -0.6292987 0.37275577 -0.2701611 0.05241263 0.30160823 0.15614085 -0.6103826 0.52985495 0.028234525 0.049940463 0.16255921 -0.11104906 -0.45998716 0.46649617 0.20301637 -0.0016478342 0.9294575 0.28131616 -0.36854216 0.49110025 0.45822373
EKP 0.57939905 0.33133855 0.14939609 -0.18796119 -0.40380523 -0.3928741 -0.058220074 0.10799937 -0.004145735 -0.28677326 -0.2080247 -0.14751646 0.20818141 -0.50219715 0.10100257 -0.1802481 0.10029374 -0.25328764 -0.07599347 -0.87981606 0.6343485 0.45517156 0.2195752 -0.66548336 -0.1395901 -0.20626886 -0.5516055 0.3205978 0.049766432 -0.40055618 -0.34705472 0.3529237 0.12738477 -0.3916414 -0.16684495 0.12132296 0.4066606 -0.39705577 -0.2326852 -0.4815047 0.13086005 0.43617392 0.23244117 0.2559255 0.09566498 -0.7085167 -0.8535058 0.18482482 0.54131794 -0.47387496 0.12916374 -0.12148791 -0.07133205 -0.13576144 0.3875449 0.18649368 0.38602757 -0.16124737 -0.49933663 0.6270637 -0.4201077 -0.07164519 -0.22981986 0.22454429 -0.11854076 0.1674886 0.053770028 -0.417274 -0.5227525 -0.20300305 -0.1351446 0.33353484 0.4546797 0.59851867 -0.5690364 -0.4098822 -0.10159284 -0.31636262 -0.1309342 0.275848 -0.035747267 0.13867025 -0.36839 0.1207699 -0.36279437 -0.1724108 -0.15674394 0.21062116 -0.15594313 0.0039949943 0.18223484 0.3708048 -0.45556894 0.14484124 0.30602556 -0.68220997 0.11268137 -0.55505514 0.60967696 -0.05623698
KEA -0.3193488 0.09346424 0.4680976 -0.084508434 -0.2711044 -0.10197217 0.658873 -0.32987055 -0.71083194 0.45623037 0.12884225 -0.04154815 -0.2396813 0.56750226 0.48307946 0.30761355 0.084719695 -0.5051135 -0.29636842 -0.17880467 0.0037926708 0.49037677 0.2994099 -0.47084373 0.38660976 0.061530318 -0.32500765 -0.512583 -0.7913366 -0.097699 -0.23001894 -0.4402465 0.23700096 -0.6129907 0.2984119 0.3553441 0.5953427 0.28640997 -0.026325095 -0.3933288 -0.0063635698 -0.11809952 -0.28820428 0.07336822 0.46554813 -0.25296536 -0.7332351 -0.13023767 0.09051475 -0.22830571 -0.88242126 0.58235276 -0.9837 0.74645567 0.24673718 0.11331399 -0.052176878 0.5187839 -0.5235784 -0.07536144 -0.44767937 0.18791302 -0.59900314 -0.29925385 0.17634872 -0.6529026 0.062324252 0.03800929 -0.18158282 0.13099492 -0.18143108 -0.06983942 -0.29701763 -0.71752113 0.45288596 0.50038284 -0.40543517 0.36519697 -0.46646297 0.24201076 0.07836825 -0.43525493 0.07942937 -0.19271334 0.38585535 0.3210466 -0.08797468 0.11377373 0.39940548 0.39446285 -0.088280976 0.20203233 0.50517875 0.21769589 0.16671559 0.58858746 -0.41574043 -0.57585317 -0.11093647 0.30944264
LEA 0.0016760321 0.19059901 -0.98251545 -0.0406123 0.46235186 0.2563479 0.28573573 0.3205755 0.22787865 -0.13084789 -0.18845867 -0.24718766 0.49388725 -0.06527407 0.560163 -0.22168657 0.12108148 -0.5107958 -0.8114543 -0.50209135 -0.44152528 -0.36746407 -0.09673286 -0.42299283 -0.23922485 -0.061371017 -0.38605338 -0.004699386 0.040959895 0.16537373 0.18099327 0.4779406 0.34594265 -1.0804763 -0.08927012 -0.46340218 0.24279778 -0.6996184 0.24546006 -0.17087056 1.1699735 0.4377491 -0.18500614 0.42653614 0.3399477 0.2193208 -0.4682976 0.5711561 0.009457705 0.13620743 0.4045282 0.6138484 0.56079376 0.03208136 -0.49198288 0.5791304 0.2489032 0.040385135 -0.30443677 1.1955286 -0.4192312 0.43472418 -0.09364504 -0.8474753 0.37500474 0.578337 0.18134561 -0.27613986 0.009808498 0.52458376 -0.043838937 0.045895167 -0.060076036 0.5060561 -0.22948532 1.1359022 0.2937683 -1.0241826 -0.73466384 -0.4713245 -0.22518432 0.101835765 0.15379922 0.7334421 -0.3324122 0.28172642 -0.7059903 0.3080936 -0.40831867 0.20453393 -0.34573412 0.2035315 0.3803083 0.7797962 0.6744003 0.1716235 0.06281757 -0.38329995 1.2198232 -1.3356419
KVA 0.5596415 -0.3184395 0.16076615 0.036312778 0.48967972 0.23745686 0.04755632 0.32828987 0.08421252 -0.29899612 -0.12236135 0.004633054 0.14892368 -0.23227102 -0.19256918 0.41491193 0.4521848 -0.16980328 0.25569326 -0.0689415 0.06227431 0.39157486 0.09207624 -0.69657004 0.28268942 -0.21065788 -0.437706 -0.7268866 0.15509602 -0.56983656 -0.04902613 -0.19264759 0.24189481 -0.2942003 0.42205015 -0.054544467 -0.56701285 0.18019232 0.51436514 -0.23232795 -0.049003154 -0.55726165 0.9158863 -0.40827242 -0.62153524 -0.01966908 -0.73883635 0.57489216 -0.19958675 -0.13787521 0.63239855 -0.24352011 -0.5872508 0.13268547 0.46673957 0.3101727 -0.1786502 0.3582612 -0.045164905 0.2795226 -0.54352385 0.40957624 -0.041948825 0.17007701 -0.0443902 0.07178456 0.42289728 -0.7950695 -0.8048189 0.54522985 -0.03596647 -0.3735693 0.17115 -0.4500656 0.13184446 0.2922392 -0.048223656 0.3415854 0.4976901 0.5445708 -0.38485834 0.0259779 -0.14621642 0.5144482 -0.15218763 0.5644808 0.5406986 0.43379444 -0.01129203 0.17099115 -0.010916771 0.68095726 -0.27803892 0.046778765 0.8506179 0.8517989 0.312535 -0.5772291 0.011785794 0.022897204
LEE -0.40130463 -0.079636596 0.52374697 -0.07532037 -0.3832533 0.39705253 -0.5348313 0.14462033 -0.18614577 0.060984112 -0.49996868 -1.1358293 0.10031331 -0.27115834 -0.23998587 0.34052312 -0.4822027 0.26482943 -0.45793465 -0.44977733 0.3582197 0.0843256 0.515754 0.37602693 0.3269167 0.6462596 -0.16055879 0.6738176 -0.59533435 -0.8062086 -0.0017944607 -0.30175048 -0.09001621 -0.2558222 -0.41886407 0.5016423 0.18195395 -0.2567509 -0.5320566 -0.23746313 -0.3136144 -0.4504489 -0.23780578 -0.8314127 -1.1903236 -0.34200606 -0.44127843 0.1127432 0.0840208 0.08006909 -0.084137626 -0.17728429 -0.14520873 0.59222496 -0.45640308 -0.33491817 0.25261548 -0.14203723 -0.5957474 0.10324938 0.24556218 0.1854181 -0.3457087 -0.79490006 -0.4883753 -0.25748438 0.4712977 0.2686051 -0.24601085 -0.057259634 0.002822668 -0.7197147 0.05578822 -0.35333878 -0.8398843 -0.11319389 0.4180678 0.0969358 -0.29071575 0.49218604 -0.45319214 -0.28819987 -0.2916175 0.45234063 -0.2122939 0.56187606 0.19891022 0.09295694 0.21904431 0.65588295 -0.3329988 -0.2113063 -0.11652203 -0.21333145 0.70952886 -0.13762388 -0.3502673 -0.33535296 0.07314241 -0.4726804
EKD -0.11220264 0.117226176 0.32040203 0.08506721 0.246705 0.4109899 0.03969213 0.2977662 0.15610845 0.42754668 -0.69765186 -0.744896 0.4424074 -0.18908234 -0.018602483 -0.31924248 0.15247108 -0.029100796 -0.22584252 0.1125312 0.2515182 -0.26071852 -0.32569668 -0.31517413 0.10324864 -0.6714285 -0.5923045 0.09692174 -0.50875884 0.13898501 -0.015036422 -0.2550159 -0.47087452 -0.3146418 0.33026445 -0.33492976 -0.44669604 0.24675988 -0.25161532 -0.96148217 -0.13864729 0.03478971 -0.41637322 0.02114913 -0.0060291192 0.009492289 -0.49190205 0.37288693 0.0013383124 0.2482443 0.0716454 -0.0993698 0.048624706 -0.38722685 0.14594358 0.37951025 -0.054098148 0.69722646 -0.7490527 0.85311556 0.27838042 -0.07906503 0.10242116 0.1397657 -0.03701798 -0.19465283 0.11650085 0.93980354 -0.24121007 -0.23733966 0.41601625 0.64822847 -0.12580396 -0.24559003 -0.031572536 0.34055656 0.4256312 -0.16867304 -0.6108541 -0.18100323 -0.529962 -0.11266498 0.17872885 -0.4548883 -0.45060718 0.7178469 0.39021814 0.30699238 -0.15653378 -0.63281476 -0.31267923 -0.34000918 0.1498108 0.35244763 0.5753022 0.64092237 0.42578554 -0.5418302 0.93053555 -0.35909927
SDK 0.6026763 0.37151015 -0.44162855 -0.029005203 -0.49904814 -0.7526746 0.77920705 -0.17621537 -0.12962148 -0.47730085 0.049119376 0.10105087 0.1722357 -0.5196845 0.42104024 -1.0465695 -0.044865973 -0.5696988 0.10685208 -0.35210675 0.99037904 0.28217643 -0.79181087 0.7866433 -0.15952785 -0.5101411 0.02258903 0.45924002 -0.65648216 0.38726828 0.50381124 0.1823655 0.2429828 0.11966195 -0.41198936 -0.18576632 0.39923975 0.08591768 0.31321576 -0.1805123 0.5235329 -0.46817702 -0.9082672 0.95344085 -0.16586122 -0.70118487 0.5608173 0.8335618 1.0074391 0.4519076 0.15103923 -0.51051015 0.8604613 0.49095345 -0.5247302 0.32746527 0.076864555 0.3973115 -0.2805731 0.9399642 -0.3550753 0.047857806 -0.22898823 -0.9848943 0.35530674 0.23294595 -0.38065043 -0.16148414 -0.5028195 0.469352 0.19698547 0.02832522 -0.09606095 0.5949762 0.13349223 0.63482314 0.1271961 -0.04369809 0.032743 0.0014098083 0.26591718 -0.3168505 -0.066615544 0.6357655 0.5493908 0.8270273 -1.1391246 0.44844618 -0.15116227 -0.36313027 0.6998223 0.37536073 -0.52501816 0.9994445 0.63322043 0.47311226 -0.04381149 -0.1694661 0.3975674 0.10101681
LDA 0.4989287 0.46287104 0.0341706 0.75733566 -0.21273549 -0.22722748 0.6254791 -0.67964077 0.4892936 0.020382963 -1.0019432 -1.0416255 0.014692948 -0.023393191 -0.42753267 -0.38018948 0.20328985 -0.1027314 0.08761692 -0.9941898 0.5416891 0.31754926 0.13425578 -0.22263862 0.04479901 0.8127613 -0.48805034 0.48382214 0.27971324 -0.39092806 -0.31044212 -0.05740833 -0.5084256 -0.55873346 -0.48445442 -0.453863 0.1613545 -0.15493473 -0.0637408 -0.8038843 0.41900012 -0.17199984 0.6499883 0.021377774 -0.47238126 -0.31759283 -0.116004 0.4539022 0.27783728 0.41103384 0.4154067 -0.4713869 0.10955629 0.419671 0.7906735 0.12891893 0.1869619 -0.63081247 -0.4053268 0.72882617 0.022075566 0.4330708 -0.61635894 0.008808799 -0.5401464 -0.40290076 0.05371703 -0.53785145 -0.24894215 0.3600715 0.12033387 -0.13520053 0.2445116 0.20540868 -0.83655113 0.3732631 0.14667225 0.28563982 0.17198387 -0.203626 0.115485415 -0.13890758 -0.8108035 0.5818855 0.0040751887 0.18140765 0.010084827 0.5638666 -0.52723706 0.56130743 0.48137698 0.15711872 -0.13643436 -0.09441395 -0.19921705 -0.65671146 0.22543545 -0.6823251 0.24013938 0.01951236
ASG 0.6845741 0.7445787 -0.62350976 -0.33964404 0.49909917 0.017679837 -0.006882287 0.3536907 -0.5902976 0.40804398 0.15564515 -0.41229954 0.13943195 -0.5534149 0.35628244 0.07574766 -0.038397428 -0.45956126 -0.0030214852 -0.35785073 0.028122276 0.07734744 -0.5859754 0.010621884 -0.37332782 0.2626293 -0.6857959 0.09380286 -0.97806275 -0.016883474 0.054151468 0.36003557 0.48473027 -0.49084044 -0.34617797 0.58798707 0.38840902 -0.8025617 -0.8372822 -0.48123893 0.24355648 0.038116265 -0.24508424 0.10842482 0.38615975 -0.65716606 -0.16694239 -0.027745109 0.43046886 -0.04065093 1.0236484 0.14854786 0.54773873 -0.49813646 -0.6985268 0.16233556 -0.5144411 -0.73230237 -0.38966084 -0.068534665 -0.0568496 -0.017344682 -0.19164452 -0.42707205 -0.04530001 -0.31089327 -0.71286505 0.26527187 -0.4344266 0.32631624 0.067312114 0.50796115 0.36607546 0.367554 0.2070154 -0.35745174 -0.16309993 -0.045993943 -0.042606942 0.29615217 -0.32177913 0.31952035 -0.94046646 0.37543368 -0.60650325 0.24244028 -0.6741483 0.376272 -0.27719516 -0.14600064 -0.11562874 0.53545827 -0.5494565 0.685664 0.7228328 0.11699391 -0.19407906 -0.43392146 0.05843716 -0.16993476
EEE -0.011957496 -0.1870232 -0.9426549 0.046398334 -0.5008949 -0.5497317 0.13402377 0.32657242 -0.6711454 -0.16632243 -0.68578887 -0.008709854 0.1779206 -0.66909117 -0.5239255 0.038888965 0.16623653 0.00040078678 -0.20088865 -0.67013484 0.500111 0.26921636 -0.006342167 0.23447801 0.004133224 -0.054053016 -0.42035085 0.009984839 -0.30379882 -0.51544017 0.29362732 -0.10200781 0.13091391 -0.14147823 0.2824577 1.0670029 0.46894345 -0.13517863 -0.025714464 -0.47728446 -0.06557074 -0.34539464 0.0271782 -0.033532515 0.25237632 -0.84259903 -0.17380454 -0.014914953 0.020159584 0.61763823 0.19735423 -0.5507228 -0.8959122 -0.12219941 0.3339415 0.36522973 0.13996595 -0.58951366 -0.66489166 0.028612098 0.026080355 0.17511272 0.31976077 0.045407534 -0.43780673 0.1261768 -0.13125545 0.3197764 -0.12133772 -0.6892186 0.02710809 -0.55106527 -0.11903954 0.32265112 0.48363164 -0.3791698 -0.039666396 0.08447331 -0.7310481 0.43535474 0.485909 0.051155314 0.32994643 0.022081442 0.07422545 -0.3654761 0.19744943 0.37069675 0.44773543 0.017431663 0.8580566 0.28184313 -0.079768986 -0.21372405 -0.16666424 -0.20400332 0.43702286 -0.47539237 -0.08984864 -0.21796812
SNG -0.49669912 0.31180215 -0.315066 -0.35500816 0.7203558 -0.22891478 -0.18628676 0.61995476 -0.061196364 -0.89376634 0.18071844 -0.134163 0.6998296 -0.34014338 0.6857269 -0.04851941 0.18490058 -0.5636541 0.06927226 -0.22604182 -0.5221954 -0.17586207 -0.072906725 -0.2713248 -0.40599576 -0.57111824 0.18832113 0.43559235 -0.05319561 -0.96026176 -0.16714792 0.3883987 0.12725994 -0.31498626 -0.36952975 0.56059057 -0.19437492 -0.55637217 -0.41272378 -0.06068097 -0.46515787 0.2463355 0.15781063 0.3601227 0.72242236 -0.01103453 -0.10069808 0.16258238 0.12327248 0.48452437 0.9596 0.1078767 0.58488274 -0.17314103 0.071828745 0.6316908 -0.38098285 -0.053587135 -0.75214696 0.37254855 0.23327929 0.37547025 -0.028775986 0.059925105 -0.12096127 0.024302693 0.46561444 -0.104490064 -0.7041382 0.32656133 0.30212522 1.1752064 0.8028451 1.0136721 -0.35162407 0.45076296 0.44325778 0.18927759 -0.43146968 -0.080299854 -0.60390097 -0.31721452 -0.38627654 0.6297462 -0.34012184 0.22005035 -0.3693777 0.05274461 -0.06177482 0.092817165 -0.021012293 0.8845929 0.5258829 0.6217837 0.33660164 0.30876324 0.4203343 -0.48771757 1.3179857 -0.54877895
NSN 0.30942085 0.37371978 -0.7049062 0.32778308 -0.32788706 0.3149839 0.50599337 0.41406915 0.4986642 0.34018967 0.52643883 0.15502204 -0.1361773 -0.7169064 0.71418375 0.25297347 -0.15440957 -0.054531954 0.10290833 -0.81639373 -0.07349082 -0.3746866 0.6548679 0.43203193 0.3221461 -0.16893683 0.09990358 0.7374039 -0.7529397 -0.23301552 -0.26252097 0.36437324 0.13305542 -0.16784517 0.36147478 -0.13254386 0.34264612 -0.41752505 -0.36183482 -0.3121484 -0.13212368 1.0601501 0.25257182 0.6684831 0.575225 -1.1163937 -0.4841873 0.058118783 0.21972732 0.016480824 0.42955187 0.03833471 0.30526114 0.17459145 -0.18139331 0.59417576 0.15257086 0.07875312 0.028024063 0.15931357 -0.3088822 0.50919616 -0.18590428 -0.75006455 -0.46316007 0.19327752 0.739616 0.4198205 0.034026656 0.3571152 -0.11151103 0.41757256 0.7383743 0.50145566 0.63377833 0.3245156 0.6134368 -0.59179896 -0.2576637 0.07442014 0.42855078 0.4572999 -0.50332564 0.7165466 -0.56324685 0.04212998 -0.32831907 0.6681887 0.06761 -0.12104951 0.5247132 0.5315109 -0.25299805 0.019714128 1.0596644 -0.39632285 0.82298654 -0.35664657 0.40643734 -0.117451295
SGA 0.43900844 -0.113463536 -0.63476825 -0.014181488 0.30466124 0.012176273 0.30656785 0.041157383 -0.7960371 -0.41948822 0.33993262 -0.44190434 -0.076528735 -0.36491695 0.3005658 0.36851835 0.14393866 -0.6268413 -0.24589364 -0.5265883 0.13866243 -0.11747845 0.051643874 0.24488096 -0.08227001 0.026742276 -0.7514887 -0.2864242 -0.5767647 0.26375353 0.47496718 0.2765051 0.15082912 -0.001943185 -0.41805118 0.059937693 0.3439233 -0.22492443 -0.34546712 -0.40969878 0.8631126 0.3921687 0.17568009 0.0692905 0.5089721 -0.7098724 -0.5728408 -0.08639401 0.13638231 -0.18247204 0.39552158 0.3309385 0.1032444 0.2084799 -0.6183305 0.22130963 -0.12495329 -0.40739873 -0.5357953 0.6813982 -0.13237698 0.098960355 -0.22881457 -0.5333892 -0.29110453 -0.10182116 0.2920423 -0.5527558 -0.4312705 0.54370147 -0.4163086 0.21558383 0.4404633 1.066472 0.036289137 0.15154734 0.03590799 -0.6980437 -0.41215137 0.17469044 -0.15928812 0.29050475 -0.08047081 0.6415839 -0.4522475 0.44721767 -0.59029096 0.24769783 -0.23436052 -0.12996218 0.17825566 0.5273247 -0.90131164 1.0774038 0.23711576 -0.18460084 -0.2991644 -0.011428354 0.01814836 -0.005636982
EKA -0.16346641 0.19201694 0.2392434 0.20633 0.16542079 -0.5414603 0.062253125 0.58399767 0.20090565 0.35446665 -0.32711637 -0.66606086 -0.07909478 0.32432795 0.1655591 0.553136 0.20369732 0.14477082 -0.06445824 -0.48777518 -0.40833193 -0.20507678 0.25012115 -0.12700231 0.14948493 0.72526217 -0.40224046 -0.43229204 -0.18844183 0.4677565 0.11733196 0.21008408 -0.59990865 0.51351655 -0.32132366 0.15902263 0.17356771 -0.29129508 0.31352252 -0.18556549 -0.13519944 -0.49990875 0.13407013 0.15609007 0.13576889 -0.057179075 -0.16148195 -0.11135777 0.16858868 0.034147266 -0.1414893 -0.020207377 -0.28924975 -0.052048806 -0.19586578 -0.5029879 0.25495324 -0.40637603 0.019670738 0.18388745 0.22965959 0.049190383 0.011605541 0.4818774 0.21956182 -0.4692104 0.26901594 -0.18950406 -0.3808533 -0.13279963 0.34149265 -0.07354044 0.96235186 -0.5676455 -0.39445293 -0.25001633 0.39736593 -0.05901743 -0.1941961 -0.1346384 0.14307904 -0.7293333 -0.008495131 0.38174987 -0.48207814 -0.7229918 -0.11308419 0.7149659 -0.24366713 -0.068674885 -0.019668914 -0.14135444 0.2271918 0.7458619 -0.20434396 0.66197765 -0.2635233 -0.41859484 -0.2841904 -0.18109676
AAK -0.5539161 0.06703716 0.6307098 1.0894231 0.17536701 0.14403412 -0.15460871 0.17621762 0.06500781 0.061144818 -0.19245863 0.098443225 -0.33334744 -0.26468185 -0.23217885 0.055700604 -0.47337538 -0.5852578 0.25779435 -0.33218768 0.24568672 0.00055781973 0.009137603 -0.124759845 0.024478333 0.42206743 -1.37674 0.63552636 -0.82533365 0.3675735 -0.46042758 0.49144933 0.14164406 0.60023755 0.45621037 0.48049024 -0.24759458 0.07325303 0.12086923 0.0073453323 -0.42255387 0.12260771 -0.44137174 0.20516576 -0.01644911 0.13507582 0.4876359 0.0058082924 0.76591986 0.30556983 0.42125133 -0.4072245 -0.9653946 -0.32958722 -0.22618045 -0.26642424 0.6904586 0.2969636 -0.62121236 -0.29362237 0.11531057 0.06610908 0.6017593 -0.32631424 0.08780583 -0.035312407 -0.27963588 0.17432882 -0.0661664 0.1493728 -0.04007908 0.021962332 -0.13391377 -0.12608704 -0.24500673 0.05164925 -0.10796288 0.003599645 -0.65374523 -0.54054254 0.39724898 0.110060304 -0.22044143 0.7589853 -0.44545078 0.52729934 0.35099587 0.1832069 -0.43410853 0.18049115 0.52161455 0.49334753 -0.014703497 -0.1244055 -0.4311967 0.596968 -0.13090098 0.19791973 -0.12073673 -0.8100238
VAK 0.59103453 -0.6901797 0.10090544 0.4834902 0.6755783 -0.10054116 -0.25171915 0.31386885 -0.32557213 0.38523996 0.534942 0.04588328 -0.30952498 0.18118516 -0.06482118 -0.1118707 0.10114787 0.13279921 -0.22047126 -0.7288376 -0.05912772 0.38819095 0.8323666 -0.54591256 0.13888381 0.020608548 -0.89300567 -0.41028053 -0.4053361 -0.18023492 -0.1926182 -0.042948823 0.2585248 0.17822185 0.58363706 -0.079137094 0.7963248 0.7673069 0.2528688 0.22488229 -0.029456735 -0.16389956 0.48365188 -0.009110267 -0.17067342 -0.060442112 0.58428735 0.60953474 0.2661631 -0.016691357 -0.44285285 -0.007068844 0.30181202 -0.50079405 -0.054032642 0.1581116 0.26188275 0.37343207 0.14944988 -0.3124738 -0.28164172 0.3201501 -0.76609087 0.31818944 -0.08265739 0.21245041 0.7069533 0.2181544 0.0049779057 0.08521848 -0.21630271 0.05470143 -0.29424456 -0.50171036 0.25594333 0.3120313 -0.31152573 -0.12613575 -0.27624387 0.0021293806 -0.6930409 0.50873595 0.379159 0.19376926 -0.1097873 0.81109077 0.51388204 -0.16285169 -0.108692914 0.051084034 0.52464354 1.0740286 -0.32145187 0.43791324 0.68954724 0.90603954 -0.0801409 -0.3901824 0.07974744 -0.14164758
AMK -0.7162522 -0.34792548 -0.46521628 0.26993778 1.0911213 0.0040478287 0.34988153 0.64569265 -0.7044209 -0.1872692 -0.1709334 0.1103515 0.17935602 -1.1777798 0.55872136 -0.15270591 0.4185367 -0.35761264 -0.006944781 -0.77989167 0.12466089 0.07351812 -0.05483076 -0.12955965 -1.1240367 -0.21930417 -0.1952496 0.44389173 -1.3976972 -0.020179007 -0.23360917 0.22787584 -0.28998783 -0.55302995 -0.49808288 0.7187123 0.13928127 -0.20125407 -0.15308052 0.011513566 0.28719032 -0.03589472 0.045109596 0.35193405 0.39790133 -0.29951105 -0.20413919 -0.58616054 0.10527289 0.28244027 -0.02661338 0.3393416 0.24955425 -0.15740874 -0.12573537 0.2828962 0.07012438 -0.33168396 -0.9690615 0.71335435 0.5599458 0.01114438 0.4889349 -0.7183785 -0.22319254 0.43828022 0.50822544 0.003702909 0.7004736 0.23658839 -0.11041622 0.8996601 -0.058657378 0.9218419 0.3153697 -0.009371983 0.061746933 0.39683658 0.17056769 -0.31949198 -0.29226774 -0.40448505 -0.13979419 -0.31226063 -0.17722054 0.12047263 -0.81304514 1.3645132 0.31090555 0.43891788 -0.035692047 0.21949266 -0.53729665 0.21101104 0.442118 0.41960424 -0.005385498 0.22611354 0.1502046 -0.5577869
PEK 0.4917294 0.2720921 0.0438113 -0.17717552 -0.41045535 -0.18025115 0.2316689 -0.09385665 0.031176524 -0.18547313 -0.51708186 -0.43278292 0.0334563 -0.21915211 -0.19599253 -0.40365285 0.022370419 0.13346092 0.3620715 -0.7754257 0.28008816 0.44144252 0.57516265 -0.7449163 -0.17622043 0.27397949 -0.48430392 0.82268536 0.32235554 -0.2615269 -0.062233347 0.13929304 0.52552503 -0.4777808 -0.19092533 0.09069354 0.19653326 -0.522284 -0.16393523 -0.04885002 0.0030052864 0.07077092 -0.12460175 0.09762527 -0.0074007283 -0.53164184 -0.7331995 0.04952219 0.580019 -0.05376661 0.20094755 0.11199482 0.14957014 -0.30954334 0.39400408 0.33216903 -0.17861348 -0.42646074 -0.8313975 0.5644146 -0.17307429 0.0700988 -0.34038752 -0.16506454 -0.1815742 0.42120636 -0.6418312 0.31852525 -0.6907056 0.018481893 -0.12833442 -0.028155185 0.37042475 0.7643332 -0.84947324 -0.264136 -0.10891913 -0.057294477 0.23723452 0.34096336 -0.15296943 0.048367623 -0.5722997 0.13200973 -0.6928483 -0.33737847 0.05001215 0.64907616 -0.07970346 -0.04882263 0.45045155 0.5085701 -0.5341113 0.28203917 0.36533636 -0.37516987 -0.51032406 -0.13566574 0.68206227 0.251684
YLE 0.26856083 0.5255631 -0.9183782 -0.00886144 0.11637787 0.4256988 0.0859026 0.7175728 -0.39677742 1.477075 0.6048464 -0.24362175 -0.37654778 -0.7347981 0.52534807 -0.20929813 -0.041857243 0.0146746235 -0.26118618 -0.7437669 0.2631569 -0.3033143 4.025311e-05 -0.40844443 -0.69572145 -0.083005756 -0.02798307 0.86736095 -0.9074239 -0.00021468184 0.17959358 0.65559155 0.50801224 -0.7339174 0.5151202 -0.17349562 0.13712338 -0.39711127 -0.45013463 0.38943613 0.46636784 0.06419226 -0.1188492 0.5976246 0.48821855 -0.41993213 0.5382709 0.18489715 1.07035 0.2903007 0.08852083 0.5511964 0.71321356 -0.2721029 -0.4321692 0.39564076 -0.15935138 -1.2335361 -0.0041210437 -0.4680666 -0.60449517 0.06762522 -0.114741676 -0.3565851 -0.43348616 -0.0048493426 -0.09846605 0.51387703 -0.6129693 -0.015884565 -0.534036 0.38852647 0.24259336 0.122349456 0.63854396 0.3356015 0.65774685 -0.8071028 -0.2294604 -0.16638176 -0.5155958 0.6042594 -0.18097648 0.98046786 -0.42111358 0.10424696 0.07346579 1.1103868 -0.08939026 0.061673455 0.15271199 0.91723573 -0.060598593 0.2708529 1.5773324 -0.28150487 0.44095224 -0.35088992 -0.180291 -0.27657178
EAP 0.40824506 -0.057347618 0.79146487 0.069489494 -0.20564726 -0.116548315 0.19876744 0.9039709 -0.22280046 -0.25788358 0.4418814 -0.16884026 0.29521427 0.00024008764 0.09399142 -0.35828155 -0.16681296 0.50055975 0.3922032 -0.7591153 -0.60056084 -0.03899448 0.05148922 0.08749594 -0.02692397 0.03932489 -0.14021587 0.27673215 -0.03462499 0.30251703 0.42857262 -0.41808996 0.17748079 -0.3897005 0.09276934 0.07373986 0.25444108 -0.18100066 -0.63043267 -0.40542647 -0.05025464 0.74512166 0.14969827 -0.13329461 0.5070995 0.19716185 -0.5573092 0.30985764 1.4013959 -0.22585233 -0.2886157 -0.73782426 0.1068462 -0.7230913 0.046190567 -0.31074288 0.15639788 -0.33571383 -0.03676128 0.8972908 -0.22740395 0.29621267 0.20255616 -0.5003291 -0.5204365 -0.30498 -0.56138724 0.053113833 -0.45228577 -0.098542295 -0.3390383 0.07377271 0.6970297 0.37248147 -0.4565603 -0.12025748 -0.02885097 0.2337959 -0.5000421 -0.30570427 -0.5737767 0.0755846 0.34176114 0.6461212 -0.011161595 -0.14022614 -0.20166726 0.3344477 0.07978753 0.11294972 0.37767354 -0.19905536 -0.56373876 0.2503103 0.020725856 -0.33846146 0.0058703683 0.023128303 0.8487099 0.48015994
