177 100
PAP -0.27042335 -0.025937634 -0.24021661 -0.027900932 0.033047214 0.050647683 -0.13098304 0.32610533 0.07852744 0.18102519 -0.08073658 0.23879251 -0.13921866 0.0888434 -0.10308887 -0.109773904 -0.23104009 0.2309056 0.028763326 -0.11483907 -0.03710404 -0.14305626 -0.063360915 0.09359412 0.0149663305 -0.39320028 -0.1082341 0.09946779 -0.01851125 -0.10650886 0.123388626 -0.15029241 0.17316698 0.033838075 0.08636217 -0.15316337 -0.1308834 0.025416426 -0.022474624 0.03712211 0.16192502 -0.024987277 -0.14330366 -0.113433704 0.0387897 -0.033089235 -0.11185232 0.13824312 0.01868209 0.0063909655 0.025212927 0.16106574 0.0328082 0.09557991 0.13177681 -0.18206981 0.20567691 -0.28105304 0.15357329 -0.038165662 0.027873585 0.08734007 -0.024755182 0.004217134 -0.30006278 -0.038016304 0.055118993 0.033822667 -0.055246428 -0.030449372 -0.14285609 -0.15186556 0.11371851 0.0778345 0.19040017 -0.03444606 0.008463057 0.04322227 -0.065965526 -0.0773379 -0.02756112 -0.2839177 -0.048579425 0.18749282 -0.25406078 -0.047804076 -0.22143474 -0.18232405 -0.15368001 0.095629476 -0.06095796 0.100290515 0.14288495 -0.24435318 0.2668554 -0.10774596 -0.2591089 -0.06539735 -0.00958509 0.14415723
APA -0.35276157 0.025792308 -0.20158876 -0.0020927535 0.09015341 0.07468374 -0.09091633 0.31694406 0.04323832 0.21825776 -0.054498784 0.19496593 0.00013786688 0.17175719 -0.1095628 -0.0661076 -0.2032082 0.28894585 0.082716376 -0.12636544 0.10459886 -0.1395721 -0.097423114 0.057654276 0.01439225 -0.4436815 -0.12295123 0.062191144 -0.048931707 -0.15370934 0.031315472 -0.16982988 0.13813524 0.0037917045 0.051723503 -0.059090007 -0.07934667 0.007351713 -0.036464665 0.07161335 0.33581403 -0.09805533 -0.16487633 -0.052534394 0.038698766 -0.08007706 -0.061533913 0.14434618 0.015983209 -0.08484257 0.042094234 0.12898047 0.03308503 0.046390362 0.13432911 -0.15867652 0.104776844 -0.35756248 0.22750457 -0.07336923 0.08974467 0.14395045 -0.004671723 0.012292415 -0.21442984 0.08619339 -0.07030806 0.025320534 -0.032904778 -0.11249233 -0.14968193 -0.035674915 0.109703965 0.11812443 0.15956104 -0.16190085 -0.044205632 -0.00085067155 0.02744099 0.010526734 -0.053021364 -0.23674121 0.004149928 0.08257526 -0.1634374 -0.006098073 -0.23936331 -0.22874385 -0.06522817 0.017896144 -0.024175357 0.03493631 0.18226959 -0.26365542 0.2820778 -0.07892435 -0.32898614 -0.031546067 -0.03162996 0.15472259
APK -0.23670267 0.060320314 -0.3484724 -0.050145254 0.0028081918 0.108030304 -0.082342334 0.36236408 -0.1318017 0.13496709 -0.038551174 0.26874265 -0.1942662 0.12685494 -0.09629439 -0.04782055 -0.15943328 0.22836405 -0.060615417 -0.013048763 -0.058373813 -0.21502383 -0.020181116 0.07655535 -0.051898785 -0.5116395 -0.02057567 0.03735878 0.036642548 -0.1879792 0.09059023 -0.1774501 0.15546864 -0.0011317589 0.14602618 -0.19140624 -0.061404675 0.1349913 -0.0063442765 0.09520679 0.2238971 0.0040388745 -0.117845334 -0.08745952 0.11393228 -0.0925876 -0.06667236 0.08662451 0.031455804 0.040745072 0.034218512 0.15280302 -0.03500095 0.056478936 0.07187316 -0.21979327 0.30304462 -0.36424026 0.15279433 0.04289644 0.11164274 0.20070136 0.005599928 0.08847447 -0.16727984 0.089301825 -0.07844057 0.051764414 -0.069578804 -0.047363713 -0.086355664 -0.16210419 0.10775987 0.07453484 0.21370928 -0.18582404 0.0065820185 -0.0018292494 -0.0654868 -0.035641722 -0.06514601 -0.30847228 -0.09305355 0.07219918 -0.21066418 0.017193768 -0.20681383 -0.102936946 -0.14626203 0.06198384 -0.11475447 0.055220537 0.14079079 -0.22905001 0.30575597 -0.07239607 -0.26077348 -0.06203431 0.08443527 0.15557729
PKP -0.35487434 0.048743524 -0.29763108 0.02412993 0.06399822 0.07538641 -0.10178337 0.41540268 0.09624453 0.18225437 -0.1013642 0.17259862 -0.14330846 0.17225824 -0.1758535 -0.061790455 -0.16292226 0.25615755 0.09626948 -0.17011444 0.051089346 -0.12610503 -0.043541264 0.024264464 0.034612417 -0.47261322 -0.010918134 0.08017782 0.0036684913 -0.09394183 0.09648668 -0.11655768 0.15793066 0.08349437 0.17293634 -0.03536565 -0.023035947 -0.0027105873 0.070296906 -0.029007692 0.18737991 -0.072308436 -0.15059572 -0.0124466065 0.07799657 -0.035633776 -0.058497414 0.077514976 0.13105538 -0.061467107 0.094948985 0.1880227 0.108196326 0.0605493 0.15183619 -0.20866862 0.06900469 -0.34561282 0.22837046 -0.08480133 0.03685501 0.11515236 0.07389375 0.09751837 -0.22701746 -0.034495346 -0.086653166 0.034227587 -0.09147969 -0.022909936 -0.095707566 -0.21879718 0.1099585 0.15224901 0.18623486 -0.105249025 -0.006533263 -0.02334335 -0.056570575 0.020179447 0.0003892682 -0.20676158 -0.0012061996 0.10060811 -0.21912138 -0.008643059 -0.1823186 -0.182644 -0.10610733 0.16087113 -5.1577794e-05 0.035115194 0.1735953 -0.21976174 0.29980245 -0.104348384 -0.42051017 0.0069411686 0.06277744 0.19038963
KPA -0.31460398 -0.08849528 -0.28289115 -0.045028366 0.04445815 0.06743585 -0.13867988 0.1882555 -0.0025561107 0.18592727 0.10313098 0.2117792 -0.03162337 0.04328832 -0.0688268 -0.18648158 -0.08497557 0.192213 0.099355295 -0.016758015 0.079649195 -0.027281238 -0.1459486 0.15890773 0.13620445 -0.36069867 -0.027054824 0.28520387 -0.12826288 -0.07261822 0.11286548 -0.042458214 0.07080298 -0.0070765405 0.048431728 -0.05426631 -0.16403206 0.046214588 -0.027501695 0.0119555285 0.107065514 -0.13486584 -0.058854498 -0.061610445 0.037902888 -0.07472364 0.015605906 0.07616373 -0.036603544 0.017977223 0.037405696 0.2297315 -0.07742249 0.019236308 0.047008343 -0.17387049 0.030532816 -0.40670717 0.19377738 -0.03477512 0.13412683 0.054721992 -0.025112642 -0.10344299 -0.17376842 0.11995786 -0.01824362 0.12807979 -0.07515493 0.00037442165 -0.0391317 -0.13316612 0.06611997 0.19176763 0.10633615 -0.08669379 -0.11269781 0.07035552 -0.16580181 -0.024677455 -0.08783016 -0.17305498 -0.016644578 0.1369549 -0.12033696 -0.048446655 -0.19167058 -0.24434802 -0.1337284 -0.037841156 -0.14785585 -0.055149145 0.1253213 -0.16944556 0.09095877 0.0037993016 -0.21623333 -0.02060886 -0.09350275 0.12886909
KPE -0.12831791 -0.055743404 -0.2781066 -0.07600531 -0.023966959 -0.10482551 -0.13132861 0.46217874 0.003187666 0.06931094 -0.1678513 0.065357186 -0.29041305 0.08453184 -0.16993302 0.02147502 -0.2692737 0.24623519 0.15297794 -0.05940594 -0.037891544 -0.055394705 0.024925927 -0.014345055 0.041214574 -0.325916 -0.10987134 0.06226148 0.043958638 -0.032205325 -0.012743592 -0.2275796 0.33545926 -0.04946013 0.07556662 -0.055797905 -0.03429247 -0.05234747 -0.016914824 0.025536936 0.033299357 -0.016115932 -0.21284103 -0.04230492 0.21282011 0.1273092 -0.0549773 0.16202201 0.07267445 0.020131437 0.0524864 0.20736684 0.18204501 0.0209744 0.058366608 -0.1337816 0.23279709 -0.39131737 0.111445114 0.029529762 0.11133552 0.19944541 -0.18130542 0.031090626 -0.18193276 0.064349934 -0.049931888 0.07427473 0.10748427 0.036914937 -0.06620051 -0.26444337 0.17452726 0.12425852 0.15767704 -0.08711324 0.11934487 -0.015013559 -0.040246177 -0.008415617 0.02849723 -0.2906201 -0.09781335 0.032563087 -0.24278821 -0.08487496 -0.17544498 -0.1225944 -0.10964877 0.04946293 -0.076425105 0.11345591 0.009291125 -0.20567611 0.37959585 0.023733942 -0.38342425 -0.10868907 0.04265746 0.085472405
EQP -0.16996919 0.062397793 -0.3227462 -0.11208985 0.08351652 -0.074156724 -0.20568874 0.35840866 -0.082486965 0.11202398 -0.18257354 0.030285148 -0.045847762 0.10904064 -0.047944065 -0.0411013 -0.30894023 0.33555627 -0.009340525 -0.05706851 0.0011844251 -0.019323835 -0.10837891 0.06512851 0.16698381 -0.36301097 -0.1251913 0.22444764 -0.007051208 -0.040433317 -0.08618536 -0.1306389 0.109002836 -0.052490354 -0.025416022 -0.11871062 -0.19908178 0.00556534 0.15188463 -0.13096608 0.05739976 -0.040560227 -0.28506237 -0.029537473 0.30907995 0.050005667 -0.122691765 0.16802226 -0.07316621 -0.10126194 0.11466698 0.11284314 0.14955163 -0.1857397 0.19675565 -0.04598538 0.0825672 -0.33975226 -0.012703008 -0.10296751 -0.061288904 0.19760813 -0.1551771 -0.012851928 -0.12914243 0.10342703 -0.038901743 0.21624933 0.14786212 -0.0083685545 -0.1439454 -0.29455325 0.13845134 0.091450244 -0.022387011 0.016178353 0.00851453 -0.07950954 -0.087096065 0.16836719 -0.067581676 -0.29482067 0.039514463 0.100632966 -0.01351892 0.09185494 0.03212149 -0.10573427 -0.1541694 0.08891257 0.040555753 0.16913617 0.15906523 -0.26233405 0.4103783 -0.03169526 -0.40270856 -0.037265018 -0.034083594 0.31128454
PEQ -0.22716503 0.08025893 -0.3620304 -0.101272054 0.012113916 0.03272102 -0.13219222 0.31524974 -0.08737046 0.12601092 -0.22377624 0.12122293 -0.18476947 -0.001983141 -0.046751644 0.049459845 -0.27266023 0.34389046 -0.036691982 -0.20819145 -0.06907047 -0.009601005 0.0575116 -0.16700628 -0.0076253577 -0.48082733 -0.11345325 0.08000064 -0.11103745 -0.031301484 -0.12252327 -0.12990923 0.14627609 -0.02876875 0.001418868 -0.1847889 -0.2072568 0.119968526 -0.010581479 -0.020708313 0.10261786 0.10318009 -0.31157812 0.10810672 0.29781574 -0.057216596 -0.13198465 0.23737794 0.034664176 -0.112050414 0.13711214 0.05698693 0.15102072 -0.1403209 0.17418034 -0.081207916 0.2528149 -0.419356 0.07936912 -0.021058822 0.029616147 0.21112886 -0.24946207 0.091776945 -0.13719448 0.17667906 -0.16145208 0.15509245 0.1422211 -0.08421138 -0.19653013 -0.29808182 0.1886569 0.16683008 0.044524327 -0.006057063 0.10915493 -0.052092835 0.015514744 0.005172672 0.020320568 -0.39447024 0.01330198 6.3171545e-05 -0.07392712 0.08801141 -0.04418616 -0.096016124 -0.07058875 0.03352839 0.09901052 0.22218356 0.025818076 -0.09720674 0.45742434 -0.07303777 -0.4205052 -0.09481835 -0.06869703 0.28505635
QPA -0.09319368 -0.009429046 -0.23166248 -0.119284146 0.09714632 -0.16085878 -0.1397805 0.36159313 -0.021303348 0.22108337 -0.27737108 0.07870314 -0.14379102 -0.024001127 -0.029573295 -0.00065150723 -0.21440445 0.31709033 0.0037643707 -0.08127118 -0.014922903 -0.07058409 -0.053664643 -0.0046194047 0.11109114 -0.31651223 -0.28974837 0.1903418 0.062473156 -0.10916147 -0.109040454 -0.19106437 0.14495079 -0.043642182 0.05351975 -0.012224185 -0.036334798 0.10013192 0.028755743 -0.12636214 0.020875383 -0.04932897 -0.28978065 -0.078963816 0.21470535 0.02409297 -0.25856906 0.24325648 0.0011765908 -0.09910091 -0.02016598 0.112571016 0.14847268 -0.080099136 0.25687444 -0.16720635 0.118504874 -0.22987656 0.0667844 -0.070583455 0.012502828 0.18729141 -0.27238607 0.03210672 0.0495275 0.074145705 0.013874866 0.24438399 0.048157837 0.067693636 -0.057597965 -0.21571599 0.22067507 0.16264401 0.018525688 -0.012146271 0.025114175 0.055934384 -0.14870946 0.053573605 -0.0059276307 -0.29040372 -0.016069787 -0.00028971792 -0.059427008 0.12781978 -0.14357206 -0.062532626 -0.1622479 -0.03273292 0.052773483 0.10915284 -0.029695833 -0.28135103 0.49514014 0.09186869 -0.46950322 -0.033313293 -0.13364235 0.22692157
EKP -0.23924318 -0.0826102 -0.2503748 -0.03410917 0.016847841 -0.17448322 -0.21271084 0.16478555 0.03236446 0.08064152 -0.15147123 0.0835695 -0.00030290394 -0.040358093 -0.069379225 -0.06502295 0.078494586 0.028850896 0.11149765 0.07351116 0.01960918 -0.13549705 0.03544071 0.17429765 0.09978461 -0.25113168 -0.24621205 0.3896709 -0.11428522 -0.19827649 0.07778837 -0.018050054 0.1504623 0.0033487394 0.1299842 0.14956187 -0.15929952 -0.12688181 -0.09537415 0.065164596 0.085435845 -0.05454996 -0.27202323 -0.017660713 0.07847539 0.10260204 0.014893063 0.09752341 -0.042681307 -0.16311121 0.012394794 0.17055315 0.08322349 0.00261039 0.062128864 -0.10868701 0.06599898 -0.21225098 0.12768854 -0.14683709 0.089251146 0.13834538 -0.010392409 0.10863703 -0.19063076 0.16209729 0.10183402 0.24565431 0.1922417 -0.0002691091 -0.065584525 -0.26135445 0.14420944 0.21039566 0.11722507 0.13133049 -0.052924383 0.014640126 -0.14669767 -0.0957833 -0.22547595 -0.03747896 0.055921216 0.19846986 -0.07802354 0.005880762 0.106245585 -0.07678726 -0.016589282 -0.23302174 0.03319777 -0.0823314 0.061513636 -0.17369935 0.2662958 0.090228766 -0.23715629 -0.18243632 -0.080799155 -0.0039623673
PEK -0.19798344 -0.0022502707 -0.25574934 -0.1341488 0.067727774 0.113745354 -0.23680378 0.25896758 -0.12196237 0.16842341 -0.036647093 0.129947 0.07770752 0.05985581 0.06750574 -0.20311983 -0.054229837 0.1843339 0.00022699065 -0.017324518 -0.17621008 -0.12636648 0.05877987 0.13980089 0.07576072 -0.37848184 -0.30149373 0.3751346 -0.14104877 -0.12058684 -0.13286793 -0.014248705 0.1287177 -0.12797536 0.08652273 -0.05153361 -0.31771603 -0.10236416 -0.13192138 -0.022519687 0.051722504 -0.08783028 -0.20415509 0.18511316 0.089392096 0.14909272 -0.19437431 0.44941318 -0.0025937592 -0.01182353 0.026035871 0.04018609 -0.021722782 0.05234449 -0.19033237 -0.04147189 -0.087517604 -0.35553402 0.3524965 -0.12140467 0.23452152 -0.037087765 -0.09456758 0.15808211 -0.1439889 0.15366594 -0.08246002 0.27680054 -0.019040303 0.05377585 0.044390127 -0.12151936 0.17557922 0.18406402 0.07066018 -0.13976254 0.112611726 -0.116866946 0.09961839 -0.09827883 -0.25921836 -0.34460723 -0.107356764 0.05153588 -0.10771913 -0.16271909 0.04591608 -0.07390208 -0.0051131546 -0.07665413 0.113491125 -0.026952429 0.069861196 0.10256944 -0.017772699 -0.031460814 -0.0966533 0.033607166 -0.0404702 0.011248854
ETP -0.48023075 -0.12510657 -0.085926466 -0.21961024 -0.09618926 0.19340442 -0.08007182 0.27604598 0.028446514 0.2250002 0.1216047 0.2521251 0.07441613 -0.11026563 -0.0890784 -0.24149287 -0.15034103 0.064730905 -0.11673329 -0.002592747 0.1258767 -0.117986776 -0.0014973297 0.0692498 0.083978966 -0.51198417 0.08414576 0.18488587 -0.18566783 -0.19748287 0.09984206 -0.0297455 -0.006448548 0.025200004 0.19552658 -0.042796586 -0.1447756 -0.01832847 -0.17416187 0.18233652 0.30010357 -0.1749255 0.07268395 -0.020223465 0.07726169 -0.1928176 0.095849134 0.0704884 -0.105131455 0.121789634 0.1781542 0.25070214 0.08258981 0.22290961 0.024785457 -0.30516392 0.03890149 -0.19897857 0.14482762 0.042752884 0.06019976 0.0893377 -0.05973783 -0.03162767 -0.24991664 0.0652743 0.010357123 0.10469202 -0.029093344 0.018220698 -0.070234485 0.15139669 0.05374243 0.18133858 0.37605485 -0.03760591 -0.040307898 0.0048089954 -0.003090355 0.074065946 -0.013144133 -0.2679726 0.07081702 0.18276685 -0.3095853 0.017716791 -0.4199309 -0.37425897 -0.12706627 0.12806477 -0.13227221 -0.04483613 0.36268213 -0.37582523 0.3091468 -0.112934224 -0.28768137 -0.05306124 -0.052985415 0.013347677
AEE -0.15464571 -0.118900135 -0.08750558 -0.22073264 0.025731016 -0.11016571 -0.1435822 0.3750755 -0.16991751 0.0023761308 -0.16093443 -0.059875757 -0.10651097 -0.16296576 0.033892814 0.003296594 -0.08870518 0.19809005 0.25177056 0.090684876 -0.03507903 -0.07696557 0.09883818 0.098636135 0.22981259 -0.2195495 -0.39459574 0.32708928 -0.030730579 -0.19928503 0.01999353 -0.0755018 0.0009800117 0.14651248 0.018806556 0.30179548 -0.14997111 -0.113551624 -0.10256055 -0.10555031 -0.21783257 0.062192243 -0.29860988 0.0664096 -0.106851354 0.10923568 -0.103107356 0.20563671 -0.15683612 -0.011199418 0.05867839 -0.027564557 -0.0068678283 -0.038648274 0.11872009 -0.18885604 -0.09489693 -0.46505737 0.17665891 -0.05603806 -0.037289727 -0.055790447 0.06597676 -0.08080893 -0.25047213 0.20923121 0.18061432 0.19973679 0.049131162 0.096243866 0.1546933 -0.19515076 0.080625825 0.19150634 0.02773092 0.0778317 0.00029676885 -0.19579996 0.015853876 0.058738325 -0.16460341 -0.059510957 0.22483206 0.12068186 -0.00037727278 0.17291385 0.10426341 -0.25401828 0.011208029 -0.21963544 0.1467346 0.036094647 0.0030436483 -0.08015154 0.030773094 -0.16343471 -0.18813063 -0.04392638 0.037933674 0.123123564
PAE -0.13191298 -0.1436374 -0.22841056 -0.050689608 0.037887175 0.156982 -0.23461272 0.22013369 0.059048392 0.33914632 -0.28448626 0.26670948 0.115495816 0.02109934 0.00032817823 -0.23319829 0.1263237 0.029056432 -0.009989651 -0.20940223 0.024912462 0.04329568 0.061760496 0.14349063 0.17754184 -0.3228494 -0.28489083 0.42185688 -0.21665527 -0.044350494 0.061480638 0.10945206 0.16901936 -0.04338527 0.11740471 -0.10293804 -0.13921538 -0.06279596 0.048552345 0.05601535 0.053921446 -0.14906226 -0.2968052 0.024316547 0.27511626 0.10949985 -0.19612458 0.2670469 -0.07833712 -0.13785903 0.049998347 0.17816028 -0.30730802 0.16105968 -0.12535526 0.009519486 -0.047175884 -0.24418546 0.2461822 0.052878138 0.21419026 0.14503354 -0.0245165 0.0720296 -0.11805444 0.032018967 -0.027873725 0.21840735 -0.06265172 0.15372036 0.03162777 -0.108337656 0.14579107 0.30472013 0.014363661 0.056590233 -0.038532596 -0.04280796 -0.13221763 -0.13512535 -0.099448234 -0.17779563 -0.13914256 0.13928203 -0.10050577 -0.03922754 0.06259977 -0.13257514 0.027644789 -0.19335133 0.14087103 0.054880574 0.15116413 0.002056908 0.033888593 -0.0047008004 0.08495174 0.10518659 -0.20878933 -0.08113065
TPA -0.2542986 0.12253873 -0.18124266 -0.093502894 -0.027987478 -0.07998426 -0.07457622 0.27735376 0.18944718 0.13902794 -0.0269046 0.2852942 -0.07485252 -0.027349146 -0.17714424 0.07989099 -0.2338554 0.34139842 -0.13076596 -0.009176535 -0.2781705 -0.2112352 -0.07117648 -0.046475112 -0.092376284 -0.49130368 -0.10118282 0.064465664 0.009724622 -0.21844059 -0.17462365 -0.24656549 0.23497929 0.064045936 -0.012563741 -0.13463596 -0.018035471 -0.1478116 -0.27148557 0.16868703 0.28501594 -0.019767115 -0.18891494 -0.09495851 0.18496987 0.013213423 -0.00550407 -0.044113047 0.048151962 0.08686342 -0.026508559 0.27952644 -0.11411701 0.11857109 -0.046527274 -0.168359 0.15975858 -0.18776621 0.3114739 0.066846624 0.05264589 0.20679672 0.10997009 0.028444646 -0.040007625 0.0661472 -0.03343525 0.05433638 0.012362941 -0.0843549 -0.14737165 -0.15589993 0.15924607 0.1267455 0.30735034 -0.11056911 0.10208315 0.008284862 -0.111316696 0.024975762 -0.089829125 -0.39514548 -0.0155802565 0.23189986 -0.44636708 -0.054640222 -0.37170142 -0.22026265 -0.19909543 0.021050142 -0.14842981 0.06472183 0.2830543 -0.3488128 0.42786822 -0.051491886 -0.23850453 -0.07193233 0.032444224 0.051815912
PET -0.510956 -0.05292531 -0.044536352 -0.12899566 -0.060424827 0.22213188 -0.01273416 0.20242111 0.050554026 0.2777003 0.08466623 0.29456726 -0.10226508 -0.013043468 -0.049518358 -0.1338376 -0.11513791 0.21712747 0.08477552 -0.24529834 0.11851135 -0.0027603616 -0.1673107 0.009994812 0.0071636303 -0.49810603 0.012737912 0.28462625 -0.12647708 -0.18865539 0.013502779 0.06849221 0.05352855 0.17774674 0.26034406 -0.10562757 0.048543904 -0.046298448 -0.2850421 0.21782675 0.2814645 -0.18110923 0.076596275 0.02537117 -0.021959303 -0.22670582 -0.0064734924 0.15891206 -0.12759458 0.15858851 0.09703601 0.43375874 -0.07099536 0.09729086 0.0753702 -0.35358858 0.29093018 -0.42376024 0.285171 0.013635335 0.03327999 -0.02516624 0.055927727 0.10778456 -0.15414065 0.0671606 -0.035583574 0.0859771 -0.13694237 -0.07958229 -0.21356292 -0.20806877 0.09532612 0.15202323 0.22110766 -0.10541858 -0.052775756 0.01059937 -0.12548608 0.040559 -0.126136 -0.2231269 -0.02315723 0.26044533 -0.2892181 0.10819821 -0.31316462 -0.31135982 -0.019744247 0.19832985 -0.16232786 0.020786656 0.15827726 -0.40071106 0.30038613 0.04352174 -0.14917548 -0.004856222 0.07367705 0.01846957
AEK -0.1389705 0.028062344 -0.24664713 -0.21188258 0.19316228 0.15562664 -0.01332949 0.33723345 0.15713625 0.14373843 0.099464715 -0.18885124 0.087087005 -0.016530678 0.016000008 -0.29342672 -0.090590894 0.14814082 -0.022813216 -0.15216565 0.14699934 -0.025301477 -0.09740472 0.11124811 0.11005328 -0.42565793 0.19799015 0.04291723 -0.2357165 -0.37908825 0.20617712 -0.2704044 0.03813201 -0.0018339482 0.08321772 -0.04893426 0.13522857 0.38787058 -0.09489758 0.102895945 -0.08771912 -0.14789225 -0.12674649 0.10311162 -0.030404698 -0.1543217 0.17791511 0.019876862 0.08508691 0.13115068 0.06831466 -0.08797921 0.022340178 0.19983387 0.0567188 -0.1059429 0.053209268 -0.45915848 0.0063974066 0.13289164 -0.05259064 0.25700462 0.13396707 0.09029236 -0.07357549 -0.032387454 -0.06366266 -0.052804254 0.096316785 0.01896 0.15075935 -0.13694511 0.16092254 0.26178595 0.14863567 -0.08782612 0.061679892 -0.0006095886 -0.1749383 -0.21736467 0.08271171 0.00073268806 0.02862456 0.0018179214 -0.09369294 0.20554541 -0.30825487 -0.29163247 -0.0848011 0.12776002 -0.15089092 0.075066 0.33271518 -0.13718033 0.18237373 -0.05753489 -0.24758257 0.06528549 -0.08072173 -0.047980297
EAP -0.44234365 -0.013327005 -0.075678214 -0.23448357 -0.076757565 0.10173987 -0.13939647 0.12917036 0.3186818 0.19526988 0.01265123 0.23795652 0.16359694 -0.16677119 -0.2193595 -0.22954722 0.08549882 0.15124004 0.16619773 -0.0574905 0.067040734 -0.02218003 -0.16087973 0.24929015 -0.033506893 -0.31402016 0.08798835 0.30806512 -0.075873636 -0.2728689 -0.027205346 -0.15754233 -0.04631209 0.008371242 0.26023155 -0.08114025 -0.17735422 -0.18663159 -0.26274937 0.14546925 0.23838407 -0.28862852 -0.061281636 0.00943019 0.10972802 -0.009868218 0.0022791096 -0.11228811 -0.043185573 0.033746775 0.08626479 0.40291765 -0.08081686 -0.024372343 -0.010272866 -0.16260016 0.15931459 -0.3093172 0.07411751 0.03795292 0.0055616535 0.26370132 0.031485915 0.120966196 0.07035654 0.048524644 0.005253414 0.08039222 0.19491078 -0.14089885 0.090553194 -0.09422833 0.167991 0.24558622 0.33810222 -0.010070261 0.16629414 -0.034131475 -0.22341219 -0.14999744 -0.25174007 -0.1863529 0.21665742 0.104559995 -0.28701425 -0.13094802 -0.3727745 -0.17019881 -0.15959042 -0.13090758 -0.20696211 -0.042316407 0.23701426 -0.36108306 0.29183492 -0.06670347 -0.113346554 -0.030957222 -0.1689367 0.07899303
PEA -0.3478788 -0.36702 -0.04727487 -0.20192 -0.1748145 0.35605425 0.048251387 0.44312698 0.07538584 0.2970111 0.13282488 0.33424586 -0.09152014 -0.16430633 -0.05525567 -0.12583023 -0.12343041 -0.05940197 -0.1261332 -0.0012342156 0.09942439 0.019101765 -0.080066815 0.06920535 -0.113086894 -0.5819368 -0.024348361 0.07908075 -0.064936735 -0.32866186 0.11474754 -0.085713714 0.05514951 -0.026561167 0.13235363 -0.1295812 -0.124135114 -0.08376075 -0.3088222 0.26890725 0.4031258 -0.085260175 0.0612743 0.012115944 0.17644952 0.0030441906 0.12664595 0.1548847 -0.20872292 0.18726179 0.14327948 0.2545505 -0.10767897 0.221648 -0.04125209 -0.3110761 0.1563417 -0.23101395 0.3580113 0.08519333 0.0015666351 0.29616597 0.010593439 0.023123961 -0.18158479 0.037625242 -0.12173436 0.0859732 0.011790453 -0.23702392 -0.017058637 -0.031745233 0.12561385 0.11322481 0.3565798 -0.2806525 0.030947268 -0.097710915 -0.019987604 -0.112155564 -0.028408498 -0.22235484 -0.032760423 0.16734086 -0.22082569 0.0539908 -0.34636146 -0.33749166 -0.22984841 0.07623188 -0.24491064 -0.03808373 0.42716643 -0.28928864 0.30712575 -0.0322041 -0.14062445 0.095182 0.06759872 -0.1782752
QPE -0.07176021 0.09980041 -0.24951978 -0.0134561425 0.1472208 -0.021709295 -0.41024694 0.08672034 -0.1918373 0.10899417 -0.33153275 -0.007595346 -0.029224679 0.16617067 -0.11976449 -0.12220252 -0.111381516 0.22933115 -0.08403088 -0.08961177 -0.14739713 0.08685731 -0.0968539 0.29681495 0.16237564 -0.2839836 -0.39925244 0.4874599 -0.24787761 0.09495029 -0.11145647 -0.018942121 0.18000554 -0.021934092 -0.15184411 0.16749644 -0.21442102 -0.028781619 -0.16413213 -0.03632068 -0.105544336 0.109547004 -0.33192834 0.24973151 0.12476701 0.00825689 -0.21977255 0.20138218 -0.03012184 -0.26491243 0.009597614 -0.08638899 0.058743425 -0.24357018 0.049468458 -0.07753893 -0.08960821 -0.36985627 0.2165978 -0.09865345 0.23652108 0.098871514 -0.09164934 0.04133137 -0.14979759 0.1818038 0.18248354 0.23963518 0.12665929 0.08886564 -0.11076692 -0.07140252 0.011224131 0.09935707 0.010553184 0.067682356 0.05145528 0.013421938 0.027844485 -0.097793065 -0.037408516 -0.3369435 0.09629837 0.05805762 0.016516883 0.018434038 -0.020614162 -0.03273411 -0.10217347 -0.06510369 0.0774612 0.2704742 -0.07842823 -0.11981567 0.07973814 -0.16745955 -0.3497645 -0.0617479 -0.0708361 0.3945409
PTP -0.546932 0.34374928 -0.24460912 -0.03896087 0.048011146 0.095137924 -0.20583166 0.48853514 0.04087233 0.092394635 -0.19835761 0.38457137 -0.2683769 0.111924626 0.087875634 -0.007928151 -0.4390201 0.5492418 -0.08390137 -0.23175551 -0.06215815 -0.18869494 -0.063346334 -0.07968158 0.06301469 -0.4793547 -0.161344 0.05932709 -0.020380815 -0.13905963 0.10900322 -0.14894952 0.16239126 0.22705035 0.27583373 -0.18929048 -0.05742337 -0.09814885 -0.0632135 0.14693435 0.29475012 0.22034599 -0.3078882 -0.2138762 0.042809293 -0.09448364 0.09363516 0.06511746 -0.021115603 0.08716685 -0.011303494 0.113438345 -0.056633882 0.076903805 0.27417237 -0.3396839 0.21245737 -0.39219323 0.20824172 -0.031353932 0.027314313 0.31100065 -0.07927229 -0.099027745 -0.19939792 -0.04249329 0.12822676 -0.12533881 -0.2378615 -0.078930214 -0.31640983 0.04419633 0.03002442 0.040628213 0.12383766 -0.078802295 -0.1762636 -0.058163993 -0.05664019 0.05397221 -0.050333902 -0.30493578 0.111416355 0.22825551 -0.31580356 -0.10797691 -0.284733 -0.22607851 -0.09075467 0.124616995 -0.25671422 0.01542565 0.2070966 -0.4379274 0.48891374 -0.20484278 -0.30091664 -0.15811992 0.05198015 0.2704748
PQP -0.020531451 0.14342748 0.008555759 -0.09188845 0.109114 0.007096108 -0.24624437 0.14361073 0.06747867 0.2613669 -0.17643082 0.06391925 0.057688918 -0.04583453 -0.06219937 0.0019771731 -0.06765022 0.20160373 -0.037423193 -0.11130356 -0.20300165 0.2538305 -0.01169519 0.1256251 0.23395637 -0.24179202 -0.0041246116 0.18797918 0.06310721 -0.1658239 0.17040475 -0.05610671 -0.009476183 -0.10851738 -0.05928875 0.02817926 0.0063896165 0.0595642 -0.16243984 -0.1562786 0.033410568 -0.16343585 -0.2908339 0.0039389823 0.07805138 0.11493693 -0.34900868 0.062281195 -0.17759272 -0.29834133 0.0424207 0.045258034 0.1565496 -0.11189394 -0.000277806 -0.18298072 0.044846285 -0.44990814 -0.109703325 -0.16865501 -0.04085782 0.08734473 -0.02448311 0.22102073 -0.11775921 0.048971094 0.19898301 0.43909037 0.21700403 0.033643622 0.085639305 -0.3193625 0.2324776 0.2802283 -0.15429392 0.1236182 0.057443533 -0.008171939 -0.16049956 -0.033229817 -0.124986246 -0.3122374 -0.09242924 0.035882927 0.082282946 0.23676682 0.23576853 0.013149001 -0.20026715 0.007074425 0.2882276 0.17912747 0.10242495 -0.17399073 0.18756272 0.1452637 -0.31230748 0.23428838 -0.1383302 0.24699949
NRL -0.19530435 -0.14134745 -0.07062523 -0.055033002 -0.24745354 0.06150909 -0.07168257 0.38347155 0.15287443 -0.1733959 -0.1858775 0.21173249 -0.2604734 -0.12660459 0.1291499 -0.19817086 0.054484602 0.23995833 -0.05917945 -0.074766755 -0.23887396 -0.0015668939 0.14934187 0.004425309 0.18183783 -0.36561677 -0.23772067 0.2538525 -0.43230373 -0.1923124 0.07594741 -0.12842116 0.22508916 0.06531638 -0.16592166 0.19098477 -0.03563544 0.23926707 -0.2692616 0.17527065 0.08867109 0.065499954 -0.13001294 -0.42898896 0.20658174 -0.06975994 -0.25360602 0.06599619 0.12435287 0.18772629 0.23181747 -0.0883629 -0.08949962 0.16349374 -0.46984336 -0.06264991 0.11725568 -0.142783 0.19961359 -0.13850126 0.124702685 0.1337184 -0.005271157 0.12793349 -0.042684592 0.033884164 -0.23084642 0.15839922 -0.067979656 0.10099321 0.14709653 -0.1360267 0.36265087 0.21262102 0.18464623 -0.16565025 0.24097274 -0.012568062 0.026294539 -0.013557383 0.117071085 -0.020944059 0.15569547 0.07112923 0.04226632 -0.14543085 -0.138273 -0.10083266 -0.15513581 -0.14932184 0.07228374 -0.020430898 -0.17894049 -0.19248359 -0.20469603 0.1587502 0.2256868 0.20578769 -0.19213355 0.07627862
QQQ -0.1982134 0.08841429 -0.11172882 0.08346977 0.015346317 0.13095778 -0.27161264 0.029260168 0.053034596 0.003796545 0.022135207 -0.13159275 0.16339765 0.28089076 0.029222472 -0.0015200138 0.046053685 0.120237835 -0.049764935 -0.22864465 0.2523862 -0.26021114 0.17130093 0.1537412 0.048627205 -0.24199627 -0.029246228 0.17161497 -0.18779099 -0.15647766 -0.041661453 -0.11933945 -0.0045266976 0.1260633 -0.065615214 0.088942885 0.1268975 0.47670504 -0.055178598 0.14543211 0.023512542 -0.16017498 -0.2958736 -0.04300474 0.0126522 0.17307237 -0.052466262 0.05847679 -0.113215074 0.21243332 0.06578012 -0.029682718 0.049047176 0.11013131 0.070962 -0.09085471 -0.102512926 -0.45440605 -0.08635924 0.03426867 -0.1335559 -0.038747244 -0.13949612 0.015030811 -0.06962174 0.020583684 0.18634388 0.37023 0.25429162 0.047365945 0.3545309 -0.08103416 0.05755625 0.22979145 -0.045049593 0.21291451 0.12965703 -9.396887e-05 0.29894906 0.04478375 -0.015901148 -0.06761953 0.19403857 -0.10530312 -0.05516428 0.030904775 -0.41650876 -0.26109293 -0.19687808 -0.030106321 0.054561235 0.26104414 0.386237 -0.24406438 0.089114346 0.36546993 -0.00041115517 0.16370319 0.03588225 0.2027207
EDY -0.12082803 0.2036723 -0.3410327 0.055141587 0.11064674 0.032267462 0.069125295 0.089546956 -0.05885375 -0.061389334 -0.14084996 -0.21148571 0.051019877 -0.06928725 -0.15019499 -0.22429307 -0.2802509 0.21630642 0.15554813 -0.08385283 -0.11074406 -0.08939937 -0.2434322 0.31014645 0.3629708 -0.33978954 -0.2112518 0.14292194 -0.18854882 -0.36937 -0.17439625 0.12427523 0.1419638 -0.00018626793 -0.006828094 0.24110477 0.13360642 0.3444422 -0.055653866 0.23492855 -0.08319444 -0.25084725 -0.17086825 -0.07312051 -0.100941576 -0.037562016 0.1032546 -0.11418302 0.022998432 -0.23062596 0.16662271 -0.06592189 -0.3213348 0.20751414 0.24248716 -0.1457901 0.13076398 -0.2410481 0.012351945 0.07500931 -0.013401759 0.22451726 0.04188256 -0.07024361 -0.036451433 -0.15940036 0.13999571 0.15405433 0.12818782 -0.08932019 0.23432703 -0.19167855 0.27639237 0.2899878 -0.015882086 -0.011895415 -0.07418891 -0.11139133 0.21879208 -0.053308405 0.053281076 -0.18261598 0.16246346 -0.22010529 0.090212055 0.041668437 -0.32340205 -0.004772622 0.012439917 0.024452318 0.17624436 0.13699846 0.26424065 -0.044853237 0.078728504 0.21682674 0.17645489 0.04751679 -0.13099726 -0.03296522
YNR -0.3351398 0.16911142 -0.20709686 -0.21884096 -0.08879778 -0.37070853 -0.046027716 0.41789988 0.08965285 -0.0858905 0.08644078 -0.08370646 -0.07233337 -0.12865187 0.023787405 -0.24472855 -0.0754079 0.29400766 0.043638553 0.28818437 -0.035293072 -0.2669282 0.13000217 0.18643305 0.14073336 -0.31983563 -0.16157411 -0.06110541 0.13568883 0.027760709 0.22048943 -0.027527854 0.20025517 -0.010298182 0.051477034 0.16293445 0.022515617 0.0677144 -0.12098008 -0.1549876 -0.11843067 0.13060533 -0.24790299 0.27587542 -0.04888326 0.034604426 0.013593445 0.045292202 0.010336487 -0.32329458 0.05299865 -0.096124366 -0.0724612 0.12018033 -0.13003525 0.055532128 -0.23812056 -0.27490932 0.33303398 0.085899934 0.08414317 0.21444157 -0.04494275 0.0020824152 0.0029791475 0.35259512 0.14944065 0.24873407 -0.076816894 -0.18752165 0.09907345 0.12861174 0.32505143 -0.09422789 0.07606935 0.2573166 0.080922425 0.05043035 0.2539602 0.19451424 -0.18688558 0.05698454 0.17088583 0.04989905 0.037441004 0.01586384 -0.0070109563 -0.22975037 0.17724252 -0.039491877 0.11898873 0.2222652 0.3150799 -0.42638186 0.31624246 -0.0034244617 -0.10263033 0.028555907 -0.039577007 0.15795551
EED -0.15249497 -0.022671174 -0.066385105 -0.13261516 0.020965392 0.055111334 0.04180377 0.18872163 -0.15965745 -0.024934277 0.002780572 0.21925834 -0.17606923 -0.2044891 0.0009023537 -0.05990842 0.05350114 0.020021405 0.08976432 -0.029478334 -0.35685873 -0.15973452 0.117377676 -0.02407583 -0.07604017 -0.24887544 -0.19641238 0.28217557 -0.33498377 -0.24719152 0.12646519 0.060182605 0.119112164 0.2336761 0.058772136 -0.13472453 -0.07119646 -0.013069799 -0.017364323 -0.077212185 0.02306178 -0.036604036 -0.37757832 0.041290354 0.08606789 -0.13596065 -0.10763255 -0.17110112 -0.103114456 0.007591515 0.09549347 -0.17372364 -0.2562332 0.12458227 -0.16304901 -0.089007884 -0.2049338 -0.41298622 0.17708413 0.00010856651 0.21907546 0.14327249 -0.0800862 -0.038550206 -0.09480181 0.11969295 0.07254031 0.19097163 0.14897679 -0.16721967 0.21433118 -0.018455984 0.22200502 0.30576113 0.21093492 -0.22975418 0.121208966 0.13001616 0.06625037 -0.027895443 0.08120894 0.11107501 -0.26856726 0.41433436 -0.4325739 -0.14251491 -0.115264915 0.017311662 -0.38446528 -0.33442405 0.23084138 0.2885703 -0.104872026 0.005014472 0.2222813 0.23565559 0.20415257 0.18223807 -0.13442717 -0.16963458
QQP -0.32448483 0.16645947 -0.23264894 -0.17239837 -0.2714968 -0.116235726 -0.12348726 0.5928173 -0.3620906 0.14087722 -0.11419738 -0.11135296 -0.18126066 -0.20584485 0.04110596 -0.18071789 -0.09007137 -0.020613542 -0.056281053 0.03746768 -0.09412277 -0.24052456 -0.08432045 0.11458035 -0.11284661 -0.21472535 -0.30326566 -0.20908944 0.024555288 -0.16387653 -0.12793994 -0.19402106 0.14801906 0.02770629 -0.12275589 0.34317964 -0.220368 0.1904489 -0.1426514 -0.11219572 0.0024434547 0.1556289 -0.3367241 0.20378092 -0.004535342 -0.056364104 0.100241 0.1058549 -0.14116088 0.058710653 0.010142295 0.054299295 -0.115143746 0.23498896 0.22675832 -0.22877428 -0.107995644 -0.41569093 0.23022577 -0.31618252 -0.11064828 -0.02452794 -0.05487196 -0.23217566 -0.30509618 0.44289884 0.054226898 0.10484466 -0.045268256 -0.012891318 0.018560454 0.1887208 0.09795269 0.10263012 0.10269833 0.48170382 0.2210312 0.12791596 0.13941975 -0.07132904 -0.18767303 0.10273792 0.28856558 0.0061904327 -0.055294495 -0.17732175 0.079659894 -0.042360116 0.15353476 -0.11817237 -0.12753834 -0.05335915 0.04709926 0.051086567 0.33278465 0.047865402 -0.2585901 0.049422484 -0.038967196 0.23792464
DQQ -0.20843175 0.080011345 -0.49943557 -0.035761908 -0.109423354 0.0117570385 0.008068428 0.29547718 -0.15721844 0.17379117 0.12438587 -0.0017058466 0.0653068 -0.093178496 0.16983949 0.13786024 -0.025680725 0.3879209 0.06179793 0.1481733 0.057843868 0.019587139 -0.18678686 -0.16689806 0.2176574 -0.3400626 -0.1328116 -0.05451125 0.019649934 -0.11111116 0.04926383 -0.029586576 0.25414154 -0.034652114 0.063759 0.49258727 -0.11522703 0.12577906 -0.11383762 0.08932654 0.22453865 0.10465475 -0.23907334 0.11078831 -0.041038968 0.10369711 -0.1928191 0.014531778 -0.06259651 -0.09807495 0.05923597 -0.07127673 0.021319756 0.06329877 0.06440758 -0.0068184673 0.020094281 -0.44595236 -0.08420825 0.11561498 0.062060397 0.1550639 -0.0375278 -0.16014102 -0.33981368 0.28981087 0.33574498 0.04259642 -0.0054323305 -0.044598203 0.23132195 -0.05415322 -0.01677693 0.028074842 0.18226765 0.06694289 0.26678902 0.23422219 0.24300677 0.10543919 -0.3681378 0.29100582 0.16150753 -0.010433831 -0.11966834 -0.067921184 -0.029853059 -0.10126066 0.13727386 -0.20025632 0.006367932 0.14113076 0.18689772 -0.104059085 0.19297914 -0.22170286 -0.070897296 -0.11450582 -0.16766636 0.23085937
QQA 0.045243476 -0.023257108 -0.020979827 -0.07733354 -0.34579465 -0.016762855 -0.09849976 0.30569768 0.0554941 -0.17631446 -0.11596612 0.12566604 0.12293344 0.06234446 0.083903804 -0.059270464 0.1992999 0.40763792 0.04339401 -0.33872575 -0.07532394 -0.09058659 0.08398893 0.05793386 0.2191965 -0.27583247 -0.10745104 0.16315626 -0.3370316 -0.32046372 0.08043173 0.04087283 0.28314698 0.09323656 -0.30569822 -0.09021052 -0.22444151 -0.052467357 -0.058300227 0.16962571 -0.041600056 0.09748744 0.045817092 -0.2670753 0.032424122 0.12911263 -0.16794159 0.18462223 -0.2974694 -0.0644008 -0.0049715214 -0.041380156 -0.22679089 0.117466815 -0.0652552 -0.24006452 -0.10947336 -0.24938144 0.30979878 0.14003423 0.2628347 0.13335353 0.050939683 -0.021439433 -0.03440129 0.18135084 -0.05909417 0.035233304 0.10185849 -0.25125393 0.40034133 0.015508046 0.25938228 0.061337292 0.5119985 0.011632179 0.16276924 -0.11623925 -0.15606803 -0.20745856 -0.0014289839 0.08254974 -0.18806037 0.15799929 0.19327755 -0.06252201 -0.09380703 -0.046541706 -0.0282636 -0.13739216 -0.013135873 0.20929326 0.16769774 0.041912585 0.17669588 0.2530728 -0.10441946 0.08457346 0.08500856 0.11268665
DYA 0.030389158 0.13961166 -0.19779147 0.03860701 -0.21816571 0.05267318 -0.062034108 0.6111741 -0.21714367 -0.062349327 -0.14884569 0.007680887 0.070382155 -0.004912712 0.0041242274 -0.16506292 0.0011288574 0.24935201 -0.04350055 0.17338131 0.25183102 0.03560631 0.060168676 0.032801725 0.08902918 0.01155659 -0.3146973 -0.038324755 -0.13049023 -0.036055576 -0.323067 -0.2087367 0.17933697 0.21134296 0.107431054 0.29040703 -0.015622199 0.21545449 -0.060738586 0.21039386 0.023215247 -2.4958594e-05 -0.14025827 0.15669376 -0.029973328 0.09712699 0.24482271 -0.08691176 -0.11890501 -0.23533964 -0.08309801 -0.13454002 0.050449926 0.02690481 -0.09417649 -0.27572495 0.16272505 -0.28415823 0.24409361 -0.07757301 0.13480726 0.14168397 -0.05946707 0.13714634 -0.2796593 0.49115163 0.011945758 -0.043023027 0.12545568 -0.1445728 0.091714 -0.14733808 0.203517 0.16023712 0.08156642 0.22609021 0.0071563195 0.11932911 0.08572133 0.12573485 -0.13716199 0.033856846 -0.089423016 -0.00947399 -0.18141921 0.031151026 0.077900216 -0.22729506 -0.18030803 -0.02552799 0.086535305 0.037606273 0.3266042 -0.4146499 0.25705764 0.018175106 -0.12087042 -0.07607141 -0.0756155 0.1855438
PKA -0.2688102 0.11607183 -0.19127125 -0.20130092 -0.18772362 -0.3501984 -0.14972913 0.51850796 0.046980824 -0.14131813 -0.03551276 -0.013335103 0.07624413 0.0038452693 0.072255194 -0.036296744 -0.0059469263 0.10980392 -0.18912727 0.13438953 0.06844852 -0.12883693 0.12414354 0.05147795 -0.032247823 -0.32205102 -0.10741535 0.023810659 0.14598916 -0.050683733 -0.11026806 -0.17033108 0.23228993 -0.07383376 -0.027608488 0.217859 0.09128599 0.019137394 0.0457425 0.27687317 -0.012196054 0.036070768 -0.074292645 0.05687523 0.056451593 -0.071202934 0.07726887 -0.118601516 -0.30038187 0.13857377 0.18359105 -0.08530499 -0.14299887 -0.03100735 0.072923414 0.081601284 0.12328944 -0.4095089 0.19844706 0.25411958 0.1125493 -0.081934504 -0.22030525 -0.16468069 0.037787087 0.2096356 0.166623 0.121382095 -0.013793461 0.09636787 0.28685793 -0.14524192 0.20158817 0.28816903 0.25454587 0.099136874 0.08257674 0.033207864 0.06581277 0.25473925 -0.096886635 0.2838419 0.07569457 0.1946222 -0.2270731 0.115137435 0.021994084 -0.21864073 -0.0423004 0.017883692 0.14547798 -0.17072079 0.086681284 -0.1336943 0.25084597 0.07440232 -0.19717179 -0.060801715 -0.191808 0.0024685445
QAE -0.06918156 -0.05769812 -0.25783777 0.021911215 0.11450477 0.080224626 -0.026870687 -0.05193327 -0.021620786 0.16248913 -0.071809165 -0.284155 0.11110488 -0.17423156 -0.18902679 -0.30416578 -0.12329906 0.17362936 -0.072487734 -0.07210197 0.13313831 -0.15334614 0.30324653 0.015788704 0.31236067 -0.143666 0.040889885 0.28538394 -0.00454217 -0.19704467 -0.08330319 -0.23424484 0.415372 0.24437375 -0.04082314 0.23166299 0.09705092 0.3327305 -0.01937473 0.20039871 0.15663977 -0.1973201 -0.015909549 0.019614898 -0.07795606 -0.10316879 -0.3280395 0.024245428 -0.21283764 0.05538982 -0.14027308 -0.2016991 -0.10176763 0.32744384 -0.13923606 -0.045655534 0.07397539 -0.41120085 -0.049862396 0.08906232 -0.036504675 0.0731177 -0.08004927 0.24773578 -0.0033509554 0.058587156 0.04524874 0.38530245 -0.031481512 -0.11474083 -0.1474439 0.046473403 0.20928286 0.22512256 0.11842495 0.0076207197 0.12291029 -0.14213988 -0.0012152888 0.056871064 0.020408422 0.02077694 0.15206954 0.119862154 -0.13770105 0.23021767 0.02357479 -0.20133641 -0.28228742 -0.2976552 -0.2961948 0.24794196 0.27932778 -0.03329303 6.658802e-05 0.18230385 -0.1325152 0.14178962 -0.20332582 0.16939773
KAE 0.08670287 0.084324606 -0.18785715 -0.27396613 0.0042368476 -0.070783 0.09942607 0.46777463 -0.053534746 0.077080995 0.21263634 0.0069456957 -0.0983331 0.048479367 -0.007054912 -0.19311352 0.0324987 0.17832394 9.5269515e-06 -0.19531973 -0.10016814 -0.19985455 0.23637691 -0.04434422 0.00022692372 -0.34882748 -0.055806816 0.15884815 -0.18823777 -0.15020157 -0.072890215 -0.20807536 0.60441434 0.008635956 -0.06150094 -0.05837316 0.0018098666 0.080479555 -0.22148965 0.10904572 -0.07525409 0.0030387538 -0.15773688 -0.018306365 0.050033346 0.026185026 -0.028026415 0.1460503 -0.25840512 0.010937876 0.17114328 -0.06918411 -0.31887123 0.031481247 -0.10539076 -0.13729906 0.0058744345 -0.058224514 0.059723362 0.013475423 -0.046510212 0.29223326 0.0514711 -0.037304334 -0.24567096 0.041163538 0.12668847 0.23334633 -0.07013756 0.14141323 0.092077985 -0.07639926 0.11992157 0.15515013 0.22825766 -0.163278 0.07245873 -0.15256855 -0.3776959 -0.0823792 0.08466389 0.305424 -0.11321857 0.023289774 -0.1385791 -0.048163466 -0.33058715 0.041783713 -0.16461831 0.007815617 0.16867481 0.09404904 -0.038475443 -0.27693078 0.15586804 0.2785219 0.3066677 0.06349363 -0.051447097 -0.024647238
YAR -0.1501863 -0.069579095 -0.36405036 -0.37594607 -0.13605271 -0.10065274 -0.2564239 0.25875968 0.12583032 0.004217443 -0.044452325 0.054696165 -0.12686813 0.18629086 0.208905 -0.29134846 -0.038546603 0.2444374 -0.07830719 -0.16809323 -0.08462978 0.019346613 0.18956126 0.17743352 0.19812497 -0.049724843 -0.16269097 0.33739692 -0.23810023 -0.27145472 0.06786009 -0.06420815 0.27751887 -0.036950435 -0.07994352 -0.097318426 0.06388689 -0.041874 -0.4483883 0.34998327 -0.041029233 0.2046573 -0.30450907 -0.06668308 -0.089472555 -0.023636997 -0.23926003 0.20674077 -0.15087035 0.23323788 0.10560323 -0.078264065 -0.12821506 0.23579502 0.0048100273 -0.037222397 0.12278939 -0.22815585 0.264389 -0.06781648 -0.06308267 0.08468086 -0.08861622 -0.09693145 -0.021694409 0.06374035 -0.16687486 -0.03962516 -0.04331881 -0.16821517 0.062311493 0.013131951 0.21910876 0.2666418 -0.086283594 -0.20731413 0.2176959 0.062085748 -0.09571757 -0.051866904 -0.1912809 0.17394525 -0.14975597 0.17107272 -0.0950356 0.006049104 0.10488088 0.17340556 -0.44760436 0.058353245 0.06331101 0.1564759 0.16948164 -0.114518516 0.06677814 0.0042442326 0.34489998 -0.061162878 0.06124819 -0.10716293
APQ 0.11089583 0.110508375 -0.2968916 -0.1112047 -0.03243548 0.068209134 -0.10803297 0.29303613 -0.20541243 0.011815847 -0.30352572 0.016902164 -0.15011714 0.1484643 0.07254671 -0.124353096 -0.18353206 0.17315604 0.11682829 -0.23131983 0.30542833 0.05328889 0.07606367 0.23225199 0.17733492 -0.33469746 -0.16083454 0.2851171 -0.2496923 -0.17175558 0.071596526 -0.05031741 0.20527226 -0.19804698 0.13003677 0.009689504 -0.15277676 -0.05576792 -0.10580338 -0.032487858 -0.023427945 -0.314542 -0.2520525 0.035536427 0.36568376 0.07287339 -0.39054185 0.15342669 -0.02457764 -0.13123411 0.12669152 -0.09925315 0.03581865 -0.1909457 0.07492084 -0.055882886 -0.1374018 -0.31733602 0.11709689 -0.035693157 0.23641993 0.08128119 0.0022779687 0.049716722 0.046879113 -0.06641394 0.019120868 0.41707963 -0.03410126 -0.06739236 -0.16527459 -0.30738428 0.04938877 0.19799723 -0.04599233 -0.03699483 -0.06344265 -0.08765891 -0.03451426 0.17243643 -0.074429676 -0.31275806 0.04838649 0.12110706 -0.018995503 0.006896699 0.2505037 -0.15771101 -0.023955699 -0.03225253 0.089344196 0.30979517 -0.07943095 -0.036481965 0.15106782 0.052007552 -0.001240138 -0.044657465 -0.043024257 0.22914371
SEE -0.11256622 0.25760335 -0.3320585 -0.04642787 0.024476005 0.17149307 0.060983945 0.10999491 0.079416364 0.28186738 -0.15407777 -0.051653787 0.09529721 0.01573571 -0.18301226 -0.24822521 -0.0055464916 0.13762753 0.058205586 -0.07804946 0.26229 -0.1333809 0.06761364 -0.034126393 0.093710504 -0.35764846 0.11633734 0.24673457 0.08209026 -0.46669114 -0.0014847055 -0.22425522 0.04714381 0.22387028 -0.075350545 0.0827826 0.15552944 0.17158633 -0.04012586 0.16654137 -0.2628526 0.008436299 -0.1458024 -0.058273066 0.03264907 -0.18930522 -0.055296615 -0.071762316 -0.079782784 -0.14323872 0.23064269 -0.19471192 -0.09763641 0.16425984 -0.12466362 0.17570846 0.011701554 -0.48534736 0.08894205 -0.09855539 0.12414526 -0.069293134 0.18894672 -0.005678661 0.022338487 0.092670456 0.21703677 0.32855818 0.112146586 0.17011108 0.07433602 -0.058830295 -0.0405174 0.09053137 0.07883509 0.101933226 0.2559064 -0.100109994 0.03151833 -0.1490261 -0.19489022 -0.14681105 -0.0011113264 -0.0028349205 0.11029981 -0.09976706 0.060762744 -0.37663144 -0.16519882 0.29836372 -0.19890647 0.17622109 -0.029636946 -0.14251402 0.3331368 0.08010139 0.092530616 0.32884347 -0.1791701 0.029480867
PPK -0.14618684 0.37365347 -0.3399953 0.13988143 0.105313785 -0.062864564 0.008400978 0.092219464 -0.0048954333 0.37762758 -0.10529474 -0.3512402 0.19127168 -0.0502253 -0.13327679 -0.2528748 0.15812354 -0.013343981 -0.027534472 -0.1097752 -0.024173584 0.036749613 0.15533632 -0.036811356 0.19583443 -0.32096654 -0.124676235 0.38526678 -0.073894195 -0.28353655 0.16126987 -0.003312614 0.22299719 0.07331522 -0.4171498 0.092207514 0.060595594 0.21456103 0.0683052 0.20085442 0.02416257 -0.14425 -0.029913582 0.2528905 0.039143756 0.11166952 -0.019030496 -0.1527989 -0.018074723 -0.057465557 -0.032150306 -0.0142733455 -0.019830294 0.114983626 -8.413111e-05 -0.36822897 0.06588535 -0.4637467 0.07510566 0.05861556 -0.07985619 0.044469688 -0.108094506 -0.21727215 0.11190581 -0.16342762 0.18723734 0.16014184 0.05435277 -0.062104817 0.07127757 -0.19914182 0.1707311 0.39310333 0.09259518 -0.053929843 0.20895943 0.09334765 0.17794372 0.21706398 0.10448441 0.05098472 0.29346663 0.005286781 0.33893746 -0.09315072 0.08324226 -0.14307562 -0.13626237 0.05864534 -0.030448684 0.074404374 0.1941323 -0.2915382 0.17178752 0.048546456 -0.03316444 0.22174825 0.065059215 0.098239295
QPP -0.18059112 0.15237644 0.15074734 -0.22470386 -0.10283212 0.24967647 -0.1032642 0.26347977 0.018500188 -0.091102436 -0.17467839 -0.06352637 -0.09771197 0.013140617 0.19196709 -0.2664996 0.13363467 0.28115684 -0.07005093 -0.14303817 -0.0018282766 -0.081772834 -0.024008228 0.15530507 0.1399698 -0.5051116 -0.21753576 0.42753077 -0.1650005 -0.37738737 -0.00037821653 0.15917318 0.08313986 -0.10590002 -0.2791401 -0.10364326 0.1679805 0.03236835 -0.25722295 -0.04047407 0.2834452 0.08857433 -0.070485346 -0.121088535 -0.10527324 0.17150563 -0.068951584 0.077726334 -0.018832812 0.24131273 -0.06411394 -0.2583152 -0.29767665 0.18285367 -0.25022116 -0.228019 -0.030489508 -0.32990247 0.11702856 0.07184711 0.2976797 0.17244749 0.07915794 -0.00853602 -0.01828051 0.056814056 0.011463739 0.06111525 -0.13126655 -0.07950582 0.15937574 -0.1792122 0.40734497 -0.052209333 -0.034755167 -0.09931238 0.48447934 -0.07513905 -0.068617314 -0.08710349 0.0586152 0.03140078 -0.34477332 0.16385965 -0.22460048 -0.22251043 -0.0032549321 0.059374936 -0.3390136 -0.28571594 0.030498464 0.14866403 0.03332693 0.09598764 0.10694573 0.19270048 0.30437112 0.15951888 0.14266622 -0.076100774
EEE -0.24304162 -0.10512291 -0.42600268 -0.13070452 0.03188854 -0.21136588 -0.0041931733 0.28196862 -0.05492009 0.20357522 -0.28341088 -0.1947761 -0.002931552 -0.14217071 0.04419499 -0.15332316 -0.27624738 0.21966125 0.180295 0.12209514 0.123490416 -0.13709895 -0.04644327 0.07318863 -0.05539269 -0.16975813 -0.17257166 -0.1161092 0.12825255 -0.19653977 -0.0028720172 -0.11467353 0.31933597 -0.06188779 -0.15162359 -0.05077451 -0.20868874 0.07801395 -0.1442374 0.15584372 -0.0041426998 0.14782032 -0.002084174 -0.018611457 -0.027869327 0.035427812 0.215654 0.0063798637 -0.05045617 0.01118491 0.1570652 -0.2558888 0.03294054 -0.09493054 0.06423228 -0.15445873 0.28448108 -0.2648623 0.06354364 -0.04871792 -0.1531438 0.13203242 0.067960516 -0.026943691 -0.29285583 0.26438683 0.13635491 0.33476317 -0.02292909 0.32453007 0.25480387 0.2595336 0.31855324 0.17005768 0.4532115 0.3238525 0.087563835 0.30807573 0.09954002 0.09811992 -0.16268562 -0.075077005 0.09935699 0.3121258 -0.15830071 -0.0088041015 -0.05603019 -0.22361241 0.106670186 -0.09008298 0.27304697 -0.0049533984 0.24707031 -0.22560692 0.21300696 0.060774095 -0.036433388 -0.2498617 0.10205379 -0.037067067
EEY -0.19753289 -0.03695486 -0.014758285 -0.3074652 0.07699635 0.10709302 -0.33404946 0.37951508 0.10905614 0.1679149 -0.07675715 -0.053467754 -0.14307305 0.1414617 -0.057610035 -0.2534844 0.023924861 0.20327206 0.115380995 -0.012821298 0.10918485 -0.27947405 0.27525464 -0.058458608 -0.030125987 -0.58950305 -0.22939253 -0.052730788 -0.14699782 -0.18050894 0.022996597 -0.059417848 0.30940107 -0.013179577 -0.12085829 0.05452595 0.05248437 0.07507324 -0.09709772 -0.15814179 -0.0151493065 0.104282714 -0.01764662 -0.10543795 -0.025384748 0.1301306 -0.13786818 -0.05656788 0.040047146 0.07931799 -0.055828653 -0.030959377 -0.0956252 0.2927669 -0.009041338 -0.26263377 0.30486107 0.11291635 0.36050335 0.17164294 0.23396106 0.2450959 -0.16517071 -0.20043306 -0.11484526 0.18333803 0.12519425 -0.041393228 0.18254188 -0.08308282 0.099725716 -0.122713745 0.19371954 0.31706014 0.3315441 -0.22239919 0.1689011 -0.04522224 -0.06478852 -0.22543722 -0.09616132 -0.16399626 -0.1363529 0.1924359 -0.17666571 0.122114845 -0.04115008 -0.047586605 -0.12563719 0.043618232 0.09294237 0.14837927 0.051619083 -0.005030311 0.030398663 0.34658217 0.17484394 0.12413492 -0.047084656 -0.14285152
EYN -0.101775944 -0.048418764 -0.16197701 -0.17588213 0.0262789 -0.10443663 0.03544752 0.32632166 -0.09900817 0.06273629 -0.043616943 -0.4529147 0.1600941 0.10148025 0.008947119 0.03656705 -0.13563752 0.17244859 0.2697679 -0.1567346 0.03494388 -0.054945074 -0.08854605 0.011943942 -0.11621969 -0.25786844 -0.11527601 0.23665068 -0.016970085 -0.22468793 0.15095454 -0.059799347 0.32774726 0.013042365 -0.26323128 0.025493545 0.05576222 0.42146277 -0.083661295 0.0754792 0.07209099 -0.2532654 -0.24174432 0.025895577 0.11543934 -0.44788194 0.10538376 -0.17126516 -0.11215235 -0.18768527 0.080100216 0.10829126 0.28721875 0.40540233 -0.1725282 0.09048409 0.056692045 -0.2979184 0.18224967 0.12639755 0.092683524 0.17400727 -0.2576532 -0.116677254 -0.19555566 -0.034680147 -0.0032860641 0.02547561 -0.009677125 0.081949964 0.14806964 -0.18863156 0.027420104 0.12450992 0.2341107 0.00031251373 0.17002459 -0.023169897 -0.094013676 0.09427775 9.825542e-05 -0.04816831 -0.039638024 0.01003452 -0.047505733 0.26315764 -0.29787138 -0.14441498 -0.15775192 0.018696781 0.010079892 0.0057563093 0.11144845 -0.13128328 0.081681766 -0.012385655 0.11502803 0.1889001 0.15555803 0.26590592
ARR -0.13689807 0.20675312 -0.2839957 -0.24449912 0.1699092 -0.0455698 -0.20718192 0.17198195 -0.046506748 -0.016231121 -0.12368695 -0.19187585 -0.2468961 0.17294255 0.039834403 -0.31984985 0.08664536 -0.07048789 -0.08563808 -0.12568884 0.08499528 -0.12842771 -0.13748182 -0.07800538 0.070890725 -0.23371899 -0.1082273 0.075813465 0.19124536 -0.3520149 -0.03559667 -0.16363418 0.08492281 0.020604309 -0.11436556 0.03314889 -0.26556292 0.24479641 0.099295996 -0.045784764 0.13892592 -0.29771432 -0.03665025 -0.03102019 0.076252945 0.07331028 -0.018865472 -0.031416982 -0.058727175 -0.06864641 0.08422499 -0.09952014 0.058303732 0.37872365 -0.3040441 -0.1635076 0.22933577 -0.50851667 0.12139716 0.24658945 0.14695612 0.21851933 0.28287175 0.07758854 0.0025227559 -0.1445352 0.037882682 0.019709738 0.034074962 0.076252036 0.045213703 -0.1253713 0.085967205 0.22417101 0.015958581 -0.114488386 0.043258112 0.14053257 -0.021835232 -0.16890341 0.09642413 0.36101592 0.031123053 0.07804817 0.08968919 0.11906973 -0.3266509 -0.21918635 -0.227277 0.07201983 0.15518413 0.21754514 0.05387827 -0.43377528 0.0047455477 0.30380902 -0.19679895 -0.13921066 -0.04862289 0.12490316
RRS -0.10777769 0.04027646 -0.23958473 -0.1428666 0.03321524 -0.066211134 -0.020306665 0.8216762 0.032902468 0.21053366 -0.22786467 -0.22874284 0.084758624 0.037044514 -0.0133419195 -0.04804602 -0.17806013 0.28967065 0.06601953 0.108174235 -0.033502623 -0.40632898 -0.3596819 -0.06259291 -0.0034714804 -0.29507348 -0.031466495 0.13641572 -0.06288686 0.088216856 0.06746073 -0.10780081 0.03067344 -0.24214397 -0.05649247 0.020911723 0.17495708 -0.010384558 -0.11813092 -0.014881469 -0.04080791 -0.08350529 0.042267486 0.0409929 0.011603204 -0.110713996 0.07594683 0.093980536 -0.11406177 -0.027566811 0.18583359 -0.07653756 -0.20697968 0.16324362 -0.06521539 -0.064325355 0.12295286 -0.2281019 0.18019721 -0.0839244 -0.13971135 0.08138087 -0.14854546 0.0005218862 -0.1371889 0.31924605 0.27256054 0.06104502 0.03600979 -0.14238828 -0.033848014 -0.15831915 -0.11338211 0.3826699 0.3771245 0.2715846 0.028853046 0.07590426 0.11868873 0.20673944 -0.01824153 0.2790608 0.3043901 0.04958479 -0.1797901 -0.05244338 0.124013 -0.15122733 -0.065582946 -0.01183538 0.095371865 -0.12763973 0.08528354 -0.1025196 0.2045886 0.28316706 -0.27628487 -0.3207704 -0.093389265 0.1998023
RSE 0.0137774255 -0.097764924 -0.24526599 -0.07427123 0.12700285 -0.24801408 -0.07777068 0.61527056 0.07333419 0.034116384 0.103152275 0.08776373 0.05740558 0.0091671785 0.02421124 0.010247683 0.26790693 0.13283443 0.037212666 -0.09653821 0.021054393 -0.2719335 0.059614856 0.2523424 0.161328 -0.4058442 -0.2530562 0.02879385 -0.15705356 -0.34821233 -0.08674002 -0.009188874 0.3275098 -0.009584674 -0.16658348 -0.11963835 0.041194588 -0.19976683 -0.25475702 0.12460911 0.05807506 -0.13286929 -0.12813152 -0.19988804 0.12668703 0.06722402 -0.030432621 0.23102689 0.07218136 0.19601047 0.027507136 -0.026429372 -0.20868212 0.22205123 -0.28748965 -0.16224739 0.31690195 -0.3908781 0.0201999 0.14957859 0.27836594 0.16883078 -0.039760213 0.2470899 -0.007970255 0.370948 -0.08819295 -0.013215599 0.060485642 -0.083229005 0.055289425 0.038217835 0.09558252 0.072690494 0.06107092 -0.040913876 0.37708756 -0.03745432 -0.1346789 -0.05890948 0.37984726 -0.08584045 -0.015011628 0.08722141 -0.2594359 0.12759791 -0.10862266 -0.08936536 -0.09898289 0.07211111 0.16614574 0.060258202 -0.14299726 -0.078938395 0.2315456 0.07766902 0.23621257 0.24083218 0.10855871 -0.17797083
TPK -0.56323856 0.105373204 -0.2903946 0.053337872 0.08330437 0.12753943 -0.23318954 0.32054695 -0.017561749 0.30007344 -0.087458596 0.31466138 -0.10713183 0.082868636 0.06978534 -0.21975178 -0.19624373 0.3487276 0.1796214 0.05342848 0.14894311 -0.09538357 0.02592859 0.104300186 -0.07678128 -0.61979014 -0.373699 0.1831604 -0.13842553 0.06872763 -0.099147156 0.1371369 0.14091459 0.22850162 0.24230571 -0.37417528 -0.117013335 0.021015577 0.14560893 0.09794537 0.2565916 -0.010975335 0.18418613 -0.13220422 0.06508702 0.18824223 -0.101568624 0.41274336 0.26358742 0.019109769 0.023480529 0.27459592 0.18922554 0.06951542 0.22920886 -0.38027632 0.049908984 -0.5940611 0.40162176 -0.012469153 0.13403223 0.1474289 -0.23258823 0.06687742 -0.023639165 0.050136894 -0.1868031 0.06345684 -0.30641618 -0.06474471 -0.3051941 -0.21895821 0.062706314 -0.009337081 0.28506967 0.11659092 -0.23569383 -0.012209485 -0.017526846 -0.12603548 -0.03034839 -0.18570414 0.012527627 0.17684364 -0.23427856 -0.06685772 -0.28232276 -0.22279485 -0.03236001 0.02619736 0.112894066 -0.09068281 -0.036523987 -0.1921824 0.32042012 -0.25654995 -0.4307411 -0.0985932 -0.03561466 0.016474364
APE -0.3389725 -0.26827526 -0.10154097 -0.21257862 -0.12514398 0.121380456 0.13478172 0.19745174 0.027388342 0.25226343 -0.25533107 0.21717866 0.2131593 -0.15007393 -0.07434019 -0.31294835 0.007980224 -0.09794555 -0.14731428 0.21945724 0.013326653 -0.18650016 -0.08041207 0.22599287 0.11389745 -0.50994074 -0.121476345 0.31810775 -0.06261461 -0.2217589 -0.2554359 -0.2609981 -0.05588405 0.10393885 -0.004328296 0.16559888 0.036201663 -0.07621774 -0.15271872 0.16165185 -0.26943192 -0.079252586 0.021505496 0.101202615 0.31196046 0.02737398 -0.19256985 -0.032602623 -0.23325658 -0.06976948 0.06864142 0.5065473 -0.2738674 0.029436337 0.035396826 -0.09145871 -0.031093786 -0.12828456 -0.026141226 0.016362637 -0.09625688 0.15251452 -0.14206485 -0.102649786 -0.1188328 -0.040431857 0.03886534 0.09487903 0.20445621 0.024541777 0.113354385 -0.1342698 0.110499814 -0.057187293 0.13372557 0.07999008 0.31940925 0.1746554 -0.067864604 0.04747438 -0.088965714 -0.019368649 0.2231931 0.22305259 -0.18009739 0.25671595 -0.37169793 -0.15278843 -0.19959548 -0.3860674 -0.044711024 0.09274675 0.27613002 -0.46684957 0.2720548 -0.13264497 -0.19220856 -0.111162685 -0.14512871 0.047415167
TQQ 0.07712148 0.14076018 -0.019910736 -0.23541966 -0.1251672 0.1539184 0.17970563 0.23291789 0.072740726 0.08473012 -0.21588343 0.25377873 -0.1686673 0.08438043 0.02333456 -0.10325051 0.05162575 0.14637133 -0.003723834 0.09821545 -0.19005156 -0.052180175 0.009063981 0.018871563 0.17593804 -0.38303125 -0.42820653 0.30766442 -0.5147553 -0.43050966 -0.13078845 -0.010033931 0.1314266 0.09873406 -0.18456326 0.19253229 -0.16408393 -0.26478004 -0.38018867 0.14009403 -0.056936845 -0.10054486 -0.1847552 0.13981898 0.14200152 0.20294048 -0.11979004 -0.022462556 -0.105078846 0.3776774 0.0075342604 0.08641808 -0.29123276 0.3783719 -0.2672298 0.038398843 -0.14773065 -0.20802458 -0.025729377 -0.063850634 0.2066431 0.24658856 -0.17596972 0.056143146 0.24589308 0.033904627 0.07451847 0.021553744 0.088714726 -0.063783206 -0.01741463 0.1555376 0.07303185 -0.10542926 0.56756896 0.035452824 -0.029153896 -0.13470049 0.014422883 -0.29362836 -0.18776374 -0.06582953 -0.10724539 0.358169 -0.20975967 0.02267995 -0.023476588 -0.10785173 -0.36279958 -0.10431402 0.18892245 0.007072139 0.4506594 -0.2652904 -0.207282 0.044784814 0.28594476 0.3624205 0.20367528 -0.1692879
LTQ -0.18680602 0.025696669 -0.09985611 -0.21603137 -0.039218746 -0.10059082 -0.18591514 0.22240011 -0.32577914 -0.017834987 -0.17543785 0.07786551 0.09709439 -0.11707825 0.35926226 -0.23998053 -0.29776725 0.362863 0.3027812 0.100938775 0.11040862 -0.3804604 0.009716282 -0.14027938 0.10176049 -0.17409725 -0.3201503 0.14053136 -0.045165192 -0.24055913 -0.1344289 -0.051750105 0.09805135 0.16729327 0.006517865 0.25925967 -0.2175786 -0.002870119 -0.30107838 0.07355202 -0.045223184 0.34727415 0.020564089 0.2310657 0.041796956 0.11899176 0.3505372 0.1862617 -0.3340784 -0.15244673 0.2753592 0.36855236 -0.3056885 0.10137189 -0.2185795 -0.03763552 -0.17616168 -0.119742215 0.080443814 -0.2585738 0.10174283 0.51470315 -0.14788897 -0.075309455 0.015298279 0.14804743 0.35995498 0.031991057 0.18489794 0.067306384 0.00845197 0.027097348 -0.06833633 0.19314186 0.21601263 0.2934958 0.3014385 0.25713643 0.38937947 0.22619465 -0.048879724 0.033880677 0.14816009 0.029404372 -0.19849482 0.14913392 -0.011733579 -0.5107747 -0.025136342 -0.20345527 -0.10342836 0.01799512 0.1313183 -0.14262445 0.07381318 -0.24817206 -0.2364918 -0.1299484 0.08278277 -0.03741808
RLT -0.15421052 -0.20046657 -0.12733723 -0.038084485 0.24455883 0.29850885 0.10544093 0.035787784 0.27548197 0.37695605 -0.18936817 -0.28351566 0.06968181 0.07147382 -0.17937319 -0.15268147 -0.13299592 0.29949126 -0.11863032 -0.058810085 -0.06479776 -0.1417776 0.056456894 0.09344631 0.09505061 -0.42210767 -0.02997474 0.060580548 -0.18389256 -0.26275012 -0.12414402 0.18796897 0.24831179 0.30440384 -0.073326185 0.14370921 -0.101314396 0.013917798 -0.29525855 0.18784752 -0.048963327 -0.40015402 -0.038734466 0.29271924 0.24354483 0.3233525 0.10447773 -0.19782647 -0.29527876 0.09371495 0.56086504 0.1646397 0.080196 0.17973481 -0.35439473 -0.30683327 -0.22029057 -0.25646794 -0.035767943 0.112915285 0.006774796 0.20933351 0.024936188 -0.21053688 0.052137546 -0.014802865 -0.021041242 0.12698025 0.013664482 0.08134536 -0.0057122684 -0.034223244 0.15748863 0.07731269 0.059758358 0.23693614 0.033514306 0.055137165 0.15096821 -0.11861701 -0.118175074 0.006193058 0.023271995 -0.26574582 0.029024564 0.25952905 -0.08189952 -0.33559385 -0.16047809 -0.31112653 -0.065841295 0.07646568 0.15349051 -0.22057556 0.21442431 -0.115568966 0.03592183 -0.0048302542 -0.15706876 -0.015160577
ADQ -0.18021111 -0.036986414 0.078986086 -0.3463314 -0.061264016 0.0042828447 0.22824547 0.3527363 -0.2727328 0.4795552 -0.20227912 0.20770131 0.06892453 0.033515986 -0.24937493 -0.088861205 -0.13626175 0.20977332 -0.37783754 -0.052571822 -0.028548151 -0.06392799 0.031245979 0.18195097 -0.14277454 -0.49636242 -0.1424259 -0.033288416 -0.4524451 -0.59564966 0.28960997 0.12984121 0.09559424 0.37886918 -0.09205177 -0.18969227 0.037081834 0.036158085 -0.36216304 0.16559097 0.10224677 0.1295778 -0.04568339 0.023773244 0.087793656 0.5090305 0.06124017 0.34893495 -0.073609315 0.07135136 0.14240584 0.16446109 0.1553309 0.2004673 -0.20517014 0.05339323 -0.041713383 0.032685556 0.24134994 0.05729351 0.15420535 0.24461119 -0.20024823 0.07165334 -0.03217401 0.12819648 0.054485124 -0.10043709 0.5035942 0.1846747 -0.19605751 -0.098194085 0.12247321 0.21370153 0.3119981 -0.057139236 0.1693858 -0.049834665 0.27794427 -0.14756055 0.062175438 0.08740726 0.08798413 0.022743918 -0.321692 -0.010861127 -0.14366932 -0.32153994 0.080938764 -0.124575816 0.05205661 0.17735271 0.32145005 -0.37713003 -0.10404092 -0.20046614 0.04919747 -0.059064545 0.08040731 0.0717565
AEQ 0.123824544 -0.16653019 -0.20158784 -0.1990641 -0.095952764 0.0056996536 0.0718514 0.08604247 0.049391452 0.021653002 -0.16987534 -0.050340544 0.12180968 -0.15490274 -0.026092205 0.008966346 0.011185516 0.108634345 -0.0537951 -0.080846764 0.13181451 -0.052661385 0.22564708 0.24415271 -0.06743703 -0.33893752 -0.041784197 0.25554433 -0.09573991 -0.13909885 0.18231897 -0.18911472 0.07232584 -0.086988084 -0.08058546 0.32296255 0.061424665 -0.060052663 -0.25204548 0.3454107 -0.19126254 -0.23641527 -0.03748327 0.18590355 0.09650554 0.109519064 -0.04792256 0.081559844 -0.067363694 -0.21632 0.10279774 -0.020737706 -0.15664253 0.22373141 0.055572663 0.08424402 0.14830856 -0.33357596 -0.07054421 -0.003425875 0.22510646 -0.098241664 -0.004206655 0.004183129 0.07936441 -0.0009886572 0.1382841 0.23241927 0.13525574 -0.110103704 -0.0006181103 -0.28810114 0.3074482 0.03574935 -0.15168156 -0.07933202 0.20608218 0.27044684 -0.23379798 -0.08144886 -0.12362799 -0.11177353 0.2240347 0.36585695 0.2518379 0.04096135 -0.3479028 -0.04970024 -0.20928757 -0.28401875 0.013264022 0.044154856 0.023952298 -0.17871709 0.3525128 0.51416045 -0.12052795 0.04097349 -0.24341138 -0.047635574
APT -0.7218569 0.20864376 -0.17048776 -0.045766573 -0.19452928 0.22349769 -0.10926043 0.2271273 -0.017044872 0.18748303 0.21419023 0.4352161 -0.21487652 -0.15915585 -0.07321565 -0.28962106 -0.15888335 0.54190844 0.13028193 -0.20605941 -0.013025185 -0.10307054 -0.020361332 0.19018808 0.0951227 -0.5723789 0.13168472 0.15993547 -0.28781384 -0.02558043 0.12649915 -0.07472453 0.1452847 0.13690618 0.29463854 -0.30976915 -0.10338757 -0.21639995 -0.02074883 0.0922433 0.35347956 -0.056275588 0.017652169 -0.15347305 -0.08539751 -0.2265849 0.01256143 0.17549701 0.050536793 0.002031342 0.052588444 0.38634375 -0.14466827 0.17589392 0.2109596 -0.3694438 0.21927515 -0.59960663 0.2406734 0.18923718 0.06697442 -0.008558166 0.0150625305 -0.10057369 -0.21400432 0.19824398 -0.01894819 -0.051451273 -0.35940465 -0.013678251 -0.3658274 0.033680305 0.09540662 0.18963927 0.25500917 0.16502206 -0.11739189 0.04681466 -0.11922742 -0.070028074 -0.045526385 -0.2085997 0.07962687 0.3371433 -0.448699 -0.029477188 -0.4720129 -0.425141 -0.0079111345 0.22959974 -0.041345574 -0.12858093 0.3144944 -0.41611397 0.17890957 -0.21521105 -0.2875874 0.0043313825 0.1837981 0.20919248
TPE -0.72217834 -0.014693615 -0.15224144 -0.06270698 -0.09494545 0.20143521 -0.16729252 0.322513 -0.0933399 0.17392038 0.1457023 0.37501228 -0.30049634 -0.069748096 -0.19578716 -0.2659983 -0.16628355 0.46270418 0.0250427 -0.21846071 0.020579368 -0.23833397 -0.12977225 0.20845033 0.010788646 -0.520311 0.057140745 0.24764028 -0.16632196 -0.020704374 0.12960207 0.048605308 0.12695938 0.19716194 0.24561164 -0.20861565 0.14980996 -0.21226268 -0.19082595 0.29994398 0.41218022 -0.116935655 0.106582984 -0.07455089 -0.05328218 -0.23013435 0.1035792 0.15010592 0.123659864 0.07521986 -0.038221728 0.26515016 -0.16449195 0.24558349 0.17683452 -0.50021565 0.051717725 -0.54397875 0.2063777 0.051073596 0.15514053 0.08710661 0.29153642 -0.18708737 -0.10985154 0.18538322 0.0527084 -0.0859991 -0.34119317 -0.031924978 -0.14481002 -0.014827567 0.07048898 0.13180503 0.2398845 0.15975945 -0.23641713 0.10629345 -0.12172384 0.0598662 -0.09570541 -0.3316091 -0.07224258 0.25752774 -0.34416023 0.05150063 -0.35201645 -0.20904204 0.053257648 0.21633182 -0.099226296 0.025537234 0.3618373 -0.3327189 0.12667587 -0.26323593 -0.31554654 -0.11490862 0.086236335 0.24328183
KSA -0.48909107 -0.10332958 0.046449576 -0.19932333 0.1881007 -0.26836693 -0.15431477 0.5057716 0.030583402 0.27418816 -0.35387456 0.18038842 -0.356532 -0.2821186 0.07600982 -0.11024513 -0.42459664 0.07353911 -0.30472982 0.052491773 0.025106236 -0.2208249 -0.12142254 -0.054712184 0.13187793 -0.13126196 -0.23108865 0.1909903 -0.2543653 -0.20619066 -0.20966817 -0.04277901 0.24852666 0.1279646 -0.14011154 -0.12681773 -0.35690978 -0.001537629 -0.25361398 0.23912518 -0.13142431 0.07447694 0.01395997 0.18538922 0.21864434 -0.05450043 0.29219076 0.065083385 -0.113498844 -0.0279406 0.018758528 0.34756547 0.07692202 -0.016848324 -0.1414309 -0.20290977 0.1249847 -0.061975446 0.22441792 0.13170497 0.10655784 0.15314722 -0.05844591 -0.1969758 -0.047146093 0.1420502 0.3160734 0.12723684 0.12747195 -0.16794567 -0.03949667 -0.18298356 -0.17410555 -0.20705962 0.2958995 0.02784621 0.56098187 -0.15265626 0.35232952 -0.06592638 -0.02470432 0.0630864 -0.045411285 -0.17613238 -0.30950135 0.046057057 -0.288808 -0.245641 0.21318485 -0.18666138 -0.19858608 0.06890061 0.6256594 -0.39087188 0.17974468 0.10273701 0.079954796 0.024815578 -0.052216277 -0.087031476
EKS -0.24500151 -0.14986345 0.019164199 -0.21479315 0.04626862 0.2803836 -0.33172166 0.30130225 0.0643918 0.36823115 -0.105835825 0.017651996 0.040352393 -0.00060094503 -0.008035517 -0.1485358 -0.21694896 0.22457024 0.045948736 -0.07718681 -0.25094268 -0.22326227 0.07209576 -0.035697773 -0.22434072 -0.46674505 -0.27665487 0.17759998 -0.40370736 -0.22156225 0.12580088 -0.253364 0.27924395 0.30462888 0.12541966 -0.18274905 -0.17238289 -0.1527583 -0.12014748 0.2125535 -0.006812052 -0.17880023 0.07146283 0.053140722 0.27094203 0.082234144 0.36808842 0.06645996 -0.25360873 0.13834657 0.104503006 -0.045239348 0.14763227 0.5613789 0.028478244 -0.16909201 -0.024028715 -0.23377286 -0.14445224 0.054833546 -0.049379304 0.24452174 -0.27718666 0.27583146 0.023215277 0.16062565 0.18397298 -0.13630141 0.05659347 0.058339424 0.10039849 -0.3377352 0.38101116 -0.17544164 0.22058626 0.025219925 0.1859871 0.052840445 0.4627936 -0.20669435 0.0022795366 -0.02669645 -0.13343838 0.114905156 0.039576497 0.19625801 -0.3441557 -0.16854893 0.17540476 0.074527904 -0.4474679 -0.01569904 0.07041473 -0.59361213 -0.008154992 -0.10666811 0.12744313 0.09595425 0.21792841 -0.22599497
SAD -0.22650293 -0.27855283 -0.108879134 -0.08900036 -0.2176397 0.0902327 0.19960256 0.57249814 0.050527472 0.19869174 -0.056054752 0.14421849 0.051495977 -0.07109455 0.008806238 -0.2335584 -0.43431425 0.12043757 -0.19558547 0.14645079 0.14010838 -0.32986787 -0.006485146 -0.24228951 -0.2258899 -0.4568624 -0.3184672 -0.030722661 -0.16559608 -0.18009377 -0.14862624 0.05618281 0.21933796 0.3312837 0.06281796 0.02370752 -0.35315666 -0.12818831 -0.5990396 -0.047926772 0.2575523 -0.08521225 -0.18263061 -0.027489034 0.34855542 0.04350239 0.3154955 0.023480296 -0.05568705 0.1143132 -0.19906881 0.07873274 -0.13522707 0.11273137 -0.0455572 0.03404279 -0.117125235 -0.049717262 0.1532732 0.16686285 0.021475732 0.3230297 0.15976937 -0.2847425 -0.024671491 0.073038876 0.22549354 0.024775049 0.05005288 -0.14221534 0.22080433 -0.1704146 0.13776274 0.12424404 0.29090747 0.19660948 0.5746666 -0.23980504 0.31252018 -0.18384841 0.082310185 -0.026564615 0.06544259 0.07563028 -0.3279067 -0.25844955 -0.15522091 -0.383375 -0.09252378 0.04294065 -0.09511539 0.042304892 0.17679295 -0.59628284 -0.17408186 -0.27380902 -0.13455783 -0.25398454 0.32427427 -0.09570582
QPK 0.08175163 -0.07052317 -0.19657132 -0.40576097 0.13992947 -0.018829564 0.14870353 0.29269177 0.18368943 -0.06640721 0.20314756 -0.2089609 -0.11104878 0.041604485 0.0542467 -0.44515115 0.21344806 0.008400287 0.07296436 0.07934854 0.026230447 -0.2694043 -0.028880192 0.1914921 0.12135483 -0.39993232 -0.007420947 0.1985276 -0.34531552 -0.13087231 0.024758924 0.07255801 0.36168066 0.032957707 0.018522963 -0.025177382 0.11411118 0.16422325 -0.15490507 0.24282847 0.0643517 -0.12628397 0.020344676 -0.26418078 0.29768798 -0.008232003 -0.33859587 0.081062764 -0.04279958 0.1405857 0.038595393 0.19676743 0.10900626 0.006422075 -0.14216205 -0.07157406 0.013090633 -0.24931645 0.21555032 -0.026018992 0.22848749 -0.022986265 -0.28790367 0.12293637 -0.12241018 0.14936663 0.08623272 0.071453676 0.06333698 -0.049678843 0.064664245 -0.047868155 0.13559017 0.22212102 0.34747988 0.051553942 0.29134306 -0.07443985 -0.1662392 -0.1071755 -0.04582368 -0.02336808 -0.47078586 0.16937421 -0.06063251 -0.01643735 -0.054986827 -0.0069468394 -0.057071283 0.0023034902 0.317586 0.011381825 -0.098612 -0.32493377 0.13801126 0.24031949 0.057006076 0.037465543 -0.0569096 -0.31058177
QPT -0.45204586 0.42601252 -0.07953681 -0.1430579 0.15868336 0.15889668 -0.22327314 0.41933358 0.031968735 -0.046547577 -0.25490046 0.07600829 -0.16629145 -0.20287818 0.10453954 -0.054000787 -0.29800844 0.6065003 -0.22642577 -0.23771738 -0.10413861 0.23212983 0.015607893 -0.17261289 -0.07846591 -0.35013554 -0.25823 0.2564988 -0.09332359 -0.12585737 -0.31803814 -0.28477174 -0.118543305 0.18724136 -0.05788203 -0.29086575 -0.14769791 -0.23193564 -0.15048768 0.14891435 0.29452986 0.08386063 -0.3324244 -0.14051628 0.4475164 -0.008721804 -0.24325769 -0.06865811 -0.000570581 -0.12253211 0.1362819 -0.075215936 -0.026797263 -0.28578404 0.25972864 -0.2524072 0.07623274 -0.38500065 0.07635059 0.13859142 -0.08196914 0.514539 -0.36503464 -0.096423216 0.3120109 0.028947517 0.05743191 0.14603409 -0.059846245 -0.15300697 -0.08699734 -0.12101317 0.2560115 0.11134733 -0.07365422 0.033548947 0.29871017 -0.11424381 -0.13283737 -0.09605772 -0.10026742 -0.5758572 0.35935628 0.21809767 -0.045798577 0.084123634 -0.068660125 -0.12139753 -0.37143812 -0.102066755 0.0030396895 0.2693504 0.35156894 -0.27392936 0.4416425 -0.09978137 -0.0054363213 0.09293233 -0.15665597 0.53627485
EEP 0.096426904 0.05919036 -0.0930214 0.10776254 0.15321986 0.038951524 -0.39213505 0.09011606 0.10847793 0.17688735 -0.3158629 0.14678559 -0.1974355 -0.06635159 0.0757105 0.07897959 -0.3198896 0.13207407 -0.089745514 -0.13492389 0.0033737102 0.12548116 -0.035972904 0.15210423 0.41671988 -0.41009697 -0.2420011 0.41072085 -0.04444899 -0.12081616 -0.08321317 0.17962445 0.42073512 -0.086410195 0.01764084 -0.20737134 -0.108566426 -0.06323765 -0.22099297 0.24807765 0.09560055 -0.30768093 -0.22581026 0.08510201 0.20763966 0.07711111 -0.09528447 0.18794318 -0.05364933 -0.24260353 -0.113768466 -0.24470325 0.20098922 0.18999231 -0.036659885 -0.0031198775 -0.6073417 -0.41219813 0.42982614 -0.04303162 0.0039238464 0.16630872 -0.011918497 0.008469226 0.05892739 0.13297689 0.29849637 0.45250565 0.450333 0.084094085 0.11456589 -0.23772457 -0.010208792 0.08534439 -0.23981449 0.1075663 -0.006564473 0.0077407076 0.1410698 -0.18839118 -0.19190548 -0.24772272 -0.10227403 0.27270398 -0.00033950093 0.34256095 0.16548541 -0.0074497503 -0.0026276384 -0.01766955 0.25551283 -0.17457409 -0.17968342 0.0038097992 -0.10831224 -0.085953884 -0.39751872 -0.10455687 -0.120448895 0.2898245
DDQ -0.012724763 0.034220267 0.021432813 0.007384549 0.06150999 -0.34957945 -0.107436046 0.07541243 -0.20318228 0.16466911 0.005403827 -0.377424 0.28239727 0.20424502 0.04130396 -0.13688977 -0.20935144 0.36569375 -0.12151206 -0.045657735 0.11726508 0.29636222 0.09251487 0.19734842 0.05896402 0.033716988 0.16279823 0.022997325 -0.29994845 -0.23853585 0.47414175 0.14268492 -0.10117333 0.455288 -0.09678356 0.032895654 0.16332303 0.44640625 -0.19784199 0.07531222 -0.06333467 -0.11439596 -0.35631382 -0.13839872 -0.2261991 0.3847596 -0.115616806 -0.122929566 -0.10361779 -0.32910782 0.04886487 -0.14988874 -0.32397738 -0.13416639 0.06676185 -0.12514023 -0.020139083 -0.63025445 0.23889866 0.0004419535 -0.06440854 -0.17083673 0.050050233 0.1922879 0.4026177 0.092013754 0.39919892 -0.13715479 -0.0471888 0.1387099 -0.11538783 -0.31173056 0.18501298 0.17140338 -0.17990306 -0.06069028 0.14991997 0.09555986 -0.17989469 -0.015072071 -0.077313036 -0.22899376 0.12280723 0.30898234 -0.1362266 -0.21776946 0.020480165 -0.044734377 0.037810575 -0.015003079 -0.022866186 0.04922278 -0.079569384 -0.35350034 0.03291366 0.31852323 0.0045622136 0.21114746 -0.33988464 0.5493568
KTD -0.19901304 0.09319036 -0.17734674 0.031144375 -0.011555571 -0.5452553 -0.28672323 0.43037936 0.003662132 -0.00020325829 -0.1632917 0.11308769 -0.047499098 -0.09659364 0.17507066 -0.14043503 -0.39039895 -0.103188545 0.13693985 -0.09699893 0.17029737 0.22069992 -0.0044773235 0.21496521 -0.15787505 -0.088513725 0.08742982 0.10822517 -0.03759826 0.013629746 0.33985192 -0.27797756 -0.04067679 0.16416866 0.048502058 0.07121462 -0.092690945 0.40750152 0.035086945 0.0615686 0.12925245 -0.04310443 -0.42999575 0.39210796 -0.34113368 0.24928643 -0.118039005 -0.038019206 -0.21260807 -0.09534902 0.07809009 -0.053361513 -0.24999657 -0.20239772 0.05146682 0.028682284 0.40810376 -0.5175612 -0.1841049 -0.48493966 -0.103976525 0.12873848 0.1223713 -0.11328131 0.20175524 0.38564822 0.41616684 0.16724388 -0.3313165 -0.49848968 -0.032966502 0.058864824 -0.040862586 -0.22748597 0.119555056 0.1586021 0.20453182 -0.17267388 0.012128089 0.43026793 -0.26243064 -0.08557155 0.056153845 0.05019434 0.057109013 -0.14553851 -0.045583718 -0.16399421 0.044640683 -0.011864694 0.31874886 -0.061781716 0.3757895 0.033102535 0.2520301 0.19680241 -0.08199448 0.2282656 -0.52684677 0.34205163
TDD -0.26672682 -0.038692676 -0.28796345 0.06856053 0.11330438 -0.13898893 0.017483143 0.29589126 -0.18658555 -0.099242404 -0.1613241 0.1509004 0.34941468 0.36427143 -0.00927174 -0.26494625 -0.06410926 -0.015165375 -0.12560575 -0.21435016 0.31074083 0.3274153 0.45682588 -0.19006747 0.17076108 -0.5036435 -0.21484418 0.57266814 -0.09659033 0.1291313 0.12709835 0.28131202 -0.09482271 0.119527034 -0.16754958 0.17111386 -0.04452962 0.30112204 -0.4128914 -0.08792422 0.09096157 -0.16040382 -0.25002366 -0.10696859 -0.07597917 -0.05422496 -0.32830927 -0.11995051 -0.13716216 -0.019414812 -0.13827598 -0.08396499 -0.47909725 -0.015304314 0.12966679 -0.10071976 0.08988187 -0.49517524 -0.29769817 -0.22872348 0.19827907 0.05553523 0.019868398 0.030631293 0.06384465 0.12777609 0.04318977 0.11829949 -0.22043626 0.0046269107 0.22543402 -0.20038009 0.2535751 -0.034907173 -0.14799386 -0.1851405 0.1897818 -0.37422884 -0.4948317 -0.23633125 -0.07480864 -0.2690649 -0.111603074 0.17037132 0.05346933 -0.18200698 0.028475692 0.25718558 -0.36044362 -0.020526566 0.37689885 -0.018838346 -0.12918764 -0.22099495 -0.047548927 0.26628533 -0.020607311 -0.0828569 -0.2756507 0.14356028
EKT -0.032078803 -0.017612662 -0.23016696 0.046232786 0.16426677 -0.31177896 0.0022411346 -0.041338176 -0.29788592 -0.19827032 -0.0784332 -0.10644973 0.057283152 -0.06510071 -0.19576846 -0.28782573 -0.11350203 -0.0033205913 -0.17943463 -0.14159152 -0.06576862 0.51369274 0.2272817 0.053323504 0.15104684 -0.35649258 0.29749155 0.37719128 -0.24007018 -0.3941293 0.07789086 -0.16182514 -0.1800074 0.07406123 -0.098677844 -0.27651384 0.08099224 0.20425294 -0.07517601 0.10928924 0.0038881197 -0.1954968 -0.38397026 -0.011495399 -0.13745025 0.22627704 -0.257511 -0.40191317 -0.10660044 -0.25589368 -0.24476881 -0.22649385 -0.046052694 0.11595211 0.19165796 -0.40827173 -0.027673945 -0.43783665 -0.15934092 -0.5070705 0.107219465 -0.062190168 -0.34055454 0.018525586 0.2846026 0.13379265 0.4964145 -0.052929312 -0.24761038 0.06827329 0.123407386 0.06489368 0.22670877 -0.082827404 -0.28817403 0.017589785 0.29488024 -0.1351415 -0.3236605 0.33491516 -0.15009376 -0.0646411 0.06101903 -0.08671072 -0.03627877 -0.0127762705 -0.27837178 -0.356287 -0.19341911 0.1215108 0.029374186 -0.18890825 0.21746741 -0.11149677 0.11912072 0.4312157 -0.005548853 -0.07538521 -0.47827786 0.52817035
EPT -0.23227288 0.2536837 -0.25778276 0.24428149 0.10884677 -0.057771 -0.4356335 0.22218475 -0.12858808 0.3538203 -0.307532 0.098462574 0.16864045 -0.09418187 0.10303717 0.028245458 -0.29452467 0.32723728 -0.081416495 0.11841587 -0.106309935 -0.01994851 -0.17513007 0.042749736 0.20266128 -0.2217915 -0.45611858 0.5293244 -0.083627954 0.003586487 -0.034241397 -0.10482575 0.050539955 0.027442826 -0.10549609 -0.023751577 -0.13703658 -0.2522107 -0.37217352 0.06428713 -0.18732136 0.11435914 -0.26354122 -0.31677696 0.098275535 0.090522565 -0.27441913 0.30541205 -0.15168273 -0.24183129 0.030283116 -0.18233685 0.062430438 -0.10341596 -0.031784125 -0.51663166 -0.48196715 -0.6564653 0.063644245 -0.19205189 0.21364853 0.07841858 -0.2414257 -0.13746838 -0.117649965 -0.04108592 -0.11681501 0.2544127 0.14481388 0.0071543567 -0.23839432 -0.27124605 0.032853715 -0.004672943 -0.018582115 0.042634714 -0.31084162 -0.15876186 -0.09675135 -0.045094367 -0.16846998 -0.35933635 -0.16962603 0.13344142 -0.2501381 -0.11859765 -0.22180857 -0.07292861 0.326683 0.0033899448 0.021569116 0.12291507 -0.021106005 -0.30561423 0.19700198 9.203893e-05 -0.43055376 -0.18170387 -0.09459448 0.061476626
TQP -0.18144774 0.03008042 0.06020341 0.21192937 -0.06247784 0.11316141 -0.5942841 0.19513494 0.11682413 0.1959261 -0.09193853 0.0063099656 0.03159069 0.061739404 0.18286893 -0.13286833 -0.038548227 0.17413571 -0.04835413 0.0343597 0.07561929 0.15469915 0.064527825 0.28342998 0.062467072 -0.27907002 -0.54786783 0.36867738 -0.33896214 -0.082929924 -0.16171354 -0.10387126 0.31247154 -0.21123661 -0.122240506 -0.08276127 -0.27586922 -0.34314296 -0.32122526 -0.15063606 -0.20653063 0.13516665 -0.4408206 -0.07264323 0.2142323 -0.04886596 -0.21247086 0.23696269 0.13754667 -0.1456068 0.061429255 -0.034491442 -0.014119502 -0.039538875 0.102559865 -0.18674484 -0.2682779 -0.5504109 0.15072565 -0.030196005 0.23526067 0.3598283 -0.26990587 -0.015035472 -0.12915786 -0.11422425 -0.14975652 0.27556923 0.10880699 0.0878246 -0.0011591632 -0.3604551 0.07583671 -0.054678474 -0.049022477 0.05709483 0.05918059 -0.025876135 -0.2613626 -0.15252016 -0.08587426 -0.2795051 0.057160713 0.2408825 -0.23789433 0.16841497 0.017581463 -0.14969613 -0.0139564015 -0.085061036 0.2132744 0.11261819 -0.031178344 0.08387683 0.17170694 -0.026178272 -0.4290589 0.16912638 -0.43536267 0.27620372
PTQ -0.14761159 0.23425302 -0.13468689 0.15264538 0.04661531 -0.012392104 -0.5015907 0.31072298 -0.06619921 0.17487201 -0.34673488 0.26244032 -0.070780724 -0.08006978 0.16893351 -0.055680152 -0.39805153 0.09293564 -0.025337115 -0.10890935 -0.055771824 0.19374782 -0.12326594 0.3297115 0.06304996 -0.3749257 -0.5919425 0.40736896 -0.36383247 -0.13975643 -0.040488124 -0.11793285 0.27788436 -0.13728839 0.0989904 0.0043266816 -0.08701475 -0.16879046 -0.33238038 0.0507002 -0.097960405 0.21663935 -0.2782179 -0.20211124 0.23809282 0.040585373 -0.42359433 0.44165176 0.0415526 -0.22847 -0.014704819 0.102871664 0.11140027 -0.058438785 0.17145568 -0.16906415 -0.12092858 -0.40565118 0.0502915 0.035043724 0.41897672 0.12341174 -0.24156678 -0.12492061 -0.08205542 0.04464952 0.046396486 0.32626137 0.039038308 0.122117795 -0.19722275 -0.024044404 -0.01080508 -0.015670419 0.05030004 0.12134704 0.054489985 -0.07932466 0.02792394 -0.18711008 -0.13985424 -0.34244078 -0.1067109 0.22952013 -0.273938 0.0371521 -0.0046482524 -0.13297732 0.055376228 -0.10241777 0.21264689 0.11711758 -0.10656396 0.10117252 0.025374595 -0.10922749 -0.5354888 0.09791607 -0.22417141 0.17036425
EET -0.33881465 0.00029824284 0.09215252 -0.16624454 -0.2645741 -0.10894512 -0.09700917 0.39178252 -0.18302387 0.19934668 -0.005022778 0.10817921 0.13463308 0.09957865 0.1557212 -0.09538853 -0.3098597 -0.0034320352 -0.16105649 0.19777969 -0.17563184 0.11492811 -0.17307511 0.12884934 0.052626226 -0.3764967 -0.022600366 -0.023971718 -0.10225322 -0.29751018 -0.21374229 -0.15907569 0.34953216 -0.004189536 -0.053078186 0.3024557 0.03661756 0.031697817 -0.40082633 -0.1633506 -0.21438129 0.11688054 0.1768883 0.3714583 0.042678453 -0.018871065 0.08330341 -0.054914325 -0.21960196 0.0970216 0.018201103 0.15596597 -0.2507351 0.08107024 -0.20047332 -0.35201547 0.23027538 -0.19090623 0.16155592 -0.20453426 -0.11705177 0.31538078 0.030423691 0.059600428 -0.17352663 0.31354362 0.12356855 0.16800839 -0.026856793 -0.045961697 0.38399103 0.15583307 0.06585663 -0.024515294 0.58613026 0.024170527 0.4685544 0.18131247 0.50586617 0.34873447 0.018445887 0.17841627 0.27793708 0.038684532 -0.34130678 0.012583886 -0.20971745 -0.25622448 -0.11489311 0.12323883 -0.15525593 0.35333097 0.080056615 -0.3762879 0.35825247 0.00050380616 -0.09051851 -0.44110918 -0.041404888 0.019778488
PAT 0.0012209921 0.21874145 -0.20436393 0.1797882 -0.04805829 -0.22079605 -0.31474584 0.29995137 0.22036126 0.3410266 -0.07411952 0.3853131 -0.4336357 -0.051107347 0.23125511 0.08771548 -0.39571372 0.26566604 -0.11567797 0.05932004 0.03641767 0.08788476 -0.33566618 0.022677347 -0.07710712 -0.4334561 -0.53602356 0.5130306 -0.28642574 -0.15723856 -0.11844472 -0.07859944 0.5085867 0.16343033 0.05233497 -0.3126966 -0.00391423 0.025123518 -0.30549705 -0.023354065 -0.18346043 0.19801733 -0.3387397 -0.18503997 0.20288768 0.010201007 -0.25913987 0.46254772 0.2795886 0.1161275 -0.18363145 0.024277057 0.23432828 -0.100655384 0.038151626 -0.12746741 -0.043821227 -0.3554887 0.17740214 -0.06940032 0.19994603 0.50841886 -0.39726305 -0.20885202 -0.05030826 -0.035879638 -0.17803527 0.4429827 0.122895874 -0.0684106 -0.14451288 -0.43265304 0.054465137 -0.062072884 0.19745706 0.02952726 -0.19624199 -0.08695442 -0.2726114 -0.19467285 -0.18109696 -0.19156542 -0.27172765 0.28335443 -0.2707284 0.18978441 -0.22667466 -0.2011199 0.164831 -0.00068703864 0.3096318 0.030279938 -0.26051435 -0.03883879 0.038637348 -0.046391558 -0.49113083 -0.13699964 -0.30684343 0.21181878
ATP 0.07899041 0.14338107 -0.17111945 0.078675844 -0.057476364 0.012540901 -0.29881227 0.34324694 0.15706328 0.35977587 -0.04381211 0.0633624 -0.3457365 -0.18210301 0.13744882 -0.07524477 -0.3323035 0.26038456 -0.05848218 -0.1283313 -0.094786406 0.24460547 0.003242864 0.044214793 -0.0151025485 -0.41822878 -0.4754309 0.47118318 -0.2557605 -0.03810842 -0.14007787 -0.18800434 0.5879433 -0.022990467 -0.00438891 -0.2990406 0.064789414 -0.15701953 -0.2606994 -0.18134697 -0.36384666 0.15418082 -0.1138298 -0.052706297 0.21900935 0.27285665 -0.19479525 0.5610029 0.2432391 0.1464385 -0.081619136 0.13832568 0.093247265 0.012763678 -0.11471931 -0.35066047 0.14425234 -0.4647811 -0.011488997 0.12463948 0.22730061 0.5185564 -0.35648212 -0.11474386 0.0056439433 0.060486075 -0.11772708 0.41215512 -0.062408864 0.15258902 -0.06532058 -0.37663543 0.21842521 0.025158832 0.086236514 -0.08232752 0.09540164 -0.083404884 -0.1721477 -0.35156953 -0.009439859 -0.32757747 -0.19895925 0.16113548 -0.10380513 0.049815428 -0.19868638 -0.07989551 -0.033082806 0.02062846 0.2934302 0.013087405 -0.19185832 -0.0049166805 0.041304644 -0.0054701017 -0.4233926 -0.054800563 -0.1450489 0.02060498
PAK -0.16426356 0.28560978 0.008500704 0.03999432 0.28059864 -0.07091767 -0.25944075 0.41460752 0.17507835 0.33966532 -0.21902822 0.2855671 -0.12646052 0.24967256 0.13192059 -0.15333314 -0.3649452 0.13399139 0.025141831 -0.13986713 0.022779452 0.26423076 -0.29616216 0.11777873 0.08973936 -0.54553056 -0.3392253 0.5092891 -0.20300823 -0.17595467 0.107896976 -0.11857884 0.40887526 0.17089444 0.22107011 -0.24247448 -0.0037852298 -0.19095568 0.11014601 -0.030742448 0.0723645 0.047896013 -0.27721453 0.01126473 0.28817955 0.08295246 -0.2603482 0.50864655 -0.00815774 -0.080322735 -0.15141986 0.17863613 0.1616789 0.0142151 0.47401133 -0.079622544 -0.033393 -0.3107007 0.15030828 -0.22149912 0.10922294 0.27154103 -0.36927485 -0.037978876 -0.24919224 -0.06011755 -0.17416453 0.04999551 0.0034242813 0.13976906 -0.039632656 -0.058131747 0.33218318 -0.07866063 0.071503356 0.08480319 0.047233418 -0.18801428 -0.15836278 0.05796747 -0.037689235 -0.057010725 -0.33374473 0.16950397 -0.11510658 0.12906645 -0.13830946 -0.38937265 0.087478384 0.06017438 0.10582101 0.10793723 -0.25386605 -0.25998756 0.36617327 -0.119772494 -0.82599556 -0.2569135 -0.19712816 0.03487265
PVP 0.030065738 0.14852509 -0.2847344 0.10900953 0.12160505 -0.28594902 -0.282127 0.2977083 0.081131496 -0.09193463 0.07260545 -0.40451333 -0.195456 0.18076128 0.050725736 0.0780842 -0.10965246 0.21750738 0.18038408 -0.035609413 0.29729173 -0.031044295 0.08383497 0.22711763 -0.18905118 -0.07822557 0.13843964 0.0076584504 0.025950948 -0.2622015 0.338337 -0.18563429 0.48125204 -0.20948796 -0.12432381 0.03886843 0.022726858 0.20491615 -0.28225997 -0.06630209 0.10381573 -0.06326072 -0.11454389 -0.13890056 0.21846397 0.23485188 -0.006463824 -0.5267169 0.17427017 -0.17746884 -0.0697341 -0.41175583 -0.07672079 0.10181261 0.3064716 -0.3634794 0.1075633 -0.51159275 -0.06820367 -0.09531223 -0.1350341 0.0400137 0.009208957 -0.0071431473 0.08693668 -0.004238776 0.04036129 0.02956486 -0.1169075 0.003945975 -0.0018499333 -0.47925165 0.19357097 0.27336073 0.13134705 0.12129581 0.20583081 -0.10531618 -0.09437099 0.09221269 -0.09111908 0.07489932 -0.19219688 -0.04608033 -0.1977977 -0.047545902 -0.15878318 -0.30251116 -0.113069616 0.16391794 -0.04468471 0.054444894 -0.008843454 -0.15488547 0.0013121587 0.1441095 -0.26079193 0.22422957 -0.105461195 0.33353144
RLP -0.31570366 -0.19753647 -0.14702252 0.19194087 0.34827387 -0.5771189 -0.16622478 0.2853603 -0.16562976 -0.1406908 -0.056961186 -0.21582364 -0.28509283 0.49382678 -0.06670158 0.021599175 -0.32748148 0.25195158 -0.13739993 -0.097238466 0.08176327 0.119978145 0.331839 0.08139015 -0.0749683 -0.123553954 0.38106582 0.014879623 -0.05872672 -0.25769198 0.24394023 0.020021403 0.18041617 -0.03942965 -0.11649487 -0.04802769 0.05569328 0.18655965 -0.18385382 0.12594438 0.16904068 -0.12497588 -0.1892449 0.16355759 0.2773176 0.4205785 -0.20998755 -0.520858 -0.030421896 -0.27857944 0.26728988 -0.07677913 -0.37349254 0.016494377 0.31525275 -0.32197297 0.110808924 -0.6003123 -0.09237965 -0.3508092 -0.20828709 0.08237501 0.11631738 -0.111741886 0.35719383 -0.04652575 0.15402365 -0.13702649 -0.19592255 0.095408045 -0.13409878 -0.2593415 0.07266985 0.046051096 0.23319782 0.025111137 0.30028772 -0.11942809 -0.17827882 -0.06508976 -0.15999165 0.032698903 -0.36568877 -0.13224992 -0.29746696 0.076531224 -0.1421419 -0.254482 -0.08241843 0.12323685 0.029946415 0.014995692 0.09598891 -0.014161605 0.25278708 0.26655242 -0.41422898 0.20533007 -0.46548998 0.3906175
PQQ 0.017882748 -0.043456994 -0.33335856 -0.14133394 0.09453688 -0.33064026 -0.11878947 0.30011982 -0.02600934 -0.18084233 -0.23877206 0.11358999 -0.20512068 0.42273825 0.11375983 -0.05412113 -0.015761286 0.023645708 -0.01843575 -0.13538599 0.031771384 0.055573408 0.38280562 -0.16015771 -0.014628913 -0.4255888 0.12023431 0.13926512 -0.31364444 -0.15957591 0.15789108 0.040095665 -0.032356024 -0.24100848 -0.053566813 -0.008264071 0.0069918656 0.3452769 -0.34006307 0.012983263 0.08600125 0.006334625 -0.3970111 0.13030358 0.16597939 0.07380586 -0.31494144 -0.13863318 0.195471 -0.12680238 -0.03370114 -0.07775294 -0.54638124 0.120217144 0.23650032 -0.09667763 0.11525456 -0.46498594 0.04092519 -0.23487289 0.01372908 0.05842538 -0.09247409 0.3643367 0.38099068 0.050471563 -0.055977676 -0.077413574 -0.24474604 -0.026626296 -0.014146285 -0.21605952 0.18247752 0.19989845 0.22990888 -0.029611707 0.15125632 -0.19390954 -0.3487668 -0.29472023 -0.02131075 -0.36253893 -0.4364451 0.18024547 -0.22183499 0.064042464 -0.055381786 0.109274976 -0.17279698 0.18533997 0.41346163 -0.10576842 0.07001946 -0.041124426 -0.015685264 0.25612932 -0.32807803 0.22125912 0.0019554542 0.18443261
LPQ 0.03834282 0.04513949 -0.3845452 0.21059386 0.29896575 -0.42053726 -0.17486183 0.4642877 -0.093373105 -0.14650214 0.08861284 0.1401886 -0.13458887 0.09722295 0.2652924 0.0053311987 -0.22772145 0.28490743 0.19809026 -0.064585745 0.25168622 0.012025046 0.063476674 -0.03183032 -0.07136256 -0.074138455 0.10759805 -0.012674829 0.04672866 0.05355977 0.42901748 -0.20986657 0.1701353 -0.1302881 -0.1005931 0.014199063 -0.13664153 0.4042613 -0.10668083 0.047812104 0.18678346 0.15219821 -0.039364144 0.17929131 0.06640163 0.28399622 0.031012809 -0.2824245 0.0587342 -0.30004704 0.34050447 0.039104603 -0.4416466 -0.11321552 -0.013205206 -0.2805535 0.19352488 -0.44313693 -0.029335964 -0.4504432 -0.0723668 0.18388133 -0.031296104 -0.021379406 0.04380196 0.2762959 0.18900019 -0.074846774 -0.19429967 -0.09635755 -0.20612489 -0.22730151 0.07337152 0.23805672 0.20410582 0.13649943 0.30069467 0.11507828 -0.06954965 0.14532156 -0.15927878 -0.048577007 -0.22311006 -0.13821061 -0.2108783 -0.16325662 -0.20033582 -0.4008473 -0.2155185 0.020837046 0.26758435 -0.08800205 0.20692904 -0.00071378157 0.08168856 0.010702327 -0.30284476 0.33807147 -0.27371585 0.29336816
AKP -0.14037463 0.15262999 -0.0054383017 0.3028626 0.009789249 -0.12271838 -0.3003317 0.29599208 0.08048441 0.49862537 -0.28455928 0.23252122 -0.13452539 0.06728847 0.20409913 -0.08084456 -0.6184554 0.18926774 -0.32412046 -0.006940844 0.12356575 0.13197018 -0.16952427 0.121747375 0.09621851 -0.38671416 -0.3124191 0.37607673 -0.13809434 -0.059324 -0.08304295 -0.14992477 0.5410762 0.05688417 0.089980304 -0.43971837 -0.005081386 -0.11566805 -0.053185876 -0.25422505 -0.17601053 -0.023302076 -0.26643988 0.022012495 0.22894078 0.0440633 -0.19131972 0.3920674 0.19820957 -0.017723028 -0.2796713 0.14984468 0.099018745 -0.06572532 0.18155207 -0.28667092 0.14696214 -0.47868136 0.17329553 -0.0821257 0.21736124 0.34629872 -0.5167591 -0.24340466 -0.21257521 -0.00024314481 -0.27137882 0.32814816 0.04655361 0.13921 -0.2594065 -0.29553115 0.16702132 0.03909913 0.091956586 0.06666448 -0.007014421 -0.01116074 -0.15619305 0.103933 0.07567847 -0.2754953 -0.17369013 0.10038678 -0.3942775 0.040062875 -0.3120664 -0.1990974 0.1542249 -0.10272611 0.23964183 0.104957454 -0.14270142 -0.15297538 0.2992279 0.047028176 -0.7494647 -0.37061778 -0.28997317 0.11930308
VPA 0.030281223 0.04246033 -0.45642343 -0.087205924 0.10123506 -0.35989466 -0.13531916 0.4710963 -0.0830467 -0.11979101 -0.016356772 0.054699566 -0.19427465 0.005397427 0.22952235 -0.077716604 -0.113204524 0.25375858 0.18185075 0.009908173 0.1998095 -0.16966145 0.20637408 -0.02079992 -0.1361046 -0.16986515 0.107694454 -0.22080103 0.086489365 0.14072002 0.2901273 -0.17528632 0.18506403 -0.22080281 -0.05875607 -0.03617279 -0.07399244 0.55088747 -0.15528983 0.17441419 0.17827019 0.22023192 -0.17791615 0.13804173 -0.018110551 0.30407482 -0.06212957 -0.11954015 -0.013617454 -0.09311565 0.07552536 -0.07110339 -0.3783541 -0.017406369 0.06584233 -0.32025245 0.12571843 -0.56274825 0.074309886 -0.33950818 -0.044387486 0.11229767 -0.02407905 -0.21915975 -0.036627665 0.24937162 0.13363299 -0.1605353 -0.29722038 -0.106173165 -0.117530264 0.0051344293 -0.014996111 0.21509224 0.18578212 0.254644 0.01278039 0.07115886 -0.20392963 0.19703315 -0.18028902 0.086559564 -0.28838482 -0.18616994 -0.20787668 -0.1850919 -0.29358816 -0.2600294 0.05000378 -0.101625554 0.21790676 -0.11465112 0.13064127 0.02799717 0.19257882 -0.012224198 -0.34263608 0.06469761 -0.36468005 0.18673772
QPV 0.06190904 -0.16776341 -0.42660692 0.00046720373 0.15677561 -0.3520225 -0.014208061 0.36198354 -0.04464619 -0.17523716 -0.101263 0.103919245 -0.1744122 0.32404512 0.07873063 -0.030980872 -0.07564641 0.22415708 -0.119196005 -0.24268013 0.047113113 0.052460596 0.31000105 -0.010056273 -0.0527003 -0.47854918 0.108196035 0.13665149 -0.19541097 -0.101461485 0.27565357 0.07649358 0.15083502 -0.086964265 -0.19847246 -0.171617 -0.062323276 0.29745215 -0.14869457 -0.0015093607 0.091213904 0.014686449 -0.21524398 -0.009211934 0.104728155 0.17730461 -0.29524034 -0.15315983 0.10015048 -0.023796152 -0.036261205 -0.21028006 -0.46400124 0.0024104377 0.2304291 -0.0886566 0.19218275 -0.37418863 0.04197345 -0.15590167 0.09000853 -0.055034555 0.10246746 0.13851713 0.28853023 0.04595924 0.041361813 -0.08254662 -0.30908042 0.0015496152 0.06563315 -0.37923488 0.27806875 0.089042686 0.14180617 -0.16446124 0.2913537 -0.16654214 -0.4771759 -0.102900594 0.041368768 -0.14226045 -0.3935417 0.1467968 -0.1538081 0.033333458 -0.12427202 0.013236907 -0.23062612 0.12416817 0.36642247 -0.077361494 -0.014578101 0.08130225 -0.03467593 0.2531395 -0.2140048 0.23703162 -0.07820314 0.25954825
EPE -0.029487021 0.16991699 -0.18251997 -0.14621915 -0.043338932 -0.15845461 -0.12532333 0.46833667 -0.11408426 0.18873547 0.018600075 0.33343652 -0.0791336 0.20368938 0.29589102 -0.048815586 -0.39350846 0.39046925 0.14085491 0.16207732 0.14485529 -0.24874221 0.05464306 0.32083583 0.0077475472 -0.15787432 -0.085303806 0.012259679 0.009265254 -0.07686172 0.28961545 -0.040910542 0.32817832 -0.02368646 0.019927097 0.096890725 -0.22212607 0.18097796 -0.2169142 -0.051673338 0.028385036 -0.078479804 0.24997333 0.14548016 0.06045962 -0.114591 0.03647994 0.011554098 -0.15225783 -0.14096935 -0.1832478 -0.13576704 0.056870475 0.13688524 0.15622446 -0.087073125 -0.2118604 -0.29872045 0.3030099 -0.048113726 0.39189833 0.057734545 -0.155794 -0.22570778 -0.33710715 0.25228658 0.114537664 0.29926813 0.09151061 0.06733887 0.09075275 -0.16017213 0.0047671157 0.3317733 0.33581597 0.5136159 -0.19493017 0.12567805 0.27485588 -0.09402324 0.12640534 0.42866188 -0.35970816 -0.26952392 0.07806135 0.24956049 0.03463005 -0.23636593 -0.04389262 -0.14199257 0.10611274 -0.15990682 -0.080667555 -0.14866814 -0.27189702 -0.19311257 0.078183755 -0.22063948 0.18093807 -0.2780792
PEN -0.11599818 0.2694044 0.014540833 -0.22969875 0.096803986 -0.18478517 -0.19893368 0.38224632 0.17580546 0.3131627 -0.15110107 0.21752174 -0.24864918 0.25810915 0.04519854 0.053427063 -0.32486182 0.40965986 -0.1005849 -0.061700355 -0.14248677 0.07502175 0.1531541 0.13726918 -0.014196865 -0.09798674 -0.04460109 0.13627258 -0.3112256 -0.27303445 0.21132746 0.0987501 0.41085112 0.08909165 -0.164041 0.24687922 -0.0022501156 0.03776279 -0.5356384 -0.083247855 -0.0003089492 0.019657992 0.10562162 0.13243008 -0.06960423 -0.15800993 0.122007765 -0.030515052 0.034705155 0.035342325 -0.24019505 -0.15381923 0.22155091 0.09321109 -0.104910076 -0.10199711 -0.024433449 -0.30075115 0.1274507 0.14743966 0.7565532 0.18659794 -0.010947554 -0.021301385 0.0068939356 0.011092509 0.17865722 0.31129563 -0.13302079 0.15845948 0.23983632 -0.21262982 -0.04651857 0.3324291 0.43077037 0.18118353 0.008799909 0.008445738 0.1957143 -0.40419248 0.40544385 0.32222033 -0.49581712 -0.3889567 -0.074355416 0.11981287 0.086893216 -0.051456206 -0.25748587 -0.10665238 -0.0013364474 -0.034419015 -0.046326548 -0.09125607 -0.31534666 -0.024704179 0.14525016 -0.021421801 0.16413139 -0.33531612
NPA -0.13037108 0.19065641 -0.1030593 -0.20266749 -0.015351441 -0.14261287 -0.15076432 0.60966045 -0.1963631 0.2321451 -0.083789095 0.3134146 -0.1963176 0.17381363 0.30871356 -0.08936071 -0.5202256 0.40540138 0.1428832 0.22117673 0.05903413 -0.18509024 0.06658387 0.30647948 0.02900555 -0.1875578 -0.056109868 -0.07548453 -0.0100439135 -0.10673545 0.33071402 -0.03551051 0.2772536 0.036226515 0.010873222 0.11518296 -0.15192652 0.185569 -0.27588522 -0.07672831 0.064369224 -0.10477815 0.2351029 0.16953836 0.022630949 -0.17393917 -0.03395833 0.048417695 -0.17907825 -0.050727572 -0.16532443 -0.18748109 0.0926762 0.10539563 0.13516013 -0.073374666 -0.20151463 -0.3341119 0.3683497 -0.04094054 0.3856807 0.12061518 -0.07683613 -0.2566382 -0.32739696 0.2743283 0.009287183 0.32477495 0.0007071912 0.03885531 0.0677317 -0.123293094 -0.042517524 0.27633452 0.36551914 0.50438493 -0.21900804 0.14075246 0.43397343 -0.09836123 0.2510961 0.35106364 -0.375436 -0.2868129 0.07339059 0.27269801 0.14883201 -0.2266599 -0.0303756 -0.12934278 0.060361803 -0.121295184 -0.11645317 -0.1181262 -0.27455398 -0.29816827 0.08996715 -0.2596261 0.15892203 -0.30805355
ENP 0.052248083 0.07999269 -0.18231542 -0.22452602 -0.030190077 -0.12700097 -0.18302657 0.22979109 0.25157794 0.33787453 -0.15288208 -0.12346788 -0.3627731 0.13323763 -0.167219 0.016495014 -0.41116035 0.42010993 0.03396964 -0.10066666 -0.0088768145 0.06969041 0.21060206 0.082029924 -0.11953707 0.027627714 0.0774697 -0.06477392 -0.10382416 -0.42756242 0.14913549 0.025952216 0.33517462 0.3094235 0.019560188 0.05302737 -0.1435554 0.005532769 -0.22273502 -0.16485679 -0.12930593 -0.16507408 -0.08784856 0.2644055 -0.12278073 0.17080843 0.26824078 -0.1410805 0.1706957 0.09276219 -0.16446756 -0.19141707 0.5865558 0.21900782 0.039094195 0.029674968 -0.017082721 -0.47723475 0.0166641 0.35393387 0.6575997 0.20767581 -0.11303019 -0.18897647 0.05120006 -0.13757332 0.27966827 0.30243498 -0.11582778 0.3498106 0.23254427 -0.33656284 -0.024918774 0.31353384 0.24027844 0.28470254 0.050833352 0.039613653 0.1748211 -0.24887922 0.4152287 0.42467234 -0.29066104 -0.5068982 0.07147593 0.15021443 -0.039242677 -0.2007521 -0.32937494 -0.06685436 -0.07215804 -0.10498942 0.13401821 0.09806664 -0.34739682 -0.035528578 0.0961263 0.0743251 0.07358629 -0.11535419
YFY 0.15319161 0.058032498 -0.30712044 -0.46324474 0.07797014 -0.28720582 -0.027662903 0.65501297 0.012834518 -0.15440188 -0.049723137 0.16377789 0.0684121 -0.0058862465 0.36444464 -0.08375741 -0.1705244 0.17342299 0.15595199 -0.0298231 0.14987256 0.0015259731 -0.22512831 0.14876565 0.21830608 -0.36906654 0.25820678 0.15343602 0.08285119 0.23994935 0.16962679 -0.275683 0.1549648 0.06284127 0.04708533 0.19284238 -0.045251187 0.09229548 -0.0026040948 -0.004984385 -0.006499684 -0.2955032 0.10821709 0.25778744 0.46083942 0.14245436 -0.19586727 -0.21063283 -0.12188697 0.092283376 -0.18770112 0.24704206 -0.530878 -0.21348485 0.08054824 0.025073376 0.1072744 -0.38982186 0.36397955 -0.23543036 0.032075126 0.311835 -0.18615511 0.01628327 -0.46745828 0.7120283 0.18899675 0.14562537 0.028744774 0.22215018 -0.20902355 -0.046943955 -0.027752183 0.30901647 0.36602196 0.47360376 0.08740296 0.122015715 -0.19591977 0.38399318 0.15281236 -0.115252435 -0.15478902 0.35548127 0.273213 0.055624455 -0.2267328 -0.16031171 0.052745976 -0.32992718 0.04715207 -0.07295236 0.19948189 -0.25334886 0.18463609 -0.04223676 0.25702453 -0.33653206 -0.3103634 -0.12268134
GSM 0.20093755 -0.017877704 -0.3208443 -0.47707978 0.17596276 -0.23114286 -0.047101866 0.61464834 -0.028528651 -0.13400853 -0.07916866 0.18918957 -0.014845958 0.026521761 0.42281505 -0.100784734 -0.14593703 0.15969661 0.266516 -0.04162161 0.13449107 -0.026111605 -0.1846248 0.09945763 0.31015515 -0.4364052 0.23566732 0.21312243 0.046360314 0.2456806 0.2639592 -0.23427948 0.13208473 0.015602272 0.046830423 0.11069344 -0.06777759 0.12240721 0.064642064 -0.10990404 -0.032419734 -0.3202663 0.107681766 0.24971837 0.5302213 0.12951681 -0.21006581 -0.1904396 -0.0057508894 0.089561135 -0.29732737 0.26289356 -0.5865689 -0.10740279 0.11475458 0.0032139795 0.06182967 -0.33316255 0.47048783 -0.2634404 0.015690984 0.35013378 -0.15875833 0.059317425 -0.495866 0.737231 0.15730657 0.11730105 0.0645364 0.26361296 -0.22127925 -0.041216202 -0.010111678 0.3657029 0.3130055 0.4599948 0.08993447 0.16262655 -0.21515876 0.2786409 0.20593734 -0.22544998 -0.19995253 0.38495886 0.31346583 0.069309734 -0.22516085 -0.20235066 0.0137195345 -0.37330246 -0.008935548 -0.06299784 0.11531108 -0.2339176 0.17146796 -0.046865273 0.27894092 -0.35211822 -0.20198117 -0.2088255
NTD 0.20255859 0.037871283 -0.31586838 -0.5090369 0.09038625 -0.2855779 -0.066838235 0.56698394 -0.017959194 -0.15929718 -0.0681076 0.18308316 0.0102712875 0.014957419 0.38993406 -0.1048187 -0.14561783 0.17906804 0.16397975 0.003609816 0.10616747 -0.051881053 -0.16959637 0.20778994 0.22938792 -0.38265285 0.2950412 0.19149499 0.04578663 0.2511691 0.24439546 -0.26456103 0.16409202 0.013653906 0.045919314 0.11380235 -0.0377813 0.07066171 0.012973077 -0.032476876 -0.053326856 -0.27123964 0.07425185 0.2348646 0.4945687 0.13113338 -0.19151202 -0.26167464 -0.107923746 0.07443152 -0.22679114 0.22109443 -0.56838715 -0.1686103 0.08040597 0.027226048 0.060149442 -0.36114004 0.39218384 -0.24760385 0.076302744 0.27434668 -0.20514898 0.021705575 -0.4711709 0.7083344 0.19348927 0.097465664 0.018501434 0.2597486 -0.2978338 -0.07677557 -0.0092939045 0.30674386 0.26363316 0.48172396 0.03640558 0.15227576 -0.2454022 0.40127766 0.16724052 -0.10531055 -0.20427734 0.37577882 0.25073236 0.07924642 -0.23159902 -0.16797242 0.03836363 -0.38527763 -0.0024309093 -0.08118893 0.13474672 -0.25417867 0.16747387 -0.05564316 0.30241552 -0.3457842 -0.29106703 -0.15227845
