1016 100
LEK 0.16142388 0.21976455 -0.26331064 -0.23802501 -0.02665187 -0.36078516 0.082949005 0.46510103 0.050690398 0.33118567 -0.39017516 -0.24640469 -0.20487049 0.15930355 -0.19590437 -0.03012109 0.12499437 -0.36353856 -0.16487181 -0.4318882 -0.43250272 0.35751772 0.25277066 -0.19125023 -0.2762417 0.0341524 -0.1759544 -0.011974814 0.24763013 0.0381994 0.24858409 0.010351443 0.10667369 -0.15251034 -0.32497895 0.2009582 0.1489833 0.14853068 0.03588359 -0.16967605 0.17032178 -0.2858204 -0.0017777007 0.041780945 0.2859033 -0.10644539 -0.0924943 -0.14809725 0.001757695 -0.13245867 0.10262778 -0.002712168 0.18337856 0.34228918 -0.08044036 0.054955095 0.19909695 -0.113379814 -0.19957103 -0.059412863 0.07894282 -0.064610235 0.03377022 0.088315465 -0.009287565 0.24113546 0.034812532 0.2529912 -0.17364852 -0.0442875 -0.15823166 0.46165904 0.6053385 0.28050432 0.1742511 0.5021021 0.07990879 -0.25506836 -0.20540422 0.34437308 0.031691626 -0.59854424 -0.06500261 0.2351212 0.040654063 0.027311029 0.13922434 0.14070058 0.11512853 -0.18420278 -0.09554268 0.24140272 0.07598302 0.12008406 0.21414047 -0.051588047 0.16909482 -0.026489465 -0.11048272 -0.014838199
ELD 0.41851023 0.214626 -0.26660144 0.0010674581 -0.14168248 -0.27710313 -0.09571252 0.14975655 -0.42214474 0.27930567 -0.30757537 -0.36190775 -0.28967515 -0.02692589 0.18410139 -0.041334257 0.1796762 -0.49651086 -0.41617385 -0.57533926 -0.2611483 0.28233287 0.07050145 -0.14102979 -0.11508895 -0.20732108 -0.32405275 -0.18191436 -0.06135645 0.080629736 0.3935462 0.3581397 0.09519075 -0.17963575 -0.38921806 -0.10872362 0.22741558 0.077962205 0.16811365 -0.6202798 0.019828938 -0.075963125 0.1469765 0.15369722 0.4366154 -0.22564815 -0.13127735 0.18456277 -0.10780787 -0.1688113 0.16146505 -0.3328957 0.3915599 0.05539346 0.019213602 0.09371011 -0.059667204 -0.24861102 0.10981191 -0.07961608 -0.04296009 -0.18809548 -0.32422587 0.0617121 0.2152977 0.22297871 0.123672634 0.30451655 0.054093085 -0.12282586 -0.22658971 0.25767756 0.54679424 0.19220415 -0.04070944 0.07141999 0.24734837 -0.28911904 0.04916232 0.07252225 -0.0035750505 -0.32193717 -0.07262514 0.23894882 0.17049675 0.04945763 0.12848802 0.26450363 -0.0793402 -0.1149737 -0.30969244 0.5570757 0.1739463 0.05223751 0.530838 -0.15020397 0.38325745 0.04419464 -0.006948003 0.21498953
AEL 0.014047531 0.22055943 -0.2983114 0.06171137 -0.18499824 -0.23568569 0.20067878 0.41192558 -0.11413721 0.043893825 -0.34868836 -0.40677902 0.112476446 0.022414815 -0.055077206 -0.21038601 0.5693071 -0.39202505 -0.19987738 -0.41506916 -0.109780304 0.5297749 0.16182859 0.05710096 0.010068658 -0.06609886 -0.19376172 -0.13860577 0.26290575 0.3963382 0.21550018 0.09531263 -0.075093515 -0.17775522 -0.51474106 0.54260623 0.1583924 0.1908736 0.044083264 -0.2344694 0.0073415623 0.013922131 0.04127304 0.046913005 0.27349028 -0.1499004 -0.096233435 -0.0143813 0.0297212 0.0075581325 -0.07776993 0.14599536 0.22294533 0.10746639 -0.037154462 -0.018952983 0.13965164 -0.14537552 0.14719623 -0.04387359 -0.06391627 0.08986362 -0.013371624 0.064568125 0.26420143 0.43632942 0.07701278 0.22136347 0.1142874 -0.09185199 -0.06615187 0.6049599 0.6122846 0.08919803 0.045852747 0.37382656 0.07921546 -0.34432796 0.033167996 0.2570242 -0.06086472 -0.1366403 -0.2144605 0.11511876 0.24683249 0.19004606 0.27335605 0.113798454 0.006420549 -0.23688914 0.054949947 0.3053318 0.15257326 0.18940645 0.5490072 -0.012945137 0.18163498 -0.06683706 -0.042400625 -0.051140364
KKA 0.0807643 0.33896506 -0.59205604 -0.046181265 -0.11930242 -0.43390694 0.22085391 0.38262656 -0.32969454 -0.15169509 -0.49339816 -0.34764156 -0.18498057 -0.14783289 -0.04976806 -0.30542928 -0.20097171 -0.32193398 0.06270779 -0.44363183 -0.24234898 0.04454568 0.14499103 -0.051193368 -0.26241007 0.3119591 -0.09584696 -0.13436095 0.3705278 0.39057237 0.22846732 0.06097755 -0.2619911 -0.1381266 -0.08139075 0.03781927 -0.12873688 -0.028134461 0.071942 -0.11605516 0.15833978 0.00770389 0.24896991 -0.36681864 -0.030344822 0.025567086 0.097944 -0.23595671 0.07152691 -0.20115055 -0.3046732 -0.06660471 0.29262847 0.51810586 -0.21997012 -0.12434971 -0.04706433 0.01655714 -0.0016914383 0.14813794 0.4633569 -0.060306843 -0.078049 -0.354546 -0.09062822 0.5112488 0.37434536 0.25606307 -0.34175912 0.14949238 -0.20799758 0.47802454 0.33314335 0.10123223 0.3510437 0.3926283 0.2317476 -0.14816242 -0.09970784 0.52817506 0.15807615 -0.37251037 -0.018157266 -0.19131856 0.21608727 0.17986028 0.16690756 -0.03656542 -0.0015977973 -0.18078288 -0.08447811 0.2742196 -0.14259878 -0.34840348 0.17052804 -0.0089559825 0.14404969 0.14263864 0.01147518 -0.23319441
ELE 0.2600704 0.4650983 -0.4188173 0.08711876 0.07294017 -0.26402092 0.5071992 0.33426744 -0.14874965 -0.01205915 -0.48716143 -0.33951434 0.13951254 0.13881199 -0.25427178 -0.19332674 0.32145545 -0.58619756 0.08062933 -0.32629466 -0.588635 -0.15687858 0.2273593 -0.020935224 -0.112686545 -0.050210442 0.09875746 0.013970905 0.3842724 -0.045641277 0.2538832 0.122040786 -0.35012212 -0.07848616 -0.23770401 0.11667114 -0.05420447 0.2762818 0.14831834 -0.1350625 -0.14123285 -0.10869744 -0.028170187 -0.23825756 0.35834157 0.010220255 0.2756305 -0.10032711 -0.010557393 -0.104547225 0.12589519 -0.005906103 0.4346915 0.31747267 0.004484461 0.11705881 -0.056386564 -0.23640977 0.25674298 -0.18135609 0.20566367 -0.22241816 -0.31816995 -0.25296172 0.015026362 0.42300752 0.08097623 0.17804405 -0.34954977 0.09519289 -0.36511314 0.69032043 0.47358602 -0.059836112 0.11467621 0.4429265 0.010725601 -0.21781352 0.032694753 0.07441943 0.117443316 -0.37416878 -0.14011966 -0.025359511 0.2973749 -0.012601555 0.077765346 -0.026614299 0.009382182 -0.27034986 -0.04301096 0.37888286 0.12954332 -0.20516871 0.2678096 0.0026497492 0.052988924 -0.017732238 -0.07693815 0.07446775
LDA 0.1528527 0.2834196 -0.13854013 -0.07863572 -0.17858253 -0.16100623 0.2913842 0.602506 -0.230139 0.1458821 -0.35677248 -0.49604574 -0.4326515 0.08667988 -0.07469027 -0.4841144 -0.12508893 -0.3360835 -0.18979135 -0.44953257 -0.24999335 0.07710264 -0.13009316 -0.17628798 -0.47299275 0.072260804 -0.3980129 -0.18666963 0.10936771 -0.11012669 0.34139386 0.058553275 -0.058805533 -0.25032073 -0.4880122 -0.11161946 0.123457424 -0.021316964 -0.061422817 -0.13297592 0.012135434 -0.16541682 0.07803443 -0.05405979 0.446943 -0.05046881 0.016138896 -0.05010521 -0.14741047 -0.26673764 -0.083359875 -0.4715497 0.44575801 0.43628806 -0.16938625 -0.37851438 0.21684211 0.20681551 -0.09999492 -0.035310898 0.23346163 0.03251499 0.27684855 -0.11336189 0.12167738 0.2794491 0.15786508 0.3585523 -0.02191029 0.051688824 0.09447587 0.28142768 0.3490667 0.17133062 0.37244043 0.12411702 0.33950478 -0.39896035 -0.26769373 0.651898 0.25768858 -0.03280022 -0.22342804 0.3927274 -0.05155873 -0.38499367 0.5253149 0.0023120681 0.023764461 -0.4665548 -0.4531984 -0.04920111 0.16739534 -0.2069657 0.041872025 -0.029221088 0.087832786 -0.08637356 -0.10890349 -0.1789549
KLE 0.32974005 0.115356535 -0.08017178 -0.11415224 -0.30017826 -0.53925174 0.21516417 0.6337852 0.31178394 0.31441736 -0.3023281 -0.11961015 -0.20808941 -0.0016405991 -0.033067394 -0.13675591 0.30579883 -0.5263403 -0.14654092 -0.5239263 -0.42207307 0.053027213 0.3670362 -0.27307513 -0.30893457 -0.33365536 -0.3262401 -0.31332344 0.22101806 0.056165025 0.3070397 0.052914586 0.13513903 -0.0961438 -0.4769828 0.16164015 0.07232094 -0.14596288 0.41869235 -0.008539369 0.020852212 0.022643762 -0.083662935 0.24834196 0.15920758 -0.20553952 -0.14493078 -0.06105417 -0.14599021 0.25928733 0.14852756 -0.32363215 0.08379978 -0.43968612 -0.23919 -0.28078166 -0.14136374 0.07297406 -0.2983588 -0.23189975 0.31815606 0.06767067 -0.01202489 0.17886838 0.02110585 0.250147 -0.14223118 0.29917172 0.002866752 -0.034058034 -0.1495811 0.103539 0.5394047 0.17058249 0.19214669 -0.004335057 -0.020290203 -0.2684655 -0.09666377 0.1412045 -0.197528 -0.5026154 -0.33113366 0.032360554 0.14601569 -0.23042853 0.18398915 0.18989772 -0.0015169615 -0.11452611 0.105556466 0.23622215 -0.037991624 0.28116482 0.2052816 -0.53221565 0.23910137 0.26707298 0.25327203 0.2157107
DEL 0.17164454 0.40899888 -0.23195758 0.052082337 0.28988445 -0.3075991 0.03942806 0.32836452 -0.31927645 -0.16915555 0.03127918 -0.50610256 -0.07947038 0.26342916 -0.02619091 0.1308136 -0.1595475 -0.28051448 -0.041647173 -0.1506322 -0.10093551 0.28084508 0.09491334 -0.16147885 -0.2928713 0.6306806 -0.2498934 -0.08329492 -0.1877946 0.5155416 0.0027042406 -0.2433183 -0.39083022 -0.32526386 -0.49978134 0.046244934 0.06884239 0.06537993 -0.020768298 -0.120412685 0.013075731 -0.055826128 0.16690847 -0.051422678 -0.044611488 0.24728805 -0.13651761 -0.23321332 0.18633202 0.005701767 0.26000112 0.17057817 0.5803584 0.47553718 -0.13225292 0.16108108 0.22271919 -0.10843685 -0.033215202 -0.17625481 0.10627414 -0.039690543 -0.02612847 0.10409118 0.006143117 0.36015826 0.29530114 -0.17022964 -0.21162061 -0.16523665 0.011534958 0.48936284 0.30565682 0.04506703 -0.20480978 0.48161983 0.36389697 0.15009144 -0.14321175 0.31047904 0.42883486 -0.53883135 0.107331164 -0.2660333 -0.010772433 0.26428154 -0.05352201 0.19990826 -0.25780421 -0.16217524 -0.057284214 0.389109 0.17627054 -0.14775969 0.6052298 0.09471304 0.057007197 0.12238705 0.277606 -0.48150593
KAE 0.42130807 0.33325538 -0.019314757 -0.13491204 -0.119432695 -0.4074782 0.035914406 -0.024102362 -0.06921316 0.108829014 -0.28717282 -0.27496612 -0.10961076 0.051399067 0.07085114 0.08609584 0.107741944 -0.13604495 -0.23975267 -0.4562384 -0.30282277 0.37382594 0.6712514 -0.18015613 -0.22002229 0.059519365 -0.3081277 -0.1479064 -0.10037558 0.10910847 0.108905636 0.29511654 0.033233758 -0.081765175 -0.34851804 -0.18743153 0.32927454 0.21450876 0.02393789 -0.42197788 0.18386248 -0.09423561 0.27545857 0.022065982 0.44928473 -0.31549913 -0.34984046 -0.021497082 0.29310814 -0.20802419 0.117849045 -0.38480335 0.3578783 0.34898463 -0.083116084 0.35009006 0.020412574 -0.34142166 -0.26523936 -0.19094019 0.2696572 -0.515228 -0.2888897 0.19631611 -0.05094128 0.24815406 -0.03672802 0.34678236 -0.19750011 0.08736988 -0.23142101 0.22022681 0.42530656 0.3018683 -0.39453727 0.17549913 0.22928725 -0.31568256 -0.06781107 0.5984992 -0.1965098 -0.5400497 -0.10263316 0.22856902 0.16598175 0.2153062 0.08622402 0.8116893 0.19550277 0.09298086 -0.3468296 0.37959987 0.3322635 0.23061633 0.39959133 -0.12038569 -0.083938144 -0.097769514 0.040038515 -0.17294423
DAE -0.0065938784 0.21379559 -0.06850276 -0.22492522 0.13465989 -0.24699388 0.054499324 0.27910832 0.025894195 0.06622446 -0.107753225 -0.3537273 0.19845471 0.15879357 -0.047660124 0.11630498 0.1884895 -0.24285573 0.25057226 -0.29423535 -0.26299143 0.303826 0.042802736 0.08652226 -0.3794086 0.124049805 0.03665466 -0.025771823 0.30494797 -0.1094337 0.67268986 0.03231175 0.089763984 0.0058887075 -0.34889683 0.4144867 0.23679212 -0.13031237 0.1401611 -0.38409734 0.05856735 0.12501648 -0.06793803 -0.19701765 0.21448684 0.53817725 0.19823761 -0.7092987 0.06324243 -0.02238221 -0.047233444 0.23159002 0.41165584 0.07502629 -0.20360368 -0.12821727 0.61564946 -0.18788522 -0.118687294 -0.033318225 -0.06052311 0.14296076 -0.3077954 0.4652248 0.073128894 0.7072367 0.25563633 -0.21609338 -0.54051906 0.26026064 -0.12258219 0.5525012 0.48868582 -0.09588699 -0.0009907993 0.34161896 0.02493842 -0.19592437 0.0099066105 0.3415863 0.015596025 0.13130832 0.05688431 -0.5993539 0.037848983 0.118061006 0.26784664 -0.1089753 -0.31785485 -0.5659129 0.42121324 0.20871277 -0.3064908 -0.32894018 0.06570904 -0.31308198 -0.06113792 -0.034903027 0.038095023 -0.058809843
IDE 0.029518234 0.439664 0.24946141 -0.21803708 0.234737 -0.16077723 0.24038802 0.21585687 0.088769406 -0.3160998 -0.0050365604 0.14271505 0.3994277 0.12927315 -0.060804907 0.12627812 -0.121304 -0.0012507695 -0.028404715 -0.5805038 -0.33409542 -0.39827618 0.07855994 -0.15109378 -0.29346624 0.28763127 -0.10704901 0.20101462 0.28868243 0.5337334 0.024091568 -0.2626504 0.035418734 0.63663167 -0.55862355 0.15781504 0.1384946 0.045258015 0.15036431 -0.29594898 0.2723402 0.4469709 -0.28919804 -0.27991512 0.36828944 -0.058580227 -0.08827677 -0.23307069 0.022378273 0.06591864 0.013715209 -0.19783193 -0.016701218 -0.33046305 -0.253581 -0.3701863 -0.1898382 0.048156537 -0.3169611 -0.5620598 -0.035331376 -0.19886902 0.016693452 0.12903358 -0.41348162 -0.057690054 0.28884026 0.018841615 -0.13402684 0.36945716 0.22517762 0.0705183 -0.3028679 -0.11870685 0.060827516 0.039326552 0.044620704 0.0069993255 0.4279798 0.15397838 0.07230387 -0.17618288 -0.09847477 0.44110867 -0.3298002 -0.46148747 0.6262683 0.21399696 -0.04101447 0.04269515 0.07191318 0.028291991 -0.13091387 0.08770087 0.44095457 -0.16626163 -0.041261375 0.21460149 -0.25989437 0.22744884
AKL 0.040086757 0.38414332 0.12396857 -0.25381234 -0.012283917 -0.13251033 -0.3114986 0.16546954 0.27730396 -0.35894647 -0.08087382 -0.014388878 0.12358794 -0.3384366 -0.14173417 -0.062436454 -0.23120584 -0.26315895 -0.056533705 -0.64372456 -0.28484857 -0.36287802 0.021028575 0.09004948 -0.18065389 0.08784931 -0.1273634 -0.018515637 0.4139778 0.22458008 -0.1868948 -0.08198916 0.119544454 -0.028546862 -0.27377644 -0.025041271 0.27394766 0.087258294 -0.058890328 -0.5340231 -0.18283948 0.104992226 -0.21531099 -0.8901547 0.03495563 -0.14014913 -0.2256956 0.20353703 -0.023390228 -0.08514512 0.119254574 0.07775855 0.25498363 -0.40191612 -0.20187384 -0.12165149 -0.046065606 -0.2892548 -0.44856486 -0.18185851 -0.18317911 -0.3327282 -0.07509941 0.1574739 0.052441306 -0.17689031 0.21656072 0.28677535 -0.015002167 0.052853405 0.44056988 0.42447588 -0.24710636 -0.17671303 -0.073043875 0.09747568 -0.18133621 -0.22033721 0.36627412 0.20277816 0.044855516 -0.1534874 -0.19353244 0.7725516 -0.1655671 -0.38175523 0.41867247 0.40265736 -0.3592771 0.21372473 0.12691896 0.009356007 -0.20457911 -0.14814407 0.34619114 -0.25193235 -0.10520434 -0.15012035 -0.124413975 0.13068534
LEE 0.15166903 0.2606043 -0.10710439 0.20624557 -0.3951915 -0.61614937 -0.01983802 0.45628357 0.04537352 0.3335125 -0.49306992 -0.69630724 0.060716644 0.17408594 -0.17460966 -0.54431534 0.16463684 -0.2828454 0.093213275 -0.30960768 -0.083633594 0.21537101 -0.10074668 -0.35091433 -0.1236357 -0.10204469 -0.24775545 -0.3742743 0.43657893 0.14558202 0.5291953 -0.07051437 -0.26607245 -0.20889035 -0.7217357 -0.022242727 0.4282496 0.11737674 -0.037448306 -0.2959613 -0.38662457 0.18996193 0.040907547 0.21769743 0.5966577 -0.46142057 0.15338603 0.41376546 0.04671435 0.36728558 -0.24814977 -0.09904773 -0.13555206 -0.15674824 -0.18327099 0.42386448 0.22447385 0.05076051 -0.46054494 -0.046657875 -0.033996817 0.019452445 -0.14154318 0.24277104 0.38455895 0.28743842 -0.020764397 0.04976937 0.14857931 0.32080853 -0.28790894 0.46516714 0.46082765 0.5360404 0.050842173 0.21700412 -0.37617198 -0.57417333 -0.3105041 0.2811926 -0.12166847 -0.0611642 -0.40027505 0.4058904 0.034390595 -0.44231802 0.09732242 0.2983976 -0.12630378 -0.1227613 -0.22620545 0.099645585 0.3732507 0.07814114 0.30837432 -0.39606035 0.26317513 0.2033558 -0.052571733 0.45723662
KTQ -0.059204422 0.5054051 -0.35176626 -0.10581181 0.30705807 -0.49433032 0.4654513 0.07563758 -0.23529842 -0.0048236195 -0.30050328 -0.54453266 -0.085780144 0.023767885 0.046626903 0.3063766 0.32191935 -0.42923915 0.013258113 -0.12996492 -0.41805956 0.31375596 0.37295732 -0.088847294 -0.12541825 0.31998146 -0.40347958 -0.05575321 0.13770232 0.6012075 0.18068665 0.28735211 -0.50372225 -0.25916085 -0.2270289 0.21846522 0.20589422 0.0123048 0.35329813 -0.012966664 0.43161035 -0.18649091 -0.14397103 -0.17460613 -0.1153537 0.0787099 0.1433515 -0.15659265 -0.15445559 0.09558528 -0.053537853 0.088079765 0.27541554 0.5392893 -0.26118997 0.0798682 0.066489525 -0.06579085 0.12219528 -0.11450925 -0.026242625 0.3634726 -0.15920964 0.25333488 -0.16515253 0.41510135 -0.09363403 0.12989053 -0.2711114 0.3118939 -0.054266125 0.6274477 0.44158155 -0.14198662 0.13206403 0.55076444 0.29894158 -0.11565664 0.08600599 0.10137726 0.22086723 -0.18736817 0.2277544 0.15219614 -0.04468244 0.06997718 -0.27631798 0.024191463 -0.09391543 -0.39198494 0.07967432 0.35374132 0.10389127 -0.22393222 0.5124529 0.20672664 0.04807486 0.23078756 0.27830747 -0.07775362
KEG 0.049954496 0.2980179 -0.087375045 0.2420526 -0.19459812 -0.4889163 -0.11301261 0.28061196 0.23563282 0.50478333 -0.30331057 -0.22366282 0.0038667745 0.084242746 0.07525584 -0.35280034 0.55263036 -0.25993603 0.18496594 -0.15453881 -0.28169844 0.36847788 0.114092655 -0.087645 -0.34764093 0.21228318 -0.15767418 -0.23545226 0.0036235016 0.28829634 0.6287254 -0.067247026 -0.06793583 -0.032961845 -0.4279207 0.21541184 0.54564184 -0.13547286 -0.032070354 -0.09347071 -0.3656176 0.07815643 0.26405343 0.07269356 0.24200945 -0.32315987 -0.062477645 0.20593502 0.23000519 0.15134552 -0.27078155 -0.10985286 0.020340076 0.24440081 -0.012856585 0.103485644 0.2892852 0.09972295 -0.644987 -0.20605415 -0.14514941 0.1885346 0.053907085 0.27034357 0.26996705 0.7764676 -0.00474665 0.25347015 0.016453685 0.12946272 -0.23491608 0.43528894 0.45865017 0.31228453 -0.11256907 0.29371995 -0.21769625 -0.44416445 -0.1418018 0.347751 -0.11343325 0.07447186 -0.3340399 -0.14494318 0.070234254 -0.5242603 0.3338906 0.5107069 0.07882391 -0.4602502 0.25307688 -0.1350658 -0.23855609 0.32358852 0.15252855 -0.5366273 -0.24833678 0.018462703 -0.05338857 0.14109993
EGL -0.22297381 0.3022071 0.027657066 -0.14665756 -0.20625456 -0.007270027 0.4744393 0.10598034 -0.33693558 -0.09724162 -0.43491068 -0.31838673 -0.24145226 -0.30362022 -0.054512177 -0.328187 0.07161054 -0.47676003 -0.044213116 -0.68066293 -0.540596 0.11025349 0.20919293 0.020970527 -0.28273925 -0.09845461 0.114005186 -0.167581 0.3134517 0.13627172 0.07766407 0.32122996 -0.48379332 -0.48269942 -0.3075095 0.39055082 0.06478049 -0.047361217 0.13891122 -0.15360649 0.18784097 -0.09329333 -0.028883282 -0.2827666 -0.16266331 0.078620724 0.10230463 -0.015611393 0.11032174 0.06695776 -0.14830218 0.2258664 0.31963053 0.0476905 -0.1634913 0.01079544 0.663115 -0.4311288 0.40919206 -0.18591642 -0.6666903 0.08566653 -0.29507288 0.2559865 0.36721525 0.53968143 0.11807327 0.29008347 -0.024435751 0.19545016 -0.15480614 0.787967 0.49712035 -0.49093074 0.16863595 0.25405452 -0.10372719 -0.08569776 0.40671882 0.022003667 0.14410286 0.3959504 0.15734363 0.21331455 -0.08680161 -0.09169638 0.3330699 0.19407637 -0.47021562 -0.21033806 0.28141257 0.33599138 -0.052368205 0.18785924 0.1412581 0.17522256 -0.08369245 0.108384475 0.013259419 -0.098490335
EKT 0.5182073 0.22073841 -0.3443798 0.20852703 -0.46457082 -0.16196632 -0.081433296 0.548498 -0.20972392 0.23424083 -0.414234 -0.49824834 -0.3097316 0.07522947 -0.69440925 -0.70915765 -0.17452395 -0.12320678 0.14123854 -0.5961516 -0.19878481 0.287899 -0.048751507 0.12857649 -0.2849683 -0.15650786 -0.26791984 -0.15176469 0.20864184 0.0070868894 0.24968041 0.26085618 0.010810661 -0.30300453 -0.54260033 -0.090005554 0.15047137 -0.1882392 -0.28037706 -0.56079054 -0.009835157 0.011179143 -0.10595681 0.10745336 0.3400779 -0.33150265 0.19849844 0.07130725 0.28864637 0.15818806 -0.22963198 -0.26340422 0.16886929 0.27037296 -0.35285065 -0.2911103 0.15530528 0.33992234 -0.022497782 0.060310677 -0.07850124 0.29232675 0.22273163 -0.11878099 0.26608598 0.5192117 0.11050659 0.3702502 0.41815352 -0.18804276 0.2457957 0.50880086 0.58935094 -0.09042285 0.658243 0.0787831 -0.04516627 -0.5428923 -0.2379045 0.27598554 0.089438505 -0.1465874 -0.25594318 0.301821 -0.12100675 -0.35690737 0.31941694 0.3052805 -0.19627947 -0.42225122 -0.09050178 0.1979131 0.09136882 0.2452705 0.20016956 -0.44245923 -0.019823018 -0.2702155 0.2969273 0.06618483
EAE -0.047258675 0.47540995 -0.15108396 -0.2723959 0.1173811 -0.24891184 0.43760788 0.3734915 -0.27564085 -0.04011296 -0.15068577 -0.40032727 0.34304392 0.11989729 -0.35720202 -0.42284286 0.09257896 -0.50198746 0.0899023 -0.03772274 -0.5118378 0.14499211 0.20098275 -0.20471743 -0.0735487 0.04032528 0.015309426 -0.27593133 0.13844538 -0.05797918 0.3196265 0.3218656 -0.24547109 -0.07582248 -0.06033329 0.0526622 -0.09384008 0.2109803 0.20011131 -0.27506354 -0.13659485 -0.26566738 -0.49010125 -0.08996831 0.037638452 -0.26995045 0.08742595 -0.47260374 -0.25991407 -0.16889684 0.082957625 0.2713804 0.2513517 0.48147303 -0.34986863 -0.14953122 0.1406122 -0.44161686 0.24274805 0.05407555 -0.07885972 -0.1933657 -0.08615697 0.060918465 0.1549066 0.51951826 0.08237712 -0.0320898 -0.5540272 -0.09312815 0.050975055 0.50457054 0.6498866 -0.1649689 0.23017569 0.38175002 -0.046408493 -0.4000054 -0.078723334 -0.012696788 -0.06758458 -0.37084854 -0.2871417 -0.11212622 0.22105274 0.07937515 0.21770819 -0.03714209 0.0976555 -0.09649143 0.06721238 0.36554027 0.2720556 -0.06845179 0.4958883 0.1295011 -0.010256395 0.077181995 0.094328396 -0.037932813
ADL 0.15785806 0.5443453 -0.13778107 -0.37825534 0.19767244 -0.1110476 0.0015995929 0.23413254 -0.058321003 0.25636122 0.008505597 -0.07706687 -0.18411797 0.16757676 0.32256082 -0.53396046 0.124985434 -0.697962 0.0828749 -0.007797495 0.07925813 0.14725696 0.29780066 -0.2522491 -0.0339681 -0.111398295 0.120289825 0.21837121 0.112191 0.13061409 0.3478369 0.11902372 -0.49876133 -0.12903464 -0.23012267 -0.23217875 -0.47352245 0.15738048 -0.15467353 -0.48440915 0.26832584 -0.2425484 0.11382443 -0.029772209 -0.30957177 -0.19587845 -0.10925303 -0.02878672 -0.10272401 -0.34433743 -0.21971151 -0.19739328 0.13596888 0.20802522 -0.13704279 0.119398765 0.15635614 -0.5678541 -0.048934523 0.07616706 0.5013159 -0.3971285 -0.2441009 0.07226534 -0.4955928 0.5317968 0.12524486 0.15760897 -0.6341062 0.049282447 -0.5545647 0.7037812 0.019699948 -0.054228466 0.4011564 0.5744924 0.03059846 -0.15460657 -0.06919603 0.29690585 0.25982252 -0.42223948 0.16790201 -0.1270187 -0.1496404 -0.7343305 -0.50358355 0.31334037 0.11786186 0.046478756 0.055963118 0.74719906 -0.32902363 0.35666782 0.43253577 0.40512556 -0.10551996 -0.2023365 0.47936586 0.0029904114
EEL 0.15188077 0.41174176 -0.28118718 -0.4850602 -0.113735706 -0.080083914 0.6291962 -0.11351894 -0.21934463 -0.28552544 -0.6459728 0.13246927 0.23464262 -0.31500247 0.266783 0.04537936 -0.07612557 -0.2978626 -0.2707423 -0.65949947 -0.44220102 0.45460373 0.34675243 0.5592025 -0.09220438 -0.021180965 -0.16973442 -0.31624192 -0.2087478 0.4022052 -0.15263519 0.035580542 -0.3502352 0.07254176 -0.55239946 -0.12062579 0.091258526 0.00773303 0.3968307 -0.039211735 0.05827726 -0.15024675 0.03381972 -0.15880412 0.32655063 -0.0071920846 -0.25083348 0.021854429 0.14347987 0.12902284 -0.44134158 -0.1883159 -0.013131781 -0.23557438 -0.33417082 -0.03546242 0.25041205 -0.17191227 -0.15231927 -0.53134644 -0.22801498 -0.54468936 -0.0028236145 0.07503718 0.059112247 0.03459708 -0.25000876 -0.029641088 -0.120999135 -0.059376057 -0.25398833 0.46253085 0.7830287 -0.13237458 0.067305 0.28633752 0.051544346 0.19262528 0.3861686 0.09063028 -0.32733157 -0.17453396 0.05799331 -0.24673744 0.2502928 0.34478724 0.1733747 0.05198805 -0.2871657 -0.12308034 -0.09575548 0.5760577 -0.045265675 0.15778318 0.57637006 0.49120164 0.29359412 -0.06013785 -0.0021115527 0.041644525
AKK -0.27190295 0.44538876 0.6463906 -0.4310245 -0.006667762 0.18641497 0.15270735 0.628219 -0.16213877 0.13151999 0.1387246 -0.3241266 -0.17198679 0.21060616 0.6140561 -0.6620756 -0.26465526 0.28569585 -0.34252682 -0.14894076 -0.11640587 -0.074009 0.21734373 0.55102813 0.02392577 0.03920194 -0.27927387 -0.53569525 0.3493842 -0.16230287 -0.24623525 -0.06829166 -0.21264681 -0.6238455 -0.106373936 0.18993044 0.5641263 0.0007341481 -0.029973831 -0.52686006 -0.011840756 -0.14379199 0.43586013 0.035210054 -0.17134306 -0.086512566 -0.23947452 -0.3829505 -0.3049529 -0.39524072 0.31509474 -0.19859566 0.0044481503 0.025261667 -0.28145424 0.25787428 -0.25365922 -0.08996234 0.011062175 0.2341985 0.20633276 0.12064994 -0.059440937 -0.3008751 -0.20875059 0.30834264 -0.15678117 0.1697594 -0.12135393 -0.039939687 -0.19202434 0.71653324 -0.14855638 -0.14358933 0.026996335 0.6417675 0.2490262 -0.27604464 0.010802045 0.9410727 -0.021589154 -0.025012866 -0.24583301 0.11564057 -0.4019083 -0.14330246 -0.08520706 0.70652384 0.10489106 -0.3072354 0.2610005 0.22755376 0.5227325 0.54151064 0.6517745 0.3491924 0.45060933 -0.6223395 0.3286885 -0.26317605
EDY 0.7882835 0.46739724 -0.13014764 -0.04934915 0.26961064 -0.021980038 0.3875729 0.3044632 -0.10386348 -0.16482395 -0.2224674 -0.36017632 0.025140546 0.025709432 0.2826011 0.17248055 -0.1197667 -0.085775696 -0.0922831 -0.21533464 -0.22277291 0.110051356 0.23892455 -0.25693685 -0.5120236 0.00032102817 -0.22588287 0.13682544 -0.14377117 0.33635104 0.4028431 0.115766905 0.274611 0.014181694 -0.6058676 -0.18389568 0.3235559 0.27400914 0.17217863 -0.14639173 -0.13582079 -0.3708964 0.27800733 -0.061291557 0.3788161 -0.06530948 -0.09454219 0.09429219 0.027161993 0.02586438 0.18489636 -0.06918805 0.1558131 -0.04615163 -0.35565865 -0.32136667 -0.05727041 -0.21082067 -0.26271564 -0.24834773 0.12995392 -0.3134738 -0.35728064 0.2641235 -0.05660319 0.6376183 -0.02249935 0.010448957 -0.13702948 -0.21326269 -0.20856424 -0.024985947 0.42842898 -0.039748106 -0.06673991 0.36138716 0.13036032 -0.09148912 0.5250162 -0.032314014 -0.16336279 -0.4741054 -0.10436454 -0.6355648 0.37794098 0.30172652 -0.20984888 0.38301054 -0.11229078 0.034210406 -0.043749217 0.36484513 -0.23604406 -0.11560334 0.39083037 0.21490678 0.19780682 0.14325228 -0.09181776 -0.21217506
SKL 0.26924863 0.42788178 -0.03453402 0.07439681 -0.010313351 -0.30262548 0.40858328 0.3311665 -0.22757944 -0.27232987 -0.107837364 -0.4283076 -0.18109263 -0.13713552 -0.0015155668 0.059842076 -0.34972325 -0.51649326 -0.06845364 -0.6099526 -0.5682595 -0.25604916 0.38071394 0.39485088 0.34804675 0.28248304 0.020154018 0.1695279 0.11909111 0.53094304 -0.036783468 0.19565904 -0.17151897 -0.38015878 -0.49830776 0.1594622 0.09266724 0.11075134 0.23598862 -0.11923517 -0.003487801 0.04871772 -0.038219433 0.1703925 -0.028579261 -0.23734467 -0.18667398 0.16737643 0.07452957 -0.0058448 0.033284318 -0.16394225 0.16902731 0.049298067 0.28508395 -0.3576962 0.098829515 -0.34604236 -0.17116594 0.07339398 -0.3009983 -0.41637477 -0.099735744 0.12058062 0.16615997 0.060826562 -0.23663652 0.11949892 0.010135158 -0.37984484 -0.092287876 0.7966473 0.18424034 0.16198346 -0.024632284 0.26162884 0.3353852 0.088456616 0.5352064 0.20456283 -0.16318123 -0.35660893 0.2217682 -0.23629399 0.21449889 0.5742015 0.007303796 0.3607676 -0.24851969 0.12645721 0.015112741 0.16681401 0.1700792 -0.22343463 0.8650438 0.009428178 0.27921054 -0.048050858 -0.26223144 0.24293101
LDK -0.1276934 0.16489732 -0.11480696 -0.27488077 -0.08847881 -0.30594793 0.48865464 0.53921664 0.073598005 0.23388752 0.03984087 -0.5927475 0.017211167 0.23132324 0.055831015 -0.4537987 0.3575885 -0.4501345 0.29023927 0.00035160358 -0.50554967 0.21200347 -0.043181513 -0.40892956 -0.7994216 0.23332274 -0.037118096 -0.17934814 -0.044580415 -0.2155782 0.26245695 -0.038422838 -0.033799823 -0.019373417 -0.17057784 -0.011973164 -0.40353996 0.036208782 -0.040395055 -0.098383635 0.037653998 0.030462679 -0.15075585 0.16614677 -0.27615032 -0.08575204 -0.12951736 -0.2126947 0.32447034 0.14939871 0.12326031 0.09337699 -0.024132127 0.32191557 -0.20768473 0.043404855 0.31245488 -0.2700219 0.030309504 0.20052123 -0.004171162 -0.15370959 0.121498205 -0.020608718 -0.11403711 0.45015293 0.1822265 0.33909267 -0.3020967 0.14666766 -0.15565851 0.80344534 0.796043 0.08636979 0.4766598 0.56581473 -0.1807714 -0.42177725 -0.34985065 -0.14738064 -0.02513868 -0.1411176 -0.093714796 0.052548114 0.024339674 -0.3663122 0.14349607 -0.084024735 -0.24736877 -0.13774538 0.17801489 0.3254851 -0.06833009 0.026242657 0.3120467 0.009991609 -0.1431354 -0.35764042 0.14826816 0.012128511
SED -0.28705186 0.6307538 -0.059976485 -0.5309836 0.04033065 0.055799976 -0.2327295 0.13467582 -0.06923964 0.09598986 -0.45465055 -0.18711631 -0.40893847 -0.4300362 0.5443812 -0.52764535 -0.40509653 -0.356257 -0.50608283 -0.55055046 -0.18507583 -0.22728534 0.34523654 0.16377795 0.1914332 0.053353578 -0.04785016 -0.28950116 0.03135763 -0.20105611 -0.05604695 0.29810074 -0.11736725 -0.020398607 -0.23403801 0.3716267 0.36349583 0.035029396 -0.15697506 -0.16906849 0.2983561 -0.15919943 0.31984672 0.13017137 -0.23883092 -0.2047743 -0.08394426 0.11409112 -0.15142815 -0.5604858 0.020235572 -0.3631894 -0.13231894 0.35555586 -0.33734342 0.117007785 -0.21189675 -0.29475096 0.26520145 -0.04470493 0.19679531 -0.5516015 -0.26204762 -0.19778709 -0.0985666 0.21614723 -0.30246413 0.51190645 -0.3077647 0.13981327 -0.07403239 1.1895226 0.2877274 -0.3067384 0.15441763 0.07664862 0.0062257024 -0.6821229 -0.02474462 0.26698145 0.33659765 -0.19942659 0.040129606 0.12738192 -0.3332721 -0.58284867 -0.10973889 0.33750045 -0.10318983 0.06792033 0.006760411 0.56985766 0.03684323 0.59134805 0.8180565 0.3726011 0.24911274 -0.75945836 0.21261129 -0.510216
DSE -0.16741616 0.24284756 -0.6652016 0.23517503 -0.21974179 -0.46546805 -0.36882558 0.16928415 -0.004120699 -0.07831095 -0.4490949 -0.33059695 -0.3439682 -0.2981857 -0.13657531 -0.2771509 -0.09952383 -0.09450093 0.17709112 -0.6231451 0.27901784 0.6465117 -0.43794793 -0.41921276 -0.19092692 0.32921913 0.057975937 -0.0835411 0.22509623 0.26341397 0.3923462 -0.099771366 -0.26243347 -0.17827407 0.2306637 0.22519131 -0.31183612 -0.1767044 -0.0014586111 -0.6488233 0.28962973 0.3488115 0.13487078 -0.17761551 0.28019395 0.04770227 -0.10932647 0.081867106 0.014247179 -0.23830022 -0.07043812 -0.5301872 -0.33818612 0.2933625 -0.06901428 0.5749744 -0.47662437 -0.081073776 -0.29348564 0.4681022 0.26813304 -0.46709454 0.31896892 -0.31880555 0.25667313 0.8699651 0.34617463 0.33124876 -0.6563422 0.6428203 -0.6252308 0.47667274 0.5680284 0.19361648 0.22984833 0.034059066 -0.031793088 -0.26070845 0.09461456 0.40504426 0.22748426 -0.34984627 -0.10352838 -0.07595533 -0.21012464 0.7323627 -0.0070296074 0.30113155 -0.044533968 -0.3161453 -0.22135206 -0.17931904 -0.31165293 0.26594722 0.5575237 -0.1589465 0.14421864 0.56114036 -0.017188193 0.024882277
DLK 0.33356795 0.4790679 0.18957922 -0.25696635 0.07977525 -0.36181518 0.22309093 -0.24948367 0.3495526 -0.12724257 0.12135308 0.022267828 -0.11962931 -0.25086576 0.2143196 0.29173398 -0.12923193 -0.44131806 -0.030763106 -0.091285266 -0.27459455 -0.07708948 -0.0825593 0.39277795 -0.69786996 0.5021825 -0.0808889 0.14640923 0.0523916 0.33942264 -0.1614262 -0.12659447 0.16862611 -0.056257457 -0.4187921 0.19630575 0.07836407 -0.05158636 -0.49669352 -0.89632875 0.029618971 0.19925842 -0.19550124 -0.44892564 0.14705324 -0.14364718 0.024300277 0.21814479 0.31082076 0.07468798 0.25669816 0.3123618 0.41150376 -0.17048764 -0.12153773 -0.4577398 0.18238613 -0.011338521 -0.22940892 -0.67799044 -0.19306932 -0.17545792 0.14432421 0.59392273 -0.001192814 0.11204715 0.14038995 0.10306263 -0.2629069 0.25755858 -0.100778006 -0.25513518 0.03621753 -0.049983166 -0.23340039 0.003954387 0.27626017 -0.20169656 0.073759265 0.08051159 -0.21034199 -0.53821003 0.276104 0.4980348 -0.22060025 -0.28442648 0.26177773 0.08591887 -0.008655754 0.09978885 0.18101364 -0.50085884 -0.28350663 0.31280005 0.37761548 -0.3048335 -0.016789922 -0.11720582 -0.3835555 0.23102987
ELS 0.48600343 0.53314126 -0.4977102 -0.11339182 0.0543156 -0.5544207 -0.17461435 0.59606725 0.20455775 0.48341206 -0.2992801 -0.15458237 -0.28546435 0.21566929 -0.04492684 0.19043478 -0.024958426 -0.2774612 0.29899925 -0.18437703 0.22042616 -0.071292244 0.17414531 -0.5355493 -0.41094258 -0.029605104 -0.0403094 -0.33098426 0.009369729 -0.21172865 0.37354764 0.004464496 0.19930904 0.068525724 -0.607003 0.24829201 0.37274605 0.11383936 0.11509529 0.039201885 -0.2966828 0.05240307 -0.36784953 0.31737506 0.5344986 -0.07140627 -0.05686954 0.35013708 -0.13809735 0.14316194 0.20981303 -0.27927783 0.20478576 -0.06409402 -0.19897854 0.14433934 0.15703604 0.22685787 -0.32556123 -0.4737651 0.112281755 -0.08574934 -0.09688451 0.26555678 0.1891875 0.6550067 0.3385253 0.37469453 -0.45421082 -0.30545443 -0.13467155 0.24105746 0.48163798 0.24169105 -0.10949357 0.13294244 -0.19328704 -0.57887447 0.043084312 0.2579745 -0.032536343 -0.22596501 -0.30358884 -0.09392612 0.07743556 0.03841093 0.22007674 0.35459763 0.5595419 -0.42611876 0.2704658 0.4018483 -0.18060555 -0.014320471 0.30022037 -0.6343389 0.16391084 -0.17353284 0.26613882 0.01064975
LQN 0.15534033 0.45422724 -0.35546753 0.055702355 0.38741076 -0.14551502 0.17217727 -0.07546668 -0.3449998 -0.15263149 -0.4924348 -1.0486615 0.04895812 0.14848064 0.18511622 0.23415913 0.0054690936 -0.4342354 0.11301252 -0.49980786 -0.116211295 0.23258126 0.020160481 0.0889814 0.01495313 0.23328921 -0.36772263 0.2994804 -0.084007934 0.42767492 0.13838544 -0.015060832 -0.38183495 -0.3409289 -0.13099597 0.18050043 0.10500596 -0.0038617053 0.14069763 -0.24033375 0.4204653 0.031578716 0.25245363 -0.21346737 -0.09838421 0.014077746 -0.26377612 -0.2397644 0.009154489 0.3250539 -0.2401354 0.14333855 0.49324703 0.14638479 -0.19569306 0.23938373 -0.096025616 0.2720506 0.08694706 -0.13188423 -0.17041743 0.19460185 -0.2765739 0.18285684 -0.10183754 0.16754475 0.04242031 0.15506466 -0.045676723 -0.068814255 -0.08374739 0.5323722 0.67908645 0.10156725 -0.31637722 0.37292475 0.48085797 0.03569429 -0.2855698 0.29004613 0.16817875 -0.24365585 0.11059573 -0.013335889 -0.060098235 0.2132623 -0.13763648 0.15801841 0.077018335 -0.28117222 0.35811839 0.42487073 0.40487233 -0.16746995 0.82360166 0.29173228 0.25990054 0.364851 0.18431702 -0.05995941
KEI 0.02970583 -0.078326486 0.17521888 -0.43928564 0.16223948 0.03050037 -0.26454172 0.57803994 -0.9096527 0.03799075 -0.43968037 -0.55560374 0.019665534 0.19210017 0.026676998 -0.51361 0.06900095 0.1711401 -0.16994749 0.07798429 -0.08082673 0.28249553 -0.37095985 0.37188867 -0.13818517 0.65334654 -0.49321774 -0.22645727 -0.1764696 0.29107195 -0.36920276 -0.09630058 -0.20157033 -0.02902822 -0.119091995 -0.06317432 0.2788619 -0.20273663 0.19431052 -0.48939627 -0.084043436 0.3116563 0.36749503 0.2567308 -0.045378402 -0.5180751 -0.014285185 0.06797623 0.12905669 0.36624715 0.052023336 -0.5845816 0.6343294 -0.16353774 -0.097761445 0.38153005 -0.4035838 -0.22517723 0.0054873475 0.11672781 0.34712544 0.3689242 0.4897275 -0.27778587 -0.22799765 0.79999906 -0.13387775 0.23776041 -0.08261428 -0.07288142 -0.37532935 0.45871678 0.33836794 0.090498306 -0.116130546 0.30191487 0.4819451 0.16611984 -0.118585564 0.85192233 0.1876293 -0.5917114 -0.4175967 -0.0752289 -0.6486997 0.09049248 -0.060011968 0.2601666 0.1605246 -0.39305153 -0.038190246 0.48027045 -0.2529433 0.31418034 0.7841634 0.5954434 0.37614223 0.19296895 -0.36695677 0.13918471
AAL 0.44062188 -0.27027205 -0.42165193 0.044136837 0.19912103 -0.078046136 0.37660936 -0.060399298 -0.329616 0.17604409 -0.33072877 -0.2744725 -0.021651829 0.124256775 0.17058341 -0.10413344 -0.10550375 -0.6101891 -0.5108245 -0.5577698 -0.559228 -0.07443809 0.5199075 -0.32205895 -0.1324064 0.1293015 -0.23995987 0.30898407 0.05453578 0.29796237 0.48608223 0.082793236 0.22963472 -0.37648982 -0.30414623 -0.079557545 0.29930106 -0.06373717 0.47138214 -0.2848703 0.026100166 -0.44546014 0.10105392 0.08963593 0.4472752 -0.15021959 -0.09924278 0.2325851 0.48105812 -0.20848268 0.09865957 -0.48714757 0.53204006 0.3127485 0.010080828 0.4449077 -0.24300545 -0.3922018 -0.16897401 0.057400133 0.35256842 -0.3097674 0.19748996 0.14230502 -0.32355648 0.40632018 0.141424 0.05028624 -0.346948 -0.20885374 -0.31351125 0.102513306 0.40028793 0.13370451 0.041527245 0.32363325 0.40139025 -0.508531 -0.2700823 0.4227361 -0.307535 -0.39516345 0.18682885 0.20371945 -0.00541973 0.0542353 0.18036915 0.2409666 0.09882674 0.19161327 -0.16136627 0.33659318 0.3795816 -0.017521715 0.82742697 -0.178708 -0.03648194 0.11817816 0.106767 -0.13694924
LSK 0.027931884 0.3663252 0.08725251 0.20567922 -0.16806713 -0.29019737 0.055522304 0.57162696 -0.009569674 -0.30525464 -0.3521169 -0.4291465 0.30938336 -0.29532 -0.34479508 -0.81931335 0.53548443 -0.013578914 0.052587487 0.029246125 -0.4302358 -0.29602122 -0.0929404 0.2926164 -0.578089 0.42901486 -0.34964892 0.39713126 0.55124557 0.08167004 0.68023735 0.12026804 -0.7156034 -0.53654444 -0.37071073 0.6347492 -0.007991922 0.26685274 0.2090302 -0.07634699 -0.2782524 -0.25636402 -0.30680665 -0.11539046 0.25189734 -0.07159461 0.1000059 -0.16291387 0.041920517 -0.25642586 -0.18980314 0.4225452 0.053257227 0.4763447 -0.6238712 0.33153546 -0.22538228 -0.5168888 -0.056767777 0.48232403 -0.34775808 0.20317774 -0.27664587 -0.19349007 0.23869644 0.62012327 -0.19317141 0.015661366 -0.058498695 0.45035574 -0.06229912 0.48608375 0.5240268 -0.2961287 0.2155324 0.28385523 -0.46445572 -0.09829885 0.020703668 0.49273726 -0.3001183 -0.2116295 -0.023708181 -0.12697752 -0.42128277 -0.21863954 0.30692935 0.097287714 -0.13442656 -0.49317008 0.37317237 -0.26373667 0.048088204 0.07377496 0.21442075 -0.019633533 -0.095091954 0.27905464 -0.04641592 0.06920219
QAE 0.15865669 0.13623673 -0.32984263 -0.12699874 0.07341276 0.025764069 0.27729523 0.35889393 -0.18747358 0.14305437 -0.17639911 -0.15170372 -0.067651525 -0.06334989 -0.02888769 0.4476693 0.3256636 -0.6322801 0.32821906 -0.32314956 -0.4611854 -0.053070765 0.3767886 -0.39029473 0.42122737 -0.36261755 0.09373777 0.05533718 -0.37674376 0.07874223 0.212002 0.113511145 -0.10313206 -0.08988053 -0.17671217 -0.109456666 -0.09968059 -0.2902703 0.13536519 0.022129122 0.17590436 -0.344616 0.17671305 -0.26545367 0.23724176 -0.08940972 -0.43214312 0.116594285 0.0026108855 -0.17547125 0.5347522 -0.6338495 -0.024490437 0.2563544 -0.16510111 -0.25308827 0.2467778 -0.39991048 -0.1086436 0.23107614 0.3116202 -0.66261923 0.11042013 -0.12673801 -0.38888204 0.0027027908 -0.054890625 0.2984185 -0.31201395 0.41053063 0.07777319 -0.17546582 0.75472295 -0.22344261 -0.019806376 0.30302763 0.38273162 0.059655342 -0.17388168 0.050855055 0.23091942 -0.52336085 -0.07730559 0.038769264 0.8115602 0.14119947 -0.008220763 0.39483777 0.098968856 0.5192181 -0.24585971 0.28178686 0.41545042 0.06709812 0.7836328 0.1251068 0.18176866 -0.09439646 0.2202908 0.43038648
VED -0.14486325 0.32608384 0.4598701 0.35566202 0.0038629144 -0.35018474 0.09311578 0.5073723 -0.16214338 -0.29231498 -0.40232933 -0.81962764 -0.13917889 -0.3356617 -0.44316214 -0.6276939 0.6096939 0.01682554 0.16060293 0.48017323 -0.49931926 0.03766084 -0.13619874 0.28350392 -0.14929813 0.59252876 -0.053193584 -0.05013219 0.25323215 0.526621 0.35915995 0.32263595 -0.5883778 -0.31680748 -0.32191396 0.5008837 0.35992777 0.02678306 0.12268409 -0.11316522 -0.16665556 -0.16665632 0.06657238 -0.4445883 0.08866721 0.26604238 -0.1892425 -0.09605749 -0.21003301 0.11718114 0.1443382 0.21042638 0.35090452 0.3553716 -0.4316435 -0.06414404 0.19235286 -0.7758016 0.22139634 0.35562226 -0.41592163 -0.1590733 -0.522678 0.1578061 0.07235558 0.11215405 0.13392788 -0.06741952 -0.17387281 0.19907653 -0.22561908 0.3930588 0.44544038 -0.18824969 0.58589345 0.11165615 -0.39278322 -0.28217846 -0.044734523 -0.045689918 -0.23609415 0.21126272 -0.0650504 -0.06510814 -0.31828216 0.18818592 -0.053323966 0.028973874 -0.30862892 -0.2818851 0.075341575 0.084643185 0.23911437 0.41302416 0.13095057 -0.04793731 0.14611919 0.3390049 0.12364115 0.3349984
KEL -0.33134273 0.3412262 -0.42875504 0.4817602 0.2620646 -0.59058684 0.21985127 0.4858749 0.026696779 -0.7157863 -0.0028813304 -0.00132918 0.10354716 -0.062327854 -0.40429056 -0.2695021 0.03916359 -0.32591736 0.001091913 -0.37865812 -0.5936526 0.18045203 0.049762335 0.112325996 -0.021013144 0.403907 0.07551844 0.018671531 0.49193195 0.40972915 0.28135246 0.34525543 -0.19596264 -0.05323325 0.26450124 0.52403855 -0.350607 -0.09038452 0.016852649 -0.56299967 0.49141634 -0.15377674 0.23176093 -0.17252094 0.55391145 -0.2899508 -0.16443413 -0.5081113 -0.013400587 -0.04292336 -0.0504458 0.023022093 0.082275674 0.72204417 -0.12798351 0.32713494 -0.2266155 -0.23815876 0.06054802 0.061623387 -0.017447619 -0.22123359 -0.201224 0.24110693 0.17068635 0.79286695 0.18309268 0.4104056 -0.1566651 0.20632938 -0.3218335 1.0656481 0.34850287 -0.30435067 0.15735534 0.46242553 -0.25354993 0.23382004 -0.016910987 0.27679643 0.24451151 0.38822094 0.110526025 -0.49596056 0.05203604 0.47355628 -0.10370281 0.3090387 -0.024833506 -0.35375297 -0.5366205 -0.10996035 0.10582947 -0.38364032 0.50636 0.06833371 0.35524365 0.4121451 0.062245715 0.06400203
QNK 0.4750708 0.20028476 -0.15413675 -0.016519723 -0.00344345 -0.48412403 0.20364113 0.38866565 -0.13338752 0.23555161 -0.38316408 -0.2228036 -0.609105 -0.45504543 0.4279038 -0.1034548 -0.23529956 -0.250646 -0.15287463 -0.066287406 0.039069816 -0.009840384 -0.018342465 -0.2722751 -0.30065632 -0.029368611 0.022440668 -0.0808107 -0.23702851 0.19218042 0.42453256 -0.19721656 -0.35876808 -0.12056594 0.13449423 0.07952539 0.022428606 -0.42365935 0.24722345 -0.29935864 -0.3663416 -0.1966889 0.2224743 -0.09979549 0.28038833 -0.34355342 0.12327228 -0.016022492 0.4826034 -0.2769503 0.5960342 -0.38570476 -0.2478246 0.11923112 -0.053077035 0.12543136 0.22154494 -0.13697559 0.022080787 0.27307764 0.11740684 -0.36517048 -0.1802226 -0.21213722 0.26644066 0.5906994 0.28557986 0.5423957 -0.1919191 0.53479034 -0.41927326 0.041957945 0.3468739 0.32404935 0.33358923 0.118608624 0.014638761 0.0679509 -0.5877354 0.36716363 0.07778066 -0.24374366 -0.18967049 0.058879945 0.41513538 0.30220765 0.25432822 0.028451037 0.26653814 -0.27332184 0.0065037585 0.29893622 0.18003291 -0.20394377 0.38745812 -0.37599626 0.32558718 0.18849087 0.106396556 0.20037787
NVE -0.029001815 0.51434195 -0.16075695 0.12555344 -0.20130968 -0.75303566 0.1970176 0.51630914 0.17611223 0.69367546 -0.25999373 -0.6448431 -0.084527254 0.19033284 -0.41149908 0.10928737 0.19428517 -0.20608933 0.0050046435 -0.6047573 -0.17796035 0.49315593 0.023567105 -0.3716466 -0.62840873 -0.0602118 -0.011525051 -0.39998496 -0.0041390215 0.0005694736 0.31522283 0.035546545 0.3197161 0.00954935 -0.3891802 0.6119006 0.18173681 0.035649877 0.075695604 0.04146085 -0.7190713 0.080112934 0.3486686 0.18200509 0.2945409 0.2352241 0.23355699 0.30914015 0.034366168 0.021056527 0.22480541 0.16969837 -0.01022009 -0.18304284 -0.037313294 0.099610716 0.60161674 0.3111366 -0.38298777 -0.5781109 0.08582926 -0.093336806 0.20624948 0.40255237 0.12390166 0.85785764 0.42487928 0.026876584 -0.30111244 -0.24560057 -0.1546408 0.23822856 0.18593557 0.34238306 0.029068742 0.2497609 -0.21093866 -0.31637338 -0.52235436 0.25462863 0.08920488 0.15340944 -0.028955705 -0.4554854 0.21090738 -0.45784828 0.025133906 0.44665664 -0.12741007 -0.090972096 0.59948164 0.023824466 -0.42448276 0.012970318 0.3148068 -0.33063877 -0.061489627 -0.30237213 0.37744117 0.34635007
AEI -0.35199898 0.2930975 0.19191837 0.38168254 -0.11639615 -0.08766159 -0.23800336 0.024714064 -0.02845313 -0.49749026 -0.43487358 -0.029508386 0.055963848 -0.14320903 -0.3417906 -0.039678894 -0.030737642 -0.24072291 -0.18566549 -0.18116283 -0.22792341 0.1390705 -0.09391407 0.44611546 0.13308352 0.21533598 -0.13861811 0.023511996 0.31174085 0.4651232 0.1669181 -0.16201131 -0.30086708 -0.31712005 -0.36622235 -0.23959887 0.27965587 0.11059885 -0.034349736 -0.61379313 0.2994958 0.6597491 -0.05487275 -0.23932551 0.13485993 -0.25033832 0.06745586 0.49104166 0.02516817 0.015715549 -0.3164624 -0.3443176 0.05055208 -0.24533717 -0.25765717 0.6289613 -0.7487093 -0.5918706 -0.49877408 -0.07608611 -0.19890217 0.0715804 -0.39591452 0.028086498 -0.09317226 0.2778233 -0.04577939 0.15528867 -0.31980014 0.0221266 0.10172604 -0.0140541205 -0.0248274 0.09715119 -0.38305002 0.077193365 -0.14952321 -0.24395049 0.30862907 0.08377783 -0.049481932 -0.3153767 -0.44324428 0.6259917 0.16083352 -0.33442017 0.30400446 0.44782096 -0.7016491 0.02598505 0.19214626 0.055647254 -0.37463847 -0.41502962 0.32684964 -0.015294271 -0.07242476 -0.15574744 0.2003572 0.38407582
LKK -0.16915852 0.12786955 0.49205834 -0.14360912 -0.21111 -0.0019192868 -0.023076838 0.14895973 0.16068815 -0.5162285 -0.2821161 0.32605052 0.105338074 -0.18681072 -0.3892829 0.117931396 -0.08207906 -0.44390348 -0.01258859 -0.7759091 -0.4780646 0.42669335 0.13637386 0.34289902 -0.06635009 0.2861299 -0.19906685 0.065101914 -0.07685734 0.68095475 -0.15821582 0.17286892 0.046623226 0.34499502 -0.2335391 0.33011797 0.17966592 0.08140779 0.29953632 -0.51483804 0.069676936 0.7789707 -0.5153644 -0.29111812 0.25942847 0.15080693 -0.011316239 0.18796284 -0.28996333 0.24111332 -0.29445633 -0.19565524 -0.19832799 -0.02633106 -0.30951944 0.3603545 -0.04400886 -0.25252172 -0.4490362 -0.010896375 -0.12897867 0.20686442 -0.11107624 -0.018083915 0.16116992 0.61370015 0.34464943 -0.17589013 0.07114988 0.32771596 0.23410787 0.25241312 0.02975046 -0.21010971 -0.14324291 -0.09040896 0.030339798 -0.47017232 0.13200846 0.5752836 -0.19141853 -0.109119155 -0.9485188 0.04479343 -0.42587623 -0.119082585 0.22971334 -0.25918752 -0.17939793 0.35369852 0.43332785 -0.035767626 -0.08720289 0.06299023 0.43309313 -0.48501855 0.10182348 -0.21417148 -0.015072252 -0.10075942
EAD -0.16416483 -0.1731559 0.100834146 -0.22821386 -0.23596807 -0.16321108 -0.31618196 0.34267744 -0.23488976 -0.39446613 -0.26633927 0.4737036 0.14618237 0.114113726 -0.36756867 0.0065231994 0.35319042 -0.21169694 0.09483665 -0.78062236 -0.2303822 0.31604397 0.016205365 0.28274927 -0.4053405 0.20230882 -0.47050336 0.079697825 -0.09157678 0.53374195 -0.08573999 -0.31472027 -0.053048402 0.19818954 -0.16527502 0.37848765 0.10850347 0.07874629 -0.23766005 -0.5009527 -0.17870213 0.4012046 -0.42392415 -0.4042561 0.27377796 0.027814377 -0.060133558 0.37425166 -0.21710041 0.29186538 -0.28362557 -0.5745809 -0.1313614 -0.039433856 -0.19406286 0.07790924 -0.19950363 -0.026096456 -0.38119793 -0.08915648 -0.30764315 0.09846059 -0.2823619 0.34632352 -0.031941164 0.37818864 -0.085801795 -0.108923346 -0.23329532 0.5167296 -0.1929615 0.31352127 -0.51530623 -0.29167408 -0.17782879 -0.019530227 0.110534005 -0.52939963 0.118529335 0.32027844 0.15665741 0.09507705 -0.21465999 0.028314661 -0.3363833 -0.16274285 0.27279693 -0.12775819 -0.5635894 0.24136041 0.829655 0.16266583 0.022773819 -0.035462793 0.5311914 -0.5736057 0.2346129 -0.30018818 0.12323311 -0.05998043
EIA 0.21743032 0.2117879 -0.039485425 -0.34812573 0.4628893 -0.07829065 0.28636372 0.07352014 0.015133013 -0.39853004 -0.039834835 0.042822234 0.20410737 -0.13190906 0.08901919 -0.12967166 -0.36215582 -0.1749874 -0.23288918 -0.7207228 -0.64321434 -0.16352259 0.5972797 0.31137764 -0.43961078 -0.17239417 -0.0035758917 0.15836014 0.27302483 0.38252747 -0.3026405 -0.079748064 -0.09060938 0.11685187 -0.34003076 0.30820814 -0.106807806 -0.2170786 0.17708382 -0.17387265 -0.09597808 0.14756435 -0.21739294 -0.7901533 0.4393746 0.19429998 -0.087373376 0.19414657 -0.006920012 -0.034683578 -0.3183476 -0.0884266 -0.3018792 -0.09287867 0.3426736 -0.44841075 -0.05546895 0.051988278 -0.10280027 -0.57106024 -0.059558734 -0.56573313 0.120673485 0.27153778 -0.111921616 0.001856593 0.20057985 0.57788837 -0.08794146 0.33466274 0.27701834 0.41351533 -0.2567978 -0.29023162 0.03296919 -0.5401452 -0.20706348 -0.15721932 0.31616813 0.12677595 -0.18215975 -0.3230173 -0.24018002 0.92875785 -0.25944588 -0.94664997 0.51297003 0.22801526 -0.2591592 -0.17564183 0.093659185 -0.05727108 -0.20734812 0.2868156 0.40711784 0.51244247 0.26400074 0.004995481 -0.3089367 -0.0877655
AEA 0.6123052 0.44693097 -0.0010550156 0.17878263 -0.22567786 0.016932359 0.45123962 0.616981 0.06831975 0.031511568 -0.3409601 -0.28346878 -0.37042737 0.14274417 -0.068310946 0.064352445 -0.13935326 -0.33627453 -0.08070691 -0.008091568 -0.23885567 0.19394839 0.14347805 -0.07347138 -0.19685869 -0.22353297 -0.39563578 -0.20441884 0.31192327 0.10814329 0.12872082 0.15850514 0.058279265 -0.16485786 -0.43060803 0.15274025 0.08717436 0.026711212 0.1111171 -0.31970927 -0.30755818 -0.2652449 -0.026879057 0.06933172 0.60188097 -0.08266917 0.012227044 -0.40159893 -0.19168118 -0.0942023 0.032086037 -0.3956069 0.19039005 0.23757249 -0.18242519 0.06950878 0.022669623 0.2623002 -0.1314201 -0.43163586 0.04315652 -0.30699137 0.390186 0.37117064 -0.22034663 0.5918629 0.14469522 0.6445396 -0.26821578 0.010772911 -0.084971406 0.6854999 0.5183924 0.38504517 0.43938124 0.58790857 0.0044565266 -0.033410702 -0.2407697 0.2824741 -0.43954092 -0.23151612 -0.6371345 0.29137376 0.5600322 0.113763064 0.40012646 0.058057077 -0.13651635 -0.27416772 -0.09477023 -0.021835543 -0.14362709 -0.051975712 -0.090800695 -0.4031852 0.22445591 0.09347058 0.13728566 -0.18229705
LQS -0.20858833 0.32907456 0.31866965 -0.21806693 0.08430802 0.094082266 0.16953066 -0.21617928 0.016401835 -0.10691206 -0.43329063 0.013112376 0.0451052 -0.28715402 0.22681057 0.100449294 -0.09018264 -0.2496154 -0.19261119 -0.7221483 -0.6132779 0.06804548 0.056947045 -0.13086915 -0.38167542 -0.07812149 0.08379858 -0.09124298 -0.34014806 -0.17730129 -0.28796452 0.088715166 -0.4218758 -0.19180408 -0.31510752 0.07174646 -0.2387712 0.10908948 -0.044984147 -0.64793265 -0.116506904 0.1313574 0.3617615 -0.7254558 0.030597875 -0.28632727 -0.43395478 0.07073169 0.10910696 0.5092937 -0.42007238 -0.122924395 0.05722127 -0.32540882 0.19884849 -0.5656752 -0.0033175359 -0.22207585 0.3979386 -0.66563874 -0.05194482 -0.44924074 -0.033729017 0.5635704 -0.015455784 -0.18955392 0.43135393 0.49459884 0.020784795 -0.22854288 0.2815972 0.6707697 0.085005574 -0.3178087 0.11815213 -0.34450704 -0.10708212 -0.41453102 0.49533337 -0.18144904 0.012940374 -0.06588973 -0.14314206 0.6621564 -0.37280113 -0.43198997 0.7799751 0.15239714 -0.22568607 -0.054273754 0.6848615 -0.03966919 -0.32155573 0.31686485 0.31526142 0.26836503 -0.008413259 -0.17516242 -0.3555993 0.46137178
AAE 0.015632845 0.34090075 0.04947014 -0.25446293 0.52912647 -0.098356836 0.25869972 0.28578764 -0.27161404 -0.08116869 -0.47865555 -0.6301817 0.12064781 0.17520387 -0.04911489 0.8650868 -0.12309678 -0.2161649 0.12523702 0.0034249607 0.05675124 0.31254643 -0.076610774 0.420228 -0.51664954 0.32387626 -0.20538935 0.25925165 -0.0021557687 0.4702795 -0.007868027 0.19087103 -0.14547034 -0.35271096 -0.56137264 0.33736324 0.5633226 -0.017258856 -0.15770584 -0.7193484 -0.19162785 -0.1314543 0.36638078 0.14349991 -0.37868017 0.19151816 0.2830444 -0.06465675 0.4038264 -0.114607066 -0.39426765 0.11916567 0.37026802 0.62804013 0.25436407 0.27961972 0.24375337 0.1539444 -0.20633906 -0.12758061 -0.37522832 0.14547722 -0.5365517 0.13498127 0.04451174 0.4447017 -0.018229242 0.120406635 0.19487491 0.084683046 -0.4189274 0.40534225 0.044728715 -0.2428141 0.06738311 0.25293338 0.18730107 0.28849697 -0.14741556 0.2172526 0.039179396 -0.19332595 0.080888495 -0.24484164 -0.29921946 0.31160727 -0.1895334 0.14210582 -0.043099456 -0.2101322 -0.0707468 0.20233546 0.3925438 -0.112697326 0.9036704 0.24552152 -0.14607482 -0.15527101 0.15362981 -0.16599527
DAK -0.26093698 0.49766126 0.05277368 0.34438705 0.15095507 -0.33036026 -0.34551552 -0.28102484 0.25115186 -0.40465444 0.0074902712 -0.16307461 0.41130546 -0.24680908 -0.2818034 0.033005282 0.11918287 0.1389937 0.012394788 -0.49238512 -0.19620962 -0.2580038 0.14513473 0.21462704 -0.5409354 0.3941431 -0.16309692 0.106452525 -0.030722212 0.4468522 -0.07450514 -0.0565569 0.33677492 0.11781828 0.20801957 -0.05639699 0.18865165 0.099612065 -0.14710301 -0.59303343 -0.0508815 0.081774674 -0.20802535 -0.096018955 -0.12251748 -0.22280249 0.18964557 -0.15505303 0.018776601 0.33124936 -0.23453921 -0.6628211 -0.0017390384 -0.19616978 -0.35477126 0.46061277 -0.44620875 -0.7696943 -0.6864634 0.14521074 -0.29682964 -0.021404194 0.19091968 -0.077218406 -0.15180863 0.07387831 -0.034924664 -0.08284957 -0.21649706 0.45521736 0.28557903 -0.36666748 -0.38358796 0.45484746 -0.17459537 0.23833092 -0.096771054 0.053155925 0.35652667 0.1783144 0.28407252 0.07037418 -0.3175622 0.7403738 -0.46540278 -0.44647253 0.3864564 0.16281432 -0.2686518 0.1593639 -0.010539967 -0.01506709 0.07671784 -0.123780966 0.6817446 0.09341864 0.11033184 -0.1306873 -0.19983906 0.36757854
PLQ 0.15901013 0.33256543 0.197455 0.1541531 -0.017974356 -0.41543275 -0.33957097 -0.2964668 0.29762757 -0.0814733 -0.23182286 0.084135085 0.5804244 0.10163048 -0.17282109 -0.042211745 0.24137393 -0.042619254 0.4206721 -0.22234213 -0.25603253 0.21688844 -0.06373969 0.51629317 -0.31054053 0.22692202 -0.1918576 -0.009103464 0.44781876 0.7546101 0.31378025 -0.35761058 -0.06513937 0.021784587 -0.11924068 -0.12467248 -0.23409174 0.10415227 0.25208452 -0.7418615 0.010484487 0.7382465 -0.060156796 -0.28524622 0.3028617 -0.13630317 0.24973293 0.6311178 -0.16272406 -0.09013205 -0.16732538 -0.51849425 -0.15215114 0.03851785 -0.65491545 0.2631332 -0.493203 -0.58427185 -0.77253455 0.024279995 -0.2944822 0.080982946 -0.15656361 0.17927226 -0.23929752 0.37765932 0.23059574 0.038590763 -0.11607554 0.16901301 -0.22294927 0.24572857 -0.1852217 0.1455651 -0.29054707 0.03901019 -0.19531836 -0.19343503 0.14276123 0.49569207 0.06655645 -0.07597539 -0.6376243 0.49191853 -0.6511447 -0.17790128 0.06910743 0.2282895 -0.6250836 0.25985602 0.28752476 -0.091551684 -0.24498433 -0.16239265 0.6163147 0.0014638831 -0.058686063 -0.28412244 -0.3930469 0.0417623
TKK 0.31286186 0.2838054 -0.28962338 0.00064544287 -0.44060695 0.09903218 -0.062128495 0.34046727 0.053785663 -0.055609338 -0.25654957 -0.6339189 -0.66154164 0.15358832 -0.322211 -0.69787425 -0.091027685 -0.29105288 -0.17569971 -0.78715545 -0.0076930984 0.15585859 0.28865904 0.1398384 -0.4062821 -0.37830377 -0.24565898 -0.33013368 0.3299821 -0.23128231 -0.078821465 0.032085396 0.062054314 -0.19583055 -0.2550754 0.42834646 0.042716306 0.11409655 -0.37933418 -0.2363863 -0.016416352 -0.093898155 0.09645445 -0.07078367 0.37821692 -0.39123365 -0.20803133 -0.10090884 -0.008105206 -0.14718434 0.35242924 -0.5426604 0.14256707 0.78582126 -0.11570352 0.11042593 -0.0051151644 0.31098977 -0.04866922 -0.34594396 0.18902865 0.23708507 -0.03500688 -0.23604482 -0.19567157 0.42306846 0.3052125 0.20792441 -0.29549763 -0.29870215 -0.07433796 0.4788126 0.63883007 0.078566164 0.41274437 0.24710862 0.49483383 -0.50222784 -0.5741998 0.45888925 0.24398427 0.12486309 -0.32900685 0.64054394 -0.2717047 -0.440392 0.37901875 0.05901899 -0.046781547 -0.43196934 -0.49272245 0.0972335 0.18099448 0.25233373 0.027827526 0.17564523 0.017674467 -0.08638179 -0.31525707 -0.074131
RAP -0.2193546 0.4846913 0.29903615 -0.27785155 0.23702455 -0.060540278 0.099784896 0.020945303 0.29024956 -0.38554668 -0.56053656 0.2689853 0.032509908 -0.099838465 -0.07001151 -0.11069636 -0.24731618 -0.49450245 0.044575326 -1.0500935 -0.023766834 -0.09678926 0.08417759 0.11934184 -0.4651072 0.033248086 0.031559598 -0.10969001 0.19816044 0.30902413 -0.35344034 0.14398511 -0.05466587 -0.15210983 -0.7385803 0.19189684 -0.26851922 -0.06792623 0.023798835 -0.3940497 -0.32867953 -0.044443738 -0.2687652 -0.7630134 0.027579704 -0.010565746 0.061500918 0.09166529 -0.0036368764 -0.33056417 -0.069835536 -0.22828414 -0.09770821 -0.042426422 0.05447613 -0.2547525 -0.22047333 -0.014514886 0.15800127 -0.5374446 -0.41462916 -0.31359318 -0.0062234243 0.002422031 0.0085989265 -0.38536757 0.1902872 0.5473296 0.05455935 0.053558603 0.5111168 0.54569143 -0.16640718 -0.16955715 -0.3263985 -0.6781544 -0.17821676 -0.30276042 0.23875178 0.27296215 0.076417394 -0.31213772 -0.22170141 0.57664955 -0.2185103 -0.6957776 0.85899067 0.1793087 -0.5303787 0.23877256 0.08302394 0.591154 -0.21802656 0.2943353 0.37477654 0.42799821 0.0726457 -0.21334085 0.122702524 0.2596625
GLR 0.39783928 0.24969998 0.16771194 -0.4503373 0.23603591 -0.14973517 -0.103772625 0.22308134 0.021066217 -0.010789045 0.27420458 -0.23968156 0.187929 0.49130917 -0.2298949 0.20063598 -0.5867979 -0.2926907 0.084794916 -0.44250235 -0.11144469 3.710779e-05 0.00080498576 0.13730523 -0.72772443 -0.018792165 0.27553758 0.011239693 0.13213854 0.30834922 0.14648426 0.19154756 0.03965478 0.4306413 -0.33862218 0.16402027 0.054008674 -0.27682954 0.01277218 -0.1573446 0.2186593 0.5042598 -0.6156545 -0.53450257 0.5581898 0.22027297 -0.124092974 0.015371761 -0.19308177 0.1681857 0.0002851705 -0.38436845 0.2033417 -0.36332634 -0.5436635 -0.15792434 -0.17958628 0.058965232 -0.43150103 -0.37540442 0.104316734 -0.43223873 -0.60317606 0.34878832 -0.070715025 0.5563576 0.15141515 -0.32399064 -0.2349952 0.40898415 0.1603226 -0.060426023 -0.4066903 -0.12963776 -0.29086077 0.21287371 0.025083251 -0.33207366 0.2003281 0.19257043 -0.05730469 -0.60018975 -0.46874636 0.2397695 0.16112734 -0.08909913 0.14309938 -0.2175976 0.15393263 0.44014087 0.25129604 0.076739654 -0.4755791 -0.108969055 0.34818515 -0.16984965 -0.026767405 0.11861757 -0.006286741 -0.0498702
SDS 0.29996923 0.27760553 -0.13563025 -0.1984704 0.33001643 -0.36405963 -0.1242302 0.57752454 0.23016992 -0.23709105 0.20678513 0.19518727 -0.104275756 0.30187503 0.20748846 0.2511887 0.083176605 -0.08032675 0.043195102 -0.29863697 -0.42142972 -0.42403182 -0.023194533 0.34936818 -0.65407497 -0.051276963 0.018575737 0.15437217 0.05044232 0.30716243 -0.1937545 0.21530896 -0.30291122 0.62400746 -0.23519786 0.15962413 0.014831597 0.032078315 0.12380474 -0.3385103 -0.008895065 0.132013 -0.5215544 -0.58900005 0.55256546 0.38832825 -0.04881657 -0.18985985 -0.23783927 0.15952498 0.09678785 -0.29647148 -0.16761097 -0.12845482 -0.17748693 -0.3679036 -0.15733661 0.20805068 -0.51740426 -0.51700056 0.087546065 -0.37916455 -0.57214975 0.38371846 -0.08562802 0.2771828 0.03701626 -0.5823352 -0.46911713 0.28894094 -0.00883948 -0.0035848643 -0.08482236 -0.018332891 -0.14133132 0.24074963 -0.028096236 -0.4300176 0.4403867 0.2455475 -0.109146215 -0.35553518 -0.45830807 0.29585466 -0.22155999 -0.15868574 0.26723075 -0.06622727 -0.11148152 0.39770904 -0.09046707 0.22816366 -0.6270966 -0.31595495 0.3848811 0.040385265 -0.20169623 0.062315986 -0.16318238 -0.10063468
ESD -0.057646763 0.44037926 -0.026342193 0.04533721 0.0072781523 -0.0085697565 -0.14091752 -0.2588826 0.112978436 -0.32475436 -0.07421469 0.28228688 -0.2099486 -0.42857477 -0.26237515 0.017283138 -0.3228206 -0.51639235 0.14662014 -0.8307937 -0.19699262 -0.24694921 0.12064539 -0.19794093 -0.18830574 -0.016400432 -0.39354384 0.0011064272 0.33004132 0.118844524 -0.53065526 -0.08065013 -0.37757084 -0.057586998 -0.28652295 0.05234109 0.061292578 -0.16721727 0.36920816 -0.5319575 -0.07464 0.15190929 -0.48522416 -0.63082063 0.22831948 -0.27906337 -0.43309712 0.12670748 -0.097857654 0.29370424 -0.14669602 -0.29934832 0.029014178 -0.07016975 -0.108757764 -0.29197675 -0.11218481 -0.0014676355 -0.26728752 -0.5205506 -0.40126067 -0.20823988 -0.25032094 -0.0061442526 0.2186056 -0.21730033 0.39705294 0.35758224 -0.3630233 -0.25138894 0.18055627 0.5761884 -0.035546616 -0.45517862 -0.11070139 -0.40588006 -0.29721087 -0.3422374 0.21253428 0.15456952 0.1867261 -0.28253815 -0.26337412 0.9016989 -0.31704524 -0.663576 0.95928407 0.1471962 -0.6320917 0.083339006 0.124444686 0.22712718 -0.13752863 -0.104305364 0.26768315 0.48627207 0.34652272 -0.32100976 0.33503675 -0.07954651
APL 0.27227685 0.37868842 0.12525247 -0.24206676 0.7644818 -0.049312714 -0.19209109 0.33370537 0.22122283 -0.18600684 -0.18063982 0.23301367 -0.106732845 0.2636255 -0.050996404 0.2600151 -0.47134635 -0.11391495 -0.10850668 -0.4498707 -0.36021695 0.02274272 0.12810995 0.03499253 -0.5879031 0.16580157 0.073298045 0.3112057 0.31900668 0.49622294 0.2414065 -0.27977014 -0.04080345 0.26936644 -0.052005135 -0.015738534 -0.04292041 0.020189622 -0.0859815 -0.34983423 0.01081904 0.38806576 -0.4205114 -0.33359414 0.47723302 0.14851667 0.07310649 -0.1466483 -0.35311845 0.4637453 0.24592255 -0.20300642 0.023154603 -0.2607922 -0.4161999 -0.24444176 -0.010996054 0.399178 -0.22541825 -0.72709024 0.007847205 -0.31786096 -0.38892823 0.3116078 0.00027317257 0.4272872 0.17339464 -0.45332915 -0.46307838 0.49191087 -0.075206384 -0.2760028 -0.09384236 0.11385537 -0.06879544 0.13776283 -0.33257607 -0.31464136 0.36627138 0.062059842 -0.13038239 -0.5994019 -0.3031878 -0.09635428 -0.06813799 -0.116878495 0.45949546 0.102639034 0.07781712 0.21365929 0.4850027 0.118774645 -0.08497957 -0.39682898 0.34951606 -0.34377605 0.09379574 -0.32391793 0.1001599 0.008804588
LRA -0.59897864 0.22546674 -0.15753616 0.14990753 -0.65846026 -0.1653029 -0.3536449 -0.18363133 -0.01710931 -0.25452417 -0.25287524 0.0807954 0.31036067 -0.14828235 -0.4955687 0.4697357 0.33750248 -0.08764049 0.15619291 -0.48904645 -0.25818822 0.28179148 -0.26239628 0.38365105 -0.11905889 0.31585848 0.04707549 -0.25120986 0.26136848 0.6565016 -0.06953322 0.18809174 -0.14438775 0.13236076 -0.12977551 -0.18306375 0.22732158 -0.023305764 -0.03734372 -0.72264314 -0.10561699 0.38321635 -0.3458479 -0.21931787 0.7115312 -0.6334973 0.14670226 0.18201633 -0.07410003 0.20042197 -0.065435655 -0.06412171 -0.12842394 0.13284563 -0.37607414 0.41530305 -0.56409025 -0.36519518 -0.7634153 0.048640292 -0.085289344 0.19342352 -0.20153873 0.07097269 -0.46961468 0.6532067 0.22350693 -0.19650389 -0.3642371 0.5273985 -0.18416718 0.1622362 -0.4464668 0.23294668 -0.5398161 0.03383892 -0.15271111 -0.11859058 0.17525886 0.24924032 -0.16477396 -0.26937363 -0.5497283 0.22247128 -0.60183185 -0.16303362 0.124629095 0.11899915 -0.3794902 0.13498388 0.4529594 0.060305037 -0.39656937 -0.0914919 0.76598865 -0.021779932 -0.0031444672 -0.20323636 -0.30306813 0.17954189
DPE -0.29934293 0.22861187 -0.043210067 -0.064725 -0.23565349 -0.44405696 0.48965073 0.6783989 0.043269772 0.26348937 -0.1985342 -0.20775808 -0.070325576 0.3293995 0.098828256 -0.59100366 0.16306138 -0.4573027 0.18612243 -0.41218424 -0.41297954 0.14252868 0.04254285 -0.2355276 -0.7015225 0.11328375 -0.059399948 -0.09092945 0.056572746 -0.35498452 0.26254785 -0.08768212 -0.28822985 0.10294267 -0.25176638 -0.03257321 -0.4438322 0.040622216 -0.30460256 0.047832288 -0.33575046 0.016580673 -0.19489172 0.23931022 -0.04284355 -0.22381155 -0.13148244 -0.359061 0.2578756 -0.09472013 -0.0065951617 -0.102324575 0.15563698 0.39826348 -0.057372108 0.5249883 0.21773589 -0.09042179 -0.3912633 0.12416488 -0.5014513 -0.018598722 0.16076903 -0.12607084 -0.07486351 0.25897524 0.27175316 0.68757784 -0.5936305 0.22554503 -0.40502423 0.34565693 0.7495831 -0.22787142 0.45534405 0.38363576 0.060963053 -0.2709389 -0.3961501 -0.10168643 -0.009050476 0.025862278 -0.009317918 -0.0205668 0.06695103 0.06927478 0.26778167 -0.31226218 -0.07966469 -0.16935785 -0.09052658 0.50231946 0.30804244 -0.07549047 0.27930593 -0.3341018 -0.06807076 -0.28120416 0.25069037 0.10159152
DKE -0.065745994 0.7599895 -0.10912199 -0.24330363 0.15765928 0.042106938 0.29644307 0.034893107 -0.072442055 -0.34838217 -0.31726485 -0.76065093 0.02743509 -0.063429385 0.36937693 0.32570776 0.37089306 -0.42085025 -0.12232531 -0.2296457 -0.067012616 0.21057813 0.11312193 0.15944923 -0.4306279 -0.030994805 -0.3650598 -0.06971439 0.003316104 0.62359715 0.1909236 -0.04829194 -0.39100838 -0.45380542 -0.21626984 0.34104797 0.4130218 -0.14486252 -0.2802201 -0.12041906 0.24808994 0.0018084286 -0.030373333 0.16372164 -0.18464546 0.2536165 -0.18722595 -0.37748396 -0.0064705927 0.43123475 0.12656762 -0.17453358 0.31291422 0.046375167 -0.16843508 0.048887823 -0.0076727644 0.08218953 0.1267537 -0.032262255 -0.07830132 0.5197255 -0.39543918 -0.027423987 -0.06830873 -0.094081596 -0.18858992 0.26505744 -0.0014575901 0.083438605 -0.337377 0.78293055 0.72481364 -0.21859446 -0.011842312 0.27074125 0.82076246 0.18251553 -0.19873814 0.22229588 -0.1469316 -0.41278 0.118866906 -0.029639952 -0.07856474 0.23757057 -0.12590924 0.07641448 0.009787467 -0.14658122 0.45065433 0.5161569 0.3174897 -0.26037642 0.56219256 0.24395166 0.38231382 0.42648584 0.29358694 0.023179758
ATK 0.55211616 0.30476177 -0.15628397 0.013428236 -0.00071699475 -0.3389646 -0.12249849 0.0051855077 -0.20193213 0.061521284 -0.41179436 -0.46270156 0.21618584 -0.02091603 0.24083075 0.030329779 0.33560827 -0.6533985 -0.08824353 -0.41667825 -0.4963298 -0.0495482 0.47410998 -0.10184135 -0.29719418 0.21931545 -0.10532738 0.23222284 -0.20769663 0.40481403 0.29999986 0.5687495 -0.05676863 -0.6111842 -0.43618634 -0.10926681 0.04395623 -0.15703304 0.09936132 -0.15712273 0.0742616 -0.27127457 -0.1906864 0.1655251 0.36233523 -0.1547246 -0.23262107 -0.056916386 0.32749233 -0.409961 0.03965266 -0.31056815 0.06939289 0.1483894 -0.2908858 0.29520884 -0.023832766 -0.1892532 0.008703229 -0.13641496 0.37859607 -0.34020665 0.14904787 -0.051639043 -0.4706714 0.26913637 0.19140266 -0.089522526 -0.43186778 -0.2294498 0.0046227314 -0.020414684 0.13302752 0.40531725 -0.27979496 0.4347444 0.46182403 -0.41087052 0.029874964 0.3158641 -0.5169373 -0.40574732 -0.10954237 -0.058545575 0.011452994 0.266034 -0.0557906 0.8139083 -0.03245435 -0.30647674 -0.23683755 0.4257726 0.7378965 0.107898384 0.8037756 0.084882505 0.09618563 0.16804287 -0.19333063 0.04107944
QDE -0.14154254 0.4498503 -0.077354304 -0.022623388 -0.0483229 -0.14729762 0.19439968 0.34241143 -0.19430698 0.31289056 0.22326626 -0.41842115 -0.23079544 0.2725553 -0.41934112 -0.7688332 0.23826277 -0.44034904 0.048477888 0.117669284 -0.4590624 0.3306962 0.06187964 0.033430386 -0.8414225 0.15763938 -0.054010287 -0.15140432 0.026114965 -0.27810255 0.16344753 -0.10825361 -0.15746552 0.057277255 -0.25769874 0.146973 -0.54628915 -0.265517 0.2820341 -0.01685791 0.038552288 -0.004545903 -0.14700416 0.063583374 0.003126363 -0.08461218 0.06934787 -0.46253878 0.2467494 -0.33913836 0.11442666 0.03225867 -0.11808683 0.18618096 -0.04819237 -0.1457 0.21837471 -0.23876323 -0.51785725 0.02233988 -0.3658934 -0.38075644 0.21805693 -0.36907554 0.075234026 0.26312143 0.05983909 0.3443675 -0.39973813 -0.09675533 -0.1526697 0.67598385 1.0337763 0.07558379 0.23136814 0.3665019 -0.3588397 -0.38950613 -0.49006495 -0.180132 -0.11161759 0.036242325 -0.2915187 0.14092892 0.24538186 -0.20757344 0.02979536 -0.24108686 0.1933331 -0.22961085 0.24331057 0.48932892 0.10325436 -0.13579082 0.41243857 -0.11762873 -0.105964005 -0.15553279 0.3509668 0.3246435
TQK 0.12007217 0.37744534 0.49048018 0.15779996 -0.009280911 0.19677873 0.36714447 -0.019833352 -0.015843974 0.6827815 -0.52087367 -0.71556616 0.13876638 -0.08779556 0.40562674 0.019138847 0.59426755 -0.3965988 -0.35823953 -0.3696343 -0.18233389 -0.23334591 0.31533524 -0.08955802 -0.5402073 0.05132892 -0.06457882 0.012162546 0.042247586 0.4595085 0.32737464 0.5108983 -0.07384042 -0.5286837 -0.28243297 -0.075665794 0.58416426 -0.073407896 -0.08603061 -0.004825186 0.3632169 -0.6259443 -0.016019428 -0.002630487 0.40298346 -0.50670743 -0.09217703 -0.069377415 0.51061904 -0.22181433 -0.023228815 -0.48760375 0.34667608 -0.29007214 -0.050163828 0.082244575 0.15677299 0.09877897 -0.3628954 0.13394885 0.16454555 -0.48721948 -0.093380116 0.20940602 0.25460446 0.2481477 0.18903516 -0.28816012 -0.57025254 -0.11643934 -0.3023606 0.17037041 0.18878725 -0.008685348 -0.11120138 0.6913247 0.25590414 -0.0001270558 0.0075236075 0.45057744 -0.04948868 -0.3235013 -0.10435658 0.0145981815 0.020186566 0.391409 -0.1481299 0.9948916 0.28288937 0.3585235 -0.17028503 0.5516047 0.3298524 0.18043344 0.44993237 -0.13871498 0.011953075 -0.11875619 -0.017578205 0.048197962
IAK 0.2340084 0.46755365 -0.17594619 -0.11665398 0.75184584 -0.20413706 -0.046519965 -0.03297946 0.16138726 -0.34952453 0.17624292 0.15648748 -0.1524679 0.25176114 -0.2170862 0.28266048 -0.3900666 0.3267956 0.14994997 -0.4498035 -0.42123112 -0.2600321 0.00015474163 0.120316654 -0.9307529 0.29763094 0.5168423 -0.05706997 -0.32062414 0.3463245 -0.04816231 -0.31232786 0.2704127 0.68313617 -0.366399 0.47148523 0.27249917 -0.01023446 0.21562406 -0.58257174 -0.005758562 0.42047244 -0.19919623 -0.032925516 0.19305278 0.089374095 -0.101064935 0.083237 -0.18943468 0.56300634 0.099450886 -0.28804544 0.23647647 -0.028603883 -0.5529674 -0.19707602 -0.21801697 0.06399347 -0.69115204 -0.28939953 -0.115465164 -0.39318535 -0.59325296 0.016573926 -0.096993364 0.2218865 0.46825132 -0.5567967 -0.12808615 0.2059468 -0.0013709404 0.17186502 -0.25223607 -0.091137744 -0.26795036 0.3222325 -0.24143605 -0.15098052 0.2946008 0.045348637 0.08074165 -0.07908186 -0.054516274 0.082763545 -0.2693308 0.19639331 0.58386517 -0.084778816 -0.043385074 -0.050229896 0.48807335 -0.14756297 0.11451172 -0.2609896 0.53816307 -0.3924902 -0.37746972 -0.18828908 0.16790475 0.4432624
ELG 0.51078963 0.36598164 -0.2080914 0.42120355 -0.5104672 -0.12755911 0.29750872 0.59888715 -0.3566568 0.4997186 -0.41128328 -0.26868486 -0.53302306 0.26217815 0.03150099 -0.25247905 0.1307177 -0.08336617 -0.08889057 -0.17763793 -0.13167407 -0.014636576 0.18510674 -0.050162043 -0.40379894 -0.09722316 -0.10453895 -0.09673418 -0.027042778 0.06649249 0.58986366 -0.30427727 -0.025846396 0.08021469 -0.27288488 0.2511322 0.27563578 -0.15612413 -0.24483475 -0.021109926 0.06767928 0.10593807 -0.09917005 0.1627482 -0.06543711 -0.5105182 0.45408538 -0.4585015 0.15129825 0.016472159 0.29516146 0.098324 0.4849209 0.20118997 -0.72488993 -0.04735881 0.5955898 0.21404324 -0.3960785 0.017659767 -0.20295784 0.09068627 0.024853135 -0.4214832 -0.00051283196 0.63726497 0.21128482 0.5638643 -0.17075549 0.09412148 0.4837226 0.54149044 0.7327193 -0.083412714 0.5569094 0.032884806 0.18769336 -0.27306315 -0.62114114 0.09040012 -0.24243495 0.3137862 -0.2064312 0.3836251 0.03891865 0.0405106 0.29094476 0.06872176 -0.34989998 -0.2688037 -0.041217946 0.008515038 -0.044076152 0.18972537 0.6665413 -0.1684446 0.44426093 0.1595949 -0.052195318 0.02458955
NEL 0.46135116 0.65563715 0.14217786 -0.08665636 -0.28684694 -0.20834726 0.45223537 0.00997113 0.15984064 0.43077517 -0.335685 -0.6816497 0.22751306 0.16685787 0.33763006 -0.02757632 0.7580121 -0.3468976 -0.26453963 -0.2292391 -0.25889075 -0.012994042 0.110768065 0.114604175 -0.41602626 -0.30238497 0.17047657 0.03346158 -0.2786936 0.28001118 0.6517899 0.0904206 -0.0555835 -0.13890564 -0.39322376 0.45375955 0.36522728 -0.07873696 -0.03312169 -0.5370813 0.49484324 -0.48692748 0.030966448 0.2066634 -0.059824828 0.18124759 -0.30707866 0.2774476 0.30607477 0.16931629 0.08038403 -0.4239816 0.20503268 -0.15816468 0.030809445 0.4790207 0.19879322 0.008859472 -0.008082285 0.31068644 0.47175264 -0.089784086 0.07395717 0.21290018 0.22505862 0.12884372 0.22603065 0.42970198 -0.3132629 -0.22857904 0.060712494 0.3503001 0.25219983 0.14422353 -0.47387564 0.26235953 0.39613858 0.08716225 -0.13076447 0.5005785 -0.42350855 -0.349923 0.3048518 0.08614163 0.13864164 -0.09301041 -0.05760401 0.8894141 -0.045897093 -0.18125227 -0.05958404 0.27966943 0.5225515 0.09401363 0.58819216 0.28267783 0.18074293 0.028103 0.17540318 0.09905657
DGD -0.13913575 0.8576685 -0.09144634 0.082312115 0.36300036 -0.38279536 0.62961656 0.03652032 0.03557042 -0.13577682 0.017855834 -0.18224536 -0.036456328 0.08589366 0.016606307 0.046832655 -0.077657245 -0.52859914 0.29521018 -0.2578666 -0.57026035 0.19154862 0.016759127 -0.21194273 0.13160765 0.22977881 -0.2593092 0.18008114 0.033432845 0.10609605 0.023811948 0.17773102 -0.17778787 -0.34853497 0.020847097 -0.20583665 0.28343523 -0.20398174 0.103930764 -0.17514658 0.0648844 -0.014057176 0.053105902 -0.53499705 0.23277454 0.3190894 0.24825943 -0.02740416 0.50492185 -0.014852467 0.281268 0.34856528 -0.11184096 0.61327213 -0.26625168 0.2749751 -0.16487083 -0.7283172 -0.04357009 -0.18647797 0.20773233 0.070842445 -0.33552694 -0.0686915 -0.20898826 0.6648883 0.30042028 0.30026612 -0.25093582 0.3555751 -0.45021218 0.7903594 0.5531967 -0.77977407 0.17947775 0.78385854 -0.3095424 -0.14975122 0.031100845 0.15456457 0.16348872 -0.06562575 0.07742957 0.035359547 0.7011462 0.5589972 -0.29032582 -0.10236818 0.24138615 -0.19176207 -0.4146634 -0.029181505 0.2125605 -0.17611991 0.46166232 -0.078090906 0.26314571 0.48950645 -0.1251654 0.15573278
DKI 0.26767614 0.4855582 0.06527509 -0.24118307 0.30619347 -0.24000072 0.013681867 0.45230195 0.22540581 -0.3981275 0.37230456 0.2633821 0.2656151 0.09776626 -0.16275187 0.38489547 -0.36100185 0.14342101 0.0099027045 -0.55402464 -0.35057855 -0.120701544 -0.32433614 -0.36959463 -0.5352291 0.15268147 0.5323994 0.02531087 -0.36061168 0.46920133 -0.047852676 -0.30100405 0.4054859 0.45839074 0.06505749 0.34004852 0.2464745 0.009475968 -0.27937743 -0.33377156 -0.12140832 0.53395545 -0.44189814 -0.14795063 0.062012337 0.36050543 0.19411466 -0.095908746 0.13214764 0.027789904 0.44802928 -0.39414424 0.2940739 0.02209738 -0.56585604 -0.20207225 -0.24589436 0.055676017 -0.5959199 -0.50336725 -0.24748743 -0.16058694 -0.74806744 0.21014236 0.18760103 0.06373344 0.661789 -0.39901724 -0.3312155 0.040016584 -0.33019838 -0.027608639 -0.41260883 -0.024848094 0.1654289 0.27208525 -0.12554833 -0.035034172 0.3124052 0.18449186 -0.13814807 -0.35021427 -0.4470181 -0.17181922 -0.38599378 -0.14467631 0.67457306 0.14933695 0.15929894 0.015175628 0.32979318 0.08873741 0.039762933 -0.2669482 0.2527923 -0.12688464 0.082605936 -0.0070253327 0.027952855 0.31039512
TQD 0.79684705 0.3553477 0.23213524 0.20931974 0.12876213 -0.4434943 0.34673652 0.47781697 -0.41443476 0.13488445 -0.5923162 -0.5135287 -0.5313762 -0.3423681 0.29128212 0.06986104 0.14843823 -0.26612356 -0.24832064 -0.67582226 -0.019123403 -0.05394806 0.22656593 -0.037509914 0.25650978 -0.49461427 -0.57289463 0.018379211 -0.48230895 -0.010734913 0.7691775 0.25598118 0.17835 -0.07259521 -0.10520177 0.049996644 0.17957921 -0.013729163 0.07596092 -0.35436153 -0.30825835 -0.43473577 0.0013603551 -0.031456906 0.41531485 -0.606331 0.120102994 -0.022022419 0.3275339 0.15028097 0.11314087 -0.10917938 0.0038568636 0.028916335 0.24838705 0.12962815 0.22265796 -0.1749898 -0.19952868 0.28311047 0.43690357 -0.21704505 0.035587464 0.08826933 0.15993021 0.083353445 0.594051 0.29835007 -0.1427123 -0.04832148 0.25820616 -0.0253324 0.63186985 0.22049639 -0.1812711 -0.06860871 0.07964247 0.055990227 -0.51393855 0.06527185 -0.36759478 -0.49052158 -0.26547927 0.25772244 0.07627461 0.39857224 0.19174421 0.2667829 0.055829972 -0.50129634 0.22006914 0.6354176 -0.085944794 -0.23485142 0.6390082 -0.33633378 0.0039154603 0.2088922 0.027559584 0.103668995
GKT -0.3173287 0.16638915 -0.06393491 -0.001762108 -0.34997293 -0.25714383 0.4424861 0.64838994 0.12006197 0.15930192 0.037420005 -0.5551616 -0.11017869 0.23959637 -0.104786195 -0.45805395 0.22107755 -0.69250166 0.08565414 -0.28856716 -0.24744757 0.097774245 -0.068401486 -0.20077936 -0.66830873 0.15020034 0.47663236 0.0910187 0.13282563 -0.22378387 0.3376158 0.08909259 -0.0929561 -0.0034157117 -0.34268346 -0.20491585 -0.2799146 0.28542015 0.0047548576 0.03715893 -0.037133522 -0.1780983 0.058501683 -0.056929547 -0.42780703 -0.33612657 -0.27768913 -0.3082644 0.16229975 -0.20852458 0.27891245 -0.11044532 0.0788795 0.2759793 -0.20447142 0.15950166 0.2852854 0.03521393 -0.2740372 -0.052211106 0.006731893 -0.115594774 -0.02413947 -0.13181686 -0.23837121 0.51184696 0.3838903 0.20924124 -0.05335338 0.29961994 -0.11854412 0.51932913 1.1458755 -0.09534356 0.35005292 0.3325301 -0.44550937 -0.28766495 -0.5018024 -0.3284034 0.103153825 -0.24304365 -0.21441545 -0.028676013 -0.08960157 -0.26095292 0.3089809 -0.1307978 -0.122907154 -0.34467468 0.30868965 0.107910775 0.30824968 0.0035227141 0.39849785 -0.16518678 -0.16334309 -0.04947018 0.5292479 0.057193954
EGK 0.50482094 0.36341044 -0.17036413 0.2569578 -0.12655 -0.32622552 0.5432088 0.47656566 -0.42418545 0.31389236 -0.7200255 -0.19603486 -0.65152806 -0.1251329 0.46443632 0.33128583 -0.050509002 -0.3655512 0.01663113 -0.44509363 -0.040546518 -0.26230383 0.19538423 0.015000164 -0.14013007 -0.1783882 -1.1847588 -0.19284664 -0.27396032 -0.07478727 0.64602613 0.3194232 0.0461005 -0.22108568 -0.24622755 0.19278196 0.22096902 0.18037577 0.21442406 -0.522564 -0.24455044 -0.3719696 0.3324736 0.27622685 0.55646217 -0.30332577 -0.21095784 0.0396173 0.47351032 -0.00837657 0.27996093 -0.44166827 -0.053448133 -0.23885244 -0.1746844 0.27239668 0.12480533 -0.08475815 -0.023420202 0.33703226 0.10916098 -0.46300858 -0.13228206 -0.06117772 0.20768657 0.41646063 0.36002588 0.06622962 0.09613604 -0.24038638 0.46230716 0.14901574 0.2090606 0.3002306 0.036802787 0.09798134 -0.09268563 -0.080968834 -0.23726907 0.09651302 -0.12978218 -0.28271052 -0.050947733 0.07664123 0.1314186 0.23954746 0.57078147 0.13827854 0.24624123 -0.26663283 0.40850216 0.35264942 0.3162537 -0.090113804 0.5963588 -0.0907863 0.24946578 0.16232896 -0.10332358 -0.049746923
SDK -0.26540127 0.38677594 0.20625474 0.22601365 0.2977196 0.041219257 0.07907916 0.23237148 0.15390092 -0.05108276 0.0404626 0.2768831 0.19224843 -0.16095525 -0.12514219 -0.34660518 -0.3904186 -0.14196411 -0.01787391 -0.9320809 -0.36847222 -0.37920493 0.4720216 -0.29578885 -0.43643674 0.28624877 -0.1888696 -0.38415053 -0.1349423 0.3860201 -0.36346874 0.19056444 -0.39608616 0.10744796 -0.10806054 0.16464408 -0.10596386 -0.05243951 0.2656309 -0.27459288 -0.072359756 0.1304175 -0.20489934 -0.54190785 0.3931006 -0.34540847 -0.110199004 -0.2684719 0.34659007 0.017692223 -0.22584592 -0.16113807 -0.26749694 -0.3639672 0.17974946 -0.36053008 -0.22118452 -0.06461167 0.16411002 -0.63591045 -0.3368877 -0.7688435 0.22244765 0.13184586 -0.36372048 -0.23755051 0.22100529 0.16829231 0.37290955 0.39680713 0.24475558 0.48288175 -0.19773577 -0.32412648 -0.15728065 -0.25612798 0.28830826 -0.049871113 0.533353 -0.07706128 0.12862542 -0.26400694 -0.4118375 0.4870377 -0.35487363 -1.0454413 0.5612805 0.083348565 -0.39325637 -0.07615899 0.31818834 0.2881112 -0.038014993 0.2403093 0.5240747 0.11605999 -0.014549502 0.08419608 -0.28592485 -0.2569598
LNE -0.32361215 0.5725644 -0.32967076 -0.061716754 0.1766244 -0.32426918 0.7592829 0.069228895 0.24371882 -0.32244316 -0.23083085 -0.5659874 -0.32183596 0.41827798 0.10188471 0.044498347 -0.031107869 -0.32782757 0.020984882 -0.28598863 -0.54776496 0.08256614 0.12225251 -0.11834522 -0.1724064 0.09825338 -0.13910024 -0.07783133 0.009594622 0.49832675 0.3673713 0.24670821 -0.42786148 -0.36899725 -0.19405586 0.0891684 -0.19285682 0.031948812 0.09312001 -0.39077735 -0.049578596 -0.020376032 0.13113174 -0.4296488 0.20079805 0.111131914 0.71431935 -0.2866363 0.23281075 -0.14589007 0.4175954 0.38182768 -0.049400866 0.58632636 -0.38783383 0.30117413 -0.19787435 -0.48282483 -0.21594998 0.22830531 0.3892352 -0.14197896 -0.11293752 0.41540587 -0.025116539 0.45454434 0.19337977 0.38907292 -0.02881412 0.30552578 -0.55245245 0.33648983 0.43976247 -0.47218224 0.028261365 0.56434524 -0.15767552 -0.19294725 -0.062304445 -0.11795917 0.2702515 0.2915298 -0.050520774 -0.4137612 0.47087866 0.46848512 -0.48108461 -0.096712366 -0.07775023 -0.010199726 -0.1237613 0.01880981 0.26948813 -0.19084027 0.50695914 0.10624362 0.039487667 0.17883694 -0.044476848 0.18020858
PEG 0.059989646 0.5490426 -0.23057353 -0.28740627 0.5853125 -0.08192096 0.4187654 -0.104908824 -0.28861085 -0.19331704 -0.44034308 -1.0089979 0.46009484 -0.036160823 0.2777768 0.3099509 0.052616697 -0.5314258 0.09814512 -0.17396756 -0.006840461 0.3202126 -0.0030915653 0.1411596 -0.20681925 0.017209189 -0.12929694 0.090761 0.18939051 0.67814267 0.039661787 0.054969598 -0.6912197 -0.5162147 -0.29944888 0.483327 0.31293854 -0.08428183 -0.22627276 0.09975371 0.23957671 -0.14626232 0.09588907 0.3465578 -0.12148315 0.17086512 0.010729131 0.04390321 -0.03405893 0.15603253 0.18131803 -0.19766681 0.18576236 -0.04993142 -0.3803509 -0.077155486 0.28062472 0.026747923 0.119622 0.06282209 -0.0505671 0.21161275 -0.23634554 0.14753984 -0.01997863 0.0048399367 0.19055429 0.50880224 -0.25778747 0.22227609 -0.4179394 0.9333834 0.5576505 -0.15838388 -0.4286484 0.41478947 0.27767292 0.15214518 0.035354607 0.5005129 -0.094697654 -0.08894155 -0.13369115 0.2521026 -0.09127096 0.24929023 -0.25743884 -0.11572655 0.06424128 -0.50336677 0.2014797 -0.10131443 0.1771137 0.008542943 0.6467055 0.44685087 0.28137484 0.28435993 0.39894032 -0.39322227
LGP -0.2059828 0.46211955 -0.41292143 -0.07164256 0.3211235 -0.4118362 0.39305806 -0.20700623 0.18265636 -0.2752667 -0.21603039 -0.3550591 -0.025116783 0.003713866 -0.07079637 0.24315591 0.03159889 -0.18684764 0.083584204 -0.01883264 -0.757375 -0.05126549 0.409489 -0.008542813 0.015985006 0.045325067 0.056567997 0.02960136 0.11934841 0.27350095 0.19319181 0.013340932 -0.80286574 -0.21975558 -0.2567208 -0.5148778 -0.087361135 -0.20950994 0.010265806 -0.33849403 -0.2860057 -0.06450166 0.21211772 -0.15453193 0.45955396 0.27687663 0.06760346 -0.21906103 -0.06622158 0.21707606 0.32677042 0.20790657 0.10120101 0.53305715 -0.40997598 0.28408703 -0.25823772 -0.33647925 -0.2562651 0.10449883 0.34859473 -0.10098667 -0.15491334 0.23169637 0.085466176 0.75691956 0.056484047 0.41388234 -0.17913622 0.17122437 -0.2854298 0.6439255 0.54661584 -0.7147063 0.39131492 0.9106352 -0.3596615 -0.115016766 -0.035278466 -0.30301547 0.4012436 0.019636778 0.26573166 -0.020558132 0.25927782 0.5882472 -0.19974917 0.2698931 0.25270498 -0.53905404 -0.19048151 0.0990142 -0.020593438 -0.21463163 0.5974426 -0.1260777 0.2536006 0.3310902 -0.042058345 0.19100955
ALN 0.510367 0.5448165 -0.2717621 0.334881 -0.4431926 0.143637 0.20062605 0.9372035 -0.13448456 0.33240098 -0.40352428 -0.5479445 -0.74977213 0.16726434 -0.19242254 -0.14394513 0.0972299 -0.2584482 -0.3431529 -0.4176428 -0.4739757 0.38369682 0.11373325 -0.22871171 -0.32531267 0.1577144 -0.10123469 -0.10490799 -0.32985294 -0.13056105 0.6042225 -0.063476734 0.063321106 -0.042552676 -0.483019 0.33419013 0.22695553 -0.13398457 -0.34909123 0.09234667 0.1624287 0.38656723 0.1290983 -0.19067405 -0.105534144 -0.44795513 0.24754517 -0.08996148 0.17446816 -0.43519533 0.14651594 0.0076968274 0.016448272 0.21860181 -0.47410995 0.23134649 0.5827503 0.008594325 -0.074181415 0.008214851 -0.24496298 0.22585997 0.21166286 0.085287265 0.040943366 0.3866927 -0.07187208 0.43348843 0.029256882 0.12913895 0.22907385 0.29328805 0.44149983 0.14094938 0.55987763 0.45402887 0.007742823 -0.18858857 -0.6371371 0.15540919 -0.09707208 0.2324501 -0.3676297 0.48837328 -0.15393125 0.16684869 0.6016667 0.049904555 0.015273612 -0.4533352 0.15196562 0.3269789 -0.065633275 0.008821076 0.16950165 -0.02631403 0.47905722 -0.11715759 0.26694912 -0.0003856194
DES -0.2926422 0.19913481 0.15705301 0.10030803 0.22201109 -0.37108383 -0.073665425 -0.16379954 0.054838467 -0.18317528 -0.1529154 0.28374153 0.72592634 -0.16477852 -0.40548816 -0.026158942 -0.036981735 -0.120759584 0.028748918 -0.34189305 -0.051460605 0.025745653 0.15976667 0.7101748 -0.4033826 0.11805013 0.0832833 -0.016964601 -0.05747029 0.53645724 0.0042647272 -0.37816197 0.3567079 0.22746025 -0.1552619 -0.33036327 0.31370106 0.4072358 -0.099482454 -0.52054155 -0.12628525 0.34968305 -0.15122122 -0.3040262 0.03362856 -0.07190191 0.10220499 0.36731517 -0.04564256 0.19170655 -0.0036160713 -0.42373908 0.0009523636 0.08398977 -0.38121367 0.2521353 -0.7361558 -0.5455116 -0.41191208 0.0065023145 -0.30313793 0.002725219 -0.4345149 0.32072923 -0.12583798 0.5566957 0.07205694 -0.29583272 -0.069081716 0.63794863 0.080329716 0.32069615 -0.380669 0.27857786 -0.46410814 -0.058138125 -0.4734154 -0.018743984 0.23100027 0.5945416 -0.22507352 -0.29536697 -0.48070285 0.5289824 -0.59581065 0.08150764 0.28108042 0.19394888 -0.47559947 -0.26684812 0.042829983 -0.08970795 -0.33452487 -0.046025265 0.8913486 -0.061611786 0.14226656 -0.014663333 -0.1353912 0.39807117
PDG 0.36531267 0.59235734 -0.54123 0.46247002 -0.50385475 -0.16847293 0.2041212 0.8129761 -0.16037051 0.46909443 -0.657274 -0.4022297 -0.76975155 0.1076366 0.19609123 -0.5357238 0.24691658 -0.20418844 0.0009676597 -0.10725783 -0.39490142 0.019798523 0.09429918 -0.08416077 -0.4053678 -0.22028674 -0.35178694 0.23472175 -0.17188564 -0.06539324 -0.16579336 -0.13459536 -0.19590546 0.36771724 -0.51018685 0.49574164 0.30213648 -0.21752526 -0.41336828 -0.13849095 0.19654305 0.05704621 0.112523265 -0.23845786 0.09686616 -0.69766647 0.0026533098 -0.4106601 0.13571799 -0.11326314 0.11273696 -0.057247683 0.37108895 0.026556587 -0.74680185 -0.07046009 0.62733597 -0.22393326 -0.20406277 0.13346682 -0.13032165 0.36014694 0.14580642 -0.026041938 -0.14667381 0.2247189 0.15076943 -0.068308175 -0.14917885 0.11536547 0.01169664 0.5029507 0.7912153 0.2049683 0.5375544 -0.07298504 0.018727798 -0.21599081 -0.7601712 0.36809278 -0.06681203 0.2395641 -0.13757429 0.46576023 0.17157537 0.27658314 0.42050636 0.110510714 -0.18311325 -0.5740612 0.1015903 0.029266424 -0.12440422 -0.074436806 0.26400074 -0.19189624 0.20791247 -0.3383566 0.28012404 0.15316139
LSD -0.2106092 0.28732914 0.40895182 0.18851532 -0.009563588 -0.15751 -0.1792743 -0.4113976 0.12751876 -0.14974847 0.031119902 -0.17402576 0.35380808 -0.1790897 -0.47769699 -0.19653149 0.012914177 0.054329503 -0.1987226 -0.016810097 -0.11683614 -0.30085322 -0.09620656 0.34427065 -0.31720933 0.20108122 -0.40825188 0.21288067 0.29988426 0.8981212 0.45557004 -0.1326392 0.27924082 -0.31000715 -0.37591338 -0.047781385 0.35143375 0.24744837 -0.06402951 -0.40596175 0.12882103 0.50822514 -0.5091426 -0.57044876 0.40646017 -0.36025864 0.050511025 0.12115097 -0.043669213 0.2687197 -0.40029317 -0.2923975 0.10264762 -0.15027304 -0.3662985 0.13079466 -0.6312465 -0.5669834 -0.5702933 0.19569817 -0.25288978 0.15754269 -0.42903823 -0.009962229 0.14806676 0.17066877 0.17910464 0.08939511 -0.03525935 0.5011209 -0.02666274 0.3059564 -0.49148026 0.14163153 -0.04645034 -0.010957205 -0.05563408 -0.03831659 0.06967538 0.07937786 0.25028625 -0.15115201 -0.64395916 0.50271136 -0.4178744 0.01474188 0.5393163 0.4476439 -0.37143478 0.31167048 0.18014269 0.16318107 -0.3234702 0.058249213 0.72411597 -0.029444676 -0.19719437 -0.03319388 -0.23915055 0.30029774
GPD 0.53028345 0.48828232 -0.17503573 0.20707788 0.38044006 -0.034542225 0.11975896 0.19745459 0.3655639 0.44790182 -0.30808204 -0.553902 0.06468182 -0.16098383 0.27324793 0.1478335 0.75259316 -0.39556882 -0.2131392 -0.6365396 -0.27542028 0.124961846 0.45711312 0.11433201 -0.3219621 0.12654229 -0.3474998 -0.16660438 -0.3767547 0.2325006 0.19844542 0.15476854 -0.41492683 -0.3653979 -0.24586257 0.21780235 0.43213958 0.25795528 -0.21844606 -0.48564938 0.40351266 -0.41512698 0.012617574 0.25055683 -0.2006433 -0.21689537 -0.4162259 0.30140457 0.5615729 0.17776126 0.13758428 -0.23095535 0.22028306 -0.10287255 0.061745435 0.15440506 0.044936024 0.24320967 -0.08317202 0.2124904 0.39357316 0.046603568 -0.053541433 0.18700063 0.1255454 0.21605693 0.4142168 0.4300966 -0.14447361 -0.21813248 -0.30740988 0.13379572 0.26965693 0.29622754 -0.30235252 0.6708151 0.42852026 0.21476518 -0.3634053 0.3439899 -0.7756222 -0.30376878 0.014668705 -0.18922466 0.10043107 -0.3402692 -0.029148756 0.77906626 0.15565294 0.13181208 0.014070647 0.07115112 0.5022645 -0.17077938 0.66568565 0.13596956 0.53426856 -0.16035958 0.4157097 0.029020756
KID -0.37420318 0.560849 0.1843839 0.23591797 -0.13549595 -0.12516277 -0.1663611 -0.12593707 0.19214793 -0.7573096 0.12394197 0.002178237 0.25089055 0.028844444 -0.5090602 -0.2525973 0.117434055 -0.11462782 -0.11237368 -0.24539979 -0.41228196 -0.28380814 -0.47921732 0.5218025 -0.42999166 0.12432402 -0.48683155 0.20798309 0.3798886 0.603189 0.18404777 -0.14131634 -0.03990207 0.08673752 -0.25904262 -0.553111 0.2964123 0.14624384 0.004521065 -0.59089816 0.03620216 0.17809732 -0.015161793 -0.2617887 0.07298704 -0.1112743 0.002310615 0.33701146 -0.14132938 0.35445485 -0.10627088 -0.40119353 -0.17111778 -0.092609614 -0.4814225 0.28216168 -0.4584901 -0.605193 -0.6251124 0.24369803 -0.5481029 0.074852526 -0.043313753 0.08292847 0.053295195 -0.14570369 0.5067799 0.33391494 -0.030141143 0.50710195 -0.32310268 0.24973637 -0.13720098 0.60287744 -0.55057055 -0.22841957 -0.21450512 -0.18628769 0.5621038 0.07838721 0.09562862 -0.3525859 -0.6501008 0.45089522 -0.21395397 -0.19218937 0.20349659 0.13833594 -0.15561527 0.1072539 0.3281028 -0.08079636 -0.21388409 -0.12663642 0.71551627 -0.11009937 -0.15912971 -0.021886548 -0.15625584 0.06362979
KLS 0.41199636 0.07897107 0.011379438 0.15204884 0.7748817 -0.21470107 0.1066765 0.5284846 0.30836657 -0.3012681 0.004033563 0.18405116 0.013729559 0.106888026 -0.033782687 0.1112549 -0.54105914 0.18416175 0.18054186 -0.4279661 -0.31599143 -0.42072597 -0.27044582 -0.30460536 -0.53088206 0.07557451 0.19182853 0.03678433 0.08607061 0.34023666 -0.1222415 -0.12156108 0.20748253 0.46746054 -0.6468061 0.46911818 0.15897304 0.06794813 -0.07575147 -0.38464844 0.23924318 0.40402988 -0.3066036 -0.24801704 0.05666212 0.38645187 0.24969484 -0.11955327 -0.045413535 0.50367707 0.24105208 0.04645279 0.18996303 -0.094934285 -0.7744454 -0.0040691835 -0.0817094 -0.1761272 -0.41541854 -0.3527816 0.012603897 -0.33208793 -0.32382357 0.23055856 0.18642403 0.17076802 0.33063263 -0.4074223 -0.30869228 0.40326953 0.0062803617 -0.02078139 -0.77919704 0.006877542 -0.24372981 0.36369574 -0.02716358 -0.16603625 0.28320387 0.11929417 -0.020402508 -0.1885021 -0.32128122 -0.03522857 -0.060034886 0.05461376 0.76497954 -0.07311049 0.16442575 -0.014363384 -0.09558561 0.22300604 -0.18202591 -0.11195927 0.68781924 -0.40869457 -0.079763874 -0.40798616 0.07514685 -0.029354803
ALQ -0.4558159 0.4634009 0.03153148 -0.04160683 -0.04935102 -0.18601282 0.42131132 0.5897615 0.120639645 0.085627824 0.066104665 -0.75813377 0.21011601 0.16154507 0.3627045 -0.40962994 0.6231306 -0.25797707 0.26791218 0.0052470174 -0.48498943 0.2989428 0.03316239 0.045489535 -0.5238346 0.057302788 -0.1636755 -0.4802277 0.21399128 0.09149039 0.5114252 -0.13245927 -0.23370653 -0.3334868 0.020745503 0.24037471 -0.2235269 0.124435335 -0.47432098 -0.033860378 0.1782539 -0.5080639 0.07018284 0.09559456 -0.37191045 -0.041810747 0.27941844 -0.17237605 0.1353773 -0.12543741 -0.08674055 0.118187 -0.32169968 0.24081346 -0.13707192 -0.21168984 0.2598792 -0.1908381 -0.12920308 0.13331772 0.0027083545 -0.035946567 -0.068306684 -0.067337155 0.069932796 0.5202195 -0.08992597 -0.07407567 -0.6699858 0.007343839 0.18389194 0.59620625 1.0042859 -0.336634 0.45731145 0.3541434 -0.3167963 -0.18479462 -0.2303306 0.34519032 -0.48444963 -0.028682243 -0.38396755 0.26799098 -0.435913 -0.02549234 0.2989962 -0.24852939 -0.051499967 -0.48025003 -0.21352476 0.26387367 -0.083235756 -0.374646 0.66081506 0.053965356 -0.28272375 -0.4791736 0.40479022 -0.3882194
EKD -0.12027222 -0.18510899 0.501618 0.2112336 0.045911018 -0.035850305 0.11079931 0.12509227 0.04392186 0.30450767 0.3769241 0.20272927 -0.12532796 0.17899388 -0.24472159 -0.17963682 0.014092563 0.24192853 -0.10096335 -0.6090754 0.055060174 -0.55419433 0.017498517 -0.17033868 -0.19067277 0.124342725 -0.175335 0.09807777 0.109605856 0.5109425 0.04763064 0.33934504 0.08622902 0.49787128 -0.027115133 0.18696848 0.093564734 -0.21753299 -0.1787407 -0.50478184 -0.04928992 0.14002858 -0.78718156 -0.4942244 -0.106568046 0.056394983 0.28037348 0.055891257 -0.30442178 0.32041222 -0.08292881 -0.5084869 -0.06764564 0.30016747 -0.35774356 0.0687808 -0.2797172 -0.14996581 -0.2324521 0.11474716 0.41460478 0.08187939 0.1556683 -0.17222847 -0.34076563 -0.43943045 0.27512935 0.15903918 0.082031235 0.215225 -0.24514781 0.030961452 0.013647889 -0.37074485 -0.060334414 0.24383281 -0.25827235 0.015970413 0.5692664 0.5544865 -0.2240107 0.10189226 -0.588687 0.724299 -0.19251008 -0.09954537 0.43694648 -0.12476572 -0.12598851 -0.1125064 0.4704579 0.05574532 -0.12752557 -0.07042794 0.5507175 0.08018035 0.24800557 -0.17691132 0.4568314 0.44579408
GLE 0.8324116 0.7136425 -0.027243858 0.18279667 -0.12262306 -0.05517398 0.2483485 0.17288065 -0.048214428 -0.08949634 -0.3310245 0.010359896 -0.16601123 -0.10988229 0.2948717 0.36930478 -0.20347856 -0.26442477 -0.12554301 -0.06666622 -0.8647973 -0.18606815 0.62810606 0.13204305 -0.5712273 -0.26169276 -0.10177761 0.2159102 0.08917373 0.30290982 -0.27366126 0.061135292 0.22388732 -0.53949916 -0.4695095 -0.14789096 -0.01816241 0.14374152 0.0066445237 -0.35582933 0.2686227 -0.47078595 0.64697903 0.07362301 0.3917544 -0.5701437 -0.068380624 -0.22735277 0.18498251 -0.33052757 0.30251676 -0.31196606 0.61757296 -0.17517592 0.11371188 0.04742045 -0.045726888 0.10901322 -0.25440276 -0.28721035 0.21369165 -0.48945257 0.05750736 0.3098087 0.13749091 0.28827018 0.13659264 0.2710507 -0.6066278 0.41690332 0.121724665 0.40840682 0.4466755 -0.23127858 -0.19794522 0.21259439 0.16969137 0.11427251 0.29593882 0.30791733 -0.38062984 -0.28914046 -0.0032129192 -0.20181088 0.4818783 0.32750157 -0.22122836 0.23954612 0.14037697 0.25684825 -0.29944783 0.3542437 0.020570613 0.232085 0.7360595 0.096448205 0.13450554 0.29048005 -0.15763143 0.1304821
KQA 0.16880478 0.23029865 -0.5352053 0.11835602 0.47348583 -0.33713898 0.63450027 0.74812794 -0.16681999 -0.3892222 -0.5305239 -0.4576154 0.06271123 0.40918693 0.08590382 -0.34238172 -0.06767897 -0.2010803 0.19060676 -0.048127256 -0.20645677 -0.0907913 0.107975855 0.32907912 -0.51571006 0.34091046 -0.2700424 -0.0029613022 -0.021967668 0.16444647 0.4298992 0.15007095 -0.50080115 -0.16668667 -0.05365256 -0.15359205 0.5683068 -0.32187784 -0.05510681 -0.14010535 -0.07599294 0.08663167 -0.023894653 -0.38166174 -0.22765462 0.34171543 0.23680459 -0.46510285 -0.087165795 -0.08027934 -0.3153554 0.21409127 0.3320651 0.4049178 -0.35141483 -0.17492008 0.06727573 -0.1832904 0.12897833 0.29501823 0.10291487 0.3830584 0.033576112 -0.22685406 -0.29218772 0.21604963 0.55944186 -0.080763556 -0.35330284 0.49345732 -0.026123129 0.21709584 0.47601232 -0.5576214 0.30791327 0.21280424 0.18918565 -0.024637252 -0.07949002 0.008849014 0.14433135 -0.29914275 0.22360939 -0.10242996 0.038631845 0.43348172 0.11658316 -0.020530116 0.4681793 0.016565703 -0.0030118062 0.32740462 0.2186593 -0.07500545 0.1457292 0.1358306 0.32960066 0.34380153 0.04985209 -0.36643943
KEA 0.54700434 0.24901873 -0.22293311 0.43813357 -0.456143 -0.15612672 0.76876503 0.4311512 -0.5573077 0.32447004 -0.7431549 -0.33741757 -0.66010183 0.06744552 0.32378232 0.16694647 0.0026953812 -0.0829293 0.017832605 -0.74689496 -0.28480014 -0.04447294 0.2542391 -0.20789471 0.03381324 -0.2926522 -0.4780579 -0.29663363 0.020080697 -0.11654104 0.547732 0.17314792 -0.20998034 -0.1753813 0.206277 -0.09746727 0.34536284 -0.41408777 -0.07371286 -0.32608345 -0.26297274 -0.6519103 0.14670126 -0.0005371223 0.43153355 -0.35126337 0.081992164 0.091563515 0.2674178 -0.17121665 0.60568094 -0.22493279 0.13353306 0.06299397 -0.049913738 0.08132945 0.15203711 -0.09144273 0.057576034 0.06569013 0.06714828 -0.3853215 -0.351887 0.31403223 0.24881735 0.22083507 0.5034782 0.26395467 -0.09927946 -0.05149724 0.1467326 -0.15261658 0.3806668 0.5144854 0.09266354 -0.0818116 -0.08849381 0.0133946 0.011930245 0.37050295 -0.6257123 -0.36898115 -0.30760065 0.42845377 0.052892253 0.11657378 0.058687314 -0.049956877 0.32646325 -0.64906114 0.23955296 0.44927308 0.31182566 -0.13660312 0.769488 -0.24302304 0.30843666 -0.06689004 -0.104148544 -0.15672836
LKE 0.5605147 -0.07175297 0.003546543 0.023018794 0.40485525 -0.5709232 -0.0061519006 0.31605935 0.1532266 -0.30222186 0.09205936 0.2621465 0.40796927 0.27422062 -0.19225498 -0.07648927 -0.35313526 -0.16219735 -0.031661924 -0.4495639 -0.3414939 -0.39001074 -0.23401643 0.12732898 -0.35951185 0.011680337 -0.105577685 0.03177141 0.17017305 0.4420444 -0.010600311 0.042850737 -0.17965429 0.32176405 -0.047536656 0.27378094 -0.019055927 -0.012460204 0.05995147 -0.019598905 0.33569276 0.22193314 -0.34885478 -0.16543217 0.10333309 0.110406876 0.06819744 -0.22464177 -0.2298798 0.4295503 0.15186296 -0.40160844 -0.17634553 -0.59831417 -0.48303977 -0.5176542 -0.36383885 0.15541248 -0.62128156 -0.34495202 0.082549945 -0.23850979 -0.29666555 0.2818626 -0.4567786 0.47209394 0.115508854 0.096461385 -0.3463758 0.1659048 0.18347125 0.2097875 -0.3025164 -0.2651319 -0.31397924 0.004146358 0.252051 -0.19546667 0.3889645 0.3952634 -0.38324934 -0.5177991 -0.3529758 0.111294225 -0.11081729 -0.42157334 0.8329695 -0.28608945 -0.13489255 0.08057661 0.43717778 0.24282765 -0.026072154 -0.09076412 0.70109284 -0.3692293 -0.2831196 0.26884672 -0.07057017 0.12184238
LDP 0.65766734 0.19838272 -0.083508454 0.24292034 0.038247533 -0.5081172 0.24152546 0.49318233 -0.18662335 0.15778089 -0.7030402 -0.14467229 -0.39559928 -0.03407146 0.24168026 -0.4927811 -0.12590702 -0.5338087 0.2001665 -0.5033293 -0.20667125 0.28127 0.29651245 -0.44743475 0.07482473 -0.25647387 -0.36249644 -0.22770765 -0.25932515 0.11054223 0.69002855 0.3243349 0.0158612 -0.65084344 -0.03159225 -0.15575537 0.08583828 0.037258234 0.695188 -0.58508646 -0.33990324 -0.54788446 -0.007269533 -0.051359043 0.14544438 0.02257027 -0.06763505 0.20098187 0.22932133 0.047743246 0.006921997 -0.49698436 0.11276171 -0.1655911 -0.01624004 0.23947789 0.04207456 0.03327498 -0.21136624 0.122655 0.32109722 -0.69620794 -0.26718712 0.12341566 0.02072671 0.24926034 0.13093822 0.08670279 -0.21095385 -0.54631895 0.30814034 -0.030864237 0.53940326 0.31675568 -0.13021259 0.16640647 0.2749123 0.37211227 -0.21727006 0.36799547 -0.5099759 -0.4224204 -0.26378885 0.31859714 0.0570398 0.35252663 0.47828212 0.27124706 0.32823694 -0.14567576 0.24606024 0.40081522 0.22963764 0.0038202594 0.72912556 -0.085043885 -0.07189369 -0.09414927 -0.32877645 -0.1729159
EKE 0.20125516 0.21278928 0.31595734 -0.19041945 0.08342022 -0.7290907 -0.09182777 0.7556317 -0.1827429 0.14792927 0.34154016 -0.25245085 -0.16696608 0.011277651 0.46924412 -0.27614307 -0.6580152 -0.16720898 -0.46517757 0.0472469 -0.7618374 0.106964834 0.41351303 -0.22492017 0.19979373 0.56933355 0.30222827 -0.1377534 -0.09105628 -0.020649197 0.3273722 0.16233824 -0.3659425 0.116607584 -0.37936705 -0.019969625 -0.004470823 -0.045141805 -0.3225004 -0.07109102 0.685722 -0.07331475 0.006133086 0.1399775 0.1693389 -0.3481496 -0.18823767 -0.86383647 0.06837334 -0.19595738 0.035984434 -0.15665494 -0.25619313 0.30452895 -0.2074686 -0.16488725 -0.25549424 -0.20030233 0.13968137 0.06747176 0.38755825 -0.08972108 -0.066860266 -0.39692345 -0.26103213 0.63677734 0.0050130896 0.0591319 -0.75193727 0.09198085 -0.39270952 1.2832391 -0.10887866 0.11167526 -0.03950838 0.4654492 -0.06829524 -0.27696243 -0.08970085 0.29223955 -0.3588314 -0.42183337 0.26238036 0.218534 -0.16627344 -0.19280943 -0.4831845 0.2554765 -0.23305991 0.47370446 -0.057116427 0.43143463 0.4110355 0.3438032 0.63767815 0.2923128 0.071801715 -0.057365328 0.5124547 -0.4117556
TEA 0.039068352 0.4419604 0.28211406 0.10614319 0.4096114 -0.16848731 -0.09828099 0.0039039627 0.64158636 0.010160357 -0.23172325 0.12908646 0.39970165 0.30875573 -0.25290576 0.55893797 -0.2115375 0.06908408 0.02876488 -0.3350759 -0.20853771 -0.46486977 -0.38220042 -0.11809351 -0.6102794 0.7909121 0.13813567 -0.15069486 -0.39487684 0.06311379 -0.06842514 -0.25397852 0.5749843 -0.00013531354 -0.035868935 0.09899201 -0.030407518 -0.0021401118 -0.030309897 -0.5093889 -0.4071903 0.43152088 -0.091686204 -0.43115455 0.14161006 -0.15999447 0.026734337 -0.11473186 0.11226108 0.21338476 -0.069498 -0.37599903 -0.2985254 0.19417 -0.42626455 0.19901498 -0.6579929 -0.4639852 -0.6425963 -0.008192884 -0.31416473 -0.044995103 -0.090223424 0.31816474 0.21764652 -0.16374019 -0.024344113 -0.3685778 0.20514514 0.509467 -0.01948803 -0.18037899 -0.15076381 0.28488746 -0.20624967 0.24584454 -0.28306222 0.055661347 0.22363473 0.41278723 0.19410272 -0.10855507 -0.1987301 0.44894877 -0.4962449 -0.004587797 0.44393364 0.09317879 0.38730872 -0.36394593 0.21617767 0.10640904 0.15680692 0.18699269 0.58289695 0.27255312 -0.20412965 -0.2450716 0.15175217 0.12342192
