489 100
ELD 0.29370016 -0.046780437 -0.044340998 0.40474626 0.2719769 -0.056403764 -0.1296156 -0.10409908 0.20814005 -0.16120002 -0.17333232 -0.39856732 0.18110156 -0.06043384 -0.08401708 -0.08687407 -0.090159774 -0.2507632 0.27142704 -0.20198849 -0.21594973 0.30132493 -0.14725544 -0.34883475 0.24607836 0.057306476 -0.20254652 -0.21380478 0.09047366 -0.09900441 0.14329493 0.2776253 0.14696436 0.044282515 0.09936687 -0.19145325 -0.1804698 -0.103952356 0.17207076 -0.016791336 -0.62791204 -0.1370217 0.18435627 0.052906442 -0.15654407 0.28242102 0.22654097 0.07843334 0.054747805 0.06777737 -0.055306118 -0.26059905 -0.13055483 0.21017945 0.14590037 0.21957819 -0.42145616 0.18081824 0.13373749 0.11192592 0.18202698 -0.06376361 0.40814036 0.2796494 -0.40489426 0.011249185 0.106927425 0.24238776 0.09543084 0.42528817 0.3045824 0.23943357 0.010470016 -0.1475772 -0.23670724 0.015928768 -0.1309842 0.2091004 -0.28676248 -0.014507416 0.07906662 -0.20169571 -0.029199492 0.21176086 -0.2754524 0.106564105 0.361541 0.079847485 -0.025867403 0.055324 -0.013551747 -0.044904944 -0.48911142 0.028993296 0.028257716 -0.22770385 0.24935798 -0.12699594 -0.07291664 -0.08551071
AEL 0.14482628 -0.16552708 -0.16763847 0.016129186 -0.13203514 -0.06805385 -0.048003852 -0.020515315 0.089669764 0.41673204 -0.072014734 -0.18057226 -0.042523973 0.020166429 -0.12044673 0.11610527 -0.061461102 -0.26303214 0.25821683 -0.43529564 -0.12318539 -0.10441936 -0.19811901 -0.2408606 0.0011981349 -0.11044418 -0.20355155 -0.058622483 -0.008051177 0.1537732 -0.09464999 0.021927759 -0.1432287 0.08053328 0.5989982 0.0041201706 -0.10052947 0.31203434 0.051588487 -0.18948312 -0.6919145 -0.09364325 0.053915426 0.11068471 -0.18957907 0.16421536 0.2587986 0.18213397 -0.21672429 0.21539341 -0.29939342 -0.47486532 0.0004476694 0.059494257 0.060847223 0.18734802 -0.37711933 0.522532 -0.13894907 0.045316245 0.004923343 0.049067177 0.016095053 0.38510135 -0.000583435 0.055571184 -0.23877344 -0.115816034 0.024363102 0.17189254 0.069506705 0.3704459 0.0046982146 -0.15107647 -0.13162455 0.18676098 -0.4399215 0.32178685 -0.062526375 -0.10278248 0.3561391 0.032859214 -0.32293308 0.21293949 -0.42243105 -0.25258762 0.017882777 0.16996899 0.13877936 0.035224844 0.13264713 0.1556628 -0.40238827 0.028972486 0.26859018 -0.2600423 0.15814666 -0.09259883 0.065289654 -0.18097638
LEK 0.20084721 0.04819174 -0.004333321 0.14070457 -0.060168892 -0.16283566 -0.12716776 0.026216963 -0.054233737 0.09353026 -0.12924995 -0.13344088 0.27594253 0.01229428 -0.12953621 0.1301808 -0.05920802 -0.0038043687 0.2040752 -0.5325837 -0.18667169 0.054044865 0.12778068 -0.44021073 0.09287807 0.1606429 -0.38534278 0.082896225 -0.00091634813 -0.25808805 0.2602857 0.16784054 0.10352785 0.00073227036 0.26173106 -0.096266106 0.005860933 -0.09814764 0.02865081 0.059153903 -0.22775573 -0.017162895 0.19994652 0.14533088 -0.116846286 0.30160403 0.35293305 0.061241418 -0.009211543 0.06573734 0.07243013 -0.43793684 -0.12870687 0.32006985 -0.11513321 0.10198465 -0.2960841 0.2921647 0.1626344 -0.028730795 0.15453735 0.14440152 0.20430832 0.1634486 -0.116632506 -0.28708336 0.0008486292 0.06262152 0.0054260227 0.26536316 0.38545862 0.25599495 -0.0589164 -0.31112465 -0.3158561 0.19020084 -0.20444946 0.14961615 -0.4701401 0.049242955 0.17537886 -0.025723435 -0.0456259 0.17895217 -0.1809364 0.13696179 0.5503391 0.26630518 0.0063852686 -0.34674546 0.0016131157 -0.045513216 -0.22493525 0.26633006 0.055841662 -0.22024462 0.5541155 0.12830961 -0.061119203 -0.31463292
KKA 0.09456866 -0.23764245 -0.053026333 0.071900435 0.080099665 -0.0035632951 -0.13632593 -0.14461528 -0.14181064 0.05339162 -0.27781048 -0.16752955 0.042447116 0.27231482 -0.3533256 0.02760858 0.2638737 0.20534405 0.3827237 -0.66666156 0.2872578 -0.08437119 -0.4007527 -0.15327135 -0.2123626 0.48894015 -0.13237064 0.044763453 0.21147428 -0.11969561 0.0034356893 0.47051626 -0.42480162 0.059976086 0.24206746 -0.019954696 0.4620186 0.20752296 0.3349908 -0.25641498 -0.15195541 0.088636994 0.2126351 -0.07877687 -0.15195313 0.09177571 0.40387073 0.020506606 -0.15225077 0.36863106 -0.36505556 -0.26776198 0.04778977 0.12093548 -0.23710372 0.11159745 -0.36674672 0.09511846 -0.06469915 0.15896213 0.080414794 -0.1369938 0.5527024 0.025060097 0.09412335 -0.018535635 -0.55981874 -0.071513146 -0.15773864 0.28204128 0.22040634 0.4353452 -0.049845275 -0.13308296 -0.45134893 0.6345673 -0.3752668 0.31071535 -0.023202844 0.0012762174 0.017827721 0.16619413 -0.011277825 0.11293419 -0.47872344 0.21269017 0.2628712 0.50776243 0.34535867 0.07570317 -0.045661274 0.14392707 -0.3576427 -0.02039202 -0.038574513 -0.28799757 0.15242897 -0.07549069 -0.18162933 -0.7021506
ELE 0.29062542 0.08038648 -0.25365278 -0.005522954 -0.011369403 -0.1910663 0.1148141 0.16402406 -0.0023196072 0.13722682 -0.27244484 -0.16019788 0.13908808 -0.005692143 -0.19200712 -0.2785762 0.23717108 0.0021664596 0.101534866 -0.5305421 0.15721098 -0.1779165 -0.31406817 -0.04001976 -0.08031161 0.1764808 0.092025995 -0.3792039 0.1129601 -0.36633816 0.12934618 0.63067156 -0.1256953 0.1146132 0.3273906 0.023050448 -0.19187964 -0.040691312 0.31071162 -0.33990324 -0.38896245 0.19529913 0.16797945 -0.044702478 -0.087080665 0.179841 0.29420656 0.33494505 0.4763719 -0.108270444 -0.069388725 -0.35839412 0.19514911 0.23668364 -0.20290934 0.14600109 -0.5015188 0.08757027 -0.20863557 -0.33116075 0.43651804 -0.2589397 0.5070159 -0.13608813 -0.3123703 -0.107123636 -0.06857045 -0.04804403 -0.13747197 0.1546489 -0.06157641 0.31731924 -0.25083005 -0.18000095 -0.07934549 0.4787107 -0.33410493 0.5209794 -0.021870058 0.31528872 -0.13223954 0.28054184 -0.19872296 0.13657191 -0.60253435 0.03426406 0.1642897 0.6748415 0.25936115 -0.08009999 0.10875785 0.09083469 -0.335027 0.086637355 -0.1663799 -0.29239726 0.28517872 -0.13406998 -0.07762931 -0.38302442
LDA 0.30252028 -0.06137466 0.2815538 0.22497444 -0.3226645 0.18053608 0.15166058 0.0574685 -0.18142447 0.14302088 -0.25357518 -0.17962758 -0.042787522 0.3553583 -0.29525393 0.46031222 -0.14514226 -0.19755875 0.09958063 -0.17110306 -0.098484 0.08424567 -0.14525552 -0.1619477 -0.12578145 0.3020237 -0.267935 0.08272208 0.14645971 -0.10790205 0.41103205 0.2282311 -0.07561026 -0.19259077 0.24811324 -0.25202137 0.033831038 0.14534223 0.13399975 -0.12879328 -0.010088611 0.16234384 0.514664 -0.109005496 0.14754026 0.44839072 0.059916627 -0.10345263 -0.11378816 0.28242397 -0.49496344 -0.28228733 0.00891962 0.20052741 0.20937042 0.5758662 -0.17850387 0.085482925 -0.00047624033 0.074866824 -0.02048457 -0.14138353 0.2451496 0.6153419 -0.13563365 -0.15730293 -0.13321844 -0.3354044 0.03443022 0.3334043 -0.013688591 0.25701588 0.077812195 -0.08186773 -0.20703244 0.38343397 -0.4310118 0.35517752 -0.24854286 -0.55539834 0.4229198 0.09462494 -0.12388921 0.17257528 -0.3112323 0.11103642 0.12763512 0.25799903 -0.014522612 0.12579203 0.3459714 -0.019724565 -0.8243648 -0.081785366 -0.015415504 -0.59142816 0.31443992 -0.19255245 0.1453888 -0.42177737
DEL 0.17817426 0.27773967 -0.2373217 -0.06801548 -0.109814025 -0.17076565 -0.07614899 -0.028131505 0.015223307 0.07596347 -0.20401154 -0.11032396 0.31698802 0.17121074 -0.2447217 0.31126922 -0.037462402 -0.13879555 0.22513705 -0.05575428 -0.123360015 -0.17374162 1.8934516e-05 -0.102974944 0.09001169 0.15248537 0.11496504 -0.27878514 0.13988607 -0.2557061 0.67309445 0.38170704 -0.30393916 0.23112756 0.34313583 0.12805828 -0.21373512 0.04299418 0.0014297544 -0.059565097 -0.24905284 -0.0011595751 0.07669853 0.15973778 0.46080476 0.23786905 0.33131263 0.2544211 -0.08358029 0.3514283 -0.003732889 -0.40753305 -0.026662132 0.085761964 -0.27298343 0.012252594 -0.47579685 0.30832762 -0.31965187 -0.30010784 -0.011539898 -0.24085814 0.22694272 -0.1470965 0.07989368 -0.33940163 -0.19716704 -0.25575677 -0.0699598 0.37849122 0.06340841 0.38366222 0.15607071 -0.21662137 -0.19669239 0.25414968 -0.43581805 0.05188377 -0.2457249 0.38878942 0.2755014 0.07728787 -0.21816385 0.21356992 -0.4772902 0.07719602 0.1575946 0.09150423 0.33271354 -0.09783184 -0.03507461 0.0043011853 -0.15952194 0.15879002 -0.07410004 -0.19973828 0.2911092 -0.10613302 -0.12912038 -0.50200254
KLE 0.45092663 0.042156372 0.03556351 0.12682256 -0.14879055 0.030846974 -0.1292645 0.007286192 -0.24099667 -0.08833832 0.08595318 -0.4064137 0.34338978 0.12479095 0.2986875 0.088920414 -0.16824664 -0.08472165 -0.06372027 -0.45663086 -0.2253387 0.1384076 -0.18503049 -0.44907647 -0.15618047 0.31339097 -0.5952773 -0.20996504 -0.086201705 0.33316433 0.032930456 -0.09675395 -0.5122245 0.19353922 0.1777996 -0.08225213 -0.31601515 0.05606256 0.26591164 0.11949081 -0.30607137 -0.03186407 0.216121 -0.29449433 -0.15772259 0.5605502 -0.16822088 -0.044917062 0.042547993 0.06795368 -0.17008522 -0.3005538 0.10291295 0.3649775 0.4772992 0.46102518 -0.23102748 0.08948502 -0.08722998 0.08941946 0.23028614 0.087161705 0.43004602 0.69767267 -0.35570526 -0.27690348 0.044805445 0.051293537 -0.16599971 0.29853573 -0.0476059 0.19525124 -0.17010455 -0.3934982 -0.19190663 0.13098504 -0.3427756 0.14823951 -0.37655264 -0.19814764 0.24477397 -0.016549688 -0.21694714 0.4132203 -0.0179337 -0.08178492 -0.0022064478 0.44236636 -0.054373056 -0.08319505 0.28157377 0.29103172 -0.51742446 0.34910497 -0.00030811154 -0.23977657 0.02892982 0.16850434 0.08282677 -0.009433663
LEE 0.21723753 0.07323984 -0.026331687 0.44265622 -0.3185752 0.06746341 -0.1763932 -0.099654436 -0.10488502 0.29077032 -0.24359427 -0.2055372 0.11725655 0.09654544 -0.29581058 -0.107955135 0.12643616 -0.30001175 -0.044740535 -0.49156022 -0.58540964 0.5185377 -0.16801597 -0.45626184 0.049728382 0.470011 -0.24335383 0.09813314 -0.3249874 0.24848196 0.1960442 0.11036992 -0.5210148 0.10417408 0.089204036 -0.0049640913 -0.025744768 -0.06932324 0.40453035 -0.3422299 -0.5066327 -0.031996135 0.30277586 0.22322568 -0.23468329 0.23516375 -0.27125472 -0.15611516 0.3953268 -0.050246965 -0.5239636 -0.400556 -0.20770726 0.56806886 0.5679388 0.43816358 0.09814547 0.36520347 -0.18634295 0.13392688 0.12639685 0.18721578 0.42763066 0.5940065 -0.12465813 -0.052622274 0.024869718 -0.030010097 -0.1143694 -0.0116521055 -0.20360786 0.096064225 0.15542445 -0.15916891 -0.18289419 -0.17288399 -0.29357412 0.2384547 -0.14178787 -0.0074959616 0.17487065 0.14343874 -0.09956656 0.36223626 0.099475324 -0.17303085 -0.45902953 0.5109919 0.067058235 -0.10263255 0.47396225 0.22938119 -0.4698186 0.22829676 -0.044978622 -0.37570205 0.36982024 0.07378269 0.37285256 -0.4329549
KTQ 0.34483865 0.038030807 -0.15769994 0.14271083 -0.14320485 -0.30350918 0.12819742 -0.1764726 -0.08126301 -0.18146215 -0.2774531 -0.40770218 0.22689871 0.41617954 -0.29744217 -0.38164502 -0.015310261 -0.051664863 0.36073825 -0.6445088 0.25027892 -0.41489255 -0.117207155 -0.36845022 -0.15401693 0.1510506 -0.008998324 0.17574035 0.101762734 -0.33363095 0.4652209 0.19973396 0.007335106 0.16132544 0.25318456 0.11478155 0.12089118 0.123163216 0.03729454 -0.2609244 -0.34251308 0.03396371 -0.18743387 0.22241347 -0.06611333 0.40897685 0.45797706 0.09605204 -0.09184997 0.19273908 -0.012700263 -0.4069828 0.1959292 0.12242436 -0.17741881 0.14952904 -0.21320042 0.16880567 -0.2241654 -0.23261493 0.38213405 -0.23569246 0.5475385 0.03948453 -0.14784567 -0.07130344 -0.124507375 -0.023433115 0.13228635 0.1770465 0.1558586 0.5576106 0.021849973 -0.103821136 -0.32247722 0.3369082 -0.4607115 0.30577 -0.05879169 0.19662586 0.40814006 0.267446 -0.1919145 -0.009952384 -0.6918333 -0.30611977 0.12376826 0.40976143 0.49658978 0.2819885 0.05141597 -0.27945065 -0.1782856 -0.18697883 0.12681276 -0.17306164 0.17730752 -0.093919955 0.032097317 -0.12669772
KEG 0.6692485 -0.14319906 0.09101502 0.05479656 -0.62035894 0.12011732 0.017269867 -0.051023893 -0.17555635 0.33308157 0.061452273 0.07877242 -0.09694238 0.21675105 -0.2945141 0.1564313 -0.060224947 -0.1841763 0.31458846 -0.3905641 -0.5868782 0.21940082 -0.063917436 -0.4589761 -0.06512886 0.074628755 -0.23675968 0.013748364 0.064099245 0.26781383 -0.2766018 -0.091823965 -0.4089421 0.3579907 0.18250903 -0.31911942 -0.037008736 -0.14585799 0.23448871 -0.2238006 -0.3669763 -0.2695959 0.024096454 -0.09567706 -0.14998032 0.34010783 -0.1397962 0.18142387 0.18054135 -0.47424263 -0.1620581 -0.056163587 -0.07981755 0.41050032 0.2879849 0.296645 0.11496079 0.3632018 -0.09624999 -0.16066036 -0.10334378 0.26926982 0.2476566 0.57735103 0.09624082 -0.035034314 0.048113134 -0.2413088 0.23359534 0.18333918 0.09678725 0.13257132 0.11419342 0.081980474 -0.32182747 -0.005801836 -0.23483272 0.1636302 -0.21824473 -0.042095233 0.33275077 -0.106417395 -0.07720063 0.32425356 0.06818372 -0.4580498 -0.060715362 0.19274859 -0.008065782 -0.12321665 0.4631473 0.030412551 -0.6156816 0.361387 -0.30810434 -0.58362716 0.49616706 -0.14678425 -0.051523022 -0.2231101
DAE 0.3328776 0.036111854 -0.37405592 -0.15425399 -0.20373581 0.040929075 0.17259742 0.23229706 0.3280805 -0.32216856 -0.10729953 -0.15485522 0.04683931 -0.18933102 -0.27769378 0.15175326 -0.09575417 -0.136327 0.12679192 -0.2621026 -0.118262686 0.0028934395 -0.17569765 -0.04138655 -0.2636594 0.33151755 -0.14027964 -0.219788 0.14479823 0.15047322 -0.29317304 0.1561524 -0.10581216 0.26169935 0.3356366 0.03623521 0.021183636 0.40801844 0.20566824 -0.48308817 -0.17671439 -0.07493906 -0.43618318 0.30485 -0.13106331 0.23344056 0.50658673 0.17041126 -0.001062871 0.041404564 -0.03390956 -0.20787348 0.14876172 0.0006828646 -0.067583255 -0.03801748 -0.32882223 -0.041006774 -0.44519287 -0.46723053 -0.041380633 -0.11018214 0.3873739 0.49516255 0.0072524115 -0.154891 -0.14116754 0.05097297 0.09150095 0.5911726 0.190422 0.021537468 -0.04637663 -0.14664102 -0.0035905018 0.3345389 -0.2679338 0.24080497 0.07621346 0.36788845 0.35034528 -0.014665666 -0.39299154 0.30542937 -0.47116232 -0.23787114 -0.4364579 0.2120012 0.074497655 0.046465553 0.4476399 0.06406363 -0.6258919 0.15163733 0.087785184 -0.53172714 0.006088549 0.20430072 -0.57231885 -0.32457665
KAE 0.44381103 0.047427442 -0.24894325 0.029750146 0.022554081 -0.03099291 0.16957133 0.19816013 0.23163973 0.12343669 -0.41736653 0.13301003 0.23965752 -0.075092316 -0.25166386 0.006845733 0.26468042 0.013750547 0.34600586 -0.4149901 0.04158052 -0.28265807 0.23633425 -0.23782913 0.33957997 0.17114578 -0.4388556 0.04929046 0.03120388 -0.28372017 0.0984617 0.39790744 -0.34103003 0.4465838 -0.17845649 -0.037678014 0.1863552 0.028695058 0.041296463 -0.22163813 -0.24277368 0.10854251 0.083068565 0.08506962 -0.3713336 -0.017789625 -0.047487345 0.039449785 0.14830697 -0.08586001 -0.18344688 -0.4149219 -0.07932094 0.4170537 -0.097788244 0.6466044 -0.36388186 0.39956108 0.053339276 -0.068835735 0.4067259 0.021695789 0.28580412 0.5032273 -0.08929444 -0.34092364 -0.13013536 -0.014830167 -0.24204259 0.13181826 0.43182307 -0.08256247 0.03143517 -0.20455968 -0.6557337 0.2643302 -0.11513766 0.040676877 -0.83587664 0.46961135 0.38660538 0.17577532 0.10564249 0.38559347 -0.5189177 0.39851043 0.1946563 0.084327444 -0.122771464 -0.074849874 0.025012296 -0.1462367 -0.07002523 0.09645521 0.3622038 -0.023277506 1.0317008 -0.05261136 0.29846007 -0.27736413
EEL 0.47116962 0.061385173 -0.11975397 -0.019577878 0.12500003 -0.4989484 -0.22504953 0.0058313427 -0.007646725 -0.11405533 -0.52824676 -0.2862966 0.42961544 -0.21912895 -0.087595366 -0.48135632 -0.23880634 -0.19766426 0.2860573 -0.32391483 0.07188443 0.106830366 0.14088197 -0.1814251 0.09446171 0.06732944 -0.38190618 -0.23150022 -0.18715794 -0.1664206 0.1512339 0.1846368 0.088169865 -0.10211324 0.35312346 0.3421563 -0.02734671 -0.07940113 0.34800193 -0.15170468 -0.61570174 0.05577897 0.27435333 -0.25240067 -0.18972138 -0.025275104 0.2935965 -0.2554099 0.055658665 -0.16245471 0.049172763 -0.3508016 0.025951331 0.119550355 -0.28539366 0.16957273 -0.24766324 0.5482108 -0.42617825 0.017101584 -0.059673678 -0.10571348 0.35807407 -0.42062992 -0.22521959 -0.07534238 -0.55664504 0.052128028 -0.13152835 0.09841795 0.16007537 0.11062637 -0.35034704 -0.18578644 0.1333506 0.19377021 -0.46782392 -0.15248963 -0.28172776 0.48214912 -0.11593297 0.19651712 -0.51194793 0.52696633 -0.37990972 0.004281827 0.6644168 0.4030349 0.57506377 -0.029545752 0.3703704 0.23187669 -0.31261617 -0.11885005 0.32570496 -0.30346364 0.52682 -0.12801461 0.046180617 -0.2191894
LDK -0.12123736 -0.29230464 0.020591198 -0.00069234247 -0.3692067 0.16762005 -0.25985143 0.24221812 0.09734202 0.18440394 -0.2462647 0.047816608 -0.18417768 0.09352238 -0.09434381 0.48830152 0.13523082 0.118871406 0.24433221 -0.45114616 -0.24981385 -0.33140904 0.30966756 -0.19608662 0.11319204 0.113117985 -0.06931775 0.01606685 -0.09448389 0.1369423 -0.20768823 0.12863046 0.16617438 -0.031024836 0.4865257 -0.44808635 -0.15508184 0.17582807 0.4446571 -0.21874124 -0.6737945 -0.026902612 0.34437165 -0.20891714 -0.056691546 0.22096296 -0.054598298 0.33854672 0.07559394 0.05254224 0.01684507 0.28186053 0.0065693464 0.5295193 0.23407759 0.116789035 0.054657005 0.04668727 -0.09636965 0.17941178 0.14485347 -0.44649065 0.30803967 0.060934376 0.13451692 0.41043526 0.212083 0.055318423 0.12549664 0.44759437 0.17303744 0.43067777 -0.10415467 0.03416466 0.30086532 0.24656306 0.22793067 0.19178131 0.004596957 0.01066264 0.33761472 0.13763995 -0.15308867 0.37802827 -0.37272853 -0.45056695 0.041993413 0.39100036 -0.045090575 -0.28277695 0.47807083 0.15483585 -0.35532597 0.11104142 -0.0958147 -0.36788243 0.26878816 -0.01641603 0.13934235 -0.37894636
EKT -0.17467777 -0.040477976 0.103164986 0.2827452 -0.554234 0.22038767 0.06442075 0.15435939 -0.108676665 0.559846 0.051592354 -0.21563926 -0.00969523 0.34650034 -0.0020254191 0.5212113 0.048664045 -0.43357214 0.03907816 -0.06656239 -0.4535833 0.3512142 -0.116202414 -0.12654029 -0.0433426 0.3626108 -0.05718227 -0.19435726 0.07401755 0.19705768 0.6520275 0.14328648 -0.06754641 -0.11000596 0.37204936 0.0016317387 0.33708423 -0.3317071 0.08163861 -0.22635677 -0.29074845 -0.037989426 0.5340807 0.078183815 -0.18468954 0.18762808 0.12818314 0.029529069 0.0671775 0.3299969 -0.1897446 -0.31070194 0.12236032 0.38239998 0.40055957 0.39904577 -0.3789644 0.039818823 -0.0775006 0.12805854 0.4257953 -0.16458006 0.35780272 0.45331457 -0.05090426 -0.39312884 -0.2599233 -0.18867992 -0.10135693 -0.099194825 0.1890058 0.39521846 0.29281446 0.13735308 -0.048412092 0.10943683 -0.19400963 0.04053075 -0.17675991 -0.62895393 0.118562855 -0.10308883 -0.48828736 0.32756117 -0.44620514 0.1726319 0.24792466 0.20893674 0.21140632 0.18805192 0.6733219 0.2935357 -1.0700147 -0.046208702 -0.19504805 -0.3976689 0.18593408 -0.14665344 0.021657012 -0.27630588
EGL 0.20666815 -0.054551553 -0.16495074 -0.6707218 -0.15327701 -0.22569977 -0.27637714 0.100603044 0.051247984 0.17074975 -0.31417295 -0.052124254 0.004466192 0.070884645 0.12540342 -0.4124216 0.14318126 -0.32087028 0.21934634 -0.32272992 -0.17277996 0.06834873 0.16586207 0.04730548 0.14387308 0.25600147 -0.0443679 -0.28722128 0.00027345523 -0.16841973 -0.10273378 0.29749343 0.14462808 -0.019529095 0.4099494 -0.15955055 -0.051473726 0.13150841 -0.08671808 -0.6144867 -0.31090692 -0.23517987 -0.075523436 0.06763605 -0.054567564 0.5721508 0.41296622 0.15184475 0.16901141 0.37166333 -0.0843522 -0.15644152 -0.08038888 0.056700617 0.13315104 0.25583392 0.012422071 0.3200094 -0.34170973 0.056312896 -0.06354755 -0.08734867 0.007923619 0.13732612 0.20873007 -0.15309615 -0.38557178 0.1874346 0.16964196 0.016908603 -0.06420909 0.43350846 0.026354583 -0.012739298 -0.2998451 0.024710994 -0.54850006 0.26778296 0.37947962 0.15080817 0.1966473 0.0073970645 -0.5421495 0.16324359 -0.9529297 -0.4398218 0.0152003905 0.29814595 0.06587778 0.37061566 0.25970665 0.12504457 -0.5907236 -0.2818275 -0.061107647 -0.1957919 0.029377805 0.13735804 -0.13141978 -0.22022231
AKL 0.065994896 0.5807835 -0.024478115 -0.09777636 0.29467103 -0.095877744 0.16098724 0.27986923 -0.12402509 0.2902946 -0.31416628 -0.05845042 0.19685617 0.04193342 0.3792841 -0.11369177 0.3869592 -0.17843613 0.010269608 -0.54093486 -0.0013383004 0.07972274 -0.38420764 -0.014435977 0.070101574 -0.0071829665 0.032787953 -0.06252827 0.07107472 0.15153341 0.042024124 0.1309833 0.19838642 -0.02324126 -0.19066407 -0.103262946 -0.14929901 -0.20552857 0.32768685 -0.27045065 0.53312653 -0.30502635 0.06368172 0.025860162 0.25531963 -0.09401418 -0.049933024 0.21368824 0.4150066 0.049862828 0.20111087 -0.19853088 -0.14924027 0.24376851 0.33239254 0.30272 -0.23497924 0.04256428 0.05008163 0.27050832 -0.41637883 -0.23858197 -0.19097264 -0.48274362 0.20213488 -0.16622412 -0.1011869 -0.2688371 -0.0956848 0.42238334 0.10353599 0.23233353 -0.20994869 -0.16167898 -0.2835139 0.017649233 -0.11991347 0.06332974 0.0071130823 0.06304544 0.086389445 -0.12945065 -0.2137098 0.08831747 -0.117670424 0.004980602 0.07966991 0.29565096 -0.051290765 -0.0579439 -0.10399186 0.21809909 -0.6482662 -0.17861614 -0.0060744374 0.17647615 -0.20470165 -0.40978748 0.09716373 -0.15836401
EDY 0.34964013 0.08120135 -0.1993965 -0.1572238 0.101306684 0.09763467 -0.31181747 -0.06058108 0.40563503 -0.12928906 0.019565735 -0.02030768 0.6291116 0.36943272 0.1667831 0.019119386 -0.29258296 -0.007173736 0.2482928 -0.29618818 -0.32303604 -0.0562515 0.16871884 -0.49392578 0.15192579 0.2460137 -0.060736652 -0.22955117 0.17105478 -0.51204824 -0.015557183 0.26025477 0.049250893 -0.0018017404 -0.18247464 0.18314825 -9.573187e-05 0.02228636 0.23211086 -0.079136245 -0.3911605 -0.014677512 0.40688196 -0.32146564 0.22677132 -0.05436054 0.46357474 0.07347264 0.0326152 -0.35017565 -0.121907644 -0.28201693 0.14578472 -0.12905939 5.5183773e-06 0.15729573 -0.45387086 0.07785255 -0.38136584 -0.25721598 -0.28253835 0.013302932 0.36579892 -0.05119164 -0.5801567 -0.23893489 0.091996476 0.14075321 0.11377584 0.6402184 0.35964626 0.37305114 -0.1867534 -0.47733003 -0.31099638 0.4149898 -0.24069273 -0.07850671 -0.72198397 -0.12747301 -0.11352295 0.00038267556 -0.20088428 0.468994 -0.15799664 -0.13620265 0.27517703 0.166595 0.35092822 -0.041877795 0.12712623 0.26834932 -0.23222242 0.3474214 0.4592101 -0.38538647 0.035490178 -0.02170301 -0.28335693 -0.044427376
ADL 0.33633167 -0.10207058 -0.46327117 0.35873705 -0.21619642 -0.04735106 -0.32438478 0.019169515 0.45180526 -0.020405931 -0.2135733 -0.23516501 -0.064681835 0.03590794 0.037120417 0.46204403 0.4126739 0.39995313 0.38511366 -0.44646508 -0.1513619 -0.5976093 0.4465079 -0.00017830257 0.028067494 0.23551896 0.027738849 -0.44137004 -0.03984462 -0.19675368 0.07435289 0.17063944 0.16631345 0.09920689 0.4630822 0.018031122 0.11009836 -0.5087658 0.49772552 -0.29587805 -0.12505248 0.28302938 0.26675555 0.3620446 0.17802 0.11497223 0.06314469 0.5083165 0.20499128 0.35112873 -0.10405241 -0.12260793 0.061670277 0.5027771 -0.009337896 0.296542 -0.20940904 0.18963456 0.18392701 -0.30921274 0.3073777 -0.033312116 0.18088378 0.0037046084 0.2538694 -0.23451164 0.18253598 0.045373734 -0.14854796 0.640168 0.32437938 0.3721856 -0.3194231 0.13252242 -0.2781856 0.73568726 -0.013275234 0.22702518 -0.36520764 0.21326408 -0.21617681 -0.0551708 0.11375314 0.47459176 -0.74816066 -0.4948956 0.022349278 0.38628104 -0.6597094 -0.283263 0.19792695 0.08059222 -0.3114469 0.34437603 -0.08816501 0.11213801 0.24127567 0.0014712043 -0.37623498 -0.60527056
LQN 0.53289765 0.086361095 -0.17819266 -0.38706803 -0.0029981437 -0.24403057 -0.13428926 -0.034638 -0.118111044 0.1328331 -0.107058704 -0.21208516 0.19827266 -0.0037667446 -0.44500074 -0.34770104 0.17785501 -0.11756291 -0.060149465 -0.28924948 0.21591642 0.2852431 0.19780068 0.011314232 0.19416173 0.15757354 -0.021610197 0.059980385 -0.124986656 -0.39253095 0.3963347 0.0026868577 -0.099320814 0.20815825 0.13619451 -0.018173816 0.07458205 0.1814305 -0.10777231 0.035019115 -0.59635687 0.009740736 0.14458804 0.24509399 0.17171861 0.19924432 0.4615924 0.27228966 0.12407631 0.08777324 0.07835052 -0.40416744 0.19125271 0.0832983 -0.17078048 -0.105529696 -0.15075839 0.3477015 -0.012149233 -0.22358708 0.24358197 -0.25347158 0.084726155 0.23636816 -0.024893448 0.25210688 -0.13315128 0.039140012 0.14293852 0.36108857 0.0831629 0.6051049 -0.20403457 -0.581927 -0.38145208 0.048331983 -0.3379114 0.34886193 -0.5377554 0.2959866 0.16951083 0.10304013 -0.19474885 0.05525867 -0.39020953 -0.045481518 0.012841135 -0.010774421 0.20932087 -0.18475936 0.014501731 0.069839925 -0.45093372 0.08624238 0.27211946 0.06661655 0.36844978 -0.13103177 -0.22035742 -0.22673072
EEE -0.056494642 -0.55096954 -0.358472 0.02411952 -0.18149503 -0.359397 -0.2739532 0.27845034 -0.2579844 0.1685 -0.078926995 -0.2247628 -0.010949335 0.30735338 -0.06267842 0.017727366 0.20556568 0.1257624 0.36326382 -0.75063664 0.203778 -0.53766185 0.051454615 -0.45440596 -0.10883837 0.27191168 -0.09082414 -0.03269923 0.15008517 -0.33542514 -0.2791787 0.080974974 -0.09410503 0.13220133 0.31751478 -0.23789218 -0.11086217 0.40149528 0.28251866 -0.4108962 -0.5041981 -0.013881166 -0.11684383 0.08259812 -0.028498951 0.14848237 0.21165866 0.20414218 0.1046489 -0.052822318 -0.12937438 -0.17061609 -0.35266992 0.058819447 0.2837633 0.1174406 -0.22435093 0.1286133 -0.46748313 -0.10342601 0.025691355 -0.16294277 0.32901603 -0.004529453 -0.23315853 0.053895272 0.14343011 -0.040932268 0.20275049 0.3083028 -0.070884526 0.56570977 -0.18253505 -0.10953802 0.18721618 0.16047257 0.058972135 0.21439421 -0.15166888 0.15627626 0.36782342 0.24435847 -0.43054223 0.17190248 -0.21316157 -0.25262812 -0.090364434 0.4332063 0.042956688 -0.0018202201 -0.049651556 -0.16489823 -0.2837277 0.010966246 0.0236931 -0.40348595 0.2893267 -0.11986245 0.18503419 -0.20425636
SKL 0.48664153 -0.19166729 -0.14099976 0.050989408 0.41109234 -0.2697873 -0.022630401 0.07524317 -0.2396515 0.115551785 -0.17824271 -0.2990547 1.0054744 -0.045239948 -0.1595394 -0.16590187 0.020441266 -0.35243735 0.22124206 -0.2586125 -0.1831641 -0.09528205 0.14558347 -0.1589658 0.027605204 0.17277856 -0.39294022 -0.057549898 0.15437002 -0.46289068 0.27325574 0.16884892 -0.17683122 0.27328336 0.31679997 -0.11762827 0.053678475 -0.098331526 0.14613292 -0.24063349 -0.19538558 0.21242315 0.09472756 0.14468384 -0.15748623 0.1531105 0.20660149 0.07043807 -0.22344805 -0.07910285 0.3444798 -0.79363304 -0.0073521114 0.4234585 -0.38705778 0.38133642 -0.18260168 0.24486433 -0.18837878 -0.19716442 -0.3934486 -0.09253519 0.2762337 -0.10609971 -0.53912264 0.43258524 0.10841906 0.13930322 -0.24703509 0.06440617 0.22720538 0.018605126 -0.066329695 -0.29924706 -0.35795373 0.41827404 -0.4989177 0.21436116 -0.40439883 0.3317987 -0.050036654 0.22549878 -0.4576961 0.26629272 -0.37043133 -0.101896554 0.18379003 0.16634382 0.54366404 -0.025639553 0.2169815 0.38572565 -0.3021246 0.0344074 0.3863105 -0.176801 0.18610537 -0.12025682 -0.16185477 -0.054549444
AAL -0.11512854 0.1250529 0.41954607 0.6053957 0.06843706 -0.27812004 -0.03461147 0.17886452 -0.1144385 -0.046431374 -0.24776578 -0.39479235 0.51609594 -0.012407065 -0.11335362 0.23319006 -0.1843484 -0.20481661 0.37411612 -0.31711897 -0.13651243 0.13251644 -0.10162612 -0.51066315 0.17914268 -0.13367581 -0.40841866 -0.13288823 0.08735674 -0.34177053 0.2891926 0.74180603 -0.19984154 0.18491957 -0.05317857 0.039804433 0.07053747 -0.09710677 -0.11504235 0.04493803 -0.6037142 -0.0024331869 0.06517406 0.021379586 -0.14575426 0.24997261 0.3062208 0.049684435 0.22265139 0.17919911 -0.3079116 -0.3607693 -0.092335165 0.09335017 -0.18223561 0.29151148 -0.6904609 0.5832378 0.3441113 0.3550718 0.3241755 -0.23669101 0.25122598 0.45128506 -0.41385323 0.14755857 0.05508779 0.18576679 0.018061023 -0.03472293 0.6582714 0.36557975 -0.12752225 -0.54740417 -0.13379633 0.1187966 -0.21469375 0.44880688 -0.3319134 0.270392 0.18438902 0.51276183 -0.13384016 0.16947557 -0.26266032 -0.0005699645 0.48061737 0.30531523 -0.12106941 -0.39090228 -0.19098382 0.0071165087 -0.12039178 0.108780295 0.13367692 -0.22538577 0.26750782 0.15705799 0.28569573 -0.073446
ELS 0.47069564 0.27956107 -0.24523607 0.07333637 0.029502695 0.14769807 0.025435641 -0.20693095 0.10962031 -0.12968324 -0.13123429 0.011659671 0.19927305 -0.14701293 0.045773458 0.04830287 -0.4527771 -0.118381426 -0.118035935 -0.34332064 -0.64000106 -0.054666746 -0.23511995 -0.39924246 -0.3417703 0.3025356 -0.43129864 -0.3317095 -0.1916527 0.2152134 0.1890824 0.31834036 -0.66980994 -0.14086589 0.24465142 0.2840248 0.29309168 0.117273025 -0.04537431 -0.069991075 -0.1971867 -0.22408453 0.2447064 -0.23168942 -0.17020124 0.07279965 0.29256746 -0.21930863 0.07091296 0.09654301 -0.018584743 0.042292904 -0.20968081 0.7547445 0.71314985 0.51343036 -0.4749912 -0.025953967 0.17331898 -0.27192172 -0.081653096 -0.015789378 0.29271713 0.8064759 -0.33258006 -0.20836103 0.59303594 -0.14981861 0.113502264 0.25595522 0.06941513 0.15028968 -0.030218927 -0.31111103 -0.21478593 -0.06018372 -0.42845514 0.26989263 -0.3344893 -0.103381716 0.40766066 -0.29429936 -0.27894068 0.1497157 -0.049944773 0.15771203 -0.016866231 0.53879184 0.13938409 -0.13694194 0.35649577 0.14342497 -0.4002943 0.8319316 -0.016415393 -0.9229439 0.18091168 0.4390262 -0.08184888 -0.26250196
IDE -0.20946012 0.4174685 -0.19743516 0.07234042 0.09345961 -0.13872668 0.2120872 0.40486556 -0.21646702 -0.3417484 -0.10947375 -0.2591868 0.0037486816 0.24677047 0.29711065 -0.07446752 -0.014641706 -0.0877681 -0.0012269272 -0.43185765 -0.060860123 0.2984374 -0.27914917 0.23397379 -0.12407568 -0.08672839 -0.15944538 -0.01574068 -0.18166576 0.030766955 -0.14493161 -0.07351222 -0.14479303 -0.11508235 -0.31515983 0.36866936 -0.0371516 0.10828454 0.18301255 -0.22837494 0.6084059 0.079469785 -0.23228596 -0.35936883 0.38123086 0.02758043 -0.0142074 -0.23986137 -0.041208874 -0.3409585 0.33908686 0.1711636 0.09523219 0.089380175 0.2778139 0.88341266 -0.4147601 -0.0178425 -0.1937267 0.20752497 -0.32984358 -0.06696876 0.08797744 -0.47809142 -0.18038203 -0.012760013 -0.05301536 0.42985716 0.11839211 0.48901293 0.05820214 -0.04486507 -0.49088556 -0.31092688 -0.41841856 0.055668592 -0.40773794 0.4954505 -0.14270718 -0.09863189 -0.056966953 0.22238451 -0.31472954 0.24838366 0.27217728 -0.018327221 0.24462798 0.18494 0.43712503 -0.68539137 0.28666052 0.08047467 -0.45400065 -0.031165997 0.3770409 -0.078367054 -0.07446715 -0.4679765 -0.18902674 0.29533267
KEL -0.111110575 -0.32556027 0.0077827657 0.007089575 -0.19074892 -0.24978037 -0.07686893 -0.26949915 0.06469958 0.32430947 -0.38021818 -0.69044214 -0.2893153 0.08639608 -0.34541523 0.24072553 0.30103707 0.42651692 0.51210684 -0.46021396 0.2479879 -0.6261727 -0.07122662 -0.16184454 -0.0054147295 0.5088925 0.08846461 -0.09476601 0.3237369 -0.5224776 0.15026328 0.07625348 -0.24005821 0.2367305 0.20371744 0.13031663 -0.40545723 0.16418467 0.41852933 -0.49424565 -0.118630104 0.12698944 -0.05124715 0.07718232 -0.17814548 0.12461333 0.6601557 -0.19220309 0.21685918 -0.044157106 0.20113207 -0.14939046 0.1338989 -0.12029925 -0.06496897 0.09984097 -0.13578963 -0.15520856 0.042088255 -0.24008298 0.050075848 -0.1468832 0.737366 -0.0720853 -0.3205068 0.1961247 -0.21064585 -0.14759734 0.24269107 -0.03786071 0.007061053 0.09022076 -0.3188086 -0.5626789 -0.51237786 0.06400895 -0.27518204 0.51427615 0.10160469 0.30485505 -0.08506283 0.49326536 -0.17240262 0.47561696 -0.7250931 0.010281085 -0.15746665 0.5549512 0.28686506 0.085284375 -0.0892273 0.0069450475 -0.378152 -0.21974352 0.14720193 -0.7921974 0.4990039 0.1280664 0.19145688 -0.28484705
AKK 0.06469121 0.65177304 0.027837506 -0.0449545 -0.0848355 -0.064789206 -0.16953595 0.34760904 -0.16009195 0.45153996 0.08810903 -0.015816458 -0.3372836 -0.04328214 0.23297785 -0.1180032 0.3233482 -0.04004128 0.057795133 -0.16770811 0.18474959 0.20383994 -0.34896064 0.20671356 -0.009474678 -0.002400971 0.01829172 0.1515641 -0.014531587 -0.095102146 -0.00046128157 0.08762564 0.27532256 0.045527887 -0.12437464 0.15628795 0.1784323 0.24153702 -0.16776876 -0.33414274 0.059018854 0.10296811 -0.47122684 -0.16641718 0.2755317 -0.067172 -0.1951236 -0.040204898 0.05660964 -0.050769895 0.1832185 -0.15492314 -0.1334682 -0.055476777 0.40889356 0.6033614 -0.17550099 0.07141768 -0.25711426 0.23898688 -0.292923 -0.3005352 0.046208758 -0.11835248 -0.14242046 0.011445746 0.05993844 -0.16654956 -0.22347699 0.26126042 0.05910613 0.026006956 0.071613476 -0.032638825 -0.4021681 0.078419864 -0.03648617 -0.15800034 0.15673329 0.1691572 0.25394377 -0.09095032 -0.2635765 0.15257429 -0.117084645 0.25623786 -0.053144988 0.45856306 0.30665 -0.37449092 0.026963035 -0.04815239 -0.36806387 -0.3161819 0.3334229 0.14953783 -0.2227643 -0.4119798 -0.15169406 0.07107856
DLK -0.112432316 0.19597916 -0.25070015 0.004516162 0.15304711 -0.080856346 -0.035286166 0.3152468 -0.1004658 -0.09235728 -0.36402792 -0.19555818 -0.0681974 0.05991035 -0.28223714 -0.2644577 0.26567462 -0.5053026 -0.11017476 -0.1807334 -0.3474443 0.30804786 0.20965853 -0.27357107 0.07775464 -0.1507967 -0.23121355 0.30769825 -0.20009601 0.6243216 0.037880026 -0.10657261 0.2216776 -0.06093053 -0.18066129 -0.08946074 -0.14011094 0.2294671 0.37536204 0.05757396 -0.034582175 -0.19385582 0.10892839 -0.49104652 0.18385155 -0.13672404 0.14598277 -0.081668764 -0.2300736 -0.47287548 -0.17177509 0.05918149 0.114272356 0.20942052 0.20556612 0.6785847 -0.14250992 0.10047575 -0.21156202 0.08302763 -0.12604132 -0.02478738 -0.3116706 0.14096686 0.13966122 -0.06802823 0.029691245 0.0898879 -0.23970608 0.35637945 0.10446119 -0.06521889 -0.2137774 -0.404281 -0.22752522 0.090919316 0.2668667 0.064088166 -0.5022787 0.17650227 0.090957955 -0.14918786 0.07929824 0.03505696 -0.11546652 -0.28002495 -0.11733985 0.038975146 0.0033959178 -0.09681376 -0.2288718 0.019524483 -0.5368524 0.11396992 0.11110763 -0.28053805 0.33654618 -0.28356096 -0.48723772 -0.06740593
KEI 0.08333369 0.15603007 -0.095006324 0.06901266 0.011666427 -0.11717875 0.024627239 -0.2897696 -0.11681305 0.30317137 -0.15277289 -0.35628688 -0.562206 0.4309985 -0.27280903 0.38134935 0.10556684 -0.49566627 0.4251121 -0.4035679 0.018892363 0.07953075 0.2242779 -0.11389328 0.17840296 0.23530537 -0.20350407 0.2850558 0.07858669 -0.20052163 0.5812964 0.18741877 -0.47290343 0.48122075 0.031162892 -0.70158654 0.14007872 -0.07140004 0.32383063 0.10881819 -0.7189952 -0.19956024 0.37722027 0.2542378 -0.36575875 0.12489239 0.0802772 0.36287948 0.1307026 0.0860904 -0.11627649 -0.10464659 -0.3954851 -0.2797049 -0.23285612 0.5834858 0.25644773 0.8257674 0.94037485 -0.025395464 -0.029442053 0.1714763 -0.076985605 0.22267294 -0.040611736 0.06274872 -0.09522185 0.28640723 0.0099967765 -0.16517924 -0.043963827 0.43297726 -0.23843692 0.20346577 -0.40149856 0.7723418 0.14959276 0.44514185 -0.39519912 0.30635267 0.22319761 -0.34759066 -0.053319838 0.23459901 -0.17135663 0.33018935 0.060252633 -0.2449493 0.3433837 -0.40641785 -0.003982685 -0.22455452 -0.2515198 0.20380963 0.09731788 -0.64108247 0.6384691 -0.085237876 -0.21761718 -0.010153565
AAE 0.4459442 -0.16482976 -0.30003133 -0.14621507 -0.20776442 -0.21690084 0.14231575 -0.061292544 0.059751 0.23871195 0.02326766 -0.06446264 -0.11838568 0.05075507 -0.15284002 -0.02200443 -0.12805559 -0.059490815 0.17409839 -0.18883239 -0.09968567 0.093264766 -0.1525485 0.15870818 -0.050811145 0.060656123 -0.08699113 0.031478662 0.22579283 -0.6122789 0.35771883 0.0999208 -0.13780287 0.769601 0.26817125 0.2708905 -0.019878823 0.09534568 0.28019145 -0.49926102 -0.42716166 0.1006614 0.13697399 0.19675396 0.24404255 0.11129408 0.43651757 0.27064133 0.12878765 -0.035356864 -0.271993 -0.23378894 -0.02626745 0.04650688 -0.47999611 0.22910087 -0.18196504 0.26644972 -0.21298188 -0.08598399 0.42406467 0.14138491 -0.10605278 -0.06277862 0.0537794 0.018182116 0.18506417 0.026377702 -0.1260273 0.040047802 0.049842447 0.27772352 -0.20410523 -0.15463048 -0.20754139 0.05235684 -0.33595592 0.15569426 -0.46518475 0.3352337 0.3343957 -0.10227577 -0.30128372 0.3087083 -0.47870317 -0.26073885 -0.25297564 0.18236493 0.43557078 0.10398507 -0.1753372 0.18421169 -0.04455952 0.34415925 0.05104035 -0.40833908 0.70164055 -0.22817229 -0.1925585 -0.124138184
VED -0.19993219 -0.27999392 -0.20326647 -0.14445771 -0.11712631 0.1162273 0.03709556 -0.11888884 0.29138613 0.4720206 0.36308473 0.012351543 -0.45994902 0.10444264 -0.18160145 0.116607055 0.17139147 -0.03850385 0.053808663 -0.2993081 -0.31657144 0.3441233 0.21821254 -0.12057614 0.041419987 0.08223573 -0.24734882 -0.00729363 0.21956933 -0.40026072 0.23599635 0.07524211 0.1984442 0.04892237 0.13101691 -0.16749233 -0.2061813 0.31005266 0.21828952 -0.07520963 -0.47977382 0.2786941 -0.017485533 0.08474342 0.3434444 0.3768198 0.5208702 0.19061364 0.24803576 0.29132327 -0.26703802 -0.292521 -0.255989 0.2589017 0.13472867 0.34779862 0.13758881 0.17500968 -0.4181256 -0.040467363 -0.5620103 -0.14982525 0.32947704 -0.15776572 0.14178233 -0.21988995 -0.17066236 0.008807588 0.25291985 0.30514786 0.03972507 0.583979 0.09788672 -0.25595397 0.37957788 0.1472906 -0.34758323 0.44502357 -0.13309291 0.2128435 0.44356683 -0.17074077 -0.077696614 -0.112320505 -0.90945655 -0.3569522 -0.2857438 0.3620438 0.2118983 0.3733626 0.38630855 -0.024848081 -0.30169103 -0.06117135 0.37641424 -0.15180403 -0.04646771 0.11042509 0.22001405 -0.11773895
DPE -0.0249858 -0.5257488 -0.19025601 0.38042408 -0.3175838 0.20817342 0.36388186 0.24799198 -0.12480674 0.26385438 -0.4955268 0.011062257 -0.16083224 0.38824522 0.052281793 0.4971667 -0.011054062 0.03002538 0.23376986 -0.17611215 0.06831113 -0.31870016 -0.16071458 -0.50080276 -0.06954466 0.4327121 -0.551511 0.102337025 0.033490002 0.49587834 0.027599774 0.19883914 0.13388234 -0.14052586 0.2046718 -0.024251321 0.2152895 0.22876279 0.1745901 -0.29759365 -0.3781412 -0.19043118 0.7888975 0.0859878 -0.0039446475 0.22019032 0.04539862 0.38692442 0.133523 0.42645743 -0.38938794 -0.2563271 -0.08054134 0.34135014 -0.2752957 0.21901785 -0.21197602 -0.05156411 -0.22793831 0.13634044 0.10748499 -0.102193944 0.5379245 0.2980501 -0.057421073 0.68265724 0.26415598 -0.004969055 -0.046017062 -0.054585148 0.12048423 0.30728638 -0.15166008 -0.46543762 -0.09988275 0.28338623 -0.038776636 0.07196183 0.16452728 -0.10133254 0.13518254 0.07577764 -0.09501632 0.38130677 -0.51621425 -0.14615385 0.003290032 0.4970494 0.2773337 -0.20576815 0.46531475 0.4822071 -0.7403039 -0.02158194 -0.2241353 -0.44507307 0.24285595 0.055744622 0.10445576 -0.4272724
SED 0.8440594 0.17347068 0.116400704 -0.14505276 0.14921644 -0.29788095 0.4792391 -0.078753375 0.19182076 0.17914343 -0.10161743 0.33461833 0.49362296 0.011977352 0.07628001 0.0017362665 0.6816381 0.041233044 0.42574376 -0.81282955 -0.09502217 -0.48924637 0.31941566 0.28254247 0.34746864 -0.023863092 -0.4598415 -0.12165483 0.10953392 -0.24946925 0.38745704 0.09019806 0.18280931 0.052285604 0.16177975 0.3312545 0.08732924 -0.14142366 0.17986438 -0.38698512 -0.29910997 -0.46946195 -0.10087552 0.30605972 0.029424682 -0.18736638 0.0727787 0.31148902 -0.16495612 0.46084902 -0.23771098 0.04842466 -0.27901277 0.38745812 0.03482557 0.670662 -0.012118987 0.40253755 0.43524584 -0.023996057 0.70590997 -0.20366117 0.1441312 0.21654324 0.33405653 -0.41783813 -0.17926042 0.3912234 -0.14366405 0.51304805 0.6024113 0.3444003 -0.26874977 0.13565698 -0.23011488 0.24284993 0.24256018 0.0307475 0.018156976 0.36697412 0.2212764 0.14225131 -0.024669413 0.31246254 -0.74505687 -0.02680616 0.21765216 0.44701985 -0.10722604 0.30012193 0.2743136 0.46187085 -0.35241 0.10207782 -0.004523962 0.24380699 0.557343 -0.22011395 -0.16489899 -0.6549461
DKE 0.6018297 0.02085549 -0.23638253 -0.548771 0.19033629 -0.04471524 0.1495341 0.08562517 0.1064893 0.49025226 0.023598546 -0.6184875 0.2550616 0.37146544 -0.11557915 -0.16602722 -0.005072259 0.3135426 -0.06848717 -0.098381735 0.17991659 0.3570877 0.12010908 0.30359927 0.11252362 0.0587249 0.1473225 -0.014773394 -0.42803106 -0.10198921 0.21363086 -0.052728813 0.05471407 0.28288084 0.40737426 -0.02834544 -0.08486831 0.08423459 0.13677827 -0.07914635 -0.5336377 -0.041559987 -0.14822319 0.34572393 -0.034704562 0.29738882 0.3174401 0.34322867 -0.04958844 -0.08959547 -0.2615447 -0.48155358 -0.084031224 0.28136936 -0.08724682 0.33104762 -0.17894799 0.38697326 -0.08838402 -0.33788726 0.11249041 0.013002591 -0.020141697 0.042842444 0.06691737 0.17821625 0.0013312334 0.18877894 -0.34486324 0.32370368 0.1835326 0.5021696 -0.05078344 -0.47136432 -0.005115971 -0.034454286 -0.5228004 -0.06271392 -0.26693466 0.28406805 0.45672128 -0.2048066 -0.18031462 0.28543568 -0.42105204 -0.23774059 -0.18010442 -0.028331462 0.2365299 -0.057925217 0.32182652 -0.31078154 -0.059229292 -0.29996875 0.3474855 0.006227729 0.42672718 0.058517486 -0.18482083 -0.17058507
DSE -0.24748442 -0.9595546 -0.11680707 0.261802 -0.20251538 0.31117168 0.3114424 -0.25856194 0.16335036 0.06673522 -0.17424837 -0.39279547 -0.1779748 0.26278043 -0.4645181 -0.26314726 0.43434027 0.4381401 0.3084662 -0.37951794 0.13786225 0.017113442 0.1057677 -0.4341726 0.22005944 0.34656852 -0.27876782 0.050415963 0.058761586 0.27030542 -0.13729434 0.42630208 -0.4199559 0.12781274 0.36062303 -0.19642185 0.39929488 0.29133135 0.09609147 -0.1886028 -0.32385397 -0.38619158 0.27131385 0.26579443 0.04049762 -0.08981109 0.37843746 -0.1421609 0.38253036 0.17816977 -0.4520852 0.43979654 0.031275325 -0.018254051 0.21183532 0.14100778 0.13991638 0.48754525 0.66250646 -0.0130234035 -0.065668195 -0.2339974 0.5688411 -0.036878865 0.16066253 -0.1531349 -0.37751412 -0.2686207 -0.3337631 0.44922394 0.13521504 0.36959156 -0.3282214 -0.40111357 -0.7152057 0.30178836 -0.10578223 -0.22063665 0.06843135 0.029335376 -0.22013912 0.15500516 0.26978546 0.2675373 -0.19224767 0.25319704 0.2775088 0.69531846 0.4851433 -0.38761035 -0.0572682 0.12175239 -0.5039975 -0.0056174756 -0.29521847 -0.5789292 0.118241936 -0.118793845 -0.16580634 -0.1328109
EAE -0.24660382 -0.17561565 0.10914187 0.39948776 -0.2812712 0.17382796 0.07893799 0.3219916 0.25006402 0.0799096 -0.4793559 -0.038828947 0.00047241818 0.42411324 -0.23210728 0.6494295 -0.34487486 0.19723465 0.1977636 -0.39663517 0.23825136 -0.8119948 -0.25952184 -0.20501529 0.3681881 0.24345267 -0.46287873 -0.11559964 -0.23928137 0.16596907 -0.02119319 0.23180221 -0.029953653 -0.14277798 0.2334255 -0.2495822 -0.063939065 0.16004953 0.23935962 -0.36033374 -0.38342017 -0.05654345 0.5379743 0.033722956 -0.16862726 -0.00015623443 -0.0108641535 0.33932006 -0.009582563 0.36234337 -0.18599318 -0.21408032 -0.2441711 0.46218812 -0.013080564 0.008252506 -0.036478896 -0.10393923 -0.17303275 -0.049144745 0.1843126 -0.23847 0.6305223 0.4517449 -0.0055538537 0.36659214 0.01138585 -0.037751373 0.3297293 0.24196911 -5.280551e-05 0.57460773 -0.17364126 -0.40341994 0.20761143 0.29027945 0.056183465 0.5762976 -0.008743425 -0.10394945 0.24017793 0.068313494 -0.30560791 0.29875305 -0.5652039 -0.19164127 -0.052595183 0.31159836 0.39028648 -0.06085453 0.58629817 0.25742352 -0.51761055 -0.3848498 -0.059596732 -0.15107952 -0.06851747 0.27250078 -0.06903137 -0.18326686
QNK 0.034048684 -0.3693199 0.17952088 0.17094718 0.05811539 -0.11845405 0.14494298 -0.5098442 -0.101653166 -0.0040902104 -0.11771438 -0.13960887 -0.079512835 0.028688783 0.059490707 0.26731333 0.28541088 0.46018812 0.1990357 -0.5414148 -0.1230589 0.08854594 0.1632009 -0.38647357 0.13503006 0.32025337 -0.060891826 -0.07177717 0.08042162 -0.3277797 -0.11660717 0.6882991 -0.35008836 -0.08931252 0.051810183 -0.11446876 0.065060645 0.44116548 0.16741708 -0.178923 -0.2923779 -0.17470372 -0.07653341 -0.05768251 -0.24223419 -0.045979634 0.4010581 -0.08707373 0.15373072 0.6968025 -0.82631475 -0.013797756 -0.06029153 -0.044223215 0.15314545 0.3383779 -0.35589975 0.20306607 0.37182152 0.4973765 0.053101234 0.007473403 0.30210352 0.25366846 0.110058635 0.33351937 -0.08216575 -0.009086224 -0.4183191 0.56698674 0.2563753 0.050502352 0.24096845 -0.40709725 -0.47044837 0.27229506 -0.30417117 -0.00016066706 -0.36594743 -0.16503772 -0.0067197764 -0.46944302 -0.3150456 -0.0535436 -0.3258907 0.1956124 0.19476174 0.30573437 0.26161996 0.071692884 -0.36838257 -0.03564571 -0.46922103 0.09757932 -0.18765198 -0.2424165 0.36403438 0.05080101 -0.19481218 -0.05148076
AEA -0.11741256 -0.31077445 0.25241098 0.35059527 0.08541688 0.08671769 0.025414268 -0.025201611 -0.15250103 -0.048688266 -0.23793527 -0.3782885 -0.053155582 -0.12964962 -0.327816 -0.05410477 -0.36744443 -0.14787042 0.21647805 -0.15765806 -0.32563072 0.16566713 0.09823855 -0.9054769 -0.3383716 0.16660298 -0.4015651 -0.41693357 -0.12503298 -0.09797456 0.45801747 0.5133008 -0.019577 0.14160612 -0.37249625 0.28385225 0.10707646 0.09894522 0.008781711 0.013008899 -0.59258866 0.09319973 0.24365754 -0.2163101 0.12848835 0.3274809 -0.082904994 -0.14967336 -0.21020575 -0.06266948 -0.31169367 -0.5964712 -0.062029734 0.2185378 0.06765682 0.44827694 -0.4124739 0.109008476 0.36163735 0.29954454 0.20227225 -0.17393993 0.103148915 0.33449167 -0.3813586 -0.33479154 0.2297508 -0.048170634 0.12820625 0.3031389 0.33557844 0.06284235 -0.73350173 0.058692873 -0.36240196 -0.17368369 -0.36984217 0.065518595 -0.42411357 -0.077264756 -0.10028653 -0.17621104 -0.3615506 0.39903876 -0.124990895 0.43642968 0.36677566 0.5558117 -0.27026406 0.26359913 0.086414956 -0.10339999 -0.7674137 0.19210753 0.22505763 -0.4105654 0.12843914 0.26250246 0.22155505 -0.54347473
LSK -0.18604623 -0.59692997 -0.20272999 0.05445601 -0.48411173 0.0012825823 0.000118712924 0.19148156 0.049416907 0.18934074 0.17175795 -0.13480419 -0.61517686 0.29807127 -0.22274359 0.12415871 0.21997279 0.009322844 0.12527898 -0.44070905 -0.56124914 -0.21487923 -0.30721998 -0.24281183 -0.65662533 0.34439802 0.058948707 -0.068211265 0.2866845 -0.41155005 -0.1611385 0.46584842 -0.22928095 0.6451858 -0.015373651 -0.30587697 0.04055847 0.34902704 0.44350806 -0.2407691 -0.3320105 -0.19766164 0.21043782 0.009217651 0.35968113 0.20373487 0.31307516 0.42752677 0.16493215 0.19819224 -0.5280925 -0.16294833 0.041891355 -0.07128112 0.36487007 0.06555964 0.52062786 -0.15555924 -0.6231214 -0.23836127 -0.4104284 -0.0127400905 0.36165893 0.16931021 0.33061743 0.19909489 -0.47240847 0.21560921 0.15262654 -0.04331789 0.15571448 0.26815462 0.024350516 0.018643094 -0.23719177 0.2986585 -0.37028107 0.47316575 -0.10350547 -0.21234274 0.15921858 0.50643134 -0.30484086 0.3496831 -0.62954885 -0.21481913 -0.103890486 0.599243 0.058517076 -0.02402977 0.5036204 0.051234912 -0.60753477 -0.6323028 0.1265447 -0.18130367 0.26585254 0.28508025 0.43057573 -0.41069296
ELG -0.07230473 0.1997521 0.13230394 0.15035225 -0.002882965 0.12341397 0.37955105 -0.27677688 0.18611893 0.14894642 -0.26442245 -0.055877853 -0.02815865 0.310603 -0.23178431 0.43582574 0.023589019 -0.023562139 0.36783987 -0.1886199 -0.2739579 0.18694936 0.13416529 -0.5517902 0.04727128 -0.012514052 -0.05223354 -0.33030805 -0.05611749 0.21013993 0.10032035 0.03564174 0.169669 -0.08661784 0.04366134 -0.16295989 -0.053627606 0.13738179 0.13301285 -0.0062615103 -0.7287754 0.1639506 0.46567303 0.1079655 -0.20827314 0.192743 0.18877932 -0.3907429 -0.3689276 -0.033840816 -0.37890282 -0.1458871 0.06917886 0.18512285 0.18616289 0.3123127 -0.18662089 -0.030589558 -0.23901276 0.08265364 -0.14216189 -0.03650964 0.4189651 0.3976905 -0.12407185 0.26428756 -0.14365679 -0.41703877 -0.11552179 0.29458758 -0.03559585 0.029550243 0.39141423 -0.107421815 -0.2778959 0.3238793 -0.1416882 0.19601047 0.0068267686 -0.3865993 0.5236014 -0.3556339 -0.22347867 0.46858338 -0.59956735 0.045293532 -0.026400173 0.11453189 0.09809018 0.085497625 0.61228454 0.088193096 -0.7881635 -0.10843975 -0.48459756 -0.25609964 0.01714604 -0.08470066 0.10363371 -0.009327929
LNE 0.07712795 -0.3980121 -0.3894074 -0.060536385 0.04467467 -0.35942522 -0.20159587 -0.19363692 0.20034651 0.27036643 -0.18553339 -0.45151827 0.109621756 0.23948547 -0.099645965 -0.124199554 0.28878033 0.20448203 0.4782963 -0.6626478 -0.09713737 -0.40908206 0.24038054 0.079376265 0.19863698 0.034188017 0.10706438 -0.008844694 -0.16825968 -0.45969048 -0.00076819514 0.21117084 -0.21006648 -0.015998863 0.4430644 -0.031892557 0.21422324 0.14338082 0.520184 -0.22329824 -0.18148233 0.05593352 -0.04076293 -0.14129579 0.097706504 0.014061441 0.5368333 0.4168681 0.22249332 -0.2513071 -0.25589558 0.12815925 -0.3089239 0.015647566 0.01737076 -0.013196731 -0.29537445 -0.12508506 -0.4217407 0.066712245 -0.09914676 -0.5362426 0.6184442 -0.036668748 -0.29377878 0.0042214296 0.089219935 0.18553612 -0.06676021 0.29446873 -0.13855335 0.4301651 -0.3281516 0.09294582 0.0098859845 0.0650105 -0.14076237 0.33902973 -0.23705328 0.18226342 0.41426197 0.21567254 -0.33865932 -0.10000439 -0.7578279 -0.28768036 0.12624173 0.33908728 0.056882672 -0.22496925 -0.03396663 -0.027305534 -0.019115409 -0.02074141 0.025377758 -0.54540706 0.07462232 -0.0051892726 0.4683389 -0.34067267
NEL 0.5654606 -0.1878013 0.035928767 -0.057670783 0.62997335 -0.37891677 -0.12789589 0.24000256 0.104641505 0.05949243 0.1366816 -0.13846877 -0.094133444 0.08010539 -0.37638375 0.14129764 -0.12881026 0.1638488 0.21773657 0.148876 -0.809914 0.15586789 -0.07081692 -0.29357582 0.36346924 0.16396166 -0.21780044 -0.05664571 -0.4417972 -0.08755084 0.013653024 0.56782836 0.0333852 0.64730066 0.10765308 -0.12355503 -0.3188983 -0.25356722 0.21498592 0.09230722 -0.5741917 -0.15391195 -0.19971222 -0.02952439 -0.09805944 -0.039760634 0.28552908 0.13970822 -0.010113738 0.051353008 -0.11525488 -0.5678909 0.079605445 0.4784142 0.07767185 0.32476544 -0.121154055 0.33166105 0.011582994 -0.1634724 0.25277147 0.4192656 0.017492227 0.3044206 0.13140135 -0.056108687 -0.062892385 0.24681877 -0.019355366 0.24075103 0.28296068 0.3635425 -0.24494101 -0.38298386 -0.025583968 -0.04485265 -0.05514121 0.075635746 -0.63716954 -0.050012127 0.17749304 0.114723876 -0.08121192 0.12211127 -0.03199439 0.36956602 0.3748833 0.059651777 -0.019525774 -0.44124764 0.2757011 -0.14835739 -0.16173162 -0.15099299 0.19922999 -0.16143648 0.45438707 0.20414108 0.10576684 -0.27080902
ALN 0.19267258 -0.09427547 0.008975961 0.1545732 -0.24423139 0.33379927 0.22672817 0.32577002 -0.04855709 -0.045156006 -0.05634111 -0.09972898 0.28876173 0.39699543 -0.30261302 0.6716006 0.102345556 0.015230922 -0.10208593 -0.44184214 -0.35061452 0.13761298 -0.15446459 -0.28113317 -0.06583029 -0.24197957 -0.054110155 -0.33668253 -0.010368582 0.20795743 0.19154869 -0.0016743633 -0.009034069 0.05889544 -0.0056573194 -0.0022188562 -0.14340015 0.0075111487 0.32555556 -0.38603204 -0.5685001 0.053960286 0.21742073 0.06384242 -0.1906281 0.6008066 0.1215299 -0.16594137 -0.070096746 0.31643805 -0.52982885 0.035420865 -0.10308511 -0.07012169 -0.10545532 0.011276212 -0.24512514 -0.015449266 -0.012484568 0.3238404 -0.33209628 0.029314384 0.36109942 0.694987 -0.19377698 0.07982036 0.060710814 -0.36768126 0.012717553 0.31545132 0.046083167 0.1837398 0.057092696 -0.021537863 -0.18108413 0.14476646 -0.28281537 0.19929649 0.027860243 -0.5138913 0.11685802 -0.37678766 -0.16950324 0.092791334 -0.7038761 0.2698375 0.011876016 -0.050580576 0.28154546 0.06830448 0.740352 0.0037016633 -0.4215909 0.16241215 -0.055900306 -0.47290993 0.17151378 -0.1750778 0.06581231 -0.2607945
TQK -0.015587372 -0.46370184 0.21411237 0.23738243 0.029543959 -0.17415197 -0.02368608 -0.08780596 0.5251535 0.1896991 -0.4220733 -0.22719681 0.4544724 -0.01660391 0.051352713 0.23453684 0.08434229 -0.1201283 0.2629295 -0.20944795 -0.73616177 0.23327844 0.41436708 -0.5183011 0.15496095 -0.22239761 -0.36074948 0.12972035 0.25397918 -0.35291356 -0.032379426 0.20708896 0.036317483 0.6871044 -0.06137206 -0.3486887 -0.15756087 -0.0637718 -0.019202739 -0.16795608 -0.4709761 0.20635115 -0.12457012 0.028716229 0.12797228 0.10806371 0.009128567 -0.060128722 0.018287964 -0.16129075 -0.2777617 -0.39247498 -0.19067425 0.5943177 0.17724298 0.0544379 -0.52199394 0.040291596 0.13280167 -0.2679288 -0.053088665 0.11183208 0.104427785 -0.07812266 -0.52903104 -0.10313647 -0.17369056 0.32342774 0.002630411 0.29361466 0.5951672 0.310238 -0.27508515 -0.15175636 -0.31335267 0.2595581 0.1493611 0.21823132 -0.4961633 0.28917247 0.31321642 -0.1140183 -0.21327749 0.27186078 -0.21106862 0.029685155 0.27219775 -0.037148792 0.45140257 -0.2792394 0.15622348 -0.18734007 0.19199741 -0.022146974 -0.19649252 -0.23485452 0.38975754 0.3064735 0.50547004 -0.40201417
QDE 0.2059385 -0.5395771 -0.066853896 0.19163169 -0.562052 0.024951434 0.038807068 0.040535957 0.0118129505 0.02368953 -0.34321594 -0.016105153 -0.073748514 0.23062034 0.041194662 0.76870406 -0.30902052 0.13462123 0.27883482 -0.140147 -0.08161491 -0.42900038 0.29845467 -0.20018291 0.14791498 0.008331982 -0.11969854 -0.018332837 0.024102934 0.36906752 -0.40871313 0.3464646 -0.07843992 -0.37110236 0.31874758 -0.21861473 0.054445293 -0.07845754 0.6950201 -0.28918493 -0.78257215 0.27188182 0.10806037 0.11077201 -0.06635285 0.33673203 -0.016441224 0.100959785 0.32375294 0.08056311 -0.10952665 0.08226909 -0.10714372 0.45202115 0.18615748 -0.07329308 -0.19434385 -0.2104176 -0.08495733 0.33741775 -0.19800703 -0.09550336 0.26424423 -0.061759297 0.030431274 0.03264636 0.20883319 0.21799694 0.085057765 0.277847 -0.1454506 0.36063942 -0.069389075 -0.23560949 0.16025005 0.43218043 0.17514771 0.3684356 -0.041233778 -0.019534528 0.57083 0.26248634 -0.47358793 0.4868722 -0.5251641 -0.23012383 -0.11416547 0.29345828 0.031833638 -0.34469792 0.29764298 0.39318183 -0.5431085 -0.0634274 -0.048696004 -0.1324216 0.30661327 0.05747874 -0.03097749 -0.44113663
TQD -0.08729626 -0.21630651 0.15777053 0.23540322 -0.07527159 -0.18455529 -0.25085247 -0.37224564 -0.02173313 -0.119049124 0.39356235 -0.24695344 0.017506097 -0.08909993 -0.33136266 0.056763943 0.1270819 -0.35452455 0.6705795 0.13004625 -0.29931372 0.2297178 -0.01543524 -0.45308968 0.04866822 -0.042877674 -0.32261178 -0.5104954 -0.06802038 -0.20608035 0.29004368 0.44728553 0.21313912 -0.015372053 -0.16066173 0.11422787 -0.18402666 -0.27084017 0.116692156 -0.194008 -0.46114966 0.17527238 0.13274685 -0.16153488 -0.16802616 0.48622936 0.22776821 -0.042909727 -0.21940589 0.018495727 -0.36108235 -0.42536807 -0.11855113 0.065897785 0.5678883 0.15280284 -0.32500958 0.086277165 0.08828086 0.15093033 -0.3255464 -0.05557109 0.055310424 0.5293646 -0.14621638 0.21404824 0.19538197 0.15034892 0.023769882 0.7772356 0.3890487 0.28048533 -0.041344043 -0.33407786 -0.41815886 0.16451621 -0.4233648 0.09098382 -0.4208643 -0.23036847 0.1624556 -0.27267325 -0.016584434 -0.051616423 -0.12139786 0.20396653 0.7803279 0.13895571 0.013260837 -0.05122131 0.086503126 0.010347332 -0.19980767 0.0034561115 -0.2116649 -0.2445449 0.45567793 0.34064874 0.38801226 0.032525286
ALQ 0.0028103646 -0.65127 -0.16403821 0.32175657 -0.74490494 0.31081554 -0.025213312 0.08056549 0.24160771 0.049954783 -0.29399323 -0.2621967 0.15480618 -0.10815114 0.2647754 0.65306455 0.25309354 -0.19723612 0.37570763 -0.04343383 -0.32644257 -0.72072786 0.28368083 -0.012085719 -0.15968142 0.22452877 0.075748935 0.07200964 -0.16629818 0.42227477 -0.26487538 0.27922228 0.20559095 0.3530343 0.43524548 -0.18363433 -0.022502264 0.051593713 0.07894736 -0.44252494 -0.2681921 0.15640812 0.0025624183 -0.17245632 -0.15224825 0.25719458 0.39049098 0.19400144 -0.20927694 0.08012658 -0.330247 -0.23302522 -0.12682733 0.3774325 -0.0037961623 0.24790147 0.49935514 0.16048363 -0.48386097 -0.105808355 0.1652104 -0.41627908 0.16854799 0.12923357 0.081521794 0.20220678 -0.18132208 0.04620718 0.26419556 0.29137963 0.26629436 0.43201882 -0.12336897 0.026393222 0.08099175 0.09974655 -0.19372796 0.26692006 -0.10221113 0.034015883 0.71551836 0.047972154 -0.02477115 0.29126492 -0.49211928 -0.14716245 0.32924575 0.16905649 0.15882397 0.10431699 0.5698632 -0.116217434 -0.5322847 0.005243661 0.041872736 -0.19714153 0.38835952 -0.24582377 -0.08567534 -0.42390078
LQS -0.058289308 0.29453057 -0.1572235 -0.82173514 0.4235181 -0.6517929 -0.05073928 -0.08485928 -0.17938706 0.14928596 -0.30118653 0.18102822 -0.07792669 0.04868374 0.43462095 -0.3089423 0.2661856 -0.2588142 0.18678702 -0.054425247 -0.084865905 0.53184307 0.25518402 0.07612538 0.20809278 -0.13514896 -0.2409276 0.090288185 -0.02936713 0.18277302 0.24689743 0.026922317 0.6295279 0.080235496 0.004152293 -0.14070533 -0.48411626 -0.032580357 0.25362268 -0.15131757 -0.08038573 -0.0733503 -0.16162759 -0.16219965 0.17267302 -0.21570009 -0.20810895 0.39968714 -0.07015677 -0.0043698805 -0.079710096 -0.19805422 -0.012987573 0.30512524 0.10885544 0.16530539 -0.51469535 0.5868836 0.463572 0.45014063 0.05092727 -0.5858484 -0.11176733 -0.047885653 0.38610306 -0.37741768 0.2315427 -0.17261751 0.2291475 0.1525902 0.020196756 0.16177765 -0.37943652 0.24388875 -0.07445 0.3395648 -0.3608119 0.116926126 -0.1443798 -0.037633304 -0.041464582 -0.22193459 0.0028553493 -0.16654867 -0.5222692 -0.27630088 0.29670575 0.21687105 -0.046654373 0.0643889 0.38895866 0.2764563 -0.54538774 -0.29274723 0.021185776 -0.45459586 0.22943227 -0.4863531 -0.11839193 0.07337562
LGP 0.109115675 -0.19749714 -0.057676703 -0.06685943 -0.28200135 -0.32532245 -0.20644294 0.37648204 0.24263585 0.5632079 -0.22442493 -0.4489508 -0.09369406 0.18240477 -0.041961756 -0.12555288 0.31264547 0.2668921 0.39875448 -0.5086385 0.14070746 -0.5523352 0.15491116 0.03819458 -0.019892298 0.08160116 -0.057301883 0.363204 0.048523866 -0.61856395 0.24993335 0.35756618 -0.376974 0.35393718 0.3630312 -0.16451898 0.14090635 -0.13348643 0.49322614 -0.20869468 -0.7165391 -0.0039664246 -0.2660793 -0.04243639 0.3239501 0.35805058 0.20947798 0.24634205 0.29159617 -0.17335294 -0.1624037 0.22674505 0.20188694 0.23517606 0.32520518 -0.21199717 -0.27097893 -0.27556637 -0.5769213 0.033637244 -0.039949518 -0.43364155 0.51048666 -0.15083647 -0.1620912 0.14245237 0.16997755 -0.013323605 -0.02478772 0.31326026 0.014073729 0.6743893 -0.10632713 -0.09607886 -0.01073569 0.31904674 -0.054201905 0.08650058 -0.3396155 0.25008795 0.21542554 0.18271686 -0.39704967 0.11919133 -0.12983546 -0.41831776 0.13269253 0.41042855 0.33575255 0.1289528 -0.1318016 -0.26917747 -0.27486616 0.29298672 -0.28303027 -0.27900472 0.40079445 0.07152865 -0.04825273 0.11472518
PDG 0.18291733 -0.26833686 -0.051485986 0.18326592 -0.041284304 -0.0365886 0.29313418 0.11026227 -0.12416813 0.22187938 0.30434737 0.13852905 0.034609534 0.27707177 -0.3209158 0.30372486 -0.12190473 -0.24698669 0.08709584 -0.1402488 -0.39379743 0.0019077787 -0.012030348 -0.4914887 -0.268377 0.020097353 -0.18285385 -0.056135483 -0.35069785 0.015442321 0.16927592 -0.16431044 0.100846566 -0.15114318 -0.16830488 -0.37250957 0.16404064 0.28993475 0.15683107 -0.37894574 -0.3743444 -0.07629835 0.20194192 0.14461608 -0.36161166 0.11966619 -0.06483269 0.10649671 -0.006647012 0.30992293 -0.64513683 0.14003816 0.41315615 0.20484604 0.33119148 0.31857046 -0.1621708 0.011135241 0.2394006 0.13377012 -0.22652586 -0.0006661407 0.31530055 0.3212603 -0.4534833 0.075726904 -0.080876656 -0.398099 -0.012644547 0.6070772 -0.13011593 0.13314274 0.37586397 -0.24748965 -0.39404973 0.3049505 -0.35926253 0.7120399 0.35759768 -0.4059073 0.2898843 -0.2715139 -0.48230213 0.17530258 -0.68876034 -0.15557685 0.113871485 -0.23930117 0.066354394 0.22746946 0.23680541 0.04553034 -0.64875937 -0.08974659 -0.27324122 -0.1494586 0.45576218 -0.10601167 0.040959634 -0.23333785
DGD 0.052439846 -0.39180598 -0.23721269 -0.2087023 -0.18679604 -0.46825254 -0.41669682 -0.1129552 0.06487159 0.27639684 -0.18379456 -0.39154613 0.017077485 0.15951474 0.056292914 -0.052840445 0.071814224 0.10464884 0.26723382 -0.5736383 0.33548018 -0.47940838 0.27226263 -0.11038062 -0.4229108 0.18540756 0.0997013 0.15295887 -0.030356923 -0.5731903 0.08861187 0.45088246 0.015491211 0.087081805 0.7389319 0.12548187 0.04619775 0.15240015 0.590499 -0.13072112 -0.53723395 -0.026220765 -0.08393174 0.18803981 0.29165223 0.14789177 0.62687486 0.23350167 0.49121922 -0.21952826 -0.09347009 -0.037622053 -0.16358356 0.6350557 0.05624292 0.057408947 -0.3485114 0.1524576 -0.10804923 -0.04681699 -0.042909943 -0.513964 0.49935168 -0.058739975 -0.05061682 0.23383565 0.06807418 -0.28060123 0.30415255 0.5415159 0.25413612 0.20873666 -0.2754948 0.041534025 -0.06621678 0.41965637 0.09599106 0.31253907 -0.18298292 -0.101076245 0.37567908 0.3442191 -0.60124284 -0.009476656 -0.066072576 -0.37313986 -0.14118053 0.13345173 0.5252475 -0.10939219 -0.086892836 -0.1922023 0.10246092 0.12571923 0.096289255 -0.504687 0.2633154 0.039755274 0.23067899 -0.13541561
GPD 0.60264534 -0.2862534 -0.21556242 0.30722457 -0.30947107 -0.23318364 0.043482926 -0.2024755 0.16997382 0.40750888 -0.19547129 0.12748502 0.223069 -0.024974942 -0.20125374 -0.24841689 -0.14780663 -0.12853312 -0.333563 0.043894786 -0.4019131 0.1710932 0.102976784 -0.07030557 0.4705004 -0.01851595 -0.030902304 -0.1758383 -0.3568553 -0.10002191 -0.0736357 0.36906543 -0.20093727 0.6245566 0.039345894 -0.36529505 -0.34076336 -0.10139108 0.07541299 0.11039147 -0.66664284 -0.1852166 0.13476369 0.10387317 0.053253666 0.0012860463 0.3065933 0.23842913 -0.3863703 -0.051989175 -0.1749251 -0.26552704 -0.21072154 0.23274222 0.12179573 0.47200954 -0.3711839 0.2688857 0.2011043 -0.0059918747 0.3302525 0.47011033 0.042946268 0.17036046 0.019951245 0.121780306 0.24109775 0.37932262 0.023536257 0.37748954 0.50066364 0.28542536 -0.4624684 -0.39003417 -0.10404826 0.13610148 -0.4176995 -0.043090377 -0.44058073 0.046183795 0.18914989 0.021738002 -0.08350626 0.041815702 0.060768392 0.034397107 0.34053794 0.14484535 -0.09641104 0.053806003 0.17298578 0.042272422 -0.21126474 -0.099850155 0.66008675 -0.1322716 0.7747265 0.3858553 0.21483193 -0.030392548
GDE 0.28798312 -0.525684 -0.44936007 -0.013763824 0.14153989 -0.19129655 -0.094940014 0.056001708 0.2545376 0.19873078 -0.31312898 -0.049961053 0.19297156 -0.026260916 -0.42108488 -0.17459552 -0.055810656 -0.25688994 -0.11422549 -0.11699146 -0.43438658 0.25117275 -0.27164358 -0.5163624 0.34830603 -0.19313683 0.14444257 -0.12272486 -0.1335653 -0.4121977 0.1206068 0.123377815 0.057645243 0.41548902 0.28270626 0.11999316 -0.12266864 -0.2329638 0.1224037 -0.13529988 -0.65255713 -0.39069873 0.044652604 0.12216692 -0.03629608 0.23003742 -0.06381394 0.54841524 -0.14932881 -0.050713666 -0.09801125 -0.104164235 -0.09929671 0.58509386 -0.052284975 0.64199764 -0.21398172 0.3714619 0.085491 0.06540584 0.16708288 0.19038635 -0.22756943 0.6289359 0.08265082 -0.08674426 0.027188735 0.5448397 0.11907924 0.18074343 0.2083087 0.28351426 -0.34442863 -0.4351077 -0.23777539 0.11730555 -0.26904958 -0.07930884 -0.53163624 0.123994865 0.4470205 -0.1903253 -0.10884829 0.33914545 0.049994666 0.10016251 0.3141465 -0.07531034 -0.10066154 -0.30306768 0.26901516 0.056357633 -0.08420541 0.119088 0.10914141 0.3051173 0.45542574 0.35224614 0.051773455 0.14355816
DEE 0.2188161 -0.43717006 -0.10358076 0.22137918 -0.09702076 0.10273371 0.2599157 0.11777196 -0.008101359 -0.12489787 -0.0735568 -0.035481095 -0.051565666 0.19755699 -0.54204637 0.47849166 0.25021148 -0.19641824 0.13189648 -0.52076614 -0.04513131 -0.020554598 0.066129595 -0.14832658 -0.05223465 0.087103434 -0.45718795 -0.2527001 -0.14924084 0.18932186 0.4294916 0.17923531 0.07252021 -0.16823484 -0.08638842 -0.30361956 -0.11212433 0.20604984 0.07270779 -0.134148 -0.4226232 0.36280608 0.3019659 0.19846454 -0.14422378 0.10161934 0.18364392 -0.16906254 -0.3352741 0.15380134 -0.4461955 0.37894928 0.12692098 0.007769723 0.017659308 0.36615247 -0.23142731 -0.022821832 0.19279683 -0.037776407 -0.23696591 0.41269782 0.014261289 0.4311931 -0.12660034 0.18841924 -0.19107836 -0.24065104 -0.25274795 0.41935974 0.25438052 0.22275399 0.35071647 0.010718719 -0.07554354 -0.004136316 -0.30888224 0.33120194 -0.032252707 -0.86287874 0.61634344 -0.15991785 -0.5663446 0.19403961 -0.66516143 -0.118524045 -0.35595265 -0.042582702 0.3776028 0.18224165 0.26370534 0.0018626896 -0.83038044 0.07045948 -0.6376302 -0.20067081 0.19204977 0.005595124 0.17683235 -0.07862554
EET 0.5115012 -0.5115368 0.16815639 -0.0509432 0.22850215 -0.17950477 0.038769625 0.07470602 0.1930419 0.34864607 -0.14178617 -0.31280592 0.254098 0.068577796 -0.20436852 -0.17149721 -0.10630745 -0.23502661 0.104541816 0.038657974 -0.29578727 0.20619226 -0.101139955 -0.20941308 0.4412816 0.2980425 0.19778211 0.056997236 -0.12246415 -0.10225376 0.18657051 0.2627657 -0.09949524 0.3796942 -0.05350914 -0.026448648 -0.23619615 -0.033167098 0.425189 -0.20844024 -0.66642594 -0.3640506 -0.10930325 0.08953185 -0.29629037 -0.13427071 -0.13742086 0.12890628 -0.14245987 -0.06827961 -0.06430489 -0.20550774 -0.34707767 0.4537949 0.19147772 0.24357678 -0.43083033 0.50149304 -0.03836251 -0.24873754 0.5200679 0.48316574 -0.54714686 0.3995903 -0.36322048 0.17588006 -0.14151612 0.040408198 0.10708391 0.47085714 0.3196289 0.38650486 -0.43253833 -0.42368987 -0.3478297 -0.016522137 -0.0821805 -0.012320421 -0.15412636 -0.110466294 0.4311367 -0.035880923 0.20384885 0.096799776 -0.16338408 0.096556984 0.37533358 0.23662162 -0.27757794 -0.39526764 0.30134478 0.20740561 -0.11586389 0.3612865 0.69412744 -0.033097778 0.55972505 0.28857094 0.04966821 0.10588997
KEA 0.110201314 -0.12920208 0.10483106 0.27142325 -0.033174086 -0.30128512 -0.06554372 0.18218322 0.46354058 -0.00044005696 -0.055022273 -0.2980883 0.057305593 -0.16060226 -0.1949956 0.20878446 -0.20617703 -0.3226291 0.3139835 -0.21897125 -0.24797423 0.32435977 0.076433145 -0.34646496 -0.29932758 0.16867737 -0.34827816 -0.29201594 -0.11161399 -0.41213766 0.16861309 0.18704417 0.06369119 0.20101824 -0.16593616 -0.033205412 -0.28600425 -0.27568075 0.18350609 -0.32715505 -0.37434015 -0.07565137 0.054433513 0.11708177 -0.059560057 0.26470077 0.20159176 -0.22808006 -0.4504609 -0.025178812 -0.6536688 -0.37146407 -0.044974476 0.115298234 0.7027212 0.20401724 -0.38859856 0.17226325 0.5554653 0.4043514 0.07225645 0.14386405 0.14059952 0.40336588 -0.47868276 0.07453721 -0.089889064 0.20375878 0.039254107 0.44653088 0.040277366 0.07332494 -0.025601123 -0.3426363 -0.2342654 0.27257675 -0.48537022 -0.15054275 -0.5212601 -0.091589384 0.23228772 -0.17521438 -0.08658224 -0.1300915 -0.2380691 0.19355395 0.39600372 0.021496503 -0.1164473 -0.21450804 -0.13918196 -0.119746834 -0.5758968 -0.12561555 -0.2732209 -0.6262988 -0.23049778 0.2382284 0.11030612 -0.06204105
NVE 0.3598961 0.1967143 -0.3208167 -0.02261411 -0.17619027 -0.071427666 -0.28253764 -0.42697188 0.16461997 0.05026957 0.13010626 0.22491114 0.10969236 0.438248 -0.09123344 0.26069456 -0.44322732 -0.40431884 -0.10063568 -0.14585355 -0.45319346 0.07783892 0.2514884 -0.7714013 0.0866621 0.2132012 -0.63417643 -0.31577644 -0.06577599 0.2464951 -0.31084195 -0.10274303 -0.46199206 0.4497881 0.323819 -0.06583509 -0.15340862 -0.20135744 0.21405987 -0.4610225 -0.25653556 -0.20191456 -0.31125084 0.17716008 -0.06866812 0.63140327 0.1584177 0.2558851 0.23849075 -0.3690268 -0.07560704 0.21473646 0.10377192 0.52855337 0.43096414 0.10244345 0.15972587 0.29567358 0.07733747 -0.2587123 0.19562347 0.046839528 -0.23683509 0.62487465 -0.28456777 -0.13330479 0.30600908 -0.043633796 0.12752649 0.34369695 0.22238734 -0.12013753 0.14366372 -0.19567014 -0.3371711 -0.1919421 -0.17323394 0.27646497 -0.1232184 -0.067184344 0.38183555 -0.043022733 -0.2896028 0.4852161 -0.22801065 -0.17688265 -0.30588004 0.5380347 0.08868303 0.13171008 0.69780767 0.3258538 -0.48155507 0.41032514 -0.33320338 -0.755265 0.15126835 -0.094533674 -0.10145732 -0.25324234
LKD 0.67624784 -0.28730345 -0.6008702 0.058683835 -0.13973871 -0.11092527 -0.46898565 0.023048544 0.08861068 -0.10621419 -0.3650254 -0.05643029 0.6971959 0.10987607 -0.29551908 -0.27068195 -0.032826763 0.04485375 0.39541084 -0.50661856 -0.2585748 -0.16950127 -0.007256784 -0.13352081 0.064973526 0.053252354 -0.35545957 -0.2560045 -0.33616805 -0.42496794 0.072585806 0.5365954 0.38697076 0.12083772 0.08977518 -0.12041824 -0.09597502 0.36631912 -5.4100907e-05 0.094092876 -0.45736772 -0.062698886 -0.0075404514 0.14826964 0.19900456 0.111396134 0.104521886 -0.3395605 0.7122908 -0.44169742 -0.15483524 -0.7448973 0.079657115 0.029657576 0.029418852 0.031572055 -0.34360355 -0.08304364 -0.16610673 0.13652512 -0.2119286 -0.32536283 0.01728658 -0.35682768 -0.5052578 0.13580842 -0.28501594 0.055794183 -0.07180926 0.302392 0.50270134 -0.21199226 -0.06348807 -0.41273147 -0.34771279 0.34440747 0.11701303 0.016916215 -0.2062536 -0.08160014 0.3607831 -0.47643712 0.10908864 0.13635722 -0.4547238 -0.5141962 0.35832733 -0.048943054 0.17893094 -0.18381935 0.03341732 0.0729855 -0.47243077 -0.161911 -0.13897598 -0.5941157 0.716645 -0.22993885 0.18113425 -0.14246799
TKK 0.30285907 0.013361552 0.19405001 -0.1917515 -0.53988594 -0.029905485 0.11278079 -0.3093578 -0.001730175 -0.06374424 -0.1203279 -0.2432313 -0.25964114 -0.27770936 -0.55078995 0.43544307 0.112075284 -0.5813258 0.2575896 -0.6469674 -0.07936732 0.15012278 0.09600084 0.058825478 -0.08413749 0.16850662 -0.21197282 0.2109308 -0.14110686 0.19320306 0.535647 0.12693511 0.09087217 0.17049596 0.17134768 -0.3691542 0.4621903 -0.0017505705 -0.21614103 -0.14483006 -0.39611927 0.11999824 0.56522214 -0.0754347 0.042783603 0.27384835 -0.40697476 0.067428656 0.33495367 0.16442572 -0.59385717 -0.30695713 0.013257853 -0.27162936 -0.1964521 0.54191035 -0.589647 0.2553813 0.36801744 0.074234046 0.087684326 -0.40272072 0.50019073 0.7831842 -0.40902114 -0.047518086 0.22459514 -0.35060662 0.0047158957 0.26868275 -0.056555867 0.20085378 -0.11747366 -0.1916255 -0.2510152 0.060229205 0.12214255 0.04037345 0.21876961 -0.64807445 0.45313123 0.044965886 -0.5079632 0.06809218 -0.19672638 0.47321123 0.21376888 0.38846028 0.045135338 0.30261758 0.43407777 -0.008995793 -0.96329707 -0.2572954 -0.19098097 -0.29840732 0.3273594 -0.0340526 0.087562904 -0.398342
LKK 0.029240075 0.2169034 -0.008213242 0.45448852 -0.008674123 0.009640934 -0.12943429 0.15206483 -0.15551023 0.263437 -0.12713717 -0.089739844 -0.55068755 0.27362075 0.024706483 0.42478892 0.15646957 -0.039521232 0.4743787 -0.20425078 0.3333139 0.23832633 0.26147634 0.18899342 -0.062144216 -0.17522943 -0.2859572 0.21236339 -0.06578389 0.1702034 -0.35118142 -0.099692136 -0.10551177 0.17740005 0.13027364 0.26934427 -0.21902122 0.061373226 -0.11934606 -0.5348507 -0.39298397 -0.3108894 0.052577518 -0.19455089 0.05368566 -0.42748097 -0.03294171 -0.14140724 0.22919609 -0.21279943 0.3518575 -0.23408702 0.018558482 0.25113133 0.16677924 0.4528543 0.40170273 -0.052087825 0.43615898 -0.70370144 -0.1468297 -0.1256084 -0.094353005 0.391055 0.09497729 -0.18218756 0.050068196 -0.006377505 -0.11434218 0.22399141 0.52783614 -0.369344 0.04281234 0.12221269 -0.17258297 0.03541341 -0.6926421 0.3257394 0.21867819 0.10035043 -0.15839313 -0.46448788 -0.6008484 0.09795531 -0.35361338 -0.105193384 0.09736711 -0.06294538 0.18030013 -0.029529156 0.14551595 0.42990857 -0.053523246 -0.20527928 0.030069083 -0.0035713436 -0.5735433 -0.48677683 -0.6148579 0.019654658
DAK 0.3170995 0.25097215 0.20515597 0.582337 0.11499983 0.28282937 0.1503979 -0.023088766 -0.21595408 0.15692048 -0.1497234 -0.4137726 -0.26085258 0.081046365 -0.14060147 -0.008703251 0.0727552 -0.6196338 -0.40626284 -0.28141132 0.077700585 0.15842186 -0.042521726 0.028439492 -0.2603919 0.19158895 -0.16860473 0.1200803 0.15140776 0.1701128 -0.106543794 -0.2934218 -0.22610936 0.21008156 -0.06644102 -0.08177414 0.20823152 -0.09633725 0.08971352 -0.6112656 -0.20749769 -0.35190192 -0.20827034 -0.102883026 0.24684851 -0.53730345 -0.019999389 -0.06604013 0.62495667 -0.07793539 0.4546491 0.24185783 0.004433194 -0.16036713 -0.035926387 0.45676333 0.5462247 0.39318052 0.050987605 -0.2247631 -0.3542332 -0.03340749 0.08464751 -0.53259605 0.53448945 0.1002903 -0.3774377 0.05261225 -0.43679684 0.09959712 0.3409191 -0.22196764 -0.15635161 0.003940216 -0.69072145 -0.046700023 -0.5432324 0.46618566 -0.06993529 0.29584607 0.16349801 -0.10042434 -0.03988628 0.25301772 0.29828462 -0.483361 -0.09089102 0.23666468 0.28160968 -0.6475365 0.12082862 -0.28171355 -0.47343075 -0.40158886 0.4662696 -0.060217302 -0.14522734 -0.41691488 0.14033529 0.42836305
GKT -0.00036058374 -0.10508772 -0.20699847 0.14239511 -0.71018344 0.49185845 0.209505 0.21811073 -0.050876915 0.113586895 -0.42347166 -0.23868147 0.05513994 0.5219875 0.04075018 0.5381661 0.0718619 0.4630708 0.2944284 -0.22613978 -0.14111063 -0.48493823 -0.1269495 -0.63738626 -0.12543239 0.2585337 -0.27566108 -0.2387721 -0.12461545 0.09930335 -0.052444205 0.40343654 0.15019204 -0.2642986 0.028152512 -0.34733722 0.056243476 -0.07091418 0.3096634 -0.59797335 -0.5442279 -0.14557678 0.6359274 0.01160559 -0.056920785 -0.28786716 -0.17317677 0.32657874 -0.11863776 0.5505218 -0.036606796 0.09551358 0.25227016 0.25959498 -0.1602211 0.026817981 -0.3377135 0.1569479 -0.15187645 0.051910244 0.20082748 -0.058642436 0.62300926 0.35034466 -0.1111266 0.63639325 -0.06814255 0.065215364 0.30860922 -0.068446726 0.067921385 0.3926317 0.02072772 -0.26497722 0.16036196 0.2342667 0.16120128 0.5828743 0.32563812 -0.152785 0.5533846 -0.12735757 -0.09267403 0.19261155 -0.2612542 -0.006001901 -0.21218885 0.6790795 0.1967847 -0.19570608 0.3768346 0.4139251 -0.72683287 0.026801623 0.10161668 -0.2407235 0.18954037 0.18848178 0.12606223 -0.482146
LDP 0.15160297 0.13939771 0.15133359 0.5149736 0.03927593 -0.16952027 -0.0285422 0.03913632 0.27808794 -0.19976242 0.05253418 -0.36178172 -0.19446884 -0.26867926 -0.54857635 0.32324424 -0.054221526 -0.34474498 0.5091357 -0.29103354 -0.3363012 0.4964587 -0.12729031 -0.75383526 -0.054803077 0.4197387 -0.39907846 -0.3197534 -0.05561784 -0.27745995 0.53614956 0.16682236 0.10407611 0.091142 0.12426816 -0.117694356 -0.12677027 -0.083542 -0.048584968 -0.08034113 -0.4609832 0.36639535 -0.09885306 -0.068951316 -0.16929218 0.15355155 -0.008868486 0.029961197 -0.22718993 0.082287595 -0.31842086 -0.26120365 -0.31216604 0.64524794 0.0343864 0.20090124 -0.2795579 0.12177881 0.14353077 0.24361601 -0.011055565 -0.19122592 0.10002803 0.3588748 -0.31839684 -0.06893204 0.071594834 -0.061089575 -0.123904645 0.19376491 0.76689523 0.18245602 -0.40928516 -0.46161115 -0.096414186 0.19806536 -0.4828936 0.1739411 -0.4188922 0.30824903 -0.014519794 0.13206951 -0.20986098 0.07542147 -0.12831941 0.56082255 0.66986775 0.055676583 -0.15641718 0.04940446 -0.15177543 0.07929559 -0.602921 0.15505736 0.39370456 -0.59110916 0.31119245 0.37981302 0.42944992 0.12126181
EGK 0.23457979 0.044454984 0.3616026 0.53824604 -0.18840525 -0.1949247 0.036218204 -0.059472237 0.09312807 0.16399407 0.16204393 -0.2949278 0.39161658 -0.055821367 -0.29428163 0.11394923 0.014551055 -0.32071146 0.3197774 -0.16251153 -0.15346022 0.33269265 -0.25904217 -0.8317287 0.06565596 0.5834279 -0.42313534 -0.22958548 -0.019157173 -0.15707955 0.3880625 0.38210887 0.1451534 0.2950998 0.29136318 0.35904735 -0.09440046 -0.24473691 -0.14904997 -0.0651553 -0.4963863 0.24477872 0.14826803 0.037504446 -0.19206981 -0.0960043 0.0328747 -0.07109025 -0.07967016 -0.029502299 -0.33644727 -0.3580116 -0.15583189 0.37540272 -0.13701479 0.48270857 -0.45047802 0.06162811 0.19004276 0.42246923 0.043427058 -0.07068694 -0.12926652 0.3116517 -0.30136883 -0.021285892 0.16113017 0.22734635 0.28716812 0.67302835 0.0860573 0.012829824 -0.23100033 -0.28062376 -0.09652697 0.08473386 -0.41973755 0.36037144 -0.47983313 0.18690495 0.061460588 0.18146233 -0.009151829 0.20139039 -0.09062466 0.55655414 0.8277781 0.21200196 -0.13068241 -0.09878789 0.01753917 -0.56906515 -0.53451526 -0.0035583407 -0.07809234 -0.72952026 0.011845555 0.36569932 0.3442985 -0.20819001
PEG 0.53300637 -0.23743138 -0.19132556 -0.1428331 -0.0522712 0.0023120353 0.29458803 -0.35930833 -0.06496394 0.28773484 -0.40975574 -0.4369783 0.11410513 0.4153277 -0.14925636 0.011697457 0.07268684 0.019921826 0.23016109 -0.34787154 0.1560851 -0.51664656 -0.11343882 -0.20426738 -0.07281487 -0.26630315 -0.09400983 -0.30109486 -0.15720344 -0.4159441 0.69226986 0.07962589 -0.02958575 0.84220785 0.26663488 0.08917656 0.5698525 0.38825238 0.08776221 -0.05230329 -0.257978 0.3156525 -0.36956757 0.1762657 0.035235636 0.12462905 0.45997113 0.08948025 0.214331 -0.29655626 0.011092921 -0.61119664 -0.002915358 0.41956082 -0.048088424 0.24006203 -0.38174802 0.37133527 -0.28399187 -0.42874825 0.46314678 -0.06322648 0.38987136 -0.0014714603 -0.0049945493 0.014177752 -0.285894 0.32435796 -0.05258649 0.13808925 -0.17486855 0.69707704 -0.084840804 -0.33780694 -0.022639353 0.35079637 -0.59227175 0.21597902 -0.24098714 0.32598212 0.17208177 0.28323352 0.039413318 -0.23897581 -0.6888301 -0.040170133 0.009460941 0.06971673 0.62563556 0.17619285 0.06909613 -0.14336027 -0.08974681 0.07549469 0.04352563 0.0016924373 0.421354 -0.2867589 0.013596184 -0.27978387
AEI -0.0994998 0.29125637 -0.19276653 0.2542333 0.12981984 0.33358255 -0.03878593 0.2832035 -0.24608079 0.03053802 -0.32094523 -0.16931057 -0.41929767 -0.24628763 0.025252514 -0.54090226 0.5240689 -0.66516787 -0.3376118 -0.65306747 -0.2838576 0.13572687 0.031263556 0.42839444 0.08381664 0.08671534 -0.1068302 -0.10296034 0.27904093 0.0451828 0.31863257 -0.22298108 -0.33097655 0.72485685 0.26262993 0.05537795 0.23463546 -0.475519 -0.21479572 -0.3940759 -0.33461136 0.16195261 -0.28431433 -0.2338265 -0.027271729 -0.20746802 0.0073540104 0.29267752 0.43423516 0.04061703 0.4438368 0.06270909 -0.48889813 0.079562865 0.38231725 0.34896258 0.69808507 -0.1831102 0.18942302 -0.08406974 -0.49071565 0.057011414 0.29924837 -0.29860374 0.014025788 -0.23284069 -0.60832644 0.3311445 -0.15956002 -0.19353756 0.08598737 0.11228886 0.06416012 -0.05361204 -0.48281652 0.16635475 -0.44200814 -0.22932151 -0.37559518 -0.058165543 0.24747002 -0.24188371 0.08665786 0.22324757 0.03438909 -0.21215941 -0.012992491 0.38665435 0.043747447 -0.2608104 0.19855955 0.3172799 -0.5318845 -0.57441837 0.34860688 0.045102607 0.2814284 -0.42202476 0.23769388 0.024605304
EAA 0.023699578 -0.45480436 -0.22381988 0.3185092 -0.48729557 -0.00095721014 0.025947565 0.4463646 0.3811167 -0.044257093 0.08508097 0.33483493 -0.089163125 0.29260764 0.19855204 0.053744532 -0.22190964 0.06779432 0.24563938 -0.4554068 -0.2715388 -0.6909861 0.219189 -0.0022804616 -0.0058380417 0.2212836 0.22978553 -0.16513616 0.08714195 0.08654971 -0.51535404 0.088742234 -0.30410087 -0.19800356 0.76187265 -0.33820364 -0.21053015 -0.07641596 0.06692177 -0.26545894 -0.61069417 -0.07466901 -0.1787191 -0.26759163 0.29208672 -0.06949825 0.14856742 0.46120644 0.20806369 0.072454005 -0.20379867 0.35249785 -0.26236662 -0.088040605 -0.12896018 0.3113268 -0.12343611 0.19621648 -0.1644502 -0.08057855 0.21869113 -0.30995685 0.2915367 0.2862841 -0.2477532 0.44115716 0.35683793 -0.26724118 0.16329668 0.62361366 -0.22789565 0.54622626 0.13124818 -0.24683444 0.16963467 0.69947153 -0.17084517 0.20209575 -0.12523423 -0.36236647 0.18765609 0.21393263 -0.05797651 0.6020745 -0.4603816 0.08605622 -0.1768304 0.06633626 0.23327036 -0.51037985 0.62264395 0.2913047 -0.33070853 0.23174079 -0.18027277 0.03280378 0.3496709 0.03981933 0.34283313 -0.25696003
EIA -0.48846608 0.7312196 0.24204943 -0.3354546 0.10530839 -0.43726668 0.049966928 0.13712716 -0.07416481 0.2794591 -0.16690224 -0.22658537 0.31066215 -0.11677969 0.4996057 -0.55151707 0.20424144 0.017578289 -0.067414224 -0.57978064 0.10157665 0.15568388 -0.021809261 0.2405483 0.14060993 -0.10312311 -0.31454003 -0.4692493 0.010008117 0.036937 -0.2495742 -0.0478873 0.39181727 0.010448879 -0.4511307 0.33552125 -0.09765857 -0.1913299 0.46174186 -0.61440516 0.26788634 -0.3356727 0.019758634 -0.3104736 0.3861549 -0.08411819 -0.45667776 -0.25163904 0.18339357 -0.21835443 0.015049581 -0.19773233 0.26954252 0.15052937 0.44291437 0.77220005 -0.46202743 0.17637394 -0.16418543 0.59977716 0.02027709 -0.07521531 -0.02694182 -0.2100251 0.41548565 0.046900265 0.13811147 0.08469414 0.22019155 0.396684 -0.22223574 -0.14535049 -0.76925987 -0.015436829 -0.23548506 0.3377372 -0.13596402 0.25584105 -0.16639069 0.10787059 -0.2768207 0.25964886 0.0647013 -0.021710444 0.20600595 -0.1388267 0.36106005 0.21738116 0.8121786 -0.08768446 0.3065558 0.22245245 -0.79429555 -0.17105892 0.3808615 0.007297765 0.120441325 -0.59377605 -0.033228546 -0.14617704
EAD 0.030143248 0.46475178 -0.05846705 0.24695927 -0.1475054 0.12720098 0.0045554605 0.09483764 -0.3039043 0.045552477 -0.014776209 -0.18260606 -0.17369357 0.29924405 -0.19373144 0.20730771 0.14884752 -0.2074958 0.019455355 -0.3104827 0.18627726 0.39245215 0.09905298 0.097855456 -0.014232235 -0.2523847 -0.5018678 -0.21622539 0.19628286 0.29740614 -0.5809817 0.09521878 -0.34114355 0.0906467 0.07883916 0.031409897 -0.14018627 -0.23276685 -0.18905763 -0.30034035 -0.44250995 -0.35961515 -0.31257412 0.09814597 -0.23500107 -0.35283664 0.15032892 -0.09768099 0.27297446 -0.010696429 0.6647101 -0.05774721 0.20980981 -0.19832963 0.17414132 0.69825816 0.21855266 0.0771098 -0.2672442 -0.15796846 -0.6707359 -0.5489398 0.0056487136 0.28672105 0.39445284 -0.23917206 0.30275515 0.44849584 -0.4203791 0.33018097 0.60660815 0.013071825 -0.097077064 -0.12917334 -0.24042664 -0.034538686 -0.61542135 0.10582002 0.60131586 0.26920515 -0.08253897 -0.024717396 -0.2796293 0.14977118 0.12787174 -0.6037578 -0.034872018 0.08356335 0.5940841 -0.5394257 0.25942546 0.28292608 0.16142474 -0.6473152 0.36788762 -0.48126554 -0.3155314 -0.467132 -0.3598793 -0.16182494
PLQ 0.05658425 0.34574038 -0.29496625 0.8201845 -0.058349937 -0.10441462 -0.035663247 -0.017647032 -0.12990989 0.39966327 -0.17114845 0.016048403 -0.5604065 0.17126448 -0.2637738 -0.085970186 0.40195316 -0.31688485 0.03850673 -0.67872685 0.010412984 0.29738778 -0.14426014 0.21306396 -0.24511893 0.06332052 -0.10854064 0.07665068 0.36519337 0.55498 -0.37321532 0.02271149 -0.10217653 0.4025535 -0.09815469 -0.025407672 0.33438152 -0.32721168 -0.14237662 -0.4162468 0.01204071 -0.18976618 0.17035237 0.011860412 0.058474656 0.012983264 0.30554363 -0.039870284 0.44863316 0.06328083 0.5115442 0.23415458 0.10325947 -0.18077655 0.40141782 0.6969763 0.5265649 0.4136717 0.47528183 -0.22972699 -0.45961082 0.0819116 -0.03765461 -0.47542915 0.22682776 -0.2014209 -0.3795377 0.075921305 -0.1359171 0.12440726 0.2621701 -0.4690268 -0.13850915 -0.0138155315 -0.39171153 0.1718197 -0.23163147 -0.000108185486 -0.15877177 0.085999 0.26273832 0.13864502 0.222421 0.16282693 0.3508325 -0.46996772 -0.2917508 0.3717185 0.2606266 -0.43638188 0.26392284 0.29135594 -0.43081865 -0.6184118 0.2999984 -0.0037000664 0.26906276 -0.44272834 -0.01822209 0.33637667
QKE 0.30798864 -0.07456933 0.4537551 0.6585758 -0.15184791 0.19317633 0.16726422 0.06398632 -0.057027947 -0.12513866 -0.11795462 -0.22752936 -0.26385286 0.23664795 0.0672407 0.43113244 0.040316645 -0.36470628 -0.103510134 -0.23456176 -0.11827212 -0.20554636 -0.070820436 -0.609307 -0.0137215825 0.40127245 -0.11499252 -0.26790857 -0.13528123 0.43949863 0.38692766 0.1594397 0.11529165 -0.09469668 0.0032890087 -0.07583482 0.264238 -0.16051856 0.3001613 -0.25420722 -0.2623834 0.21418053 0.6101277 0.31281385 0.22446491 0.34283507 -0.10514954 -0.11317569 0.003804853 0.10393062 -0.3305651 0.016901378 -0.12960914 0.24356717 0.076317586 0.30970222 -0.3837432 0.27368614 0.15149495 -0.018490408 0.13255163 -0.21999057 0.60832536 0.5731766 0.07896088 0.2115775 -0.2326167 -0.21014771 -0.06276117 0.2543909 0.115655206 0.30083054 0.10537569 -0.18599248 0.23917648 0.47041395 -0.22127709 0.35004413 0.17615211 -0.42579034 0.5008079 -0.18210095 -0.38183218 0.64603513 -0.34408647 0.25083792 0.2519081 0.11808363 0.14250688 0.23361133 0.57964873 0.37000352 -0.2563397 -0.026758917 -0.21366233 -0.70268464 0.20979236 0.09346091 0.3307514 -0.6804878
DAA -0.15521507 -0.00063291984 -0.11288183 0.0032961958 -0.13211001 -0.42392215 0.06570422 -0.16602774 -0.3342968 0.14310677 -0.30606118 -0.22459915 -0.13135085 0.28710255 -0.2606791 -0.16533913 0.10847029 0.4162279 0.41181526 -0.70273113 0.5261164 -0.63086176 -0.1629468 -0.18471994 -0.040716555 0.19319116 0.15442286 -0.28218612 0.30259046 -0.26600465 0.6230324 0.57157516 -0.48250484 -0.09536897 0.3712069 0.18319356 0.024438 0.24564601 0.3260809 -0.21058309 -0.1503305 0.066803694 -0.27532098 0.38917428 -0.04713783 0.03636432 0.40688902 0.42535698 0.11167749 0.033578567 -0.24467516 -0.46097925 0.1371808 0.3985864 -0.20735608 0.07790985 -0.035444494 0.13774899 -0.26727894 -0.31304953 0.19697851 0.020029929 0.50932497 -0.13580538 -0.5697582 0.40948138 -0.023837255 -0.03526279 0.2896298 0.1875611 0.11048128 0.56024754 -0.236298 -0.43924356 0.10468176 0.3928823 -0.40447178 0.33606663 0.12188761 0.54092926 -0.023126738 0.3429007 -0.09008967 0.09511844 -0.577022 -0.14608152 0.16474196 0.45794377 0.45212317 0.16988415 0.11325802 0.032264706 -0.54896057 0.07513105 0.143864 -0.3435019 -0.26090908 0.008506862 0.13935725 -0.213905
IKE 0.07755389 0.17082945 -0.20641726 0.0859359 -0.074189715 -0.23635986 -0.27080107 0.48489037 0.19389439 -0.27738875 -0.11458807 0.09417783 0.51079786 -0.45599118 -0.26552084 -0.13748589 -0.3479825 -0.16384539 -0.018878656 -0.43151838 -0.35096234 -0.007936627 -0.045392137 -0.6594289 -0.07296342 0.15456598 -0.1865051 -0.6009992 -0.14440934 -0.43673655 0.31052336 0.39863852 -0.35066155 -0.04059376 -0.20270468 0.26818457 -0.050758086 -0.5490943 -0.27545297 -0.2901279 -0.6809126 0.10539888 0.18623532 -0.123984255 -0.12739754 -0.28617936 0.5170704 0.090450406 0.072569735 -0.00056136464 0.5251347 -0.5903543 0.058824603 0.08575423 -0.29153144 0.1581006 -0.7156083 0.16035391 -0.29092994 -0.32522574 0.47926122 0.07584676 0.09682528 -0.12011787 -0.86430436 0.5468648 -0.6814287 0.5702479 -0.30264935 0.3784561 0.10736201 -0.001125659 -0.168558 -0.6003534 -0.06209635 0.18093027 -0.42717353 -0.019048799 -0.6894176 0.016611475 -0.16914898 -0.17866328 -0.33893272 0.08788156 -0.11889589 -0.24888289 0.05502596 -0.11148613 0.69980925 -0.20153147 0.6312187 0.33347574 -0.18541123 0.24118684 0.4212312 -0.27525827 0.6855056 0.20996934 0.055792928 -0.15259074
NNV 0.18948492 -0.18159395 -0.457809 -0.216083 0.07481319 -0.03192621 -0.27948868 0.23146518 0.20212854 0.33600074 -0.1599114 0.0014553166 0.879186 0.056532763 -0.08290846 -0.20739102 -0.059120014 0.020929858 0.5745092 -0.7197882 -0.5802135 -0.080996886 0.07826888 -0.6531169 0.12708141 0.1483492 -0.083155595 -0.08498023 -0.14465407 -0.6174622 -0.05693569 0.31302106 0.1609597 -0.06659862 -0.51619685 0.004181303 -0.33217517 0.06961682 0.48922306 0.047720853 -0.5127185 0.25700194 0.046179388 -0.27562782 0.6957143 -0.114341 -0.16307308 -0.022671385 0.32870892 -0.31631356 0.09100911 -0.36111116 -0.19420011 -0.044408586 0.17293893 0.056580927 -0.30954272 0.5027889 -0.058264703 -0.035588045 -0.15815285 -0.3679386 0.2544592 -0.05206138 -0.24515921 0.38455167 -0.18679094 0.24728952 -0.168519 0.3925803 0.30281118 0.17091317 -0.21078739 -0.1891404 -0.22768956 0.36528122 -0.1017366 0.044276226 -0.7018555 -0.007877606 0.15116552 0.029153058 -0.4103264 0.32463577 -0.2714433 -0.024589054 0.13971724 0.19427252 0.53545886 0.3658942 -0.1086976 0.041452136 -0.22555713 -0.33969107 0.051955145 -0.57478154 0.37885973 -0.18095468 -0.2337062 -0.019686367
ATK 0.51878786 -0.49154112 -0.032886915 0.36593023 0.063106686 -0.31867823 -0.11592956 0.35373944 0.09552146 0.020332688 -0.52036124 -0.28342375 0.43226066 -0.31165802 -0.40252578 -0.1821992 0.102510706 -0.032071497 0.03174818 -0.17255306 -0.2451214 0.23380174 -0.22006187 -0.23386754 0.06546807 -0.1118014 -0.093325526 0.027605403 0.059067316 -0.59438616 0.3563568 0.4192678 -0.021078788 0.5513798 -0.29689205 0.041837696 0.17009471 0.05934103 -0.18554954 -0.08389071 -0.3918118 -0.18261455 -0.08094284 0.07619664 -0.26686865 -0.2335739 0.21739542 0.18517055 0.21117993 0.061056092 -0.2019461 -0.5031642 -0.09258346 -0.021428771 -0.019725757 0.3780686 -0.47093734 0.7844431 0.08028126 -0.1434349 0.34679976 -0.10658589 -0.018701049 0.18798962 -0.2377016 -0.08544898 0.022867493 0.29338777 -0.25869185 0.27308115 0.60551345 -0.04927689 0.28977525 -0.19059965 -0.3989928 0.57403356 0.06592256 0.5096628 -0.5461376 0.1079478 -0.12056212 0.68437934 -0.17021014 0.57735205 -0.08227624 0.051804658 0.3390567 0.15571125 0.30233404 -0.044939753 0.3153722 0.31298554 -0.34034082 0.39835474 0.24005072 -0.30973285 0.6499366 0.33066764 0.3359772 -0.1554718
APL -0.29997018 0.5848945 -0.3097725 -0.052107066 -0.22410248 -0.37953925 0.0014967623 0.4050722 -0.013948248 -0.7074319 0.0068865847 -0.24978688 0.17500257 0.18440837 0.08567211 0.23460813 -0.6752872 -0.05741566 -0.3308462 -0.16281523 -0.21722479 -0.05016097 -0.25803056 -0.103663616 -0.7524159 0.36061558 -0.09689329 -0.27926442 0.034074787 0.34865534 -0.08525944 0.23705561 -0.2547289 0.002169922 -0.31170568 0.36933985 -0.070636325 -0.03431393 -0.06908342 -0.036386464 0.24314503 0.04954352 -0.1377241 -0.4785449 0.15166064 0.13964298 -0.050294153 -0.272397 0.022096682 -0.02401741 0.45372033 0.018783584 0.16250226 -0.095297776 0.41440415 1.0719254 0.07570751 -0.15751266 -0.0621267 -0.049680844 -0.34229293 -0.09107328 0.10252328 0.159071 -0.24394622 -0.4978399 -0.021004388 0.3763147 -0.22038794 0.7754321 -0.011693698 -0.18070143 -0.19962274 -0.2547957 -0.1635163 0.06398465 -0.12927657 0.19667742 -0.18469974 0.16995703 0.26704013 -0.07227779 -0.045608994 0.2983591 -0.036419228 0.02214073 0.22487292 0.38410863 0.62815267 -0.6426892 0.25677994 0.33092123 -0.14371124 0.31032822 0.6650934 -0.19897494 0.14573991 -0.28982794 -0.95914125 -0.13960509
RAP -0.024049094 0.6075083 -0.011985105 -0.40980846 0.3680367 -0.24217509 0.13733962 0.29699704 -0.0964321 -0.097817466 -0.045135718 -0.07376366 0.021386988 -0.27029622 0.50235873 -0.39873624 0.27026135 -0.14404462 0.3366898 -0.46070316 -0.17266478 0.33238778 -0.11332468 0.50985986 0.51621264 -0.07431997 -0.19182266 -0.16720745 -0.13135949 0.3025773 0.3061808 0.27039084 0.5960603 0.17411816 -0.019305952 0.16206338 -0.1902649 -0.61500853 0.25225574 -0.6958477 0.28310066 -0.33659557 -0.57490015 -0.10812432 0.20214899 -0.08429338 -0.4016184 -0.08538799 0.24721417 0.23733917 0.1748263 -0.042846948 0.232661 0.30900285 0.13568367 0.66791147 -0.20987178 -0.057810195 0.15770093 0.15236628 -0.22334938 -0.35330614 -0.44532263 -0.35118172 0.6256396 -0.016030446 -0.41147426 -0.3947468 -0.11400767 0.3319748 0.030445145 0.23151605 -0.47500652 -0.33964363 -0.30204293 0.09465504 -0.09542089 0.54349494 0.05578334 -0.06813016 -0.3683406 0.32687244 -0.12975056 0.2476479 -0.11973096 -0.110580906 0.21723904 0.713727 0.617765 0.07783196 0.14329618 0.4299314 -0.6221656 -0.3649171 0.38166344 -0.113410875 0.009891543 -0.600937 0.09898395 -0.010991343
GLE 0.10813586 0.19042021 -0.41016206 0.06461645 0.19539429 -0.22293074 -0.17371525 0.24112771 0.44581658 0.36616343 0.05376414 -0.4605327 0.74503285 0.31468278 0.22816767 -0.119569175 0.294953 0.20886433 0.33436766 -0.37745082 -0.4528376 -0.11587979 0.3384175 -0.6259288 0.057911105 -0.35607857 -0.6505545 0.082551986 -0.18825892 -0.22423604 0.010937135 0.4196911 0.37185392 -0.1695523 -0.19908993 0.1261329 -0.26062366 0.19280514 0.37255225 -0.18647341 -0.5825364 0.420836 -0.08404919 -0.08882661 0.392795 0.14886136 -0.020014403 -0.14209586 0.39951402 -0.1288353 -0.14224255 -0.55627733 -0.0006955812 0.17140862 -0.26121908 0.21264224 -0.41863692 0.4596339 -0.101685874 -0.20289484 -0.10689391 -0.23831524 0.16156057 -0.15225585 -0.57936275 0.016005382 -0.22343771 0.34330612 -7.6612254e-05 0.48409507 0.13395903 0.4134466 -0.16968468 -0.09941443 -0.053690035 0.25888622 -0.17475653 0.07505349 -0.7108135 -0.19430748 0.1183933 -0.24341193 -0.3525017 0.14649197 0.088904686 0.17772341 0.65533465 -0.06880207 0.26648164 0.30371022 0.1011022 0.55565614 -0.3589177 -0.2932248 0.30679017 -0.52013487 0.33249524 0.11783446 0.19491112 -0.11705793
SDS -0.49756896 0.7618699 -0.2958736 0.021367734 0.11534052 -0.28350908 0.14346707 0.06739492 0.44286665 -0.32760838 -0.4292784 -0.39669377 0.15774079 0.24919334 0.33704594 0.06329388 -0.30901676 0.027481008 0.0526916 -0.35192436 -0.4895722 0.0878912 -0.025129288 0.29878038 -0.58276826 0.070120364 -0.2405638 -0.34773645 -0.087934606 0.38055563 0.0033012752 -0.3075113 -0.034736365 -0.114449255 -0.51981884 0.23930553 -0.04276993 -0.08782641 -0.12827855 0.26745024 0.29517826 0.1261827 -0.19868958 -0.6971267 0.2110192 -0.24376975 0.20319591 -0.41644856 -0.18417758 -0.07822541 0.079465345 0.0698774 0.8826821 0.18892077 0.29234442 0.7130134 -0.09704988 -0.2580216 -0.2953125 -0.034707915 -0.18149672 0.16835932 0.2846403 0.0040253317 -0.41019696 -0.3835146 0.05483893 0.3896983 -0.21550034 0.5966617 0.05500221 -0.19493212 -0.81782 -0.1982418 -0.27616388 0.4410886 -0.5581355 0.46590447 -0.106594145 0.2569974 0.21982382 0.31695694 0.041343115 0.11653065 -0.082829386 -0.012953927 -0.07984921 0.30414572 0.6342149 -0.5127374 0.3661104 0.48719376 -0.20027739 0.15613456 0.3210823 -0.013709102 0.15447411 -0.042466253 -0.43999818 -0.060158968
ESD -0.2357307 0.55623525 0.22537139 -0.22985798 0.297993 -0.08325262 -0.032456573 0.047933467 -0.061795115 0.018733839 -0.33967477 -0.11121255 0.17792013 0.024533795 0.56392974 -0.7325001 0.0117989695 -0.46974885 -0.13841426 -0.7931688 0.23446755 0.45591056 0.098352015 0.4595958 -0.06699621 0.21317613 -0.26389572 -0.046096224 -0.3092797 0.29623422 0.053571034 0.40549928 0.70216924 0.08485012 0.13770081 -0.10531648 0.12592916 -0.45571947 0.15380715 -0.28993523 0.043557454 -0.018279662 -0.37100703 -0.096218035 0.17485239 -0.55837595 -0.1786779 0.42481118 0.43595046 0.32819766 0.6299145 -0.43107086 -0.28216758 0.23384431 0.36470532 0.6012948 0.17661339 -0.036739882 0.07492009 0.33426544 0.09232324 -0.27983102 -0.2008543 -0.25649416 0.6219594 0.023309166 -0.101484194 -0.15852106 0.13436401 0.34317443 -0.14051947 0.17940527 -0.28294486 -0.37028763 -0.5792415 -0.064973824 -0.2128532 0.19153208 0.29336134 -0.08049033 -0.091481686 0.28441653 -0.2802714 0.032671884 -0.28336123 -0.37691334 0.39076236 0.94400245 0.4290429 -0.08795455 0.21547696 0.42738336 -0.6760064 -0.054132074 0.13310486 0.19635658 0.104779944 -0.30211475 -0.06293793 -0.20625095
KVA 0.010176826 0.011812928 -0.36623228 -0.19247797 0.06098812 0.028608538 0.13602428 -0.21424645 -0.09158189 0.047828805 -0.310708 -0.061266277 -0.25559962 0.06021981 -0.2960912 0.15469642 -0.13357036 -0.072087474 0.15922989 -0.42176944 0.03897007 0.32477564 0.33465156 0.2429379 0.45297834 -0.013185281 0.23810105 -0.1242405 -0.16562551 -0.44625056 0.27351737 0.110625274 -0.029175658 0.28806368 -0.3048571 -1.0504895 0.09249211 0.16405311 0.7266507 -0.12735148 -0.64581096 -0.2037764 0.14325093 -0.0841608 0.05710513 0.03164651 0.43974677 0.2268267 0.14245033 0.21313427 -0.110156514 -0.28792384 0.07830811 0.34136605 -0.18434855 0.45355627 0.007741315 0.49389315 0.29336688 0.1825162 0.055980872 0.31811517 -0.30696806 0.32454845 -0.4355653 0.17039356 0.0626784 0.036337066 0.12489152 0.7248824 0.14684893 0.53274107 -0.028509755 0.109001525 -0.22902918 0.01283846 -0.013529901 -0.060341567 -0.24719892 0.23730472 0.19837372 -0.489313 0.07704602 0.3976207 -0.16408347 -0.16690584 0.11654744 -0.49437127 0.20540789 -0.03199166 0.22206353 -0.23555163 -0.08858759 -0.15032895 -0.15195835 -0.10799987 0.41177374 -0.02177657 0.38536072 -0.26679742
KDA 0.5991482 -0.25480098 -0.2595481 0.12883814 -0.50517917 -0.11441703 -0.23649025 0.022515448 0.11844538 0.25245193 -0.21355872 -0.1707729 0.16073488 0.15560298 -0.13327217 0.46109152 -0.0023228214 -0.05158561 -0.20359847 -0.5428476 -0.77929306 0.31358346 0.29171482 -0.53852403 0.4964644 0.24065286 -0.61151284 0.042289294 -0.3944921 0.020604799 -0.21617228 -0.22276159 -0.07319569 -0.20684658 -0.12326683 -0.07653853 -0.26376447 -0.05960999 0.4571062 0.063055605 -0.61061287 0.3579317 -0.28237614 -0.30483755 -0.043245487 0.23374888 0.10855943 0.23646389 0.4577049 -0.32927328 -0.124778524 -0.13128026 0.020944161 0.549609 0.3902779 0.71360767 -0.28639138 0.41633734 -0.09927499 0.000998262 0.22213803 -0.28450805 -0.19444773 0.31882772 0.067904726 0.10641072 -0.062413767 -0.22053187 0.7367963 0.36625907 -0.41723067 0.3505404 -0.48475608 -0.004892821 -0.19342351 -0.23228033 0.03603019 -0.46610868 -0.037552122 -0.33283368 -0.06319496 -0.012952071 0.11521712 0.41361067 -0.08975878 -0.14948107 0.010239543 0.47009084 0.22260721 0.35890284 0.40808147 0.29642814 -0.4487093 0.33067158 0.014536004 -0.44294235 0.41479036 0.12612149 0.24146806 -0.15787232
KAV -0.1286461 0.63798684 -0.21200837 0.02199156 0.064074315 -0.16884409 0.24318355 0.6231676 0.007369808 -0.42663828 -0.1391347 -0.46756852 -0.339896 0.3935231 0.11994534 0.012175776 -0.044547282 -0.0123427175 -0.12316184 -0.63520175 0.07875786 0.3442 -0.17810173 -0.09419896 0.077805586 0.029681796 -0.19825049 0.011714116 -0.07472994 0.41879833 -0.31383854 -0.14902523 0.26461864 -0.122726776 -0.51007676 0.237756 0.16253541 0.04033535 0.013100075 0.0707134 0.5619627 0.009579465 -0.2385739 -0.14096346 0.3094812 -0.3215313 -0.32123587 -0.39286432 -0.15687998 -0.3364767 -0.025003571 0.08480805 0.3724533 0.20762342 0.6957146 1.0914323 -0.05911396 0.25598106 0.17551711 0.33223748 -0.3750948 0.16566616 -0.10360933 -0.2943539 -0.14117445 -0.016680224 -0.15127501 0.22579592 -0.11034525 0.15302439 -0.024972783 0.11988677 -0.2512242 0.3441679 -0.6135081 -0.11891721 0.14531982 0.18882784 -0.63393354 0.21190241 0.32734215 0.21285634 -0.08425232 0.5003424 -0.15236396 -0.15542042 0.16531584 0.2719431 0.39657614 -0.29113448 0.304662 0.017410336 -0.24772042 -0.26764926 0.4471341 -0.42711312 0.06737642 0.24587926 -0.14782795 -0.25723356
YIK -0.045900337 -0.26666883 -0.35395887 -0.19385938 -0.5188529 -0.34790647 -0.26705366 0.36488307 -0.30946186 0.48954472 0.16577801 -0.2766315 0.09085574 0.26946613 -0.16701557 -0.37475863 0.20529187 -0.08119001 0.14360112 -0.49916023 0.15066841 -0.6866152 0.017548693 -0.110320516 -0.06110157 0.32843336 -0.1720433 -0.19058765 -0.1982137 -0.2695292 -0.4565767 0.4364579 0.32758683 0.20667966 0.08725933 -0.21914354 -0.17285156 0.18658021 -0.33185312 -0.27040482 -0.34308684 -0.37329605 -0.575879 0.25379238 -0.23930302 -0.07050815 0.5493919 -0.15483598 -0.110238224 0.2638158 -0.1821477 -0.05340791 -0.10171146 0.35135886 -0.36530542 0.5969115 -0.59450257 -0.14889224 -0.38058692 -0.18710963 -0.052760776 -0.17427337 0.033307366 0.5355931 0.1682839 0.2608232 -0.30632558 -0.48734382 0.49271443 0.032957993 -0.49326566 0.5919861 0.008710423 -0.16052794 -0.020843994 0.08497915 -0.4398962 -0.14959547 0.36738053 0.7242369 0.52414066 0.53618044 -0.65350205 0.2238988 -0.81362563 -0.2418591 0.066458434 0.8100091 0.367068 0.072976254 0.2451483 0.040641427 -0.72911364 -0.42514437 0.47761735 -0.57619804 0.1878943 0.28505075 0.13994122 -0.069943294
DYI -0.0703304 -0.41850773 -0.08700327 0.2834756 -0.1435276 0.18327534 0.17453952 -0.33110997 -0.31766486 0.00076233473 -0.24053566 -0.25871786 -0.1398455 0.38367873 -0.6261995 -0.098489285 0.098763436 -0.027641863 -0.26926574 -0.8069056 -0.3888197 -0.066987954 -0.16735086 -0.21165986 -0.32537112 0.44822484 0.13590093 -0.13176458 -0.42368016 0.04021644 0.2985639 -0.17359863 -0.53067166 0.15371415 -0.028700715 -0.19601507 -0.040337376 -0.14022943 -0.18953331 -0.22625619 -0.33702078 -0.15980566 0.23544745 -0.21270831 -0.6830612 0.4175168 -0.0850235 -0.01857927 0.68676573 -0.7154063 -0.84809417 -0.053398862 0.110985056 0.36420026 -0.0570065 0.33253068 -0.1316824 0.32936317 0.055128302 0.19723387 0.1290374 0.6080661 0.5387565 0.6562717 0.0852133 0.49704012 0.1087366 -0.20442604 0.13115454 0.05709739 -0.010355584 -0.28207165 -0.107078254 -0.32930616 -0.45177776 -0.25759965 -0.0327152 0.5173944 -0.38234356 0.07769145 0.6438404 0.20024727 -0.41289684 0.20607273 0.2598825 -0.1372686 -0.34337586 0.23851836 0.018097166 -0.116058476 0.38891903 0.63729334 -0.6809976 0.28145182 -0.1925149 -1.1337917 0.2102852 0.06035762 0.6669656 -0.37450516
