392 100
WYY 0.22738177 0.11070255 -0.004940786 -0.058421735 0.13329682 -0.124288164 0.0059525184 0.1044859 -0.07425558 0.18464193 -0.17445198 -0.040891983 0.10209405 0.02069664 0.17951791 -0.004220587 -0.1272685 -0.09388805 -0.07719346 -0.16011533 0.055619713 0.015305821 0.05894309 -0.04166271 0.016739113 -0.06914528 -0.09008567 0.09567336 -0.029639168 -0.12821998 0.012755089 0.0051764245 0.1262134 -0.029013945 -0.017053034 -0.05045519 0.120123826 -0.09487017 -0.16593702 -0.21405025 0.15704404 -0.1980121 -0.22728544 0.110497385 -0.09877704 0.081642546 -0.14966957 -0.028925592 -0.05676075 0.0027191928 0.16840008 0.00606262 0.0017169002 0.07922081 -0.1590662 0.011661354 -0.043493703 -0.06249341 -0.047793955 -0.08823623 -0.09951526 -0.10368707 0.048194442 -0.05849426 0.027110728 0.11119652 0.19057846 0.023772128 -0.14108653 0.046832427 -0.054887086 -0.031420648 0.2582325 -0.12251855 0.20523937 0.34908223 0.0056956825 0.10347287 0.12819606 -0.096448645 -0.0128434505 0.08163665 -0.27038714 -0.013791497 -0.17013253 0.028280487 -0.032951996 0.19746214 0.23797819 0.035568077 0.13198511 0.14892022 0.025667857 -0.026541336 0.24065731 0.13057382 0.22226529 0.06641001 0.09366358 -0.003396661
TGW 0.17430666 -0.016577011 0.113001406 0.062633894 0.13113679 -0.16449858 0.028518759 0.174928 0.026519395 0.09812771 -0.1042902 -0.022116005 0.02163409 0.023624716 0.13822772 0.056884512 -0.025879642 -0.0038228824 -0.084644474 -0.094048336 0.09779438 0.052374344 0.09922083 -0.064851694 0.01896926 -0.18284985 -0.15963224 0.11139224 -0.0691093 -0.031762514 -0.05274473 -0.11228564 0.1750372 -0.09364431 0.063799955 -0.037148647 0.105603755 -0.038346697 -0.2125051 -0.060121626 0.17145558 -0.17637178 -0.1973304 0.11910782 -0.005213547 0.05899631 -0.15518706 -0.123978116 0.015359552 -0.02129031 0.21565485 0.012292327 -0.06108101 -0.020423466 -0.14454862 0.05566208 -0.06276284 -0.0863504 0.03521506 -0.048366845 0.0013941792 -0.008414596 0.066338 0.013040835 0.12263601 0.20794785 0.18077596 0.10806299 -0.28359824 0.112963915 -0.097288944 0.042384494 0.1913037 0.068382196 0.27938226 0.24101537 -0.08382143 -0.0029303632 0.012194181 -0.028150741 -0.09102056 0.01592217 -0.2075329 -0.037361387 -0.18361384 0.03402289 -0.037477043 0.28989458 0.13511561 0.011867584 0.13149412 0.20537831 0.023845712 -0.1356446 0.16666086 0.036917184 0.20699579 0.056407876 0.028333936 0.01074578
YYL 0.16957608 0.067123905 0.15716323 0.14066073 0.15989083 -0.30416554 0.040672895 0.20651299 -0.06539045 0.18264109 0.024047486 -0.053028382 -0.056911144 0.038038913 0.10454453 -0.031130241 -0.058130607 -0.022471093 -0.011766867 -0.17032099 0.12914756 0.012624825 0.14060304 -0.117476545 -0.038962714 -0.07356812 -0.11403794 0.09682187 -0.037128754 -0.030218124 0.087439865 -0.039473563 0.1639388 -0.006577215 -0.024479076 0.13238993 0.22553372 0.06508314 -0.14069614 -0.06342569 0.068013676 -0.17850497 -0.24109143 0.1403219 -0.053270083 0.039319474 -0.1177082 -0.01671477 -0.0061320867 0.032394283 0.21100128 0.012555827 -0.020051386 0.014154664 -0.17528273 0.039275322 -0.15013012 -0.13654594 -0.15456569 0.00616546 0.006743389 -0.01238208 -0.005487482 0.18654689 0.09067167 0.021099105 0.048316535 -0.05876048 -0.29279226 0.12567705 -0.11654604 0.012955971 0.15501072 -0.017620461 0.26299626 0.24961738 0.0015770828 -0.05747592 0.18379425 -0.04641808 -0.17911607 0.0093755005 -0.30270845 0.040515237 -0.17138864 -0.04181676 0.10381761 0.21089542 0.16002227 0.01809995 0.1200841 0.10903378 0.15005933 -0.01718627 0.050227355 0.009527167 0.21114726 0.013548952 -0.10608841 0.059738237
MAT 0.07447609 -0.0016478384 0.06752063 0.11544198 0.12480853 -0.14120747 0.08647816 0.18768565 -0.14962119 0.056516867 -0.033882238 -0.006346974 0.07405809 -0.062759005 0.17163363 0.17283905 0.10787704 -0.021927468 -0.0033608861 -0.08673558 0.10563944 0.07070695 0.09628466 -0.099779196 0.017510518 -0.028045684 0.0040220637 0.0075541637 -0.027115235 -0.122954264 -0.020843087 -0.052324194 0.17410637 -0.083852775 0.010382112 0.08479559 0.105040915 -0.0005881982 -0.08452251 0.037490983 -0.01219758 -0.14245106 -0.25509554 0.16563685 -0.060364548 -0.013733161 -0.1719872 -0.0523573 -0.013758494 0.0005550482 0.08926139 -0.20510493 0.026415916 -0.059903003 -0.12607183 0.043371435 -0.06941568 -0.14232258 -0.08818735 -0.14246091 0.14891939 -0.011310446 -0.053348586 0.15610455 0.106860794 0.12568828 0.13903408 -0.017281655 -0.39263865 0.031577922 -0.18453847 0.06228047 0.16135001 0.01865235 0.2638878 0.2537636 -0.0055905194 0.087173045 0.124849066 0.018034514 -0.12831604 -0.043858502 -0.18446003 0.08310022 -0.26863217 0.08586589 0.008591898 0.36418667 0.111885525 -0.03472991 0.092153825 0.17922945 0.16967514 -0.03855595 0.044209447 -0.02071336 0.23492175 0.077220045 -0.024037797 0.11347734
ATG 0.005338143 0.05399373 0.07743175 -0.038186505 0.09583687 -0.19756468 0.062194496 0.054739773 -0.08999768 0.16354358 -0.1038355 -0.08852912 0.06948966 0.062207393 0.22329746 0.041325483 0.058699578 -0.064451165 -0.07170292 -0.30458066 0.0076305405 0.07355022 0.21871664 0.01601071 -0.04533177 -0.0921766 -0.10133656 0.09629566 0.048870295 -0.13189596 -0.04310175 -0.009796909 0.24631445 -0.03809909 0.123375885 0.0059700375 0.084677 0.061086323 -0.16732949 -0.08991097 0.16035077 -0.06677132 -0.13785061 0.23826689 0.033436056 -0.12722023 -0.17609648 -0.007535048 -0.086858645 -0.0049000303 0.10693758 0.050382417 0.09535051 0.06479919 -0.17593212 0.03856409 -0.038829003 -0.15194523 -0.14462954 -0.1068765 0.028448647 -0.0074332287 -0.20146248 0.052212734 -0.039837297 0.18173109 0.23035288 0.027053615 -0.13952495 0.050381564 0.08118559 -0.05556557 0.07789118 0.09691683 0.3571323 0.20077257 -0.11711062 0.029824719 0.018497905 -0.12663704 -0.16495258 0.015385223 -0.23955071 0.086285636 -0.26740974 -0.025450168 -0.11940674 0.3054589 0.063816056 -0.110314064 0.03261783 0.11638219 0.09494629 -0.15579082 -0.035476994 0.059454344 0.23278943 -0.043596044 0.0023981829 0.08524656
NGS 0.22665066 0.19428419 0.13119084 0.07173444 0.027634287 -0.29806477 0.2607416 0.11051015 -0.11256938 0.06544018 -0.061947335 0.044868737 -0.05177178 -0.09139782 0.12696065 0.13990693 0.042529 -0.07240423 -0.1347329 -0.17813057 0.14340663 0.19299899 0.0569361 -0.11921797 0.13124031 -0.037508093 -0.22854781 0.13704896 -0.07875591 -0.025572065 0.043571807 -0.04840838 0.28110152 -0.11558298 -0.021302866 0.15645921 0.08839243 0.068921514 -0.1608176 -0.028351234 0.16941562 -0.04136421 -0.19253135 0.13823211 -0.04258207 0.04371313 -0.20768775 -0.030121317 -0.08005701 -0.17526221 0.11841779 -0.035461716 0.06119696 -0.10254105 -0.06702801 0.092234574 -0.12816407 -0.07140405 -0.023715844 -0.10996389 0.024099467 -0.017725503 0.035382506 0.05178298 -0.0011943686 0.119189456 0.11753356 0.059947714 -0.22433873 -0.019934455 -0.078908704 0.07122427 0.13749303 -0.041207075 0.23402865 0.24983056 -0.026187727 0.064634055 -0.052742593 -0.012175081 -0.022783732 0.07355296 -0.2525617 0.13625488 -0.21021803 0.06498035 0.17329256 0.24407634 0.1482509 0.011248747 -0.16090047 0.15374339 0.13558704 -0.047567595 0.026235828 0.079544395 0.25894088 0.07721956 -0.080724075 0.05415061
YLN 0.106570154 0.07852939 0.008642574 -0.058780923 0.11406639 -0.26735523 0.043127395 0.1270394 -0.083741374 0.039516278 -0.033041723 0.07782279 0.049326062 -0.002199987 0.19861066 -0.10560497 0.01762046 -0.04464546 0.06350046 -0.14957249 0.23470186 0.0023300038 0.015119312 -0.19582208 -0.011610543 -0.100328855 -0.008227571 0.026310971 -0.019048717 -0.06303837 0.07131261 -0.035981216 0.21916066 -0.0720559 0.001968013 0.118237995 -0.0069283564 -0.053042576 -0.17585872 -0.021076934 0.28005552 -0.26678416 -0.11312503 0.14822365 0.03431117 -0.19330283 -0.14366558 -0.16464029 0.08486143 0.1693579 0.1755575 0.043379463 -0.10051393 -0.023894818 -0.14514135 0.006050213 -0.12117908 -0.25955465 -0.021536518 -0.120759696 0.012207008 -0.07509903 -0.05143881 -0.0073875356 0.1130133 0.1323724 0.27320436 -0.011201935 -0.22817056 0.10506155 -0.023720287 0.080016136 0.13987195 0.019038903 0.14001957 0.21525824 -0.02026322 -0.04634606 0.2012928 0.012713326 -0.055167712 0.020096732 -0.136393 0.03671095 -0.24889162 -0.023047881 0.0057855616 0.1386877 0.2749718 -0.13540414 0.06734707 0.13711 -0.0012009837 -0.05474087 0.21923171 0.08688295 0.36088616 0.036019213 0.2591458 0.023100877
GAM 0.27113706 0.077906966 -0.0056499653 0.042085268 -0.06334201 -0.23898247 -0.009624222 0.19683832 -0.04286275 -0.11061473 -0.0013919254 0.013230424 0.03752539 -0.18101689 0.19129631 0.05093865 0.04564753 0.05923571 -0.15881024 -0.09216572 0.09133476 0.116805874 0.048292756 -0.10267252 0.04349392 -0.081064515 -0.048758164 0.18128172 -0.033791155 -0.1984837 -0.03776703 -0.024427298 0.22868465 0.008394848 0.07212694 -0.014068427 0.040170748 -0.099060126 -0.18869318 -0.008381827 0.19649856 -0.21843837 -0.23214422 0.14964314 0.026962597 0.033458892 -0.14888364 -0.07631231 -0.061309297 0.057556972 0.23291267 0.03354625 -0.1401292 0.02354332 -0.17052707 -0.036320828 -0.092468426 -0.061165955 -0.11884391 0.016803112 0.07296686 0.08763792 0.26272187 0.04646663 0.033102218 0.15507528 0.3192128 0.12202253 -0.192731 0.09942077 -0.14311813 0.25662163 0.109536074 0.08712102 0.18253818 0.0626753 0.0014429955 0.00854214 0.009956394 -0.1894777 -0.0792071 -0.11040617 -0.23987578 0.18262452 -0.3114826 -0.1553117 0.14442013 0.30011144 0.15842262 -0.11565414 0.08684438 0.24164267 0.09916738 -0.13734776 0.07393487 0.09539604 0.22612683 0.041158 -0.06955754 0.021707345
SWY 0.09606928 0.1455873 -0.081324026 -0.041640617 0.036819752 -0.34956908 0.038998302 0.027644446 -0.030230813 0.14168517 0.058827054 0.018155456 0.07489285 -0.013497127 0.20541368 0.013687092 -0.07460813 -0.018373277 -0.024120023 -0.25844458 -0.05466949 0.051063385 0.14610408 -0.020761618 -0.015898451 -0.2211486 -0.021897359 0.023291668 0.09087333 0.0022511152 0.021075133 0.0028628926 0.16105036 0.0014091731 -0.14098999 0.15826379 0.01411697 0.09160546 -0.30735993 0.026553202 0.12297206 -0.22532718 -0.16664219 0.20952415 -0.024965145 -0.015035021 -0.14657363 -0.15864386 0.0026252891 0.008928886 0.1444973 0.100934856 0.021607863 -0.079931594 -0.10367545 0.0441562 -0.18843615 -0.11792755 -0.0072953077 -0.04822818 -0.028337969 0.027303854 -0.00441892 0.009087026 0.010755877 0.27995872 0.19978039 0.03785819 -0.21088597 -0.010204582 -0.025508787 0.108834974 0.12619336 0.15856524 0.19123778 0.22100964 -0.00839939 0.07197895 0.014442319 0.04415157 0.008004519 0.07203227 -0.26305857 -0.0519464 -0.31360042 -0.1344011 0.07205026 0.2581361 0.14524528 0.029660074 0.10735404 0.17403178 -0.024254285 0.020551352 -0.028554229 -0.030813964 0.16141018 0.09249746 0.0907935 0.12177361
GSW 0.030476348 -0.09524143 0.20180263 0.047778856 0.08194447 -0.09553015 -0.012209078 -0.032834623 -0.16994746 0.1252499 0.06162454 -0.0057734754 0.021831643 0.02853015 0.102855384 0.0025001734 -0.12941287 -0.09427942 -0.022430055 -0.24967295 -0.02321506 0.055080835 0.26341754 -0.08433336 -0.030320596 -0.059444863 -0.21904366 0.0035125 -0.041324172 -0.064171515 0.21524134 -0.098667085 0.07303188 -0.14860986 0.13427949 0.009328789 0.16964176 -0.05877066 -0.14702138 0.04950539 0.17983265 -0.22712983 -0.22343922 0.16835298 0.11362339 -0.033146854 -0.18793407 -0.14956944 -0.06293675 0.021714564 0.32736477 0.06468807 -0.015906112 0.0916418 -0.09596106 -0.13398582 -0.09514076 -0.09903838 0.001746076 -0.04486895 -0.028344423 -0.11631924 0.0017311296 0.16886242 0.11039366 0.20621096 0.09197346 0.20172384 -0.16916545 0.007140587 0.007222772 -0.15457642 0.20342477 0.034832347 0.25366253 0.27487794 0.018748542 -0.027402902 0.07460819 -0.005823283 0.015307605 0.1681846 -0.15394773 0.04552067 -0.15166073 0.043472655 0.009195556 0.28431305 0.081848696 -0.13006748 0.08579309 0.20797476 0.2348271 0.103594325 -0.032150798 0.059044573 0.18767524 -0.01835502 -0.059396062 0.16730027
NAN 0.0077665006 -0.14979568 0.12073495 -0.068685494 0.251722 -0.18900433 0.003335967 0.074810155 -0.19812946 0.12054777 -0.2285705 -0.111541666 0.19706601 0.12313758 0.22329141 -0.011044763 -0.046066083 -0.07816937 -0.011901923 -0.075880356 0.10498026 0.03284004 0.18915032 0.010375005 -0.18374135 0.02989262 -0.02893023 0.124008566 -0.018412128 0.0014078043 -0.062091373 0.038044374 0.0028024875 -0.12611052 0.07143519 -0.040118434 0.10397243 0.080357105 -0.0855867 -0.026004212 0.19376846 -0.412232 -0.20556082 0.21042039 0.12141865 0.082629465 -0.26956445 -0.067906745 0.09091056 -0.018886533 0.21787359 0.20539837 -0.009110091 0.0022246412 -0.2682584 0.100778 -0.103588775 -0.081013575 -0.18637279 -0.115836985 -0.039664015 -0.13916962 0.01230737 -0.01453979 0.096382216 0.2147706 0.21545531 0.05555594 -0.119276255 0.1151807 -0.052036926 -0.16945118 0.30960038 0.05386366 0.2454776 0.25770468 0.08364246 0.10280431 0.09771609 -0.06010937 -0.2038055 0.23671865 0.00068937195 0.11747526 -0.26247764 0.00020855042 0.04819211 0.22568719 0.04564664 -0.1687309 0.18124811 0.17788741 0.22074877 -0.1096037 0.036273055 0.026733547 0.17527823 -0.065545246 0.044827327 -0.007834507
ANG 0.17431694 0.04721187 0.040568933 0.06048635 0.087813206 -0.37125814 0.097391374 0.05686409 -0.18335317 0.03250712 -0.023008322 -0.04372533 -0.01343926 0.22632673 0.26875022 0.021064298 0.023860779 0.06935703 0.0015785219 -0.16692638 0.07064359 0.084159635 0.016630549 -0.040044516 0.05381168 -0.034730915 0.03158172 -0.038323045 -0.11450046 -0.09596884 0.07340288 0.08714702 0.10926716 0.13064331 0.014932527 -0.043694496 0.08464738 0.0074141594 -0.16931805 -0.14696084 0.08333955 -0.07697077 -0.41259426 0.08933623 0.051719777 -0.13348721 -0.026299879 -0.11594251 -0.15084265 0.08931953 0.1842694 -0.025871012 -0.09196073 0.0440161 -0.27098346 -0.10882063 -0.21672212 0.013040731 -0.025930347 0.0059267334 -0.035944834 -0.026276814 0.06400021 -0.06494202 0.16614789 0.45309815 0.2777156 0.024725674 -0.25543588 0.09944399 -0.029855695 -0.022959117 0.08624701 0.1314205 -0.052465547 0.28205404 0.20166801 -0.06181344 -0.0061093457 -0.05594341 -0.04176245 0.083563045 -0.22622003 -0.028979968 -0.28584787 -0.116690695 0.035364456 0.28495613 0.18718077 0.01931339 0.0068487404 0.17015089 -0.09553616 -0.08569122 0.17175774 0.08348438 0.19828053 0.13705587 0.119288154 0.069209576
AMA 0.008956243 0.23542397 0.15575989 -0.028046895 -0.006831897 -0.18652128 0.04362371 0.18380688 0.009743154 -0.012750637 -0.044502657 0.107924834 0.15267806 -0.056827273 -0.025070226 0.06739315 0.040568717 0.14765555 -0.04418249 -0.22961958 0.11873826 0.1544923 0.23126413 -0.052767474 0.10378629 -0.13892312 -0.07001415 -0.034005463 0.07889725 -0.13908875 0.11330737 0.0313149 0.050141484 -0.0504878 -0.026180023 0.20178474 0.21313733 0.13077863 -0.1716183 -0.061355177 0.1695618 -0.2851517 -0.09960312 0.16844188 0.0010736961 0.053028762 -0.06227444 -0.076469555 -0.041458003 0.037357993 0.055341534 -0.12195717 -0.062130176 0.12176042 -0.26501334 0.16476135 -0.061842676 -0.10690644 -0.06667664 -0.10035056 0.038748115 -0.065435626 0.05824831 0.008683487 0.040494196 0.11680012 0.2930484 0.049078688 -0.20621082 0.081341326 -0.19366007 -0.060019415 0.0904963 0.10759406 0.29616106 0.14877313 0.024414014 0.119060665 0.050442446 -0.1549472 -0.1422973 -0.081163436 -0.19610086 0.12772164 -0.29128635 0.15093909 0.06943527 0.35866797 0.17911291 -0.28327912 -0.07239875 0.26197466 0.107392885 -0.099775076 0.005587181 -0.10790227 0.2752762 -0.001229113 -0.09286967 0.08775084
LNA 0.044895854 0.2450639 0.10608516 0.01774528 0.124126315 -0.37596485 0.2325108 0.23178823 -0.000876516 0.20855138 0.011643229 -0.021711236 0.20120266 -0.089330874 0.12175477 0.13326299 0.003496068 0.006650993 -0.110492386 -0.26574567 0.24118784 0.22084217 0.2159208 -0.06277798 0.07919431 -0.023291139 -0.122188464 0.17863806 -0.12742083 0.08680033 0.1087952 0.038626432 0.24353194 -0.095126174 -0.037569266 0.043985553 0.026414528 0.023647279 -0.026876122 -0.059040766 0.29487035 -0.15272324 -0.19453238 0.05597127 -0.049278103 0.030883497 -0.058552384 0.013720073 0.02265868 -0.04744524 0.16625208 0.08502231 -0.10337421 0.030021576 -0.11136979 -0.04584641 -0.18600205 -0.1745632 -0.20947416 -0.09728145 0.1555997 -0.14121829 0.11264327 0.19665973 0.17663996 0.120825246 0.11316121 -0.16263925 -0.16260153 -0.012342369 -0.14468625 0.020405982 0.19389491 0.06999242 0.2610227 0.11105495 -0.027889483 0.005007851 -0.12950097 -0.02988845 -0.10868578 0.072004765 -0.12389256 0.23666768 -0.24445249 0.18160816 0.09026371 0.27245212 0.08781454 -0.04598745 -0.06268885 0.09007326 0.08128133 0.10322902 -0.103462584 0.11144388 0.21760735 0.041824874 -0.093675226 -0.11433091
NGA 0.079001985 -0.037933677 0.16174586 -0.13199972 0.14055395 -0.17729127 0.006433471 0.0211105 -0.044960033 0.2364256 -0.17599134 -0.09164676 -0.17348632 0.025621796 0.20000485 0.19251065 -0.22954056 0.11568527 0.011655925 -0.162113 0.057262342 -0.09759716 0.08939345 -0.20188884 -0.21892239 0.0137020955 -0.068718456 0.21975428 0.05111432 -0.087257005 -0.11557243 -0.20534073 -0.0541775 0.111949526 -0.047710486 0.11664424 0.07079551 -0.012076354 -0.23138466 -0.037399516 0.13266559 -0.18090926 -0.17372704 0.3675297 0.06797503 -0.04194068 -0.35574192 -0.18434213 -0.029106509 -0.081245 0.13103645 0.0018041292 0.046831094 0.13486707 -0.104393624 -0.046550058 -0.19028728 -0.22070839 -0.112852655 -0.12189112 -0.017448017 -0.052423447 0.06015207 0.024180667 0.110448875 0.2071226 0.27174422 0.0019224444 -0.19968483 0.011263482 -0.09312666 -0.068181105 0.34340265 0.034664553 0.3285933 0.13015719 -0.058147576 0.114070795 0.095957845 -0.17555572 -0.09540443 0.04782268 -0.21044427 0.08252731 -0.3394886 0.10689545 -0.028273107 0.15601481 0.1776682 -0.004903308 0.102680355 0.0483112 0.027529672 -0.067019776 -0.025809975 -0.028091917 0.2073219 0.060390975 -0.09633635 -0.06943136
GWL 0.09518965 -0.1773103 0.035499204 -0.05430153 0.18347654 -0.21430154 -0.16532618 0.29869857 -0.10105442 0.050829526 -0.07416353 -0.07526833 0.06369629 0.15080087 0.09287816 0.012075036 -0.008068096 0.022648957 0.1631049 -0.19125418 0.07944279 -0.05963987 0.12376747 -0.13043125 0.009857326 -0.08678303 -0.03196212 -0.025875028 0.0014778022 -0.04776343 -0.014114987 -0.1311939 0.30258083 0.07156968 0.042478587 0.025511755 0.18658471 0.031083385 -0.044379674 0.05366007 0.25057775 -0.016729673 -0.11056751 -0.048251722 -0.0016342589 0.09621615 -0.25581357 -0.1736271 -0.066506624 -0.14839014 0.45134383 0.02772815 -0.00095871324 0.016804924 -0.22461304 -0.06234525 -0.23750286 -0.25118712 -0.104225 -0.08467714 -0.021757739 0.064998955 0.05650928 -0.005703672 0.17819045 0.14453134 0.20597766 0.13139686 -0.17425671 0.17758575 -0.006189239 -0.04033072 0.14885522 0.254918 0.20341782 0.23040974 -0.044802666 -0.0028684358 0.0023955614 -0.059812743 -0.10270631 -0.13905211 -0.11972077 -0.0905228 -0.10546117 -0.17323993 0.07980176 0.30451444 0.03469258 -0.01907573 0.17871301 0.19905853 0.117549814 -0.105243936 0.055761147 -0.0048307157 0.2351673 0.12911506 0.123862475 -0.058479827
WLQ 0.22994672 0.176109 0.035268657 0.0031601454 0.06557286 -0.1419154 0.13808858 0.016243376 -0.05141376 0.119359136 0.15724313 0.05021339 0.029227776 0.18203948 0.039782032 0.11022905 0.038775586 0.10020926 0.05823031 -0.42961687 0.12137405 0.20464985 0.10121733 0.03086108 0.030149447 -0.13672538 -0.1896186 0.11540681 -0.07167681 -0.0097850505 0.04726898 0.16918696 0.27402928 -0.1470525 -0.108668864 0.3097366 0.02475419 -0.057358604 -0.28043804 -0.027602509 0.14282154 -0.08741738 -0.32418248 0.06453722 -0.08327953 0.02415609 -0.12753756 -0.055576418 -0.15991467 0.050045166 0.042824596 0.016604507 -0.055117514 -0.013596353 0.05466592 0.10216688 0.044735078 -0.24745527 -0.13408919 -0.029804075 0.04774677 -0.20623183 0.09481174 -0.122258164 -0.012934627 0.22968794 0.34048524 -0.07807751 -0.28761005 -0.054951187 -0.10051273 0.067009054 0.1330601 0.1483195 0.16068105 0.10108419 -0.119952336 -0.048370346 0.026916519 0.16722026 0.04731611 -0.0083080465 -0.2825721 0.095716015 -0.285733 0.033531964 -0.12524597 0.31317297 0.0402815 0.20955868 -0.02177111 0.2740418 -0.320518 0.1459557 0.26113153 -0.063283816 0.07305415 0.17826442 0.03638609 0.025501024
VNG 0.2851092 0.095605806 0.122702785 -0.019405598 0.19475472 -0.040991742 -0.112697095 0.043410715 -0.05736625 0.08992178 -0.24365719 -0.014964195 0.16964841 0.17690934 0.35809496 -0.15983213 -0.1667373 -0.040000457 0.07154361 -0.11300353 -0.028594047 -0.14175642 0.22587052 -0.12322501 -0.06431366 -0.15913194 -0.16757567 -0.10511333 -0.09719619 -0.1955396 -0.118893854 -0.21705021 -0.05324683 0.034773476 -0.031678714 -0.08188779 0.28182206 0.013263278 0.053719696 0.050829515 0.28424573 -0.21118866 -0.17725101 0.23079303 0.191143 0.09155687 -0.17324685 -0.42585352 0.024389446 0.021265062 0.3703017 -0.012390158 -0.122932136 -0.1139074 -0.21218605 -0.052004423 -0.2581949 -0.04696914 -0.20606098 0.103477284 0.119451895 -0.03475985 -0.09013496 -0.06196185 0.18429545 0.24715723 0.13304861 0.00647447 -0.19179018 0.036980446 -0.032059424 -0.053130604 0.1285161 0.07258467 0.14793578 0.09767732 0.016399404 -0.0332395 0.077757046 -0.08515325 -0.05507994 0.06919656 -0.14464015 0.14585827 -0.24907154 0.029620884 0.044812586 0.26098698 0.28587577 0.00016501072 0.25027153 0.1895592 -0.06446912 0.029418472 0.10259939 -0.07375312 0.2648296 -0.055969436 0.1242934 -0.023063192
KVN 0.09753337 -0.020661704 0.13313605 -0.032427546 0.19022155 -0.2929557 0.24843313 0.13396151 -0.11411335 0.19436869 0.09738633 -0.038618527 0.1646137 -0.07032191 0.17288588 0.02493931 -0.14403407 0.056652684 -0.0063480544 -0.21523386 -0.019186106 -0.008519098 0.052338425 0.12525801 0.16995381 -0.17635338 -0.1815839 0.17909184 -0.049004294 -0.024400217 -0.29495916 0.078434706 0.24958174 -0.01983098 0.007520403 -0.017582031 0.14210215 0.16900645 -0.3055339 -0.1395938 0.16887206 -0.27547273 0.051995933 0.20000453 0.08359473 0.0121781835 -0.021695161 -0.22068678 0.06471294 0.09831556 0.04366304 0.032651152 0.10147136 0.107131965 -0.09619887 0.034409862 -0.25367907 -0.1831715 -0.13037701 -0.13789724 -0.19135633 -0.116375804 0.14108849 0.04235924 0.040697414 0.121417515 0.15030292 0.0071601584 -0.25331545 0.20071283 -0.044106375 -0.16985655 0.36262488 0.11519399 0.3856656 0.20055407 -0.33341977 0.004608777 0.042668544 0.106723644 -0.32503977 0.23981851 -0.19214511 0.19063582 -0.20858157 0.1803859 0.17386498 0.2007381 0.056173332 -0.21501659 -0.07758091 0.17260283 0.13147335 -0.020698689 -0.2218881 0.07444924 0.2482456 0.06327446 -0.1436829 -0.0027432723
GWA 0.14189072 -0.13380893 0.24153982 -0.03169296 0.2792069 -0.33849862 0.12624249 0.08836139 -0.13255852 0.16482973 -0.18638608 -0.20139812 0.12180755 -0.084639974 0.065083005 -0.18349837 0.18340924 0.08222953 0.07381498 -0.30411425 0.06590743 -0.1281884 0.14467545 -0.115322165 0.09051122 -0.09655586 -0.30294782 0.35811475 0.15530638 0.17012307 0.047238167 -0.20280185 0.160486 0.0052735736 0.13793728 0.03212285 0.0020978462 -0.00945483 -0.4195989 -0.015906127 0.34390765 -0.297627 0.06571227 0.038565304 -0.04350908 0.023112629 -0.28389275 -0.18112665 0.13497408 -0.11207657 0.004037318 0.0055372193 -0.01325704 0.1786967 -0.23407605 0.17462936 -0.27361754 -0.07898697 -0.22224309 -0.19292983 -0.020830594 -0.04801994 -0.13714334 -0.21084735 0.0029639872 0.09197898 0.14419346 -0.12434473 -0.46843177 -0.10631051 -0.17170693 -0.1288677 0.057003256 0.025700456 0.32691875 0.18181343 -0.10191347 -0.031102752 0.121630855 -0.16823922 -0.03242334 0.19462079 -0.10661402 -0.016399331 -0.26424932 0.17544617 0.14814562 0.47349912 0.16625948 0.03771958 -0.044812188 0.12052836 0.08651492 0.04941864 -0.18709527 -0.0041250074 -0.05082003 -0.13144025 -0.28286195 -0.0026535206
WAK 0.059250925 -0.087965384 0.19152142 0.0083147315 0.07136646 0.017415574 -0.016928658 0.03867764 -0.1642991 0.015093632 -0.038742878 -0.19680709 0.018721834 -0.1232355 0.5234308 -0.086160675 0.17794375 0.033713464 -0.07004774 -0.15114328 0.2547337 -0.12653176 0.17853928 0.23982336 -0.0902813 -0.037798263 -0.09123194 -0.1825518 -0.08850433 -0.13209616 -0.08567137 -0.16975379 -0.11275839 0.07861396 -0.16778179 -0.12958138 0.14365175 -0.05682903 -0.18428592 0.011840251 0.19062777 -0.23063351 -0.19051167 -0.12762226 0.20375106 0.10099829 -0.2884901 -0.20086586 0.11411323 -0.16282293 0.32262117 -0.049747963 0.1646677 -0.032948952 -0.26744822 -0.08277032 -0.056572244 -0.17824629 -0.076793395 0.083539546 0.022586798 -0.0033330673 0.038921773 -0.120951235 0.27804956 0.17431992 0.2406854 0.18120353 -0.29103237 0.13153404 -0.13047352 0.004551496 0.2786023 0.1224841 0.2586896 0.20273349 0.15680335 -0.010349329 0.19037308 0.13466829 -0.13602276 0.012306661 -0.0941584 0.009360186 -0.27332443 -0.1495232 -0.06361537 0.12542908 0.25294575 -0.10066055 0.22488995 0.2101151 -0.06036103 -0.0411543 -0.0024660975 -0.010609443 0.42505175 -0.06999914 0.065487385 -0.13279948
AKV 0.30098754 0.10480354 0.20053035 0.13982554 0.0070076897 -0.3324575 0.13989614 0.040235385 -0.13803767 0.1691045 0.024908278 -0.027580807 -0.25397968 0.06100589 0.018637564 0.19559953 0.0895725 0.20904352 0.022843417 -0.3848819 0.15186515 0.045827866 -0.030272018 -0.040090017 0.0858459 -0.013232494 -0.0686849 -0.0345866 -0.07366895 -0.19564565 0.07493747 0.222677 0.4076876 -0.05168286 -0.0012657901 0.2187265 0.17433456 -0.13606273 -0.065914825 -0.014675867 0.057320785 -0.2766028 -0.023227762 0.038874816 0.020291736 -0.030877989 -0.22447895 -0.10882549 -0.04343076 0.14618854 0.1626857 0.07238306 -0.16523941 0.052384935 -0.21854885 0.05285835 -0.22397263 -0.069522046 -0.00080880243 -0.0076105027 0.1769917 -0.14663461 0.08474333 -0.14358625 0.2342224 0.2171154 0.12353577 -0.024353841 -0.15390539 0.18991068 -0.08835962 0.36460784 0.081881836 0.08787217 0.22004291 -0.030567981 0.11298258 0.20627192 0.14163873 0.11443223 -0.081433006 -0.053566102 -0.19077878 0.17715363 -0.19418694 -0.10530735 0.046648543 0.40071717 0.1392953 -0.07366431 -0.10079616 0.22600959 0.036729626 -0.14706981 0.085196175 -0.20946412 0.25318936 0.062268823 -0.17151636 0.11266543
GSM 0.2924363 0.030816736 -0.0363418 -0.14644226 -0.111703634 -0.14447679 0.04936844 0.10091143 -0.037022598 0.41251633 -0.015668778 -0.2400428 0.028740417 0.14469178 0.5233427 0.021773472 0.05382098 -0.17030777 -0.18576069 -0.22095396 0.28191775 -0.07118629 0.34826997 0.012380998 -0.32236335 0.15640773 -0.025113383 -0.020332273 0.013497161 -0.008320829 0.10773777 0.116082534 0.16967273 -0.099973425 0.18389444 0.22691022 0.18217495 0.080230534 -0.20300518 0.13398603 0.08267717 -0.24913973 -0.008501833 0.22767442 0.3148673 0.06272622 -0.24870549 -0.059055943 -0.02255736 -0.18157125 -0.1397832 0.11112202 0.06743041 0.28716254 -0.2088874 0.04185581 -0.16664457 -0.037189964 0.010308459 -0.043118026 -0.18334828 -0.11947202 -0.089012764 0.013443595 -0.01648596 -0.09308165 0.4509524 0.028725022 0.018370913 0.1396157 -0.007491758 0.06934895 0.062914774 0.06785024 0.1909976 0.35257834 -0.2031495 -0.0049492135 -0.040080804 -0.04796024 -0.35584337 0.06561826 -0.00035642754 0.13660741 -0.46323794 -0.031854067 0.041091315 0.37868732 -0.08066682 -0.09551969 -0.06239788 0.12800859 0.060904022 0.017853092 0.15407804 0.09701801 0.04441264 0.19003884 -0.032725085 0.16568351
SMA 0.26403794 0.23879305 0.03544101 0.17080115 0.17843641 -0.14504462 0.29385662 0.14180346 0.116341904 0.30779898 -0.18328024 -0.15123527 0.2565986 0.26217633 0.1729104 -0.0266831 -0.15421438 -0.15206681 -0.061895963 -0.11241264 -0.14751837 0.10729853 -0.06360004 -0.10367179 -0.25711447 -0.091536045 -0.058697067 -0.06496143 -0.023075331 -0.17616421 -0.0074689696 -0.10819215 0.28343052 0.03547026 -0.17157878 -0.08308934 -0.08140059 -0.19573613 -0.18525714 -0.12225547 0.030021196 -0.12893179 -0.2670056 -0.019850109 0.07340423 0.17773837 -0.22965725 -0.17518835 -0.007068158 0.12954897 0.15840639 -0.09528577 0.039875463 0.14012456 0.021473473 -0.06518398 -0.3071682 -0.12029535 -0.087504625 -0.14127858 -0.091968626 0.13871716 0.08592893 -0.2395473 0.19724835 0.15653268 0.057819597 0.26438123 -0.26247862 -0.046844617 -0.29248843 -0.049169943 0.27881843 0.034607228 0.1367151 0.114758156 0.07228488 0.27800328 0.05452605 -0.12382157 0.03251354 0.0830494 -0.19029325 -0.0008108774 -0.21348126 0.04343194 -0.048485573 0.107703894 0.4053429 -0.11631078 0.24440338 0.15017904 -0.04452538 0.18022843 0.07772843 -0.13249137 0.15353976 -0.15024719 0.11706769 0.15452503
LQY 0.110177234 -0.11973227 0.11262076 -0.042095 0.284319 -0.13352546 0.10668199 0.06396866 -0.3069094 0.01908348 -0.06528412 -0.1760066 -0.010228261 -0.09181682 0.15332425 0.053958412 0.17403157 -0.13980724 -0.10106705 -0.27434087 0.11772415 0.029543888 0.38923997 0.0037823732 -0.029345963 0.07845344 0.03989322 0.103959374 0.0028545673 -0.25602773 0.03145646 0.23816045 0.105732255 -0.077465184 0.15545662 -0.17795469 0.29514742 0.15027279 -0.3181049 0.12462278 -0.112477556 -0.37718153 0.013070869 0.40200698 0.10330828 0.102365576 -0.124306105 -0.21619335 0.3491714 -0.08280429 0.020441258 0.18667379 -0.09288741 0.16696036 -0.22790818 0.21986246 -0.15147954 -0.07321719 -0.35425225 -0.1688125 -0.0018548707 -0.21735103 -0.059191585 0.13730566 0.021106668 0.0021687602 0.049484782 0.11912139 -0.13561547 0.10964199 0.053381734 0.20461798 0.31980568 -0.16424324 0.34664932 0.11613149 -0.025647685 0.08667742 -0.11851949 0.04084078 -0.07339824 0.30821437 -0.076302454 0.19415528 -0.033668976 0.15885045 0.13641095 0.33133867 -0.058612935 -0.11430633 0.06771827 0.30115324 0.24962679 0.09399723 -0.12128147 -0.112993486 0.16581096 -0.08807226 -0.12465821 0.015728625
QYN 0.44291776 -0.2154126 0.04013476 0.07763834 0.02142661 -0.24063984 0.27537662 -0.16824114 -0.06429423 0.1761973 -0.30209842 -0.046493202 0.13249613 0.07974601 0.31678832 -0.066246636 -0.07354147 0.16118014 -0.01688037 -0.2327133 -0.15341195 0.019646814 0.10120855 0.13792083 -0.15810373 0.04588011 -0.114610456 -0.25609463 0.08622338 -0.25309297 0.030014753 -0.006825305 0.0549341 0.0350453 0.036903095 -0.02572471 0.060705237 -0.20359531 -0.3449612 -0.0545558 -0.06706023 -0.061842423 -0.12927315 0.07891005 0.25067428 0.20647024 -0.044848524 -0.2099653 -0.05283467 0.10938655 0.36604795 -0.03302763 0.1615043 0.1284394 -0.23613971 0.19369613 -0.25386035 0.05448076 0.06845009 -0.080142476 -0.062249422 -0.056956824 -0.0763524 -0.20322488 0.27828577 0.25454658 0.02040928 -0.05334749 -0.07427633 0.11967143 -0.07452175 0.05856534 0.27723077 0.06852009 -0.07599337 0.23288897 -0.012028177 -0.0733811 0.098279975 -0.1269216 -0.30083346 -0.06458381 0.1581521 -0.18380675 -0.2684963 0.04137957 -0.035432078 0.37811756 0.4021457 0.0049198815 0.05074264 0.22116238 -0.15562169 -0.045423917 0.14164391 0.21662031 0.32820544 0.1205337 0.17278619 -0.005571943
YNG 0.16773085 0.26506442 0.10702625 -0.0104431575 0.10239013 -0.03814052 0.023183389 0.27131188 -0.09497263 -0.10466408 -0.15567183 -0.17723624 0.056050207 -0.060786128 0.21870515 0.13477874 0.15028392 0.22680597 -0.10124266 -0.12110576 0.17595753 -0.09334974 -0.00024616878 -0.061613955 0.17480095 -0.12332649 -0.008442389 -0.26159742 -0.08358818 -0.13708399 0.12319355 0.07671581 0.158029 0.088022254 0.28113046 0.1906252 0.1886217 -0.04710658 -0.11087207 -0.24114315 0.13328539 -0.07752621 -0.32032236 -0.035677098 0.09537246 -0.09408549 -0.1419769 -0.11638928 -0.050621647 -0.063636556 0.37218934 -0.025434066 -0.12576783 0.06158487 0.12800533 -0.06513764 -0.1688313 0.009384044 0.050282057 0.022197338 0.13234514 -0.028392509 0.047267776 0.11564968 -0.08515405 0.03979258 0.25620225 -0.0722467 -0.49773812 0.18977499 -0.20755813 0.16625959 0.26954126 0.010797238 0.22877553 0.17603126 0.049556963 0.18733686 -0.1920879 0.08554103 -0.10557994 -0.112584814 -0.2227199 0.008441609 -0.38042828 -0.23588137 0.18326932 0.1608883 0.10289061 -0.073094286 0.05088828 -0.0038882021 0.09354738 -0.15283513 0.027212664 0.0108294105 0.19859394 0.056687083 0.053306196 0.16778217
ASG 0.20961419 -0.36076185 0.052960563 -0.034434933 0.0011411743 -0.34510997 0.04662505 0.12562777 0.07171769 0.18073498 0.12876506 -0.16660218 -0.11014554 0.27450198 -0.056149635 0.018137716 -0.05152761 -0.0895212 -0.116673954 -0.36589572 0.11908309 -0.070997104 0.52002764 0.047059994 -0.25887263 0.25462186 0.07197177 -0.11243731 -0.09287028 -0.041188795 0.04713333 -0.050657645 -0.008335787 -0.21237333 0.17161189 0.015624414 0.23663726 0.11174618 -0.24707532 -0.06296556 0.2267585 -0.23810892 -0.009078914 0.45935515 0.032100618 0.16288358 -0.21524896 -0.1399934 0.09955107 -0.1694268 -0.027167037 -0.05423011 0.22654508 0.023006007 -0.30448645 0.19201061 -0.101612315 -0.2055834 -0.19550692 -0.29666087 -0.036717057 -0.18840744 -0.30758682 -0.042449653 0.057931166 -0.011681326 0.45641887 0.2533825 -0.37873575 0.007458387 -0.17426878 -0.09940701 0.42921618 -0.12744531 0.31999683 0.3184726 -0.010788985 -0.2253723 0.07031588 0.12189215 -0.22954062 0.15082096 0.03759176 0.21511307 -0.13398041 0.10710105 0.062906824 0.20391047 -0.081357606 -0.30562228 0.12564571 -0.058739178 0.15772049 0.18037787 -0.3241283 0.090166256 -0.093975574 -0.082869716 0.061051294 -0.13662967
SGA 0.086574554 -0.017439166 0.02472282 0.021004394 0.05795348 -0.31237656 0.053903013 -0.013328561 -0.12332395 0.16235523 -0.3382746 -0.01416827 0.09416409 0.31002995 0.36801377 -0.32182124 -0.077825494 0.104634784 -0.21035579 -0.0787987 -0.114585645 0.048649665 0.20847613 -0.24247396 0.012756308 -0.055342626 0.12011189 -0.30828774 0.14973137 -0.27252752 -0.23694427 -0.16986056 0.14693734 0.021288643 -0.059218448 -0.23987308 -0.26120248 -0.1898212 -0.046191834 0.032441277 0.17716949 -0.062352374 -0.11528512 0.19884172 0.048085596 0.07718724 -0.07843786 -0.18916593 0.06612967 -0.011668628 0.2816654 -0.15049785 0.066402145 -0.15814541 -0.11758966 0.06556649 -0.202955 0.1182438 -0.08990602 0.14475594 -0.0019862829 -0.10868156 0.31646425 -0.020961162 0.4879607 0.2702137 0.22267555 -0.043841615 -0.20121883 0.025150869 0.1332963 -0.0062079397 0.27728015 0.086473905 0.13738665 0.08102083 0.23386697 0.09171216 0.26121312 0.11926638 0.027736126 0.0020107583 -0.41754442 0.030155214 -0.30161417 -0.19172297 -0.05022986 0.05921088 0.44157454 -0.0037218202 0.2425574 0.098895065 -0.25305095 0.032574434 0.44848904 0.0481822 0.045548696 -0.100106955 0.13711946 -0.15325922
SNG -0.07600638 -0.09118141 -0.12270841 0.0020104514 0.057911824 -0.35799184 0.29279646 0.13733599 -0.4286553 0.20113426 -0.07600851 -0.3289829 0.113444515 0.15304504 0.28103575 0.06319789 0.31585196 -0.29240003 -0.25508153 -0.27580783 0.073557764 -0.21462074 0.32061067 -0.169792 0.021155477 0.054260164 0.12939702 0.063984856 -0.12185393 -0.2658075 0.30293638 -0.09912511 0.20114273 0.030742541 0.114230886 0.02313384 0.33576894 0.3332384 -0.24736618 -0.13728194 0.10141473 -0.34356487 -0.109947555 0.43909407 0.12900114 0.10402127 -0.31498536 -0.04592843 0.17354912 -0.11374911 -0.14153476 0.020678105 -0.102424584 0.40689754 -0.27737615 0.14593408 -0.045352466 -0.09660381 0.13931277 -0.07908166 -0.11724068 -0.108093075 0.21155053 0.41787642 -0.09006676 -0.052827083 0.25698432 -0.0301711 -0.18043207 0.07400384 -0.054825634 -0.18102528 0.03499784 0.07382628 0.12210934 0.2841624 -0.16840523 -0.25169936 0.20834509 0.15309736 -0.07168191 0.24033123 -0.02251603 0.1636687 -0.18371773 0.30856517 -0.045615226 0.24513112 -0.17742406 -0.13303332 -0.05983835 0.12748268 0.18359858 -0.02671057 -0.13474348 -0.23787859 -0.055321634 -0.120002344 -0.18618678 0.0007771082
NSN 0.56148046 0.114808895 -0.02526986 0.10686061 0.06412028 -0.31961122 0.14587536 0.12295712 0.21654359 -0.09511066 0.012858268 0.010055392 -0.11674675 0.09339472 0.093974255 -0.20390406 0.3103589 0.14589538 0.446099 -0.013436219 0.15017213 0.2865924 0.105366334 -0.06722335 0.2051904 -0.2504127 -0.14432858 0.28426522 -0.3342313 -0.104969665 0.052823763 -0.08328617 0.33304986 -0.22442695 -0.12567553 0.18496527 0.13797124 -0.34604928 0.118756816 -0.04397712 0.006661099 -0.14780872 -0.16339481 -0.0071563465 -0.03905394 0.13695012 -0.2638333 0.33034974 -0.35312325 0.037673492 -0.0042131613 0.04118987 0.056017168 -0.15958418 0.07247012 -0.093016885 -0.19297977 -0.074685164 0.19538288 -0.010865791 0.29224166 -0.014850198 0.12552622 0.11503663 -0.051029112 0.4121347 0.056112777 -0.08707001 -0.2580825 0.23354906 -0.20191602 0.06488571 0.19554037 0.2923409 0.2271616 0.24718596 0.1255201 0.25821847 -0.057059605 0.18707861 0.10726757 0.061476354 -0.27998364 0.18607894 -0.17777102 0.11384006 -0.085899584 0.35620767 0.08070491 0.040637184 -0.06964513 -0.097335085 0.17633733 0.1595476 0.14280204 0.1688346 0.03509354 -0.3079702 0.06050538 -0.2255649
ENG 0.17840558 0.24846785 0.09860468 -0.010528279 0.19913654 -0.1791559 0.029909126 0.11403147 -0.15005766 0.07694072 -0.3643124 -0.19811958 -0.086394906 -0.18085624 0.1408503 -0.0839366 0.2958364 0.069653675 -0.07431275 -0.08956957 0.040335845 -0.06701489 0.1620733 -0.06438764 0.078178495 0.2531889 -0.3285472 0.2402474 0.15344341 -0.2623637 0.14655386 0.02611805 0.18299472 -0.1394925 -0.23327 -0.049392592 0.065343246 0.083389446 -0.24191527 -0.13006204 0.10873922 -0.16964138 -0.055126484 0.11770467 -0.38672686 0.22330827 -0.11587341 -0.13461183 -0.11171131 0.27986217 0.10643828 -0.10683226 0.35652846 -0.015617718 0.20936705 -0.21275482 -0.43952966 -0.19656175 0.028887043 0.086227894 -0.19452357 -0.10063841 0.13750704 0.15715751 -0.03368884 0.21151192 0.06711233 0.19112559 -0.18557762 -0.11902633 -0.35604694 -0.14876483 0.032156534 -0.20740142 0.39846966 0.16067085 0.12904261 -0.06740664 -0.0947938 -0.3150039 -0.04987514 0.043716233 -0.3686137 0.21228033 -0.18113315 -0.009406959 -0.08676102 0.28313395 0.23337582 0.071233876 -0.04559874 0.35603443 0.09984054 0.03126595 0.030548627 0.11145084 0.23745899 0.34211692 0.09463894 -0.057676625
WVK 0.34578022 -0.24501269 0.3030349 -0.16396852 0.30486417 -0.4140434 0.001381545 -0.013711325 0.07606349 0.21548493 -0.025092283 -0.19460091 0.029393423 0.19201854 0.2179633 0.36247194 0.18205884 -0.15950954 0.12386753 -0.11758271 0.28822464 0.14805196 0.61143553 0.007851375 -0.2988695 0.0515454 0.19178832 -0.15269299 -0.21233492 -0.2120267 -0.0006988908 0.26081425 0.134543 -0.19920819 0.33105272 0.21745098 0.09483533 0.24285457 -0.49576724 0.020904789 0.3335665 -0.200476 0.061570633 0.094993845 0.13782384 0.12562725 -0.06140046 0.02658354 0.042228125 -0.053059198 0.29590473 0.136662 0.30442283 0.13822624 -0.12132776 0.35094136 -0.04693572 -0.13005187 -0.22606526 -0.060657028 -0.03469905 -0.10168945 0.031947244 0.40929613 -0.13931999 0.033351347 0.29539472 0.22538406 -0.31487173 -0.10812803 -0.2800522 0.11115206 0.15356876 -0.04441597 0.0715094 0.19794416 -0.28162017 -0.30999812 0.20192267 -0.04992553 -0.032286532 0.35473773 0.026780006 -0.024325624 -0.17805044 0.030060736 0.071306996 0.036077306 0.069037765 -0.24856228 0.1842499 -0.129924 0.17809987 0.042102624 -0.0717635 -0.034205902 0.13685432 0.07811528 -0.45058674 -0.06415933
GWV 0.021661798 0.009912631 0.0095660705 0.20540175 0.018650753 -0.12613216 0.037517253 -0.050092 -0.5056599 -0.18160208 0.019950325 -0.12753522 0.096858345 -0.073331155 0.16165933 0.2116168 0.093036324 0.32538596 0.14210689 -0.24732697 -0.01758753 0.1692213 0.17256938 -0.04119085 0.2483123 0.1123084 0.016924573 0.14273429 -0.025472734 -0.12884623 0.06902899 0.26314792 0.27158618 -0.11725247 -0.18207493 0.1542893 -0.056716803 -0.18018068 -0.070721045 0.098423034 0.33991128 -0.13975625 -0.17794067 -0.077160254 0.0072605438 -0.033898972 -0.15535009 -0.025896974 -0.41754296 0.24298991 0.020961178 0.06481445 -0.3589659 -0.052995585 -0.17709105 0.32265958 -0.15020777 -0.110518865 0.02262772 0.20633559 -0.09042621 0.32242376 0.387869 0.0708614 -0.03920375 0.27338043 0.18157929 0.0801447 -0.2827971 0.09163346 -0.3624759 0.21256094 0.0631748 0.02421288 0.32430628 0.13503934 -0.17236853 0.0788893 -0.23095453 0.04009477 -0.006170797 -0.053130895 -0.36442426 0.23454495 -0.16562973 0.21588603 0.3542905 0.3475994 0.12987475 0.05502514 0.02318637 -0.24803571 0.15927196 0.3097621 0.06340039 0.23777433 0.15539406 -0.005505835 0.18155038 -0.18208759
VKD 0.27204645 0.09895106 -0.0118720895 0.25184202 0.17524548 -0.04903135 -0.018143186 -0.08301625 -0.015340563 0.4006236 -0.20919192 -0.4944314 0.27092588 0.12628888 0.05895958 0.038256165 -0.19810845 -0.010344113 0.21113396 -0.010674536 -0.18450387 -0.18984914 0.22250816 -0.21451928 -2.3391985e-05 0.02779429 0.17591777 -0.09135257 0.050249886 -0.2898138 -0.15660025 -0.3550922 0.24797904 -0.11911285 0.03690947 0.1709789 0.07279951 -0.17421977 -0.03492037 -0.16001359 0.124238126 -0.12280175 -0.06250246 0.0441189 0.16899313 -0.007612243 0.110341504 -0.2395891 -0.17077583 -0.019778041 0.1580444 -0.06539012 0.08337912 -0.08622898 -0.35260165 0.044869028 0.103831775 0.038080364 -0.06267958 -0.17690007 0.3538331 -0.06813637 -0.0636212 -0.24981053 0.20935053 0.26381257 0.097596556 0.031484604 -0.14639488 -0.15849124 0.1844044 -0.028269142 0.10318307 0.13620171 0.14364643 0.48109883 0.19882762 0.22360395 -0.10215493 0.06978349 -0.080013566 0.26063725 -0.05972594 0.19228975 -0.48605672 -0.3475272 -0.044128265 -0.065805025 0.4348777 -0.014532194 0.37776476 0.39122903 -0.4832759 0.11298311 0.319072 0.085555896 0.14954075 0.1695857 0.095317334 -0.34009293
KDG 0.27125078 0.12732346 -0.031133443 0.07006451 -0.011281295 -0.2951214 0.13125074 -0.010822647 -0.33752748 -0.25385273 -0.03096146 -0.17751268 0.07829828 0.015209652 0.29396567 0.22715114 0.29613373 0.02012341 0.11257168 -0.07272543 0.014136162 0.441658 0.06817699 0.1363319 0.07278569 -0.12518777 -0.056118958 0.44157842 -0.0014153417 -0.25114727 0.15579446 -0.08010466 0.042638883 -0.2997684 -0.1664938 0.19742097 0.090543576 -0.033956688 0.19368279 0.04098164 0.37363306 -0.19536197 0.028308136 0.026565474 -0.19528396 -0.19975905 -0.11451236 -0.081811056 0.10195201 -0.15663865 0.12142835 -0.123112604 -0.39710394 0.006441613 -0.08142118 0.28137195 -0.43459082 -0.08429909 0.048037622 0.004382701 -0.01643395 0.14034875 0.19783278 -0.004607245 -0.15531193 0.14646359 -0.01752851 0.122202426 -0.44202513 0.40523422 -0.19235241 0.18969056 0.36353886 0.2582212 0.040878244 0.13969693 0.16954178 -0.036332525 -0.009609657 0.00671862 0.100726694 -0.18051976 -0.58290833 0.29283497 -0.06391655 -0.052021008 0.17964491 0.084968194 0.055918686 0.059119698 -0.20971191 0.05060482 -0.08041702 0.26254135 -0.0109919505 0.1229269 0.19436818 0.31384772 -0.018234137 -0.06705459
DGD 0.25031385 -0.2859904 0.10561945 -0.30646786 -0.22431496 -0.24363564 0.04986312 0.104398824 -0.2116979 0.41062382 -0.14384764 -0.10056326 0.12761556 0.36227852 0.016248098 0.1682728 -0.06913812 -0.0026693877 0.17611226 -0.40550408 0.1500275 0.25430107 0.5681719 -0.012617464 0.046607945 0.18195382 0.03867731 0.22039925 -0.3270328 -0.056161508 0.09391355 -0.017118214 0.23214768 0.1550116 0.41974252 0.10046885 0.14442345 0.09139768 -0.3963513 -0.10054966 0.24888775 -0.043881852 -0.04263841 0.2873066 0.07919277 0.25304607 -0.164749 -0.24931234 0.25217113 -0.17857362 0.079833314 0.083388105 0.2559705 0.06450343 -0.17509496 0.10757314 -0.30386764 -0.11135614 -0.2390871 -0.15255281 -0.08930424 -0.0030221704 -0.08434554 0.3560574 -0.0061990554 -0.14335553 0.32043055 0.053905305 -0.33741313 0.12030215 -0.33453187 0.2039902 0.105602056 -0.22852446 0.34014916 0.3023693 0.115855865 0.00033058075 0.13388543 0.35074615 -0.13011165 -0.08065284 0.098313086 -0.01600223 -0.11511326 0.3171827 0.037840765 -0.042202912 -0.21391617 -0.35606226 -0.014720737 0.32611796 0.053517867 0.10040528 -0.09831048 0.18833013 0.069703974 0.123728454 -0.35951507 0.08777373
YLE 0.30265298 -0.27029267 0.08078955 -0.3497205 0.21582407 -0.114305064 0.20454599 -0.09260622 0.05441615 0.22299376 -0.025731994 -0.4056355 -0.0409191 -0.06531143 0.014534274 0.26123887 -0.18642344 0.01737651 -0.010647737 -0.24424651 0.29949996 0.19141148 0.6109222 0.039545324 -0.26653418 0.24992582 0.022969432 0.08139037 -0.2009018 -0.06728112 0.27394387 0.15176043 0.40358537 0.099856295 0.2860298 0.056403156 0.13945925 -0.032887597 -0.29766846 0.00032190874 0.20989917 -0.035144106 0.25910294 0.34006423 -0.062895924 0.16572905 -0.26490554 -0.07448993 0.3136759 0.121801384 0.2804039 -0.26592705 0.05135274 0.010458276 -0.25145105 0.1626815 -0.11658755 -0.050691497 -0.26353642 -0.20815259 0.20104949 0.070665896 -0.011377086 0.54520994 0.11859088 -0.049001098 0.30350077 0.21535961 -0.1629006 0.34506127 -0.078046665 -0.19729744 0.23639132 -0.19206098 0.29297748 0.5075844 -0.14805725 -0.05246833 0.23250951 0.09562298 -0.056776587 0.25965467 0.08346661 0.02457754 -0.50253636 0.20640852 0.16105643 0.24661684 -0.18869814 -0.112254925 -0.032247625 -0.03029429 -0.080229536 -0.095025554 -0.21026874 -0.08238363 -0.14991668 0.10533175 -0.116056904 0.2505806
GDT 0.45854476 -0.042549666 -0.07373569 0.11474465 0.15265994 -0.14834233 -0.09116623 -0.058482587 -0.2853798 0.2421491 -0.36635002 -0.2349886 0.1767869 0.042571645 0.23488656 -0.24913304 -0.27912632 -0.06898748 0.039971482 -0.069260195 -0.28525212 0.06766144 0.050021563 -0.042764418 -0.02734175 -0.24664344 -0.07501636 -0.10948978 0.10276942 -0.31655446 -0.3853942 -0.08095071 0.20853773 -0.006168151 -0.22286677 0.025828462 -0.045020305 -0.22444479 0.18592277 -0.093611404 0.36106363 -0.08810855 -0.17536184 0.23383015 -0.004439611 0.098677106 -0.06638714 -0.1505633 -0.006104224 -0.1653591 0.3914425 0.106980346 0.05623264 0.20075499 -0.22571734 -0.16153908 0.010370087 -0.08679396 0.10250229 -0.3230714 0.25347218 -0.34883457 -0.21176471 -0.16346593 0.12938885 0.24165374 0.25523627 -0.11299294 -0.09572363 0.21680191 -0.1712306 -0.09735987 -0.0955188 -0.020153826 0.21048576 0.19357191 0.091896474 0.25895566 0.27084318 0.018239612 -0.12299558 0.036515877 -0.08876945 -0.24702698 -0.60316235 -0.043540467 0.10773282 0.044964407 0.3961328 -0.2075781 0.4287042 0.04151115 -0.35392147 0.41271922 0.062330857 -0.12229349 0.10605551 0.11631796 0.2222019 -0.12807183
LEA 0.31437203 0.0729183 0.07675895 -0.21950705 0.2555345 -0.17325997 0.27297494 0.07835533 -0.35701478 0.25345695 -0.39202547 -0.03934143 0.2126939 0.26412654 -0.009064812 -0.0044969856 -0.19924997 -0.16270225 0.07323759 0.09353192 0.084439136 -0.06673765 0.24791464 -0.01877342 0.00027017295 -0.13409884 -0.15539244 -0.192346 0.28577405 -0.45187762 -0.25670636 -0.28674558 0.27093464 -0.2999237 -0.14773487 -0.06083385 -0.057812657 -0.24770157 -0.11740569 -0.31753138 -0.029296804 -0.30083004 -0.22812937 -0.007964201 0.5054317 -0.12624013 -0.038659144 -0.25028226 -0.00061237405 -0.0856585 0.2789237 -0.013811924 -0.06282966 0.056149323 -0.26871812 -0.1491052 -0.22643422 -0.08476072 0.055499554 -0.0202189 0.28115177 0.10458835 -0.18875131 -0.0467999 0.08336671 0.1306908 0.06481917 0.15323468 -0.032804154 -0.09211827 -0.11145605 0.012824205 0.025313871 0.044096906 0.3005459 0.17845194 0.14885885 0.20366402 0.26035526 0.09219199 -0.15659942 -0.004848313 -0.239826 -0.15641707 -0.37403116 -0.21725713 -0.12936811 0.04801845 0.25029474 0.15749991 0.5271638 0.040117197 -0.39366704 0.19520015 0.24338771 0.17373455 -0.072238065 0.029523198 0.26137474 -0.37058985
DTW 0.21796735 0.122338444 0.011446773 0.010058015 -0.026261289 -0.13446097 0.17364419 -0.03630746 -0.3145589 -0.38479656 0.08862077 -0.1673666 0.055181634 0.39067563 0.17270905 0.18300122 0.10542764 0.09198505 0.12999907 -0.070391804 0.38182497 0.45826614 -0.021161105 -0.17841399 0.24172239 -0.09484615 -0.0055000247 0.26790646 -0.31753343 -0.2779746 0.051656492 -0.10107541 0.027007055 -0.05932321 -0.19691034 -0.031756595 0.038920544 -0.059137274 -0.22052287 0.031019848 0.12798734 -0.18333448 0.01639229 0.06077181 -0.20080262 0.0049717496 -0.2710084 0.10496931 -0.17474724 -0.03349287 -0.06376874 -0.025600359 -0.3492819 0.11734725 -0.07803933 0.21812283 -0.13150954 0.013652 0.13916433 0.074931696 0.047494095 -0.11605385 0.26140025 0.115944624 -0.014287181 0.3751001 -0.0076736454 -0.10044633 -0.48786163 0.15265222 -0.14551312 0.20923343 0.021240598 0.013064387 0.35899562 0.022700967 -0.1642789 -0.029302169 -0.21127123 0.069492914 0.0045550456 -0.21669011 -0.3535627 0.2696337 0.011835359 -0.040873684 0.1889559 0.36339048 0.4771814 0.109430484 0.111424245 0.06287876 0.09432325 -0.021141931 -0.36864904 0.1062852 0.11162959 0.30949432 0.2124261 -0.076209195
EAS 0.22951151 0.1881666 -0.060237397 -0.17173794 0.083361514 -0.28248242 0.19830182 -0.18332699 -0.30216143 -0.36572516 -0.04508774 -0.1389495 -0.020008704 0.2200358 0.23451562 0.3887492 0.26069137 0.23533174 0.15141386 -0.3180845 0.22293927 0.40484703 -0.14040847 -0.3383737 0.21314923 0.065417625 -0.1688084 0.06732679 -0.020017209 0.018649837 -0.10207863 0.19281411 0.42052895 -0.32662904 -0.33454746 -0.004795983 0.04878735 0.04497425 -0.16151446 0.15399635 0.23143479 -0.31473494 -0.120003976 0.19808763 0.08063747 -0.09680244 -0.13619035 0.07040197 0.08178182 0.011631748 0.19561617 -0.32762903 -0.22721826 0.030685872 -0.012744831 0.11803677 -0.018260581 0.04021497 0.07020134 -0.035575856 -0.091400266 0.20869501 0.15184534 -0.031603266 -0.14045961 0.3738325 0.19787744 -0.11346083 -0.17482148 0.37070754 -0.3783028 0.06483339 0.037810676 0.04551493 0.25286308 0.2419881 0.117460474 -0.175299 -0.38011986 0.126343 0.11844109 -0.16805859 -0.28717142 0.2948666 0.021358158 -0.11396802 0.36196607 0.117243156 0.20466366 0.06087145 -0.1315258 0.10643944 0.10438832 0.175371 0.04015979 0.03187568 0.16638894 -0.06016966 -0.095495 -0.121082254
TWY -0.033473793 -0.6474397 0.23974624 -0.11635542 0.33972374 -0.5470173 0.16563722 0.0868266 0.04850755 0.21990892 -0.069727264 -0.23059066 0.14459075 -0.044821702 0.15346336 0.31050074 -0.14928964 0.0034211543 0.20114003 -0.38732117 0.40677974 0.026051885 0.3935983 -0.01403079 -0.20707433 -0.14622732 -0.06510636 -0.033586416 -0.031649195 -0.38770902 0.27810788 0.055009823 0.29004315 0.066757396 0.22155099 0.17586638 0.24207138 0.13879202 -0.29510456 0.08165047 0.12762707 -0.37489298 -0.018226804 0.38708064 0.0077571217 0.35799834 -0.12697254 -0.2082995 -0.09854353 -0.39186257 0.2330259 -0.07679882 0.14636262 0.004193587 0.015190566 -0.067132905 -0.1312939 0.21252756 -0.0067187115 -0.14055128 0.0037045586 -0.032015476 0.06419258 0.19214651 0.07581107 -0.004606708 0.24152862 0.006822926 -0.4168625 0.16589478 -0.044053204 0.06713551 0.12499276 -0.37220117 0.23240672 0.30234158 -0.17864284 -0.036274828 0.06590032 0.05616691 -0.1774333 0.061817735 0.04930315 0.17929676 -0.15782578 0.12498369 -0.17244159 0.22704455 -0.33388996 -0.50145996 -0.10481451 -0.05446491 -0.110207476 0.13999364 -0.03801923 0.052913606 -0.029405575 0.06440413 -0.20241578 0.09477391
MKA 0.24563332 0.15253018 0.036151625 0.10985573 0.12847492 -0.27561972 -0.102843925 0.09405486 -0.13319556 0.2948162 -0.50810874 -0.174272 0.16261607 0.21363507 0.12827851 -0.1348644 -0.25161093 0.0056027086 0.3161643 -0.14770198 0.09059947 0.1909157 0.2619791 -0.034194637 0.036934394 -0.14760092 -0.08041056 -0.21040246 -0.059072122 -0.35661882 -0.20001967 -0.14059392 -0.045952987 -0.104521684 -0.22882551 0.17260435 -0.1329649 -0.17390157 0.08741995 0.11846298 0.03753833 0.28893104 -0.1593942 0.0969123 0.00792294 0.031236602 -0.08983581 -0.5155167 0.23794942 0.16267589 0.041863758 0.037927087 -0.06369468 -0.074529685 -0.2786211 -0.10226368 -0.037347157 0.032235537 0.24264173 -0.21620847 0.08113811 -0.057916414 -0.26128975 -0.1654966 0.2294942 0.19775897 0.20372936 0.37376818 -0.15319446 0.07625989 -0.17315114 -0.035731222 0.07595158 0.100435056 0.13659285 0.14749648 0.0076078065 0.22077991 0.07430177 0.043269545 -0.18782924 0.4409205 -0.21385229 -0.15954421 -0.55913955 -0.17469016 -0.114509724 0.18073313 0.28800306 0.100763984 0.5452569 0.16528286 -0.30494735 0.07337574 0.23974074 0.11019255 0.09260865 -0.24271065 0.17802556 -0.30969816
QWF -0.0004811007 0.12538934 -0.061312385 -0.05658694 -0.017460376 -0.17991236 0.2397858 0.15191366 -0.17036428 -0.44596487 -0.18013524 -0.36317316 -0.003090366 0.021740993 0.34659678 0.22091268 0.043784093 -0.02248514 0.008677625 -0.29725483 0.21454841 0.31985146 0.12675227 -0.067214794 0.24831843 -0.013477161 0.20242272 0.21173434 -0.12851012 -0.15636621 0.0012564736 0.087479025 0.2911576 -0.3103757 -0.25002468 0.17569166 0.33210108 -0.11113167 -0.09094879 -0.115578994 0.2590967 -0.33883658 -0.10485531 0.19516939 0.14355825 -0.24460137 -0.17321585 -0.19370715 -0.23588002 0.0427208 0.044024467 -0.09386629 -0.3327296 -0.27832466 0.06958683 0.47574887 -0.103333265 -0.16305901 0.2989872 0.15364808 0.14122191 0.01024113 0.26417255 0.047462482 0.066591755 0.30993885 -0.049189262 -0.11835655 -0.3254888 0.20969968 -0.35585973 0.13440631 -0.1301544 0.17183259 0.017843777 0.0818083 0.20779465 0.05425636 -0.06535291 -0.036789168 0.022600822 -0.20381798 -0.3485712 0.15147625 0.0405114 0.042358138 0.2833502 0.31762284 0.06695777 0.1939417 -0.010380811 0.00798852 0.15430576 0.05347038 -0.18777335 0.29661614 0.062482312 0.20074086 -0.2092603 0.061936688
WFK 0.14388521 -0.23354788 -0.15128168 -0.078205585 0.036274023 -0.42952034 0.14123027 0.09465958 -0.036787786 0.050488308 0.006121749 -0.046765532 -0.0014681953 0.045915093 0.103389725 0.08029662 -0.23662932 -0.07899748 0.09814338 -0.10576187 0.2832738 0.16724238 0.5765227 0.036331326 -0.26378763 0.41221336 -0.10930145 0.04171872 -0.14670765 -0.10099189 0.30053037 0.04475147 0.42258576 -0.016187875 0.32333863 0.15162146 0.20866272 0.16169266 -0.3790395 0.20529851 0.10548793 -0.0991031 -0.01888557 0.2752264 0.2399583 0.017670725 -0.21670203 -0.14073005 0.0072264923 -0.16838726 0.14494565 0.06429214 0.6397454 0.37997103 -0.012120192 0.16847603 -0.36071736 0.110921055 -0.44248146 -0.15654065 0.008078882 -0.23598868 0.12396816 0.19045946 -0.10246547 -0.01588375 0.19754657 0.18180466 -0.44654784 0.21735525 -0.093185 -0.2049465 0.104279466 -0.23167063 0.25220174 0.34831816 -0.0038980516 0.053392317 0.17225066 0.1814655 9.749951e-05 0.042611603 0.22712973 0.0071993587 -0.23181857 0.032116294 0.14840178 0.35419574 -0.17300683 -0.32149237 0.23574819 -0.13401423 -0.21995883 -0.122388124 -0.07371329 -0.07253074 0.13649409 0.26539755 -0.34502482 -0.17524615
KVS 0.13754322 0.32334828 0.080978714 -0.18433388 -0.07002394 -0.2629979 -0.019951245 0.0576875 -0.28581333 -0.41835254 -0.045446064 -0.41531733 -0.02292416 0.23248446 -0.09434723 0.4423909 0.052281406 -0.106792085 -0.06938528 -0.14782605 0.27844486 0.18224214 -0.06293008 0.0045321416 0.2941645 -0.0011501212 -0.026761489 0.16569349 0.21891044 -0.3444369 0.2284569 0.15994835 0.17310143 -0.39190158 0.0145975035 0.1641963 -0.0072843544 -0.13785471 -0.23309371 0.17395395 0.207451 -0.19103655 -0.16312644 -0.0057659945 -0.15631735 0.017867308 -0.19915555 0.004174712 -0.101292804 -0.09090027 -0.023131473 -0.014561465 -0.22178876 -0.16011731 -0.13874313 0.15984477 -0.23626906 0.030331844 0.10788908 0.010889615 -0.11135285 0.32655588 0.40796855 0.063704275 -0.14345609 0.31807625 -0.009012876 -0.37814167 -0.4266117 0.38576353 -0.12128098 0.253503 0.011353639 0.32009915 0.33291018 0.020777002 0.16594113 -0.03799382 -0.069908015 0.01710165 -0.16458951 0.09865563 -0.1818832 0.22237206 0.08081817 0.1048069 0.32426995 0.25646526 0.2646965 0.033101153 -0.05544415 -0.13839664 0.0068959002 0.2636439 -0.08690761 0.0811165 0.42969275 0.025757167 0.058512814 -0.019001221
FKV 0.18324034 0.069026254 0.28444114 0.051544856 0.24085507 0.05425826 -0.08182048 0.15812255 -0.2527286 0.19851242 -0.55351794 -0.19330326 0.2873186 0.0856642 0.06911916 -0.071798086 -0.48068327 -0.2634691 0.17312697 0.0827461 0.03713951 0.06964873 0.3351916 -0.054595184 -0.27717647 -0.089944966 -0.067065045 -0.19569325 0.12376616 -0.22921649 -0.24317808 -0.13524105 0.25901586 -0.021281336 -0.34426844 0.00050592644 0.079223566 -0.25922725 -0.11504725 -0.34866866 0.23716849 0.055214968 -0.04039693 0.24130782 0.0004644444 -0.12096223 -0.1182556 -0.21169446 0.054005064 -0.17351721 0.13212672 0.02505701 0.07902165 0.17081161 -0.08331393 -0.034032952 -0.18795268 0.1421057 0.024587404 0.0762057 0.3359063 -0.23243366 -0.09242036 -0.35437688 0.33495674 0.33355322 0.22641374 0.17213 -0.113278195 -0.030491535 0.003979466 0.080782846 -0.0070620812 0.28816366 0.01723291 0.351728 -0.09222141 0.010282072 0.066781655 0.24580957 0.022674326 0.11516404 -0.2498625 -0.018192304 -0.35480464 -0.0970576 0.052290235 0.12697636 0.4516919 -0.0023908003 0.11065296 0.059249606 -0.26176068 0.3430362 0.43178505 0.0091373455 0.12150214 -0.3124934 0.2799876 -0.16782519
VSD 0.05956314 -0.43700984 -0.016447892 0.010729662 0.09141261 -0.21434869 0.20105082 0.059507396 -0.076179415 0.3679287 0.13768993 -0.6132217 -0.022095695 0.11372274 0.17776334 0.23018444 -0.11564077 -0.09190638 0.15752777 -0.22737677 0.24629486 0.2787741 0.49483463 0.034327123 -0.32294473 0.27753648 -0.2335788 -0.31670195 0.06496722 0.13894224 0.19691055 0.06383668 0.39841014 0.10198361 0.54374224 0.34506318 0.29778013 0.0015325267 -0.32947844 0.00055959786 0.30133 -0.117454484 0.062001005 0.51875794 -0.028201323 0.18848741 -0.14458689 -0.047593888 0.25496733 -0.15845288 0.22187002 0.15622209 0.2543015 -0.009497213 0.17448056 0.14988142 -0.32542717 0.07290145 -0.15454766 0.05805547 -0.035439122 -0.13618706 -0.16458927 0.25078788 -0.01492023 0.01147443 0.4029714 -0.020235004 -0.35986117 0.18366858 -0.27846897 0.020308878 0.20366073 0.02727634 0.23843916 0.33406296 -0.12492505 0.024956862 0.19678184 -0.0942775 -0.12971985 -0.009162068 -0.03443845 0.026178706 -0.3169929 0.19859622 -0.009731578 -0.112283066 0.040076863 -0.29194656 0.22238736 0.16786939 0.11624671 -0.0034401575 -0.10950127 0.09121442 -0.044989116 0.10694463 -0.16573861 -0.16102175
SDK 0.17690927 -0.040856145 0.26902246 -0.13895886 0.27674916 -0.13290213 -0.15433289 0.14428121 -0.07085879 0.14244795 -0.12375523 -0.24488795 0.35722712 0.25701907 0.16842988 -0.24978906 -0.051187024 -0.26460502 -0.18499331 0.0527099 -0.38793644 -0.015616619 0.12161123 -0.16117574 -0.040304024 -0.18519029 -0.069400124 -0.10845814 -0.076047376 -0.17752989 -0.21199451 -0.118609905 0.20348129 -0.0777538 -0.38834825 0.35385984 -0.17150101 -0.19726762 -0.10943698 -0.051568538 0.17080663 -0.19046986 -0.24613144 0.06255752 -0.042091228 0.15278561 -0.14299805 -0.35381892 0.21655898 0.118921645 0.3090808 0.13074449 0.0359689 0.23642336 -0.07447055 -0.08179916 -0.11949359 0.11898646 0.16977228 -0.13939865 0.41058525 -0.035773154 -0.14594968 -0.08525369 0.21107681 0.20691893 0.116382286 0.12589589 -0.1630537 0.0047303573 0.15166482 -0.20349231 0.012708858 0.020933706 0.0250475 0.12427347 0.107890286 0.23042135 0.029420454 0.26472977 -0.30228862 0.035206154 -0.36485094 0.014365858 -0.32321277 -0.20255099 -0.028784087 0.09268807 0.38732156 -0.05434446 0.5306125 0.15561916 -0.4911247 0.047658794 0.4668429 0.20407255 0.15609255 -0.11891195 0.17677918 -0.36929673
DKW 0.17310545 0.2103877 0.05862529 0.09074255 -0.09784774 -0.15144044 0.19862069 -0.16102076 -0.2660768 -0.5491053 -0.20200473 -0.2692845 0.018555388 0.093807206 0.2152165 0.12822549 0.25046355 -0.03906934 0.03354852 -0.14574541 0.35134014 0.2817167 -0.007872954 -0.06684819 0.2514261 0.05642852 0.275899 0.24160846 -0.15204565 0.032275956 0.17342767 -0.08770128 0.27169782 -0.24113998 -0.15117478 0.33944067 -0.083731785 -0.15065852 -0.06454508 0.19514602 0.02027311 -0.13411638 0.1270861 0.16846685 -0.02845604 -0.13423012 -0.2745285 0.035122916 -0.077707626 0.07771665 0.3173021 -0.19738698 -0.35956538 0.045597002 -0.124154 0.06768075 -0.09037405 -0.042438854 0.040955596 -0.047619384 -0.1411436 0.06204129 0.44123188 0.0041589914 -0.06291228 0.17124876 -0.038402803 -0.0326791 -0.23801324 0.22144505 -0.1131333 0.10129276 -0.026652869 0.025949156 0.32113147 0.16748706 -0.11869684 0.0017550602 -0.28113168 0.15694733 -0.025235325 -0.1257669 -0.58062035 0.255853 0.04042427 0.16183798 0.20392345 0.29487482 0.037285496 -0.16875266 0.1524573 -0.09577338 0.15914112 0.2707467 0.19427371 0.17980003 0.34216455 0.27696362 -0.17302522 0.0625574
QNN 0.1392058 -0.28446108 0.2361964 0.23569748 0.15789126 -0.017858835 0.010110754 0.03697248 0.00890879 -0.09847577 0.09749099 0.30568606 0.38571787 0.12681244 0.2372379 0.07202678 -0.0964167 -0.39029503 0.09771592 -0.5463516 0.16665705 -0.23281315 0.5213397 -0.2619008 -0.09513097 0.023525147 0.023378177 0.12472769 -0.04736733 -0.22745055 0.25601453 0.10046564 -0.036228318 0.031208314 0.34288865 0.101643786 0.21556833 0.09715403 0.06216994 -0.0072024628 0.10657867 -0.07678506 -0.12966691 -0.16616715 0.0035095722 0.08061809 -0.11095774 -0.10839318 0.32732594 0.07050894 0.38886172 -0.10204326 -0.07218548 -0.05560237 -0.09004775 -0.11470381 0.17628478 -0.21326427 -0.3046665 -0.19061539 0.32391846 -0.094284974 0.2854533 -0.02491566 -0.17144538 0.3365706 0.0035858944 -0.14714928 0.035742775 0.4999111 -0.40613392 0.030437274 0.27695987 0.4272775 0.27941433 0.055864383 0.17296994 -0.2412701 -0.03538014 0.15393467 -0.47478268 -0.04136654 -0.27436706 -0.004357035 -0.15033403 -0.25026524 0.10178283 0.29038256 0.15128838 -0.1144855 0.027644927 -0.19333068 0.56028634 -0.11803541 -0.09001459 0.34003413 -0.029248727 0.027681354 -0.20416144 -0.05520532
LQN 0.115555786 0.44588 0.4037683 0.21932106 0.12551667 -0.5008943 -0.21543892 -0.10583202 -0.0027568259 0.17551592 -0.08937866 0.2064473 -0.040122677 -0.11974029 0.25433764 0.102891155 -0.1374909 0.23471381 0.15821747 0.013711725 -0.20494197 0.3436395 -0.17134026 0.15257305 0.044180557 0.13999802 0.028049516 0.073308796 -0.1859729 -0.07150107 0.15179124 -0.041902922 0.5187378 0.055329993 -0.1322889 0.034607973 -0.21029177 0.1634873 -0.07534525 -0.36213753 0.18364537 -0.19903742 -0.2868699 0.03738568 0.12800226 0.34485716 -0.48662758 0.11661177 0.10056557 0.16123672 0.24397267 -0.23337452 0.094614625 -0.17895527 0.32471913 -0.10788015 -0.23692872 -0.28761405 -0.42113596 0.14473113 -0.06538667 0.043264706 -0.034162104 -0.3137067 0.009841286 0.18550931 -0.15508863 0.2791683 -0.51709527 -0.17875044 -0.0076944944 0.06896294 0.21149018 -0.14540152 0.14168952 0.22450057 0.099559106 0.105099216 0.07702306 -0.2368299 -0.56623405 0.28083435 -0.15300907 0.21891867 -0.19331102 0.14042613 0.25958505 0.13152792 0.38068298 0.09129665 0.05398968 0.23909707 -0.0086559495 0.15698561 -0.117286 0.06525487 -0.2961284 0.088089384 -0.0127776405 -0.062129248
KWY 0.28594857 -0.46468067 0.20807472 -0.45364803 -0.12495142 -0.38664222 0.15994078 0.44356385 0.053869747 0.2221221 -0.0171378 -0.33431873 0.10398373 0.07852487 0.11107352 0.067831956 0.04330097 0.113844156 0.052080896 -0.09795527 0.151609 0.11765108 0.49340558 -0.059345517 -0.38156512 0.13840413 -0.018162748 0.011540395 -0.08071848 -0.10314925 0.32844654 0.121189125 0.23126113 -0.020334547 0.24956203 0.26170176 0.12099326 0.044989485 -0.4966165 0.09219192 0.20667389 0.039188012 -0.07373517 0.5588762 0.16836838 -0.08591635 -0.16873237 -0.18224709 -0.23426527 -0.14421949 0.111745276 -0.025518307 0.24162742 0.008064402 -0.037833046 0.031727824 -0.028894277 0.16029759 -0.38033646 -0.19608991 0.12608127 -0.0087876525 -0.06315515 0.04653992 0.052162487 0.16166933 0.1871437 0.3821644 -0.22005992 0.2588848 -0.27378446 -0.013736083 0.13670681 -0.23971777 0.4041313 0.3417289 -0.1393885 -0.06392665 0.25902253 0.11419733 -0.38143155 0.10213101 0.15741347 -0.072575584 -0.2752496 0.1255414 -0.08020825 -0.23852794 0.0036745549 -0.027610375 0.09673583 0.10815808 0.12791929 0.21529578 -0.19069667 -0.14519624 0.07484424 0.24703777 -0.337541 0.08506254
AMK 0.17020656 -0.41384268 0.065470375 -0.43382266 0.28200382 -0.16851452 0.09693435 0.1652222 -0.20597966 0.29082415 0.07168178 -0.15574183 -0.13427323 0.15664634 0.08079501 0.11131748 -0.07813441 -0.41473138 0.10622312 -0.38015723 0.08527639 0.42951643 0.6015551 -0.27097812 -0.22201012 0.07704744 -0.06022379 -0.18240477 -0.049791664 -0.09358918 0.21577999 0.06784384 0.18520337 -0.048561286 0.32851508 0.25177065 0.12431219 0.08697855 -0.59505343 0.011472784 0.21490666 -0.11927189 0.22721285 0.17866966 0.018992761 0.07717982 -0.38869038 -0.03287535 -0.31185168 -0.18957816 0.12130356 -0.0574656 0.18030326 0.093038656 -0.15895927 0.13255389 -0.22604631 -0.103770345 -0.17466375 -0.024805212 0.07970193 -0.19361487 0.061874576 0.13552272 0.078089416 -0.19817935 0.12705176 0.10524901 -0.25364232 0.10408619 -0.26779863 -0.17021425 0.26691127 -0.3431634 -0.10298441 0.115605615 -0.112300605 0.060758527 0.11408216 0.1773381 -0.44831866 0.17805871 0.15967268 0.20291413 -0.47061527 0.121360786 0.114974245 0.056223553 -0.23268074 -0.30098552 0.17866956 0.31049076 0.061444126 -0.08197719 -0.32748553 -0.020168394 0.10773558 0.14941978 -0.09597534 -0.06194488
YYV 0.10307467 0.16503961 -0.09341593 0.18935499 -0.20287736 0.050911732 0.20674545 0.10444159 -0.15389788 -0.32254863 0.21681505 -0.19287945 0.120477155 0.12206818 0.29310188 0.24897073 0.18698052 0.02043478 0.1752087 -0.30742756 0.18938392 0.39923826 -0.15136115 -0.23755798 0.06133076 0.19809982 0.09220966 0.096495956 0.01802395 -0.2834863 0.22130784 0.1553676 0.25699383 -0.4164588 -0.19221917 0.20945615 -0.0019413276 -0.109908916 -0.139152 0.04779592 0.39204332 -0.21638694 -0.012327117 0.12747204 -0.09593536 -0.0129760625 -0.3492402 -0.15004386 0.018965732 -0.06921637 -0.008809346 0.06430526 -0.31193617 0.06230562 -0.43352628 0.04933129 -0.08858284 0.159994 0.13957874 0.25600138 -0.15969177 0.022539994 0.21665089 0.35474774 0.03897796 0.3454074 -0.12869486 -0.047013838 -0.516694 0.33768678 -0.25252885 0.056896646 -0.038973793 0.036786776 0.2301082 0.15263999 -0.021546189 0.12556449 -0.19986156 -0.032898575 -0.10381605 -0.15215191 -0.5793694 0.20536211 0.30754992 -0.06707358 0.3895622 0.20562287 0.05650198 0.29794553 -0.16957785 0.026139703 0.06527909 0.08937903 -0.08598504 0.22680147 0.35598078 0.048774153 -0.22818361 -0.25646916
XXX 0.4473464 -0.23387575 0.4601376 -0.35301217 -0.42592978 0.025302866 -0.03141288 -0.95334244 -0.093238585 -0.19964659 0.25071055 -0.43162102 -0.046911556 0.20268588 -0.0042984183 -0.2697949 0.24804056 -0.32147986 0.056066297 0.08972694 -0.26647678 0.42776152 0.41019243 0.09511202 -0.9954731 -0.22370651 0.44883373 -0.8260877 0.41462725 -0.50449467 0.11009956 -0.14768027 0.3456066 0.8673827 -0.4924325 -0.68828315 -0.25098047 0.31945845 0.5746787 -0.018878968 0.32875898 -0.20538864 -0.5027365 -0.21994632 0.08416664 -0.4412397 0.10262779 -0.6710746 -0.5300241 -0.07235793 0.09255894 0.315076 0.085341625 -0.16704696 -0.09308466 -0.096838035 0.273602 0.03313359 -0.1852297 -0.9353693 -0.11531229 -0.47623974 0.2817583 0.59131104 -0.46421897 -0.14867054 -0.124138236 -0.2741601 0.07307585 0.013616251 -0.16127501 0.40697747 0.20077759 0.2209143 0.1774106 0.19394517 0.09148594 0.023958502 -0.35190204 0.3430277 -0.065165006 0.22276956 0.3704207 0.084272325 0.21111456 0.71160555 -0.4278217 0.4113249 -0.18559673 0.2592396 -0.25337416 0.2705033 0.39623022 -0.488842 0.07672407 0.11022775 0.19797948 0.02968451 0.00075578736 -0.12003926
NNG 0.2902559 0.3321315 -0.090091765 -0.108686626 0.2155937 -0.26048517 0.33666322 -0.044894714 -0.15294185 0.19041608 0.3365815 -0.11915856 0.11278045 0.39901367 0.07349191 -0.14378016 0.040787686 0.2574477 -0.35325712 -0.6072487 0.28724518 0.18838896 -0.06606979 0.26622432 -0.111127734 -0.19407272 0.23090902 -0.13776964 0.3455592 -0.30199492 0.15605463 0.025747336 -0.23737139 0.24185564 0.20065595 0.38160083 -0.016919717 -0.033976246 -0.02578542 -0.0685326 0.26863408 -0.19018324 -0.0075045805 0.31682226 0.26132953 -0.17105205 -0.14241664 -0.17987955 -0.120090805 -0.15958098 0.29978508 0.35450402 0.14941652 0.21041095 0.10843819 0.28291205 -0.20063671 0.107971 -0.04203055 -0.104137324 -0.017309427 -0.10440961 -0.28263772 -0.289822 0.3781509 -0.10446121 0.50886613 0.16403078 0.07771917 -0.119905695 -0.11212113 -0.14933252 0.055232845 -0.024146175 0.22346234 0.37207288 0.025263619 -0.065497704 0.18398438 0.089633964 0.03593571 0.108774506 -0.04345541 0.2948134 -0.3523139 -0.113875724 0.22567719 0.3116498 0.072012775 0.2966537 -0.072897986 0.11502575 -0.011550224 -0.15797956 0.3389102 0.21638726 0.3531854 0.1464847 0.13459213 0.07822693
YVN 0.40898138 -0.40542063 0.11924333 -0.2278679 0.16464187 -0.3743614 0.018988395 0.09993102 -0.21765248 0.18560894 0.10176855 -0.200724 -0.2014452 0.17849873 0.056859013 0.29022574 -0.16422239 -0.23991895 -0.084357075 -0.3481874 0.15648891 0.16943541 0.6215266 0.15925561 -0.31669983 -0.044424802 -0.039130587 -0.09269417 -0.24613677 0.04357247 0.058183894 0.3245804 0.3334113 0.039163865 0.5169714 0.23529099 0.07241288 -0.15145981 -0.3119736 -0.010485272 0.27575016 -0.015045206 0.07026187 0.36781088 0.2349723 0.18358064 -0.25827062 -0.29633656 -0.073650636 -0.11990159 -0.04849154 -0.1369068 0.40301168 -0.027365888 0.1418208 -0.055188134 -0.17776428 0.006711229 -0.12261477 -0.24105708 -0.01584497 0.027627653 -0.09984728 0.15419234 0.01853506 -0.094955444 0.30534223 0.16299768 -0.38518962 0.19875371 -0.022029247 -0.19025466 0.12280542 -0.34943333 0.1765261 0.34386915 0.10679134 -0.16274449 0.0015688039 -0.27839172 -0.24806945 -0.030525722 0.027514942 -0.024459194 -0.36698118 0.17572111 -0.04013638 0.10995883 -0.1484086 -0.22676674 0.1605548 0.0073444685 -0.18577018 0.0470786 -0.15857375 -0.072389856 0.2374699 -0.052597493 -0.38342124 -0.08149575
LNS 0.29680875 0.28455663 0.13414381 -0.04264202 0.6680422 -0.1520594 0.13544327 0.0040776497 -0.02000838 0.27000463 -0.296008 -0.11671794 0.14855632 -0.048558578 0.41884276 -0.05730911 -0.2567953 0.38494033 -0.24601714 -0.07797706 0.12474358 0.14037922 0.1882383 0.27177164 0.029622164 0.26720408 -0.11244816 -0.40015155 -0.06890774 0.10083266 -0.049808346 -0.30453822 0.29363015 0.16485888 0.08309731 -0.030211065 0.030004831 -0.13867265 -0.27178633 0.033528514 0.12095576 -0.11191855 -0.28946272 0.3042836 -0.108231194 0.10925162 -0.1678086 -0.06492906 -0.28741667 -0.16291022 -0.012643778 0.05506734 0.04484244 0.07495397 -0.34429133 0.021879585 -0.24999985 -0.033511087 -0.03673742 -0.2554899 -0.023938555 0.2486501 -0.033705648 -0.014568585 0.12542479 0.0857364 -0.031886518 0.16490664 -0.03998178 -0.076782964 -0.2067632 0.0033857108 0.29961276 0.034700174 -0.0014465374 -0.073778845 0.20844382 -0.11344925 0.1474909 -0.10621663 -0.355576 0.050951466 -0.018832825 -0.2640557 -0.2261624 -0.1360028 0.03757878 0.2619794 0.39144644 -0.32656318 0.04064583 0.29075545 -0.21575919 0.16663234 0.14446518 0.0888725 0.14056785 0.30140388 -0.07101127 -0.008588191
NGL -0.27512246 0.14888059 -0.013518836 -0.2652089 -0.024308706 -0.3523578 0.22756097 -0.1579008 0.0380952 -0.105529964 -0.17847261 0.16519405 -0.30437657 0.0029024193 0.14036499 -0.26768348 0.066058524 0.18893118 -0.12253507 0.057316795 0.27081314 0.1366763 -0.15090317 -0.1704227 0.080182865 0.063994616 -0.3024732 -0.23428278 -0.04752345 -0.3566388 0.3077326 0.3136927 0.18333156 -0.04271422 0.007534213 0.293572 0.33498684 -0.19868565 -0.3756261 -0.12758179 0.16559923 0.0054559787 -0.44625232 0.17303103 -0.07439786 -0.057609234 -0.19189999 -0.12206706 0.03796955 0.01576232 0.17769842 -0.0875429 -0.25524187 0.1640269 -0.24588981 0.4345202 -0.19384286 -0.27785775 -0.015232412 -0.11959227 0.14199516 0.29619572 0.3363936 -0.00024339843 0.09740925 0.08082066 0.2079052 0.033458855 -0.5247088 0.37533483 -0.097922795 0.3121169 -0.1830838 0.13930427 -0.09456305 0.2086931 0.16130742 0.14915411 -0.5371242 -0.05154347 0.19639875 -0.31751955 -0.31930393 0.34915 -0.48748702 -0.03146523 0.11937275 0.042486023 0.08259611 -0.18449435 0.05579833 0.04890612 -0.026456492 -0.14425376 -0.1393941 0.18698144 0.4563375 0.22869852 -0.12694538 0.22972168
KAS 0.031193795 -0.13666576 0.18382491 0.13963197 -0.21893908 -0.16652246 0.20204306 -0.13103046 -0.15371777 -0.1546614 -0.067105696 -0.23657861 0.14896995 0.15886422 0.06914429 -0.08262001 0.19268526 -0.03591763 0.028072637 -0.1308853 0.2947206 0.5378723 0.07463725 -0.14293404 0.13145527 0.23369943 0.25475606 0.11326992 0.072186895 -0.1829821 -0.1197993 0.18300202 0.19230065 -0.23477651 -0.23459098 0.12429793 0.18336049 -0.15685393 -0.19196525 -0.06740756 0.16979466 0.045079947 0.1011701 0.07212802 0.29973185 -0.046698213 -0.2506562 -0.20810172 -0.041776057 -0.32217634 0.08023209 -0.0048972866 -0.49258018 0.023562025 0.04054197 0.19041742 0.06562772 -0.08223846 -0.10447899 -0.062322218 -0.3762482 0.2640951 0.17010981 0.2530941 -0.13414143 0.47369793 -0.01606739 -0.2526671 -0.25218943 0.095218375 -0.2945285 0.1533242 0.32795098 -0.09993245 0.07839637 0.033571035 0.3305513 -0.12884282 -0.07459512 0.015197671 0.039615832 0.11345801 -0.27393404 0.42220002 -0.049659815 -0.13409573 0.32517514 0.52638817 0.18269369 0.029522745 -0.2287938 -0.019543892 -0.007084517 0.049492028 0.04219914 -0.059395306 0.32352096 0.30011663 0.20914017 -0.080525294
ASQ 0.39550346 -0.5179143 0.14191653 -0.26955983 -0.019673154 -0.32743666 0.13658017 -0.15457018 -0.11944729 0.21172594 0.3180723 -0.15086883 0.37756515 0.29849765 -0.08181353 0.03021697 -0.0045893583 -0.120939046 0.04283925 -0.38405877 0.22774321 0.15861718 0.4672625 0.1680642 -0.5902601 0.09255959 0.21621937 0.12890252 -0.0941239 -0.03367565 0.21279576 0.17144962 0.4095924 -0.11680294 0.024358146 -0.06632361 0.3375587 -0.32344308 -0.30217877 0.06827953 0.037491355 0.1575691 -0.0054648276 0.117905885 0.13063733 0.13000199 -0.37320596 0.07813686 0.078660086 -0.08594713 0.3002928 -0.03698944 0.24239264 -0.33492604 -0.041929316 0.056504305 -0.45860118 0.08950659 -0.3113585 -0.17228273 -0.2996277 -0.41085893 -0.02067328 0.32441422 0.23018509 0.05613138 0.18163833 0.0013186313 -0.5443374 -0.13392915 -0.21837647 0.08462146 0.19543353 -0.21473911 0.23574322 0.27861717 -0.19504657 -0.04275629 0.0027641144 0.02766574 -0.13624652 0.19902046 0.2418676 0.2746288 -0.51613796 -0.045550924 -0.0025148317 -0.008362423 -0.053704176 -0.27208802 -0.0029867466 -0.02633645 0.051772393 0.313655 -0.19895658 0.2072716 -0.113143556 -0.036823127 -0.4179574 -0.1182225
SQW 0.12326255 -0.1348759 0.13934748 0.20724417 0.21483514 -0.019228192 0.06290361 -0.12727961 -0.17660591 0.2809122 -0.074812815 -0.25450313 0.40970612 0.44717106 0.107490845 -0.24450958 0.1021723 -0.2654902 -0.045168243 -0.041585054 0.14486143 -0.035530403 0.38812333 0.044818252 -0.122509785 0.11159989 0.3005901 0.019665804 0.17637466 -0.25526312 -0.29596123 -0.19979998 0.10804077 -0.40369052 -0.08342956 -0.1568177 -0.025172515 -0.21707453 -0.061404634 -0.103009425 0.2880561 -0.0071358457 -0.32059035 0.3282282 0.27827695 0.048223022 0.08499853 -0.3674037 0.27836215 -0.10525322 0.39412507 0.25291964 -0.21761772 -0.16866054 -0.30980664 -0.0756704 -0.13530073 0.015713533 0.118741296 0.2640832 0.17405896 -0.24728246 0.13763349 -0.1921721 -0.08937653 0.12322792 0.07365976 0.14977013 -0.045820784 0.26079068 -0.022668323 0.009519387 -0.06957668 -0.3306222 -0.076677874 0.3314648 0.009109628 0.29774162 -0.039180316 0.14192954 -0.19944805 0.19189353 -0.104164146 -0.07834864 -0.6158264 -0.057616893 -0.09615441 0.2193655 0.32073838 -0.022026617 0.32899794 0.20866631 -0.21145397 0.16284423 0.17527261 -0.28956392 0.07185137 -0.22327471 0.22412084 -0.22743636
KQE -0.0491941 0.2032833 0.31277314 0.051232327 0.019910235 -0.15795119 0.023727983 0.10573647 -0.024933187 -0.61009717 0.15674764 -0.060447752 0.16133094 0.04359942 0.3299661 0.0535109 -0.05009743 -0.08432728 0.31698054 -0.6205143 0.0060941684 -0.12116024 0.2041092 -0.5153479 -0.06178356 -0.16239187 -0.044908058 0.21680683 -0.058389723 -0.11389269 0.3649484 -0.24557813 0.023172202 0.053280782 0.21652558 -0.1461382 -0.0814439 -0.084171794 0.27103078 -0.27521604 -0.33198103 -0.075900234 -0.017666444 0.16545676 0.11597108 0.24112366 -0.19533949 -0.030787667 -0.10392232 0.01136171 0.30675685 0.09956495 -0.0018530978 0.13032024 -0.070459 0.26723143 -0.18041618 -0.48677874 -0.21418524 0.011333274 0.32748678 -0.05892724 -0.054039244 0.39290085 -0.08715883 0.33056217 0.40541786 -0.015157244 -0.17910329 0.2858115 -0.20180333 0.32475123 0.33873564 0.109647654 0.042787258 0.27909592 0.0691826 -0.06216426 0.026098182 0.089167506 -0.328645 0.0025881063 0.016278436 -0.31835112 -0.122191645 -0.37136653 -0.145255 0.32983905 -0.100188516 -0.0983837 -0.06897272 -0.015474028 0.35125375 0.003555694 0.15018705 -0.12958747 0.36274356 -0.23214968 -0.03502252 -0.21018717
QEN -0.006409097 0.671053 0.110583454 0.028391618 -0.15484676 -0.5820461 -0.024770085 0.017671384 -0.2464689 -0.0019231909 0.12471973 0.118261084 0.09169152 0.26427722 0.19367984 0.038263876 0.3107739 0.07392056 -0.0120858075 -0.46615797 0.2510259 -0.19944924 0.014883707 0.32065794 -0.1596182 -0.055284426 0.19014803 -0.0019087179 0.4137229 -0.33128047 0.22998092 0.06754268 0.3929757 0.034618553 0.14114869 0.21491073 0.30109635 -0.46234682 -0.5324286 0.06180777 0.3163434 -0.23946291 -0.041235577 0.3728493 0.075511895 0.10423656 -0.3694613 -0.40121782 -0.17798308 -0.21580298 -0.103779115 -0.10523898 0.3058527 0.3824996 -0.100025184 0.19655895 0.20869623 0.13177475 -0.05099927 -0.09254295 0.0050326413 -0.2385748 -0.354031 0.09823808 0.1719459 -0.147073 0.31732774 -0.24038693 0.38463357 0.12301137 -0.018820537 -0.007146432 0.44089285 0.1700374 -0.067513056 0.27652988 -0.187324 -0.026329665 -0.0566475 0.13497998 -0.033043988 0.08795729 -0.19203548 -0.05184745 -0.5092996 0.14418197 -0.0870252 0.15511853 -0.08811566 0.103215694 0.36791003 0.16286378 0.1263034 -0.14743108 0.2490818 0.12165932 -0.045288753 0.46888196 0.16858177 0.22582807
GWK 0.37054464 0.35778394 0.08975263 -0.090553656 0.09116389 -0.32275447 0.3122366 0.1997963 -0.11561665 -0.056787312 0.14721508 -0.112841636 -0.17660455 0.04168617 0.39577752 -0.032995153 0.09244646 0.10913408 -0.12420315 -0.48260376 0.07662149 0.09419913 0.4763874 -0.039962284 -0.2085068 -0.5407369 0.20009303 -0.10629829 0.3739539 -0.051966492 0.27898902 0.15163109 0.09219001 0.042419463 0.45775607 0.31308895 0.067254916 -0.2077094 -0.3078322 -0.2256292 0.03796954 -0.14885186 -0.42556107 0.32018104 0.14334108 0.03124485 -0.4592505 -0.28256223 0.1588645 -0.047859192 -0.031097803 0.27696636 0.25518942 0.49880028 -0.23011841 0.31074107 0.36803585 -0.2967173 0.111845165 0.037125908 -0.3752371 -0.09823545 -0.11410265 -0.058049396 0.20446238 0.01043417 0.031765692 0.025424387 -0.03320754 0.23542058 0.16780275 -0.07848945 -0.17964874 0.26814368 0.4165647 0.0001797968 0.02917835 0.12603217 -0.11065541 0.1146918 0.053478833 0.123033084 0.15322326 0.2963269 -0.48871335 0.03898959 0.07149182 0.043043666 0.09846844 -0.04623027 -0.23677653 0.10603057 0.04956488 -0.09311456 0.514842 -0.06604707 -0.18924385 0.49655348 0.33915433 0.0057447106
WYF 0.22393572 -0.14681378 0.049924448 0.33340394 0.002835222 -0.13610291 0.04577969 0.27353618 0.25426412 -0.50532496 -0.33074117 0.08363514 0.37842563 0.4781251 0.08389722 -0.0029776432 0.100979626 -0.037777003 0.25624993 -0.3457103 -0.06457515 -0.13556123 0.3063136 -0.05900575 -0.19636837 0.058756765 -0.019250814 -0.093771406 -0.10852988 -0.12381408 0.4749214 0.21013692 0.0456716 0.36415836 0.0021558634 -0.02408475 0.14286543 -0.004130899 -0.11991568 0.106292754 -0.16245967 -0.32530603 -0.15892348 -0.10350773 -0.1245342 -0.34866938 -0.43314198 -0.05720354 -0.048874762 -0.29115918 0.32565537 -0.004910904 -0.04863361 0.016686648 -0.07356318 -0.19839872 0.22647735 -0.6811789 0.0808062 0.43779755 0.46971244 -0.006062949 -0.122458674 0.3384328 -0.15021178 -0.10463974 0.14567785 -0.11290496 -0.0653017 0.352489 0.20826367 0.08362089 0.4115416 0.11138872 0.26359788 0.18385273 0.1254303 -0.044346575 0.15514746 -0.028518707 -0.15967624 0.016614562 -0.072856486 0.031085752 -0.24278584 0.07263396 0.28648958 0.37488505 0.061108418 -0.111587845 -0.108749785 0.093732364 0.32835263 0.064467154 -0.011108485 0.19469541 0.29187706 -0.1231757 -0.28799137 -0.21955921
MWY -0.21450773 0.23130302 -0.0027075608 -0.088144034 0.28989583 -0.14064984 0.34402695 0.4118766 0.029104237 -0.08750588 0.07525305 0.09184021 -0.09492186 -0.02806729 0.37744293 -0.15302642 -0.24277791 -0.031830683 0.26866046 -0.31397903 -0.12384485 0.18200433 0.18370605 0.014402335 -0.09647789 0.20826973 -0.10952542 0.05471819 -0.2187974 -0.47400102 -0.35268176 -0.31362638 0.4520708 0.2600744 -0.112127244 -0.001121205 -0.26828197 -0.47497013 -0.16078755 -0.16834785 0.28516677 -0.23614034 -0.47639695 -0.025194414 -0.20771831 0.5705899 -0.23405887 0.23664056 0.19120595 0.16682708 0.062001396 -0.22705647 0.17270939 -0.026989961 0.028349128 -0.054906882 -0.26100847 -0.071308434 0.059614334 0.028220404 -0.049037166 0.07682759 -0.32129773 -0.29175502 -0.34457627 -0.11380824 -0.28132862 0.3344332 -0.2766246 -0.3941735 0.13890861 0.050020035 0.33195832 0.055930737 0.33609527 0.24800143 0.20018953 -0.11017044 -0.082180046 -0.30597743 -0.16448687 0.2502901 0.030176952 0.1267744 -0.37353152 0.11258336 0.07352442 0.17036943 0.3511699 0.15151794 0.0075315195 0.14628199 0.27053565 0.28782168 0.16930944 -0.16453993 0.15133877 0.29636985 -0.22972444 0.1809602
WKQ 0.047570474 0.30654088 0.25578138 0.36059415 0.5633938 0.07335195 -0.0220821 0.22877768 0.14735596 -0.05796648 0.10097482 0.07763035 0.2908677 -0.0483041 0.35159904 -0.06629551 0.013854303 0.107722305 -0.12252246 -0.27040175 -0.2848928 0.15021122 0.13301794 -0.2789325 0.17071639 0.13409364 -0.38079187 0.019199597 -0.12174232 -0.36380884 -0.12011911 -0.28321552 0.25337082 0.1445226 -0.21688844 2.0196603e-07 -0.3196175 -0.06872037 -0.2792479 -0.51406544 0.045264613 -0.18560024 -0.2374322 -0.046837736 -0.0002166562 -0.19047612 -0.47955084 0.13193613 0.024932774 -0.176981 -0.030351568 -0.18706265 0.40765005 -0.24164891 0.26041418 0.0056203897 -0.2958751 -0.04980883 -0.29476863 -0.31182662 -0.43132383 0.14045678 -0.14805882 -0.039781757 0.22178216 -0.047089424 -0.004222855 0.28862798 -0.1584278 0.30919853 -0.007008837 0.34750456 0.010703949 0.042051975 0.1706368 0.3757782 0.09762735 0.08496296 -0.0041240244 -0.44164985 -0.19155477 0.32519865 -0.04991234 0.17834751 -0.28617755 0.4313434 -0.24176106 0.21697234 0.31676129 0.054478284 0.40332437 0.17487898 -0.1644342 0.23767097 0.11351378 -0.065853715 -0.14704445 0.22948706 -0.04599143 0.03739636
NGM 0.23509948 -0.1855771 0.37110695 0.008219895 -0.029689014 -0.034765564 -0.0168336 0.25606632 0.060246162 -0.1682593 -0.13884936 -0.13465321 0.33948928 0.16626865 0.2766153 -0.12527126 -0.28313348 -0.13010569 0.2758383 -0.5580669 0.036529 -0.046428636 0.15228757 0.03353724 0.35609242 0.16610382 0.0699636 0.22096342 -0.12543942 -0.45616424 0.33708486 -0.07305254 0.11766554 0.09528659 0.40603054 0.2753443 0.17993675 0.0131606525 -0.0016217253 0.21179752 -0.00442294 -0.40314725 -0.31919742 -0.0914488 0.18627307 -0.38141078 -0.32005817 0.20245841 0.14792426 -0.0011334469 0.41642994 -0.045636136 0.38791594 -0.04269571 -0.21340665 -0.1261314 0.28338745 -0.3494425 -0.040879346 -0.22856322 0.0944568 -0.051377255 0.16949373 0.28029233 0.03328051 0.17400134 0.009286281 -0.024679368 -0.10396868 0.14028913 -0.06188205 0.21985058 0.41696757 0.23687175 -0.07657838 0.21129651 -0.04329201 -0.146431 -0.21620466 -0.045415457 -0.057776503 -0.44391793 -0.25234145 -0.02974261 -0.2216154 -0.15113498 0.030546637 0.25870585 -0.1059142 0.06039942 -0.12530068 0.034605123 0.43154356 -0.032288533 -0.061683662 -0.3056511 0.10827182 -0.4568069 0.20606007 -0.18523744
GMW 0.09419845 -0.13565363 -0.17965814 -0.08164279 -0.1606918 -0.409536 0.0052706217 0.15915547 -0.35503775 0.20488298 0.24474087 -0.009930823 0.10068585 0.2977647 0.39437553 -0.20073014 -0.08207498 0.07810589 -0.109040245 -0.24471548 0.348047 -0.042762663 0.04995034 0.39215362 -0.23767139 -0.29630283 -0.028875073 -0.15077686 0.24415584 -0.32103586 0.5500016 0.018492403 0.44812512 0.011852202 0.20218115 0.33880723 -0.13328828 -0.028591571 -0.12208474 -0.29349697 -0.03170011 -0.2982452 0.17893997 0.42436516 0.16764255 -0.17335087 -0.30364698 0.02562665 -0.10898001 -0.012748662 0.022902029 0.24780504 0.30732664 0.3199022 -0.32577524 0.29037315 -0.031167014 -0.31452855 0.19392666 -0.14193279 0.080927856 0.03151988 -0.1438996 -0.1813206 0.2680803 -0.22620632 0.4343049 -0.23969948 0.082905106 0.12278097 -0.20143558 -0.06880139 0.21964441 -0.054852296 0.27673575 -0.11862183 0.09841146 -0.21002981 -0.48829675 0.011253596 -0.021993982 0.58743244 -0.3095722 0.048424326 -0.39781865 0.15255934 0.015775844 0.1093299 0.35020015 0.28529668 0.07358837 0.25823963 -0.025633924 -0.19225764 0.5040831 -0.20618497 -0.05349353 0.358425 -0.006705874 0.28797865
YFY 0.15539421 0.3985113 -0.103796765 0.25630525 0.12854879 -0.30976927 0.024999946 0.031033482 -0.25333038 -0.04221941 0.07241852 -0.25815448 0.0044571687 0.17438948 -0.089970626 -0.35231414 0.06779289 -0.1312371 -0.23127913 -0.29494163 -0.038786612 0.1886055 0.17842528 0.14311385 -0.12696499 -0.42047 -0.0073107225 -0.16457047 0.17638639 -0.3175312 0.3090758 0.2728826 0.18460248 0.33486375 0.11981897 0.44384468 0.12739535 -0.19515766 -0.6768923 0.16758542 0.4119005 -0.31002656 -0.0021849484 0.67351407 0.38996333 0.010738924 0.029021468 0.23316784 0.11001658 -0.35260463 -0.05831235 -0.102842815 0.20839499 0.38987702 -0.2548753 0.064992584 -0.29758927 -0.5331098 0.106261745 -0.05722225 -0.12488094 -0.14312781 -0.008238141 -0.15218428 0.24168716 0.11246536 0.2447218 -0.07870844 0.117510565 0.011867677 -0.18401696 0.11802368 0.21774904 0.09080837 0.402631 0.21066546 -0.04459672 0.04866936 -0.1946259 0.16158554 -0.22904697 0.32157266 0.1723595 -0.026298199 -0.38619184 -0.100987405 -0.30553275 0.116185404 -0.1946126 0.5048391 -0.13639186 -0.116415285 -0.03252438 -0.34321034 0.5184371 0.07876708 0.01942388 0.40573078 0.13606977 0.19310343
FYN -0.027871473 0.35866 0.4381625 0.04696429 0.3186973 -0.071386196 0.09949329 0.22040765 0.19092229 0.13690741 0.009527651 0.23659405 -0.11718159 -0.17144275 0.24986461 -0.0064517674 0.16457365 -0.28052762 0.2145219 -0.21268174 -0.24314107 0.26082546 -0.26861882 0.17182678 0.21368778 0.25902987 -0.11949034 0.1715669 -0.16191325 -0.12685513 0.07436566 0.110958576 0.5341725 0.54409796 -0.14334843 0.02871421 -0.21753366 0.058108374 0.047700364 -0.26830968 0.1695423 -0.2036229 -0.123899706 0.31740442 0.16028118 0.040069774 -0.26648936 -0.17231724 0.0025952926 -0.10829333 0.0068214573 -0.24634543 0.31299114 -0.049289577 -0.10718025 0.137288 -0.32650533 -0.034159128 0.08026226 -0.015499559 -0.04159827 0.14210474 0.25579196 -0.0038183704 -0.096035264 -0.16627845 -0.18880787 0.25043043 -0.5298145 0.0707891 -0.077207714 -0.15376998 0.28055263 -0.11741878 0.51361793 0.03512267 -0.04381509 -0.110208474 0.074009776 -0.41045457 0.07777732 0.15433054 0.34428957 0.038470224 -0.4170601 -0.30774367 -0.21939336 0.24450234 0.63266176 0.06317026 0.32560787 0.27935287 0.23953651 0.51541656 0.21246828 0.20947534 -0.13098755 0.061674483 0.20125014 -0.02298372
YNT 0.050896104 -0.02822738 0.36918402 0.18753213 -0.1112085 0.07436284 -0.11129971 0.5143195 -0.069871694 -0.23873411 -0.04759059 0.04073082 -0.007936855 0.2546092 0.20701118 -0.19610894 0.03328792 -0.121269874 0.44992456 -0.7054255 0.009189649 -0.25904232 0.31849694 -0.25082716 0.084473826 -0.06595667 0.28535607 -0.12244569 -0.08661266 -0.0058585415 0.55777514 0.17159769 -0.12322298 -0.07812545 -0.004821952 -0.26758057 0.03607824 0.03512865 0.010803209 -0.093106434 -0.05494946 -0.29927397 -0.0862788 0.3038574 0.09486663 -0.020662988 -0.29918295 0.312253 0.014562062 -0.07291774 0.5136521 0.115189016 0.059432585 -0.09924732 -0.06435364 -0.11695873 -0.014248554 -0.16927662 -0.09783295 -0.22614151 0.4665125 0.17600861 0.0657821 0.23019521 -0.22748406 0.021162223 -0.3993541 0.1079395 -0.16234724 0.39395142 -0.3678527 0.30136046 0.4648995 0.3951191 0.24984011 0.25836524 -0.19245404 -0.21272953 -0.024066338 -0.10909091 0.04588621 -0.105462864 -0.11167504 0.09922146 -0.33640495 -0.00779073 0.17154834 0.3320298 -0.13711467 -0.254822 -0.05159535 0.037021168 -0.20147039 -0.49138018 0.05516392 0.16523989 0.19292264 -0.13394871 -0.06391328 -0.02567352
TDG -0.26912656 0.34162843 0.111974694 -0.0019041921 0.016760908 0.14411935 0.15348661 0.13404015 -0.12612988 0.082073785 -0.17655642 0.027740788 0.011383423 -0.0741471 -0.069528125 -0.19305712 0.14202332 0.16604817 -0.11717556 -0.29353142 -0.12212022 0.42701715 -0.0359627 0.14734182 -0.19679844 -0.087733716 -0.20889735 0.22169885 -0.32147923 -0.130787 -0.28378946 -0.36370382 0.39005354 0.28705284 0.1696712 0.0029428864 -0.19957022 0.19334003 -0.08234686 -0.2729628 0.113435104 -0.45997724 -0.4097326 -0.0009033124 -0.23892981 0.3430854 -0.40753862 -0.31826848 -0.10302314 0.060019866 0.030190796 -0.42785674 0.6178827 0.13418826 0.1247331 -0.28164902 -0.28182983 -0.39778516 -0.11449058 0.009972549 0.028106404 0.2615902 0.035785392 -0.038264994 0.19895022 0.022618657 -0.45972228 0.19101606 -0.17608406 0.15795766 -0.25828177 0.48784223 0.20763284 -0.16364315 0.09034695 0.4642502 -0.14533606 -0.051094614 0.00085353653 -0.48208052 -0.010819478 0.5938482 -0.16027336 0.21052167 -0.32314804 -0.164166 0.17686315 0.2516984 0.5317238 -0.04047622 0.1631734 -0.09996439 0.13648878 0.31761205 0.16908291 0.077719495 -0.2729736 0.13245794 -0.04896779 -0.09863201
NTD 0.0639995 0.14623883 0.13319643 -0.104432166 -0.055743415 -0.5983989 -0.11569211 -0.05644171 0.16744621 -0.0014275262 0.020179933 -0.07878115 -0.10127574 0.5102776 0.38070244 -0.09300166 0.30152363 -0.009764303 0.0064713415 -0.43853378 -0.15057422 0.33080855 -0.08914533 0.1990914 -0.19037886 -0.22947958 -0.038479876 -0.35089263 0.3596663 -0.16041502 0.28437462 -0.04433042 0.2636845 0.06433556 0.51651573 0.19461711 0.33182597 -0.60619473 -0.2848137 -0.20536503 -0.015966421 -0.4101507 -0.070151396 0.41376844 0.1750595 -0.22049898 -0.20975164 -0.07820671 0.22563139 0.08514564 -0.29156455 0.30978712 0.29584062 0.37075433 -0.07899731 0.14868228 0.18925023 -0.10325268 -0.054322015 0.014494793 -0.08530926 -0.3851769 0.29287267 -0.14638223 0.3236347 -0.43853322 0.24245723 -0.030015556 0.32094714 -0.1701344 -0.4261949 -0.047432344 0.062227488 0.14932837 0.5176398 0.44457716 -0.058598526 -0.13063954 -0.16032341 0.06957177 -0.24212046 0.42865402 -0.11073101 -0.0008121479 -0.5215975 -0.13547447 -0.04174548 0.29780492 -0.03352465 0.20438999 -0.20837505 -0.02920115 -0.5092276 -0.09649312 0.1840585 0.008911981 0.17690086 0.4178449 0.33018848 0.30787987
DGS -0.13221979 -0.3083977 -0.12804615 0.17418861 0.09687182 -0.14846653 -0.20998813 0.19728802 0.38805774 -0.19273975 0.038642317 -0.032526366 0.21305197 0.39141938 0.25701565 0.10914886 -0.15902314 -0.13716912 0.020811124 -0.29941392 0.117120706 -0.16178416 0.19374119 -0.03997671 0.45111477 -0.25991032 0.10555144 -0.059518002 0.24361202 -0.05851248 0.2564145 0.16714753 -0.061721515 -0.029544815 0.22202764 0.05374631 0.106189 -0.0068994598 0.20245965 -0.16614567 0.041680988 -0.18164943 -0.025042124 0.13433324 0.0019557409 0.008337589 -0.6495875 -0.09254038 -0.03888312 0.015294014 0.59084874 -0.42219386 0.022101216 0.3199493 -0.24926186 0.10292166 -0.048488375 -0.2902694 -0.14905557 -0.047308467 0.30760357 -0.20450619 0.1641828 0.40738985 -0.37123397 0.19268054 -0.20044436 0.19138405 0.0042909547 0.19557025 -0.1752884 0.619141 0.36528322 0.17490953 0.25777683 0.29767448 0.042758323 -0.20933157 -0.024371985 0.19205095 -0.18313281 -0.15020016 0.18803528 -0.0017928021 -0.42111683 0.019121755 0.07563703 0.39814222 -0.083052434 0.09442478 -0.13935733 0.22454514 0.43751463 -0.038912315 0.02635106 0.14861989 0.24483031 -0.3088998 -0.3373394 -0.27053273
NGE 0.42706624 -0.5390676 -0.18561907 -0.19410375 -0.06746641 -0.7116548 -0.6185826 0.13878664 0.13188416 0.2610072 -0.11058373 -0.1337807 0.23657691 -0.536775 -0.43642062 0.6104715 -0.01657584 -0.20183676 -0.29013148 -0.43726733 0.26841664 -0.07029213 0.16375063 0.21572311 -0.7341858 -0.018460756 -0.18796922 -0.9628613 -0.83731264 -0.077490926 -0.1858907 -0.55395126 0.15344654 0.13457356 0.30116034 0.6368129 -0.36205417 -0.06261751 -0.607623 -0.25813836 0.32436472 0.097936474 -0.34255973 0.44477373 0.6202734 0.038981017 -0.1187925 0.20419995 -0.027476164 0.31008533 -0.05096506 0.071508475 0.06630392 0.22406298 -0.034597084 0.31514695 -0.4960208 0.20620957 -0.28432035 -0.11009412 0.1735497 -0.1577743 -0.26673907 -0.26258877 0.09214629 -0.025382247 -0.3479115 -0.23048192 0.061372984 0.41730025 -0.022687266 -0.22285733 -0.019657454 -0.14614344 0.40595934 0.25918835 -0.28193283 0.33794406 0.45273328 0.07605969 0.2841229 -0.0017295397 -0.14516158 -0.10583378 -0.7049843 -0.11976475 0.0354627 -0.0072687794 -0.25176945 -0.123331584 0.13617328 0.6824894 0.06465872 0.20254178 -0.2079509 -0.15444025 0.2550626 0.17350236 0.065311834 -0.3228052
GEW -0.29034206 0.15573418 0.46758753 0.2056659 0.555023 -0.26082283 -0.17030798 0.5361456 0.024939256 0.002535054 -0.45527437 0.077603675 0.079069726 0.13810717 -0.122210234 0.046501886 -0.33603603 -0.20458165 -0.011189918 -0.2136239 -0.5273694 -0.38309002 0.11551911 0.51340854 -0.32532993 -0.1884037 -0.24864 -0.3961057 -0.4995399 -0.13201264 -0.30774748 -0.6772527 -0.20974438 -0.22492416 -0.12540211 -0.03467691 -0.04849898 0.03343704 0.12044503 -0.067028806 0.24853927 0.0017431305 -0.06501243 0.06847972 0.3895829 0.005536208 -0.2793482 0.10325195 0.33869818 0.2749057 -0.25005877 -0.20725979 -0.40705383 -0.046922024 -0.21265264 0.050625157 -0.035572425 -0.062742 -0.116376586 -0.42917502 0.2838196 -0.037707657 0.09735695 -0.21236151 -0.2329657 0.63479304 0.19816014 -0.4902629 0.09261468 0.40541786 0.015144726 0.024929682 -0.317084 -0.540698 0.14341773 0.088396505 -0.36815757 0.6175506 0.35253102 0.37392744 0.41522193 -0.12231493 -0.7039225 -0.0072436538 -0.23020507 -0.202223 0.38099352 0.049330175 0.49655887 0.29658574 0.044683836 0.42056137 -0.16230084 0.17788433 0.26239333 0.31015792 0.49188697 -0.13059226 0.122156546 -0.41210258
AVN -0.033410303 0.05080757 0.05933095 -0.10978805 0.200492 -0.42740285 0.20264137 0.006769446 -0.14215967 -0.25495037 -0.08249568 -0.7057735 -0.09890394 -0.13374402 -0.29833037 0.14549989 -0.19905786 0.07841023 0.24354878 -0.23053591 0.06381698 0.5615155 -0.1291454 0.061759174 0.049889877 0.1671711 0.19126618 0.13442631 -0.22228412 -0.120577894 0.5170535 0.22930662 -0.16102727 -0.51073974 -0.39189106 -0.04831461 0.03172397 -0.110895716 0.0413489 -0.03505552 0.20993003 -0.33421338 -0.28134838 0.11600432 0.13035409 -0.088169545 -0.31132996 -0.2688465 -0.07702665 -0.17390816 -0.24797729 -0.28036276 -0.37108645 0.03375477 -0.20914747 0.31231314 -0.1416034 -0.02288747 -0.08428305 0.20576406 -0.55088305 0.015288669 0.29456836 0.18888587 -0.1541051 -0.083437674 0.24029292 -0.3179493 -0.121897556 0.5378834 -0.0472603 0.18688208 -0.23979375 0.20768954 0.1588133 -0.0670543 -0.09443834 -0.44641933 -0.46430084 0.38548735 -0.015145586 -0.34464055 -0.5186967 0.1785024 -0.095396824 -0.19487882 0.40126246 0.3189486 0.27862152 -0.053315036 -0.06854443 -0.125195 0.19851673 -0.3614419 0.07361779 0.24799092 0.4592816 0.0014995283 -0.37811822 0.30113387
VNT 0.32872075 -0.58016527 -0.280746 -0.2969976 0.07602388 -0.5977997 -0.023967132 0.0656596 -0.11307914 0.468095 -0.10482365 -0.47853565 -0.13942295 0.03511075 -0.1468526 0.48610708 -0.09102859 -0.36993825 0.06810989 -0.10264067 0.37709618 0.13158832 0.43332958 0.13401908 -0.2185221 0.12562765 -0.08076832 -0.29937965 -0.50756574 0.096589796 0.46126738 -0.44596148 0.11679298 0.18091266 -0.010196018 0.37540895 -0.20113254 -0.3190487 -0.2565092 -0.061258063 0.60879815 -0.23474596 -0.13818887 0.41605183 0.15603097 0.13320075 0.18069455 -0.28984123 -0.3109112 -0.03894339 -0.029534142 -0.10602544 0.36750746 0.15081882 0.3680726 0.35790184 -0.022297861 -0.13852896 -0.68042207 0.0062829307 -0.36029768 -0.19668749 -0.43324673 0.005524082 0.1630046 -0.07766081 -0.023566816 0.36441708 -0.19840623 0.4717621 -0.07693824 -0.026946839 0.117195256 -0.058947627 0.33534732 0.115404084 -0.2509339 0.12015356 0.1300568 0.07720685 -0.30013427 -0.029717322 0.18909228 0.013194173 -0.51978666 -0.32651803 -0.026024047 0.052822385 0.08544078 -0.31379938 0.31059092 0.065842316 -0.08495816 -0.20903257 -0.12190803 -0.051752545 -0.02276384 -0.101724274 -0.25309062 0.13158253
NTT 0.06617412 0.22379132 0.002759254 0.1634058 0.24626406 -0.20058703 0.4451622 0.2646147 -0.47143754 0.20391619 -0.22420904 -0.042764336 0.043445416 0.16556412 -0.0538373 -0.25288436 -0.5279542 -0.20322268 0.21246335 0.4861217 -0.2867483 -0.19970246 -0.054822385 -0.04039741 0.004411974 -0.19332263 0.08184592 -0.1589849 -0.34442562 -0.06824525 -0.24100693 -0.45059374 -0.25167874 -0.032819077 -0.1202334 -0.050153416 0.1353113 -0.26655862 -0.05775731 -0.119847864 0.48765776 -0.22115013 -0.045364834 -0.25685444 -0.025405286 -0.15750259 -0.13219249 -0.23653835 0.207923 -0.05551791 0.21296111 -0.20357163 -0.024360402 -0.0820529 0.0031872673 0.21468328 0.15345128 0.1431678 -0.2595721 0.06461452 0.3879614 -0.15402469 0.044708744 -0.034744404 -0.048647884 0.36677563 0.089882866 -0.10351359 0.072660364 0.3284253 -0.24630682 0.031773243 -0.24637417 -0.097966574 0.35647723 -0.09027414 0.005135933 0.29425243 0.11355007 -0.09528484 -0.31414896 0.15024246 -0.5166083 -0.100587554 -0.4589534 -0.404409 0.17778473 0.22757548 0.16331804 0.008989828 0.27769935 0.5328354 -0.4648551 0.26925343 0.62024707 0.010680941 0.24301723 -0.5383093 0.17977925 -0.2566228
LAV 0.19794658 0.043877926 -0.012769019 0.0010234768 0.48291823 0.28667656 -0.10380378 0.44241354 -0.28710246 0.2044437 -0.7087653 0.055362515 -0.078911476 0.22880223 -0.050277732 -0.2431821 -0.24750717 -0.30841538 -0.012525992 0.062257256 -0.25010678 -0.093691066 -0.08384784 0.07346418 -0.017763302 -0.27264872 0.06151571 -0.18687889 0.011662717 -0.13505399 0.22071588 -0.57229805 0.3080505 -0.04257748 -0.39953554 0.08111078 -0.12674187 -0.3964244 0.44479915 -0.172175 0.27538007 -0.36465198 -0.20174766 0.04399795 0.1533868 0.08938013 0.3589166 -0.2956859 0.4168508 0.09521966 0.12361578 -0.07622081 0.044708863 -0.07173914 -0.09143104 0.1145894 0.26494172 0.19171879 -0.23070005 0.23428926 -0.086296424 0.07642086 -0.15206416 -0.13517748 0.09520495 0.6321452 0.32337582 0.02347933 -0.103573136 0.26795998 -0.004773074 0.12597945 0.049010843 -0.05195818 0.045619227 -0.021336218 -0.21932776 0.43620452 0.15852827 0.38753211 -0.001632902 0.08826729 -0.3774713 0.06373108 -0.55784816 -0.21851209 0.040511936 0.27336928 0.46699208 0.042706788 0.34695813 0.1185097 -0.3530525 0.020043913 0.039065506 0.06292358 0.3502286 -0.1840918 -0.20254326 -0.43678442
TVD 0.5128183 -0.41192794 -0.03962913 -0.39448318 -0.34060034 -0.52608377 -0.070168324 0.06513075 -0.08243291 0.447587 0.3090396 -0.41869622 0.16558509 -0.11398018 -0.23953862 0.45913148 -0.18913758 0.36242643 0.09546548 -0.29581794 0.3802547 0.079162076 0.53093994 -0.39770013 -0.6550122 0.09375762 -0.23013946 -0.26129913 -0.374305 0.06831943 -0.21711409 0.08257723 0.29878753 0.24099052 0.41040352 0.46045226 0.16839345 0.0018381854 -0.024716685 -0.22686459 0.5136492 -0.40130842 -0.06554252 0.39688113 0.07031365 -0.14306219 -0.040359672 -0.028931951 -0.0536973 -0.30291536 0.06244828 -0.25242344 0.47071597 0.16271108 -0.04401211 0.3009271 -0.27069163 -0.031899877 -0.3805164 0.10052968 -0.16568947 -0.27744934 -0.13854215 -0.25096372 -0.11192987 -0.09609847 -0.33471343 0.35636625 -0.2059673 0.1812703 0.047032412 -0.21352363 0.11744039 -0.21649934 0.29482675 -0.068041205 -0.05379212 0.14574549 0.20170747 0.048248727 -0.25648957 0.22217974 -0.11439953 -0.40255463 -0.5890875 0.087463096 -0.3509898 0.064700015 -0.118345276 -0.18465826 0.4536512 0.1404353 -0.27070567 -0.12533262 -0.230867 0.20087826 0.2729454 -0.22765146 0.09434181 0.2327518
